0.038781,
0.049930,
0.025625,
-0.018837,
-0.032376,
0.040413,
0.037831,
-0.034359,
-0.007341,
-0.048438,
0.025915,
-0.033132,
0.002143,
0.015732,
-0.010718,
-0.019835,
-0.004334,
0.000536,
-0.036483,
-0.005021,
0.027032,
-0.004616,
0.043430,
0.042561,
0.032441,
-0.021653,
-0.037656,
0.044597,
0.030159,
-0.018744,
0.004397,
0.018939,
-0.018814,
-0.019978,
-0.049898,
-0.001190,
-0.029565,
0.037933,
0.014452,
0.013094,
0.039495,
-0.009634,
0.029961,
-0.007958,
-0.043051,
-0.030714,
0.021803,
0.001764,
0.019779,
0.035320,
0.046744,
-0.003190,
-0.019296,
0.040173,
-0.010629,
-0.036855,
-0.031480,
0.001715,
-0.042259,
0.048679,
0.032971,
0.012139,
0.017618,
-0.035843,
0.042161,
0.017721,
0.013342,
-0.036882,
0.006846,
-0.021210,
0.028468,
0.005742,
0.047691,
0.024359,
0.041315,
0.025940,
0.025657,
0.009204,
-0.023853,
-0.005233,
-0.006055,
-0.027609,
0.041483,
0.024614,
-0.037436,
-0.019146,
0.037759,
-0.018916,
0.032569,
0.045595,
-0.019786,
0.070442,
0.119772,
0.194668,
0.075613,
-0.025846,
-0.344535,
-0.358343,
0.296690,
0.204950,
-0.091486,
-0.486345,
-0.378390,
-0.144572,
0.000500,
-0.032254,
-0.015037,
0.024635,
-0.038009,
-0.012602,
-0.036697,
0.005191,
0.009789,
-0.045214,
-0.020195,
0.019765,
-0.029784,
0.006321,
-0.251604,
-0.272836,
-0.463264,
0.029162,
-0.164080,
0.538860,
-0.044996,
-0.217367,
0.147730,
-0.080495,
-0.153263,
-0.110173,
0.082996,
0.012572,
0.378173,
0.397915,
0.342190,
0.088054,
0.005221,
-0.022817,
0.033355,
-0.003683,
0.013212,
0.046658,
-0.048194,
-0.129680,
-0.171100,
-0.161794,
-0.152393,
-0.439907,
0.126965,
0.377656,
0.021916,
-0.185079,
0.017257,
0.152804,
0.516397,
0.115451,
-0.394682,
0.549905,
0.168505,
0.487252,
0.822625,
0.382759,
0.641945,
0.202421,
0.223469,
0.057189,
0.022488,
0.042119,
-0.025330,
0.005121,
-0.008856,
-0.205844,
-0.409943,
-0.227654,
-0.330616,
-0.312632,
0.336794,
-0.550604,
-0.530978,
-0.264291,
-0.157350,
-0.213675,
0.282892,
-0.062778,
0.011962,
-0.047045,
0.414374,
-0.067789,
-0.227052,
0.372505,
0.138251,
0.293907,
0.643002,
0.145521,
0.013683,
0.040285,
0.029567,
-0.055719,
0.078976,
-0.476705,
-0.336707,
0.461752,
0.012737,
0.094760,
0.287466,
-0.155460,
0.337729,
0.601711,
-0.484201,
0.537943,
-0.724945,
0.196731,
0.301746,
-0.324276,
-0.141713,
-0.199010,
-0.444122,
0.825116,
-0.114108,
0.331986,
0.725462,
0.463901,
-0.025268,
-0.008508,
0.027522,
0.049794,
0.040874,
-0.357311,
-0.436714,
-0.029736,
-0.015999,
-0.169660,
0.464283,
0.493766,
-0.256417,
0.309509,
-0.432357,
0.018533,
0.351351,
0.130262,
-0.294238,
-0.103990,
-0.243422,
-0.168333,
-0.082886,
0.375779,
0.192140,
0.313323,
0.886503,
0.281100,
0.025839,
0.038604,
0.005823,
0.065564,
-0.004171,
-0.324623,
0.167825,
-0.147804,
-0.124243,
-0.124343,
0.091195,
-0.151231,
0.015000,
0.784779,
-0.262238,
0.313408,
0.004387,
-0.218354,
-0.205640,
-0.132660,
0.154984,
-0.046245,
-0.433282,
-0.798453,
0.054447,
0.686530,
0.989186,
0.340175,
0.015990,
-0.042802,
-0.007038,
-0.007168,
0.038266,
-0.170006,
0.102446,
-0.039179,
-0.552834,
-0.004695,
0.651980,
0.628482,
1.000200,
0.843105,
0.442336,
0.053716,
0.187343,
-0.496499,
-0.365910,
-0.284556,
-0.139916,
-0.350813,
-0.083045,
-0.245034,
-0.130793,
0.224175,
0.321817,
0.046927,
0.034533,
0.020850,
0.000683,
0.001287,
0.057990,
0.001169,
0.210897,
0.431560,
0.218376,
0.277541,
1.017304,
0.080643,
0.378473,
0.359975,
0.310587,
0.737846,
-1.064454,
-0.038530,
0.054904,
-0.100447,
0.277376,
-0.337526,
-0.144556,
0.262768,
-0.015664,
0.110275,
0.026107,
0.033994,
-0.019064,
0.046002,
-0.011917,
-0.017129,
0.061969,
0.083474,
0.151708,
0.500666,
1.128820,
0.330025,
0.334123,
0.136704,
0.574671,
0.136629,
-0.857093,
-0.442348,
-0.155656,
0.189680,
-0.248208,
-0.630705,
-0.326220,
-0.156066,
0.534935,
0.442023,
0.397531,
0.462195,
0.029819,
0.050447,
0.021531,
0.043957,
0.019372,
-0.013328,
0.100573,
-0.014038,
0.028460,
0.497835,
0.646041,
-0.057165,
0.257938,
0.442566,
0.106324,
0.242179,
-0.148201,
0.144060,
-0.389703,
-0.282573,
-0.277733,
-0.168904,
0.214973,
0.705748,
-0.289673,
0.826098,
0.717680,
0.317020,
0.113073,
-0.012476,
0.007595,
-0.027822,
-0.016220,
-0.004917,
0.005877,
0.002238,
0.098562,
0.404742,
0.226717,
0.252090,
-0.182651,
-0.488557,
0.249169,
-0.195888,
0.065818,
-0.294271,
0.315981,
-0.053499,
0.341167,
0.105769,
-0.203662,
0.401474,
-0.271858,
0.216728,
0.399037,
-0.065150,
0.038650,
0.002128,
0.036263,
-0.040087,
0.035294,
-0.005839,
0.007720,
0.129898,
0.429415,
0.500284,
0.936047,
0.795802,
0.560108,
-0.074925,
0.264317,
-0.098961,
-0.030322,
-0.125670,
-0.066274,
-0.054251,
-0.012488,
0.345645,
0.479079,
0.139607,
0.182083,
-0.170008,
-0.650815,
-0.243283,
-0.333235,
-0.012733,
-0.102321,
0.016680,
0.030971,
0.037568,
-0.021835,
0.171804,
0.197301,
0.129999,
0.374855,
0.392311,
0.760362,
0.388692,
0.054404,
0.394752,
-0.012243,
0.208462,
0.187819,
-0.016131,
0.150105,
-0.051946,
-0.182939,
-0.006398,
0.201145,
-0.200484,
-0.397387,
-0.107324,
-0.101628,
0.105382,
-0.028727,
0.010716,
-0.016525,
-0.028713,
-0.105366,
-0.049465,
-0.236051,
-0.194533,
-0.004080,
0.098725,
-0.006960,
0.498497,
0.953480,
0.988044,
0.624001,
0.295725,
1.157809,
-0.218233,
0.040724,
-0.122639,
-0.300891,
-1.057492,
0.560053,
-0.588621,
-0.653907,
0.429820,
0.259483,
0.114435,
0.015252,
0.041579,
-0.036940,
0.033170,
-0.004700,
-0.419035,
-0.596514,
0.088577,
0.139856,
0.325704,
0.006594,
0.332373,
0.995334,
0.220923,
0.541236,
0.962256,
0.962294,
0.565171,
0.193788,
-0.387114,
0.093817,
-0.779047,
0.192597,
-0.747875,
-0.346912,
0.594043,
0.211616,
-0.005080,
0.022524,
0.007770,
-0.028237,
-0.014887,
0.557999,
-0.000359,
-0.722974,
-1.003990,
0.180115,
0.256787,
-0.188081,
0.473281,
-0.005226,
0.313067,
0.004517,
-0.226059,
0.179555,
0.107186,
-0.158479,
0.138461,
0.212927,
0.020483,
0.172161,
0.083126,
0.165514,
0.440434,
0.229458,
0.015070,
-0.045547,
-0.003146,
-0.018406,
0.024513,
0.242126,
-0.338469,
-0.357728,
-0.852256,
-0.496228,
-0.266948,
-0.293230,
-0.056405,
0.595535,
0.254816,
0.296174,
-0.150851,
-0.007329,
-0.233573,
0.203599,
0.221453,
-0.312948,
0.294107,
-0.495900,
-0.537988,
-0.008543,
0.456152,
0.292420,
0.055792,
0.042371,
0.037108,
0.019578,
0.035111,
-0.089633,
-0.477177,
-0.880848,
0.253051,
-0.062364,
0.150614,
0.430817,
-0.042273,
0.079482,
0.264610,
0.234827,
-0.249944,
0.077046,
0.407257,
-0.176376,
-0.283408,
-0.194173,
-0.047816,
-0.057209,
-0.336335,
-0.063420,
0.090095,
0.434509,
0.020690,
0.035623,
0.047695,
-0.044620,
-0.003396,
-0.006137,
-0.211724,
-0.662282,
-0.316195,
0.084814,
0.244167,
-0.017661,
-0.123406,
0.246488,
-0.097437,
0.028423,
0.131662,
-0.193343,
-0.685089,
-0.061144,
-0.127356,
0.292995,
-0.060354,
-0.423108,
-0.049169,
0.181281,
0.060438,
0.039255,
-0.026541,
0.017506,
-0.044129,
0.027144,
-0.018472,
-0.058652,
-0.194406,
-0.782037,
-0.090911,
-0.348074,
-0.474068,
0.293152,
0.053130,
-0.472386,
-0.215293,
0.220870,
0.236545,
0.008224,
0.525021,
-0.308606,
0.143529,
0.093899,
-0.552192,
0.293169,
0.557090,
0.345886,
0.352778,
0.027660,
-0.034386,
-0.011712,
-0.049876,
-0.013511,
-0.044508,
-0.044005,
-0.394114,
-0.799012,
-0.266203,
-0.346398,
-0.623289,
-0.695733,
0.289102,
0.234033,
-0.024236,
0.237073,
-0.210438,
0.103740,
-0.103722,
0.157013,
0.638057,
-0.234028,
0.254011,
0.414977,
0.079899,
-0.077677,
0.096185,
0.072582,
0.047713,
0.046123,
-0.041924,
-0.036730,
-0.015589,
-0.041800,
-0.005161,
-0.198093,
-0.140736,
-0.114172,
-0.004779,
0.005765,
0.075929,
-0.271661,
0.245024,
-0.099552,
-0.382440,
0.291352,
0.207840,
0.567582,
0.643359,
-0.092988,
-0.055961,
0.303712,
-0.037303,
-0.216385,
-0.017567,
0.003624,
0.021250,
-0.004227,
0.048889,
0.018963,
-0.008104,
-0.043035,
0.032307,
0.052391,
0.047875,
0.144161,
0.138422,
0.063137,
0.081043,
-0.084370,
-0.001890,
0.361492,
0.376356,
0.510331,
0.282916,
0.231172,
0.055671,
-0.025111,
-0.215366,
-0.236866,
-0.088949,
0.027994,
0.010688,
0.011647,
-0.034573,
0.040941,
-0.034833,
0.036676,
-0.013286,
-0.035944,
0.005639,
0.028610,
-0.028979,
-0.012117,
0.005368,
-0.013563,
0.019863,
0.021128,
0.015545,
0.016157,
0.078124,
0.179728,
0.022102,
0.002032,
0.055442,
0.058317,
0.008389,
0.044946,
0.007239,
0.047503,
0.038973,
0.027395,
0.024007,
-0.000604,
-0.010958,
