0.012152,
-0.019134,
0.045597,
0.006755,
-0.022086,
-0.002018,
-0.007075,
-0.046908,
-0.038197,
-0.034869,
0.046836,
0.033416,
0.033209,
0.044716,
0.002539,
-0.016344,
-0.030874,
0.018463,
-0.003022,
-0.044342,
-0.044070,
0.017051,
-0.012866,
-0.009279,
0.005872,
0.042186,
0.035211,
0.048499,
0.029195,
0.046875,
-0.016065,
-0.008652,
-0.022259,
-0.020467,
0.048103,
0.005655,
0.027879,
-0.008117,
0.010305,
0.043992,
0.015177,
0.031159,
0.036414,
0.008536,
0.005556,
-0.024141,
0.023297,
0.020622,
0.048011,
-0.028939,
0.025085,
0.049666,
0.037054,
-0.037782,
-0.009613,
-0.007074,
-0.045596,
-0.024402,
-0.008575,
0.033599,
-0.027413,
0.025373,
-0.025053,
0.000497,
-0.043560,
-0.023966,
-0.037454,
0.041080,
0.053991,
0.119077,
0.141806,
0.056389,
0.113978,
0.179664,
0.122901,
0.083693,
0.037255,
-0.013938,
-0.009212,
0.013965,
0.002847,
-0.034986,
0.013133,
-0.010317,
-0.022768,
-0.046480,
0.032609,
-0.018364,
-0.020870,
-0.025876,
-0.033389,
0.004616,
0.055829,
0.001555,
-0.028784,
-0.006288,
0.332821,
0.294513,
0.404776,
0.361164,
0.374598,
0.347862,
0.261391,
0.250602,
0.095924,
0.004344,
0.019636,
0.024133,
-0.009782,
-0.047071,
-0.013925,
0.042405,
-0.032057,
0.049208,
-0.017913,
-0.004707,
-0.040949,
-0.021971,
0.054674,
0.049870,
0.076520,
0.159447,
0.274395,
-0.078853,
0.167837,
0.573531,
-0.029280,
-0.117614,
0.653120,
1.249768,
1.074536,
0.777775,
0.495603,
0.328956,
0.223701,
0.114489,
0.075357,
-0.028807,
0.013012,
-0.032762,
-0.026362,
0.049087,
-0.040208,
-0.006249,
0.081710,
0.081838,
0.199242,
0.296005,
0.443684,
0.516161,
0.833074,
0.032101,
-0.429796,
-0.161387,
0.628359,
0.442980,
0.870560,
0.575933,
0.930569,
0.411791,
0.883853,
1.136622,
0.701533,
0.465609,
0.208810,
-0.014339,
0.033087,
0.003885,
-0.011903,
-0.004261,
0.026947,
0.038240,
0.101075,
0.389027,
0.724544,
0.623400,
0.885474,
0.599988,
-0.265054,
-0.089485,
-0.282868,
-0.157345,
-0.104117,
-0.483169,
-0.080387,
-0.791581,
-0.335032,
-0.094590,
0.308322,
1.149477,
1.301082,
0.792814,
0.434660,
0.188371,
0.065443,
0.045426,
0.016856,
0.016500,
-0.031549,
0.001094,
0.209153,
0.632898,
0.815987,
0.629738,
0.046142,
0.494954,
-0.198611,
-0.114061,
0.378211,
-0.911516,
-0.993593,
-1.603873,
-1.012610,
-0.453828,
0.522489,
0.013468,
-0.022289,
-0.160293,
0.391662,
0.739046,
0.717868,
0.603330,
0.219582,
0.061627,
-0.003908,
-0.044570,
0.006572,
0.056783,
0.392850,
0.647004,
0.810591,
0.234773,
0.284545,
0.200065,
0.440482,
0.271702,
-0.008792,
-0.278974,
-0.075338,
-0.090432,
0.259450,
-0.169552,
0.183165,
-0.102166,
-0.583159,
0.013371,
0.777911,
0.782148,
0.897272,
0.718233,
0.153794,
0.019254,
0.044514,
-0.010185,
0.038588,
0.107895,
0.305100,
0.615647,
0.109555,
-0.052565,
0.571563,
-0.143179,
0.113605,
0.213410,
0.001055,
-0.225903,
-0.663789,
-0.970406,
0.818711,
-0.087012,
0.336005,
0.662826,
0.368545,
0.421914,
0.853380,
0.893202,
0.687461,
0.353422,
0.064024,
-0.007358,
0.015126,
0.022524,
0.108222,
0.448763,
0.772415,
-0.087774,
-0.195042,
0.154993,
0.171417,
0.109878,
-0.119224,
-0.379756,
0.833537,
0.471469,
-0.087023,
0.293212,
0.331804,
0.672315,
-0.147227,
-0.477401,
0.410598,
-0.124592,
0.244137,
0.453162,
0.462704,
0.048263,
0.010284,
0.017020,
0.017198,
0.064367,
0.209442,
0.715599,
1.143961,
-0.590404,
-0.463587,
-0.785921,
0.113938,
-0.635936,
-0.580403,
-0.051855,
-0.176584,
0.389304,
0.238472,
0.001721,
0.181405,
-0.687863,
-0.045951,
0.085672,
-0.840303,
-1.093756,
-0.269229,
0.045186,
0.322800,
0.171241,
0.013086,
-0.043579,
-0.046381,
0.087652,
0.215748,
0.648797,
0.384261,
-0.878560,
-0.999695,
-0.144516,
-0.572362,
0.238054,
-0.483555,
-0.231609,
-0.547791,
0.435864,
0.482493,
-0.252454,
-0.360952,
-0.970001,
0.098204,
-0.904427,
0.103293,
-0.392116,
0.067539,
0.200237,
0.163266,
0.375456,
0.019587,
-0.005713,
0.045384,
0.033608,
0.060968,
0.222405,
0.646961,
0.190610,
0.298150,
-0.604921,
-0.470200,
-0.684277,
-0.289394,
0.453729,
-0.202941,
-0.537570,
-0.133450,
-0.427331,
0.531368,
0.533646,
0.221712,
-0.978212,
0.106184,
-0.544022,
0.076038,
0.525775,
0.444611,
0.123829,
0.020160,
-0.010983,
-0.016551,
-0.000066,
0.041124,
0.012624,
0.296107,
-0.033534,
0.273597,
-0.383118,
0.209605,
0.172672,
-0.050529,
0.346616,
-0.473732,
-0.260270,
-0.054815,
-0.302247,
0.013946,
-0.272004,
0.219030,
-0.021557,
-0.180654,
-0.371977,
-0.321861,
0.760028,
0.614502,
-0.063604,
0.013710,
-0.035779,
0.006051,
-0.023763,
0.006125,
0.230391,
-0.052916,
-0.388473,
0.003193,
0.428594,
-0.412915,
0.304571,
-0.412602,
0.162323,
0.412143,
0.182663,
-0.115721,
0.443466,
-1.115371,
-0.066048,
0.440499,
0.077823,
0.349108,
-0.012136,
-0.273735,
0.918120,
0.439649,
-0.042102,
-0.001338,
-0.036569,
-0.020355,
-0.028113,
-0.007598,
0.155990,
-0.109607,
-0.050989,
0.080841,
0.447165,
0.796844,
-0.222728,
-0.369747,
-0.214908,
-0.209778,
-0.128453,
1.030473,
0.251501,
-0.278246,
0.321054,
0.301242,
0.446370,
0.972436,
0.377035,
0.609410,
0.592673,
0.717306,
0.110172,
0.160220,
0.058306,
0.040557,
0.031202,
-0.022514,
0.025404,
0.139476,
-0.004597,
0.077595,
0.511484,
-0.205137,
-0.553821,
-0.116688,
0.209686,
0.411554,
-0.293778,
-0.104993,
-0.103116,
0.478482,
0.184062,
-0.543218,
0.320275,
0.146895,
0.650461,
0.685992,
0.713616,
0.538427,
0.110019,
0.146487,
-0.000021,
0.020880,
-0.001386,
0.010254,
-0.003845,
0.342249,
0.736772,
0.269299,
0.246392,
0.234357,
-0.014895,
-0.194188,
-0.484661,
-0.009043,
0.669681,
0.396427,
0.208154,
-0.210568,
-0.529328,
0.252712,
-0.280680,
-0.325587,
0.440082,
0.413682,
0.434893,
0.191225,
-0.020934,
0.077413,
0.051674,
0.046822,
0.025593,
0.055011,
-0.053812,
0.487072,
0.834078,
0.461917,
0.004346,
-0.458888,
0.132821,
0.404895,
0.228273,
0.231498,
0.337465,
-0.392208,
0.791001,
0.173175,
0.169899,
0.982751,
-0.283671,
-0.018762,
0.391004,
0.107575,
0.232735,
-0.218319,
-0.003997,
0.004357,
0.024528,
-0.007848,
-0.029943,
0.068828,
-0.026073,
0.295244,
0.715467,
0.070917,
-0.566280,
0.850021,
0.748974,
0.831972,
0.461688,
0.723596,
0.837190,
0.348441,
0.778535,
0.316353,
0.751830,
0.164102,
-0.643376,
0.116719,
0.414623,
-0.202523,
0.065535,
-0.484139,
-0.042678,
0.037191,
-0.037033,
-0.006401,
-0.009741,
0.066686,
0.179188,
0.144049,
0.497263,
0.276821,
-0.200103,
0.553426,
0.494712,
-0.073731,
0.674977,
0.088498,
0.232595,
0.524235,
-0.047939,
0.818805,
0.540734,
0.035834,
-0.235833,
0.383099,
0.522464,
-0.143667,
-0.036231,
-0.233741,
0.047855,
-0.044355,
0.032436,
-0.016982,
0.040796,
0.054947,
0.050291,
0.071934,
0.340069,
0.632335,
0.206770,
-0.169929,
0.242100,
-0.230158,
-0.153908,
0.142313,
0.038103,
0.164813,
0.578740,
0.594723,
0.147855,
0.524140,
0.545185,
0.311033,
0.416237,
-0.027601,
0.085585,
-0.018681,
0.144617,
-0.019742,
-0.028555,
0.007292,
-0.019220,
-0.036644,
0.074994,
0.038847,
0.001974,
0.423492,
0.305209,
-0.015965,
0.431221,
1.082775,
0.444748,
0.798792,
0.153625,
0.409097,
0.427904,
0.401792,
0.926003,
0.428489,
0.385125,
0.021156,
0.058145,
-0.449351,
-0.054565,
-0.004485,
0.057334,
0.034301,
-0.042830,
-0.025573,
0.045358,
-0.021386,
0.089998,
0.086484,
-0.219637,
0.011515,
0.225194,
0.097492,
0.405591,
-0.203306,
0.399813,
0.138864,
0.595313,
1.252805,
0.107549,
-0.144664,
0.205116,
0.377962,
0.284229,
-0.302391,
-0.406350,
-1.015245,
-0.427661,
-0.003075,
-0.041671,
-0.019578,
-0.011437,
-0.045254,
0.049728,
-0.004267,
-0.008750,
0.117368,
0.184864,
-0.076852,
0.565284,
0.066572,
0.013850,
0.288381,
-0.173328,
-0.269033,
-0.324754,
0.024178,
-0.185270,
-0.074533,
-0.972080,
-1.210934,
0.104888,
-0.790357,
-0.706078,
-0.517100,
-0.239718,
-0.117888,
-0.012912,
0.025882,
0.044582,
-0.004583,
-0.043695,
-0.016855,
-0.010945,
-0.135698,
-0.014797,
-0.124221,
0.151604,
-0.155723,
-0.252085,
0.520035,
0.530912,
0.611216,
0.060623,
-0.545319,
0.138131,
0.379642,
-0.151376,
0.063887,
0.434187,
-0.555392,
-0.198439,
-0.358371,
-0.157415,
0.004162,
-0.026980,
-0.000725,
0.038532,
0.010108,
-0.024842,
0.033114,
-0.044476,
-0.018538,
0.168696,
0.278578,
0.129181,
0.118200,
0.024941,
0.200708,
0.165862,
0.248522,
0.331522,
0.031481,
-0.027158,
0.095810,
0.047900,
-0.042911,
-0.135914,
-0.016794,
0.341756,
0.236701,
0.049546,
-0.011550,
-0.039523,
-0.045132,
0.042612,
