-0.474563,
-0.023970,
-0.313950,
0.137593,
-0.434709,
-0.086467,
-0.474387,
-0.399656,
-0.196746,
-0.221554,
0.355119,
0.073851,
0.215939,
0.482895,
0.427367,
-0.492020,
-0.017296,
0.225565,
-0.205943,
0.074596,
0.117172,
-0.226849,
-0.107363,
0.033647,
-0.373682,
0.229517,
0.286815,
0.472328,
0.026310,
-0.084293,
0.146386,
0.051747,
0.391737,
0.332436,
-0.310659,
0.457028,
-0.254031,
-0.285047,
-0.442628,
0.049223,
-0.006601,
0.412490,
-0.376926,
-0.290662,
0.395385,
-0.449559,
-0.282682,
-0.121911,
0.276006,
0.011375,
0.452685,
-0.106822,
0.284525,
-0.154678,
0.426825,
0.410843,
-0.425161,
0.213640,
0.383171,
0.101149,
-0.370653,
0.029557,
-0.347104,
-0.478916,
-0.138007,
-0.157763,
0.478111,
0.107963,
0.057190,
-0.464517,
-0.342814,
-0.449411,
0.447973,
-0.219740,
-0.240073,
0.343358,
-0.169299,
-0.022755,
-0.278552,
-0.393293,
0.488620,
-0.325867,
-0.000116,
0.273145,
0.019454,
-0.073291,
0.183988,
0.094293,
-0.359651,
0.067160,
-0.304558,
-0.230304,
-0.403283,
-0.151662,
-0.209221,
-0.041290,
0.190575,
-0.231110,
-0.433327,
-0.252234,
-0.195627,
-0.276141,
-0.201645,
-0.247654,
0.004119,
0.058282,
-0.404296,
0.334820,
-0.464473,
-0.182848,
0.441527,
-0.475853,
-0.008715,
-0.058589,
0.297292,
-0.489261,
0.368120,
-0.018720,
0.105032,
-0.491531,
-0.451560,
0.300474,
-0.221836,
-0.354843,
-0.351187,
0.068943,
0.103867,
0.339388,
0.337833,
0.170539,
-0.412846,
-0.357794,
0.394399,
-0.114491,
-0.105447,
-0.101482,
0.443790,
-0.009743,
-0.266662,
0.479317,
0.307409,
-0.325136,
-0.496536,
-0.201306,
0.116275,
0.300756,
-0.190567,
-0.015606,
-0.217964,
0.414465,
-0.007137,
-0.169524,
0.214940,
0.271027,
-0.024368,
0.363753,
-0.160029,
-0.420501,
0.203141,
-0.322196,
0.250039,
0.290295,
-0.179989,
0.144437,
-0.324197,
0.214563,
-0.457045,
-0.380406,
-0.295180,
-0.223708,
-0.401089,
-0.487771,
-0.048843,
-0.397625,
-0.189077,
-0.432569,
0.403130,
0.120357,
0.051826,
-0.314834,
0.034822,
-0.455311,
0.015642,
-0.250238,
0.315717,
0.491274,
-0.386486,
-0.344313,
-0.429227,
0.316655,
-0.166509,
0.320812,
0.106950,
0.153502,
-0.034751,
0.282753,
-0.131935,
0.008204,
0.402347,
0.072885,
0.284496,
-0.498742,
0.085115,
-0.264347,
-0.396367,
0.396038,
-0.196916,
-0.493237,
0.016395,
0.354910,
-0.308071,
-0.448783,
0.399599,
0.207571,
-0.199021,
0.215316,
0.198845,
-0.085507,
0.371003,
0.269619,
-0.268852,
-0.295505,
0.090430,
0.338098,
0.357997,
-0.444320,
0.120851,
-0.273938,
0.063883,
0.023198,
0.298947,
-0.151621,
0.024456,
-0.115938,
0.084032,
0.128089,
-0.219900,
0.387117,
0.134852,
0.296494,
0.242027,
0.326781,
0.347711,
0.141626,
0.034352,
-0.351310,
-0.143058,
-0.266803,
0.063183,
-0.272055,
-0.497184,
0.294331,
-0.067560,
0.093246,
0.132429,
-0.209563,
0.148926,
-0.246720,
0.016498,
-0.287191,
0.276479,
-0.184555,
0.061188,
-0.199065,
0.199507,
-0.354779,
0.429023,
0.479606,
-0.467662,
0.063875,
0.276100,
0.274365,
-0.109345,
0.123811,
-0.084009,
0.425007,
0.272501,
0.272933,
-0.341796,
-0.164316,
-0.499121,
-0.338981,
-0.369985,
-0.066681,
0.254266,
0.262444,
0.223755,
-0.096809,
-0.484275,
-0.259747,
0.116000,
0.292203,
0.055699,
-0.322812,
-0.406862,
-0.244795,
-0.177591,
-0.477839,
-0.265189,
-0.145253,
0.086035,
-0.489089,
-0.370889,
0.476691,
0.134723,
0.045102,
0.401698,
-0.092776,
-0.181964,
-0.440098,
0.242907,
-0.181085,
-0.279079,
0.372922,
0.252233,
0.475187,
0.135366,
-0.024011,
-0.121622,
0.151091,
0.216242,
0.494378,
-0.056706,
-0.228059,
-0.328434,
0.036432,
0.027146,
-0.006024,
0.058592,
0.261957,
0.348722,
-0.355372,
0.272868,
0.477834,
-0.378681,
-0.092409,
0.022936,
-0.476984,
0.314815,
0.340972,
-0.417082,
0.057722,
-0.340114,
-0.196161,
-0.069356,
0.412119,
-0.220974,
-0.433989,
-0.111892,
0.157403,
0.217102,
-0.395650,
0.151781,
-0.339605,
-0.123709,
0.323348,
0.196827,
0.403437,
-0.182677,
-0.244580,
0.165394,
-0.333955,
-0.099952,
-0.061738,
-0.356121,
0.021366,
0.345853,
0.166815,
0.044383,
0.160668,
0.007786,
0.127301,
-0.281610,
0.167672,
0.431140,
0.149034,
0.079792,
-0.289834,
0.215045,
0.467900,
0.367569,
-0.067853,
-0.427750,
0.019350,
0.092542,
-0.051458,
-0.157302,
-0.210631,
-0.148022,
0.160021,
0.044789,
-0.482628,
0.326066,
0.444836,
-0.044366,
0.469945,
-0.033797,
-0.198513,
0.136760,
-0.489415,
0.462155,
-0.355454,
0.137886,
-0.319455,
0.312218,
0.069026,
0.329579,
-0.107990,
0.279191,
0.044624,
-0.140090,
0.146760,
0.476771,
-0.067840,
-0.333889,
0.069313,
0.380702,
0.008808,
0.358682,
-0.267320,
-0.331171,
-0.096529,
-0.249948,
0.494895,
-0.151693,
0.205687,
0.464840,
0.314510,
-0.492826,
0.101599,
0.325095,
0.469329,
0.246145,
-0.037019,
-0.350126,
0.058363,
-0.467993,
0.479453,
0.450373,
0.311199,
0.024077,
-0.189717,
-0.042041,
0.000848,
0.242443,
0.124070,
-0.429839,
0.123145,
-0.367122,
0.428843,
0.355825,
-0.198293,
-0.167686,
-0.394123,
-0.203398,
0.180621,
0.311564,
-0.238558,
-0.004869,
0.318737,
0.363042,
-0.179774,
0.288066,
0.109187,
0.283207,
0.437940,
-0.332450,
0.315214,
0.417393,
-0.382077,
0.126413,
-0.058529,
-0.071795,
-0.415628,
0.442319,
-0.329352,
0.208442,
-0.487520,
0.293793,
0.341320,
0.441324,
0.149617,
-0.356973,
-0.226362,
0.255494,
-0.060371,
0.454259,
0.067058,
0.201071,
-0.050610,
-0.114205,
0.064112,
0.269615,
-0.326138,
-0.326701,
0.052822,
-0.388198,
-0.159151,
-0.131963,
-0.470805,
-0.041228,
0.494449,
-0.029335,
0.386977,
-0.421179,
-0.087016,
-0.442375,
0.287263,
-0.074536,
0.351418,
0.128583,
-0.133212,
0.001035,
0.271609,
0.140426,
-0.243471,
-0.288762,
0.094684,
0.323587,
0.412309,
-0.455926,
-0.290618,
-0.023578,
0.313690,
-0.116756,
0.149721,
-0.133488,
-0.004954,
0.490570,
0.234549,
0.024240,
-0.050659,
0.228998,
0.494905,
-0.163682,
0.307820,
-0.092110,
-0.106057,
0.095083,
0.333354,
-0.254639,
-0.276335,
-0.299858,
0.246396,
0.495275,
0.340567,
-0.497074,
-0.293487,
-0.064748,
0.326513,
-0.381178,
-0.020674,
-0.464105,
0.095243,
-0.206985,
-0.080861,
-0.255036,
0.159527,
0.414185,
-0.264466,
-0.105924,
-0.061575,
0.184875,
-0.376926,
-0.066669,
-0.478807,
0.430894,
0.341220,
-0.084863,
0.025976,
0.174574,
0.160498,
0.249642,
0.374716,
-0.093106,
0.244916,
0.215283,
-0.090180,
0.451429,
-0.349465,
-0.263667,
-0.429749,
0.129861,
-0.227772,
0.165494,
0.422876,
0.191367,
0.410459,
0.082403,
0.105552,
-0.354008,
0.476479,
-0.456022,
0.330867,
-0.400446,
-0.022692,
0.352060,
-0.469553,
-0.181471,
-0.232803,
0.056424,
0.493102,
0.427695,
-0.193935,
0.367818,
-0.165411,
-0.449019,
0.083101,
0.244408,
-0.497590,
0.233636,
0.480741,
-0.427339,
-0.136504,
-0.247031,
0.238156,
-0.213628,
0.444336,
0.148614,
0.368776,
0.049889,
0.294606,
0.345255,
0.093867,
0.125473,
0.444809,
-0.428825,
-0.022466,
0.475256,
-0.110297,
0.244730,
0.031680,
-0.117194,
0.172425,
0.337745,
-0.249376,
-0.492986,
0.388727,
0.333725,
0.251422,
0.391137,
0.067361,
0.232163,
0.463799,
0.430858,
0.485132,
0.201954,
-0.282770,
0.429469,
-0.149432,
-0.413994,
-0.020642,
-0.354825,
0.431261,
-0.426776,
0.270648,
0.376070,
-0.355601,
-0.251818,
0.351327,
0.034102,
0.492912,
-0.116993,
0.416908,
0.165337,
-0.279248,
-0.332468,
0.172351,
-0.390521,
-0.498743,
-0.076227,
-0.499384,
0.068618,
-0.344064,
0.464415,
-0.000524,
-0.358932,
0.166369,
0.216706,
-0.429463,
-0.483063,
0.302712,
0.049894,
-0.337888,
0.233973,
0.123118,
0.432760,
0.110043,
0.267517,
-0.319059,
-0.038630,
-0.198381,
-0.326146,
0.344377,
-0.281473,
0.339191,
-0.434871,
-0.113941,
0.011541,
-0.325392,
-0.112683,
0.435314,
-0.324776,
0.455935,
-0.408750,
-0.360361,
-0.044589,
-0.267681,
0.306008,
-0.327883,
-0.197145,
0.322945,
0.474829,
0.352750,
0.485057,
0.208802,
-0.024132,
0.417817,
-0.181155,
-0.256615,
-0.401242,
0.280215,
0.045005,
-0.227388,
0.124592,
0.263532,
-0.388197,
0.189720,
-0.350409,
0.123344,
0.364328,
0.036908,
0.058658,
-0.460447,
-0.007157,
0.149909,
-0.320808,
0.448254,
0.382227,
0.485200,
-0.379629,
-0.314918,
0.308145,
-0.404801,
-0.462168,
0.293202,
0.304001,
0.013700,
0.211019,
-0.377154,
0.257085,
0.309777,
0.403061,
-0.197910,
-0.417611,
0.027653,
-0.434378,
-0.305809,
-0.282627,
-0.284787,
0.317535,
-0.418298,
0.252121,
-0.123806,
-0.378746,
-0.255036,
-0.473898,
-0.199554,
-0.306783,
0.408329,
-0.214355,
-0.186412,
-0.406588,
-0.406210,
-0.091213,
-0.368756,
0.386992,
-0.287212,
0.144944,
0.098011,
-0.164365,
-0.097971,
-0.092212,
-0.261304,
