-0.034392,
-0.016440,
0.032327,
0.049890,
0.038301,
0.028684,
-0.046851,
-0.021503,
0.014726,
-0.031555,
-0.040500,
-0.003955,
-0.023438,
-0.038287,
-0.029601,
0.035833,
0.034395,
0.040059,
0.020650,
-0.029370,
0.033997,
-0.018949,
0.003516,
-0.029733,
-0.041198,
0.013595,
0.036419,
-0.033641,
-0.004013,
-0.011745,
0.000735,
0.011594,
0.021815,
-0.016935,
0.011702,
0.010667,
-0.037225,
0.016129,
0.041087,
0.029833,
0.036544,
0.051192,
-0.024370,
-0.034984,
-0.032309,
-0.003809,
0.049095,
0.047029,
-0.015388,
0.018026,
-0.033565,
-0.032978,
0.047122,
0.018182,
-0.012846,
-0.044075,
-0.018223,
-0.026427,
-0.027717,
0.027763,
0.011850,
0.023101,
-0.009729,
-0.012770,
-0.033536,
-0.028899,
0.101369,
0.059652,
0.173663,
0.232793,
0.515287,
0.399469,
0.457775,
0.258930,
0.260335,
0.295083,
0.055567,
0.019527,
0.039361,
0.089839,
0.036854,
0.080389,
-0.040580,
-0.033241,
0.017010,
-0.003426,
-0.027254,
0.048850,
0.020261,
-0.003581,
0.033582,
0.018896,
0.038484,
0.105478,
0.264923,
0.583369,
0.836867,
1.101964,
1.733622,
1.846429,
2.341456,
2.954667,
2.559951,
1.896736,
0.762818,
0.384919,
-0.069996,
-0.177487,
-0.033112,
0.063286,
-0.044657,
0.012128,
0.045342,
-0.035398,
0.024722,
0.013737,
0.027129,
0.054885,
0.253890,
0.317099,
0.417989,
0.450971,
0.541012,
0.549589,
0.644392,
0.571532,
0.868455,
0.644807,
1.008221,
1.780938,
1.688010,
1.558506,
1.726818,
2.118176,
1.784456,
1.027557,
0.181061,
-0.009512,
-0.027582,
-0.034264,
0.011135,
-0.012492,
0.027757,
0.052161,
0.120392,
0.364257,
0.608260,
0.766542,
1.087562,
0.920342,
1.453629,
0.905509,
0.288544,
0.091998,
-0.589292,
-0.259505,
-0.357915,
-0.860913,
-0.244746,
0.169184,
1.111071,
1.416961,
1.711910,
1.869749,
1.302941,
0.238826,
0.136137,
0.014709,
0.022041,
-0.043824,
0.029456,
0.157043,
0.254313,
0.543333,
1.069396,
1.205194,
0.538042,
0.625067,
1.030267,
0.135989,
-0.170746,
0.130967,
0.689712,
-0.258455,
0.128259,
-0.357808,
0.830208,
-0.339947,
0.567440,
0.114917,
0.395989,
0.606908,
1.304174,
0.833237,
0.372236,
0.066175,
0.036133,
0.080384,
0.088303,
0.275682,
0.349952,
0.630134,
0.748617,
0.227140,
-0.683413,
0.309374,
-0.114481,
0.374023,
0.689316,
0.325737,
0.698688,
-0.237959,
0.709923,
0.964972,
0.325092,
1.416229,
-0.588772,
-0.365220,
-0.697271,
-1.079039,
0.638158,
1.684923,
0.664994,
0.070694,
0.020093,
0.057117,
0.160814,
0.495064,
0.317484,
0.259704,
-0.572173,
-1.133999,
0.081823,
-0.823146,
-0.229127,
0.397201,
-0.077464,
0.216672,
0.842998,
0.212466,
-0.193258,
0.871520,
0.967240,
-0.440845,
0.286165,
-0.342615,
-1.542107,
-1.202182,
0.546091,
1.654308,
0.233952,
-0.014698,
0.003655,
0.085826,
0.242985,
0.627788,
0.432952,
-0.081697,
-0.754151,
-0.953455,
-0.832939,
-0.691563,
-0.619719,
-0.445795,
0.318238,
0.482269,
1.340536,
2.139801,
0.944752,
0.327071,
0.626397,
-0.162735,
-0.505718,
-1.093784,
-1.319528,
-1.331691,
0.619348,
1.566444,
0.167373,
0.094298,
-0.007823,
0.080125,
0.184044,
1.004041,
0.391137,
0.104848,
-0.960485,
-0.880023,
-0.976459,
-0.437556,
-1.307351,
-0.970564,
-0.785850,
0.819893,
2.684302,
3.021809,
2.030617,
0.532534,
-0.115410,
-0.515528,
-0.218558,
-1.040515,
-1.421958,
-1.681642,
0.359225,
1.397442,
0.401421,
-0.012488,
0.023599,
0.022755,
0.182268,
0.645059,
0.743817,
-0.219854,
-1.340762,
-1.324057,
-1.042107,
-0.995756,
-0.897166,
-0.823131,
-1.497045,
-1.390328,
-0.230934,
1.178207,
1.234940,
0.962363,
-0.288218,
0.067889,
-0.061861,
-0.582167,
-1.798154,
-1.655079,
-1.435402,
0.202159,
-0.198872,
0.042881,
0.023728,
-0.037966,
0.032087,
0.068343,
0.626658,
-0.386648,
-0.948230,
-0.854386,
0.163427,
-0.329890,
0.657513,
0.394859,
-0.827003,
-1.432082,
-0.191411,
-0.385007,
-0.264194,
-0.007798,
-0.184388,
-1.783616,
-1.179224,
-1.503072,
-1.436677,
-1.444801,
-1.098260,
-0.161093,
0.046007,
0.098540,
-0.046631,
-0.031596,
0.083903,
0.101812,
0.639778,
0.447519,
0.577917,
0.485852,
0.492313,
0.256654,
2.151762,
0.035900,
-1.525843,
-0.880650,
1.474357,
-0.850948,
-0.360976,
0.804863,
0.207058,
0.189685,
-0.273290,
-0.101787,
-0.016118,
0.498875,
0.553770,
0.371199,
0.143362,
0.128839,
-0.031489,
0.045110,
0.052414,
0.105845,
0.954364,
1.423414,
2.273272,
2.553555,
2.416276,
2.449853,
1.936901,
-1.753678,
-0.656964,
-0.680799,
0.658044,
-0.008617,
-0.379040,
0.748560,
1.117155,
1.550909,
1.461417,
1.181838,
2.095307,
2.188720,
1.365507,
0.399354,
0.078169,
-0.019535,
-0.029322,
-0.028231,
-0.022922,
0.102315,
0.749852,
1.761609,
2.861278,
2.600358,
2.255007,
1.404779,
0.093441,
-0.512354,
0.037933,
-1.558859,
0.589570,
-0.210582,
-0.238902,
1.734933,
1.476996,
1.540175,
2.014295,
1.901875,
1.879478,
1.763266,
1.027993,
0.388875,
0.088823,
-0.019377,
0.020983,
0.003729,
0.027740,
0.104791,
0.811105,
1.796121,
1.923873,
0.977672,
0.858191,
-0.114760,
-0.600804,
-0.093757,
-0.792431,
-0.000626,
1.362835,
-0.161187,
0.423352,
1.504811,
1.867987,
1.717549,
1.358901,
1.513179,
1.544342,
0.514875,
0.806092,
0.791224,
0.261130,
-0.020145,
0.015939,
0.043357,
0.010416,
0.138914,
0.880667,
1.806048,
1.617887,
-0.616732,
-0.895562,
-1.246086,
0.257419,
-0.779950,
-2.508573,
-0.046992,
0.243031,
0.744393,
0.471480,
1.139758,
1.118893,
0.996086,
0.324441,
0.848496,
0.465475,
0.190980,
0.584828,
1.262832,
0.233963,
-0.004787,
0.035540,
0.021565,
0.041590,
0.507590,
1.460011,
1.521687,
1.249999,
0.001924,
-0.893835,
-1.147604,
-1.413219,
-1.681432,
-0.368331,
0.595454,
1.277120,
0.869327,
0.921363,
0.722090,
0.299651,
0.508532,
0.547103,
0.911181,
0.089413,
0.968411,
1.706074,
1.337730,
0.072077,
0.031031,
0.044060,
-0.019685,
0.013081,
0.890398,
1.648275,
1.042012,
1.013797,
0.283261,
-0.479561,
-1.335415,
-1.105603,
-0.046401,
0.553362,
2.184530,
1.727361,
0.676406,
0.129723,
0.218305,
0.798602,
0.728794,
0.220974,
0.475537,
-0.385869,
0.425190,
1.875445,
1.108224,
0.192011,
0.010622,
-0.012597,
0.034412,
0.044898,
1.207542,
1.937870,
0.757280,
0.256575,
-0.985557,
0.452036,
0.923709,
0.250048,
1.782148,
0.134996,
1.462099,
1.329969,
0.323739,
1.144487,
0.779325,
0.491527,
0.336962,
0.371598,
-0.146908,
-0.803523,
0.498439,
1.944243,
0.971998,
0.215118,
0.009527,
0.045988,
0.023275,
0.070671,
0.965215,
2.085899,
0.391108,
-0.306846,
-0.037363,
0.768696,
0.466505,
0.844911,
0.774225,
0.215973,
0.111164,
0.537698,
1.080279,
0.516914,
0.515664,
0.309344,
0.321893,
-0.122595,
0.196632,
-0.146160,
1.276187,
1.524886,
0.583735,
0.124516,
0.000058,
0.006078,
0.034716,
0.142502,
0.509993,
1.729593,
1.187824,
-0.230818,
-0.039134,
1.134127,
1.133704,
0.304982,
-0.323229,
-0.772007,
-0.499732,
-0.307077,
0.288691,
0.728853,
0.455426,
0.100788,
0.648550,
0.444354,
-0.002178,
0.331991,
0.958383,
0.782816,
0.260511,
-0.034726,
-0.033669,
0.011293,
0.041688,
0.040082,
0.163793,
1.502466,
2.696017,
2.271111,
1.899570,
0.160396,
0.118129,
-0.173010,
-0.123890,
-0.644106,
-1.897594,
-0.500160,
-1.226698,
-1.120012,
-0.471021,
-0.486736,
-0.066821,
-0.315635,
-0.216337,
0.234981,
0.160466,
0.262947,
0.050936,
0.042645,
0.027143,
-0.034632,
-0.004865,
0.043587,
0.155774,
1.013661,
2.398987,
2.529889,
1.616103,
0.522355,
0.243842,
0.388046,
0.223389,
0.568884,
0.820631,
0.035676,
0.133525,
-0.387609,
0.149943,
-0.893064,
-1.396380,
-0.364846,
0.142344,
0.322101,
0.082903,
0.115243,
0.098393,
-0.027169,
-0.030787,
0.044469,
-0.009565,
0.046469,
0.007249,
0.469135,
1.041784,
1.567209,
1.992535,
2.586934,
3.322707,
2.801927,
2.665762,
2.696048,
2.375753,
1.754994,
1.399426,
1.529745,
1.075919,
1.025099,
0.633908,
0.397274,
0.368225,
0.171477,
0.021323,
0.032239,
-0.011906,
0.048036,
0.042224,
0.041567,
0.028130,
-0.038563,
0.038286,
0.143022,
0.333407,
0.688213,
0.667483,
1.067281,
1.387691,
1.302556,
1.251801,
1.364753,
1.405940,
1.391823,
1.317863,
1.183385,
1.049951,
0.670490,
0.468969,
0.224334,
0.127981,
0.028771,
0.037269,
0.043365,
0.025165,
-0.030798,
0.010161,
0.044603,
0.047048,
0.002385,
0.036170,
0.043152,
0.059064,
0.083474,
0.101703,
0.110340,
0.155423,
0.220916,
0.189907,
0.256818,
0.255641,
0.232013,
0.093826,
0.128015,
0.108566,
0.115861,
0.041567,
0.012872,
0.039013,
0.005146,
-0.005510,
-0.007373,
0.037010,
-0.038336,
-0.014564,
