0.204119,
-0.009823,
0.266349,
0.269741,
0.184368,
0.483723,
0.484954,
0.001904,
-0.434576,
0.237075,
0.378097,
-0.313321,
0.482038,
0.404200,
-0.012876,
-0.324744,
0.312529,
0.272770,
-0.011156,
0.405941,
0.366560,
0.397631,
-0.462815,
0.253552,
-0.389581,
0.182129,
-0.148437,
-0.053946,
-0.415842,
0.259351,
0.184750,
0.288277,
-0.250473,
-0.048900,
0.058018,
0.433895,
-0.065178,
0.042972,
-0.064201,
0.000247,
-0.219953,
-0.186104,
0.186925,
-0.237914,
-0.281904,
-0.325950,
-0.062659,
-0.469375,
0.446819,
0.426185,
0.436566,
0.313380,
0.323816,
0.473751,
0.066932,
0.434235,
0.155881,
0.418494,
-0.119711,
0.240039,
0.177845,
-0.434961,
0.028316,
0.427372,
0.016139,
-0.413665,
0.361267,
0.450961,
0.129307,
-0.202933,
-0.048792,
0.409354,
0.110963,
-0.361867,
-0.328560,
0.329059,
-0.187817,
0.108781,
0.359685,
-0.240998,
0.034966,
0.296251,
-0.427618,
-0.141218,
0.270003,
0.139313,
-0.206983,
-0.074117,
0.057807,
0.173306,
-0.334078,
-0.264348,
0.238345,
0.194238,
-0.336976,
-0.245516,
0.280573,
-0.475708,
-0.294555,
-0.090120,
-0.178642,
0.156653,
-0.180766,
0.432321,
0.294786,
-0.009327,
0.261380,
-0.393031,
-0.400546,
0.121065,
-0.134029,
0.134420,
-0.082684,
-0.061648,
0.493202,
-0.312681,
-0.422335,
-0.213781,
0.113202,
0.135472,
0.459525,
0.279124,
0.371125,
0.197870,
-0.026638,
-0.465851,
0.452354,
-0.246065,
-0.441560,
-0.342200,
0.163814,
-0.120201,
0.314453,
0.483048,
-0.187880,
0.109239,
-0.026278,
-0.426500,
0.216208,
0.073176,
0.194565,
-0.417822,
-0.292403,
-0.388119,
0.020530,
-0.299201,
-0.200800,
0.098195,
-0.012982,
0.412402,
-0.266332,
-0.053458,
0.191525,
-0.395208,
-0.355588,
-0.335113,
-0.361059,
-0.403233,
-0.081178,
-0.302618,
-0.245433,
-0.417364,
0.077180,
-0.430980,
-0.434315,
0.389300,
0.178259,
0.039406,
0.462800,
-0.105534,
-0.387417,
0.157366,
-0.023355,
-0.179821,
0.269247,
0.497175,
0.020978,
-0.431553,
0.095370,
-0.492004,
0.480849,
0.329038,
-0.045462,
0.172374,
0.433830,
0.098950,
0.337261,
-0.427228,
0.195717,
-0.243917,
-0.229847,
0.450284,
-0.161281,
0.347334,
-0.480697,
-0.095597,
0.236634,
0.197562,
0.443810,
0.199434,
-0.407971,
-0.443608,
-0.143200,
0.068673,
-0.123428,
-0.373953,
0.065848,
0.397550,
-0.305506,
-0.338782,
0.405546,
-0.324658,
0.490256,
-0.139916,
0.347716,
0.424086,
0.459034,
0.184977,
0.496858,
0.154751,
0.441060,
-0.232989,
0.105035,
-0.220222,
-0.385655,
0.124338,
0.184182,
0.350978,
-0.178099,
0.127991,
0.050413,
-0.086071,
0.184384,
0.407212,
0.482602,
-0.439044,
-0.466741,
0.048450,
0.458506,
-0.272247,
0.209668,
0.364051,
-0.096905,
0.199924,
-0.275865,
-0.249189,
0.124010,
-0.316831,
0.435788,
0.120868,
0.337920,
0.376848,
0.387879,
-0.057045,
-0.343374,
-0.497776,
-0.432707,
0.340808,
0.353202,
-0.110806,
-0.031201,
-0.096385,
0.303123,
-0.346817,
-0.189173,
0.285726,
-0.285861,
-0.155914,
-0.165824,
-0.327355,
0.071839,
-0.456156,
-0.463304,
0.474934,
0.243768,
-0.239169,
-0.274255,
-0.132222,
-0.056000,
-0.338466,
0.488646,
-0.218080,
-0.461619,
0.376525,
0.224876,
-0.304993,
0.378748,
0.292169,
-0.464185,
0.231950,
-0.318637,
0.004614,
-0.364435,
0.484486,
0.157798,
-0.053608,
0.270212,
0.371937,
0.290478,
-0.395612,
-0.455419,
-0.137683,
-0.351768,
-0.418722,
-0.162749,
0.391999,
-0.157891,
0.062997,
-0.240223,
0.286109,
0.224531,
-0.251577,
-0.431970,
0.262912,
-0.375052,
0.292905,
0.457919,
-0.496304,
0.085074,
0.493735,
0.235647,
0.266437,
-0.001651,
0.371212,
0.250923,
-0.343853,
-0.182396,
0.021135,
-0.471917,
-0.391918,
0.125523,
-0.427335,
-0.029601,
0.273755,
-0.346058,
0.307650,
0.165754,
-0.003949,
-0.129353,
0.425532,
-0.217840,
-0.404822,
-0.326045,
-0.149810,
0.358090,
-0.201097,
-0.356905,
0.316010,
-0.197401,
0.228169,
0.309744,
-0.461754,
-0.005394,
-0.191907,
0.409457,
-0.254470,
-0.035760,
-0.272939,
0.266665,
-0.007677,
-0.164857,
-0.107812,
0.064988,
0.305541,
-0.334057,
0.218930,
0.113192,
0.331697,
-0.285018,
0.483839,
0.257229,
-0.002858,
-0.420983,
0.431183,
0.347332,
0.437107,
-0.269914,
0.490427,
0.253117,
0.032685,
0.218596,
0.062861,
0.070931,
-0.286798,
0.370954,
-0.019612,
-0.041268,
-0.164806,
0.207449,
-0.274603,
0.327517,
-0.457408,
0.117585,
-0.107495,
0.348133,
0.283528,
-0.388564,
-0.038675,
0.115225,
-0.173583,
-0.054836,
-0.127546,
0.323559,
0.024181,
-0.196363,
0.170891,
-0.038712,
0.033723,
0.161318,
-0.285595,
-0.433591,
-0.120086,
0.277266,
0.137340,
0.093116,
0.148220,
-0.382272,
-0.448152,
0.483414,
0.325177,
-0.222755,
0.310932,
0.367769,
0.394831,
-0.296563,
0.215902,
0.178359,
-0.185127,
-0.322773,
-0.206416,
0.141290,
0.122391,
0.166037,
-0.035150,
-0.353428,
0.469675,
-0.364259,
0.107860,
0.003398,
0.297059,
0.322265,
0.069807,
-0.323027,
0.099531,
-0.292854,
0.270089,
-0.252249,
-0.175126,
0.321938,
-0.268834,
-0.349949,
-0.400817,
-0.457903,
-0.482180,
0.494014,
-0.254466,
0.233722,
0.172372,
0.060407,
0.410948,
0.465956,
-0.298302,
0.033339,
0.131993,
0.166547,
0.179911,
0.101668,
0.302288,
-0.212229,
-0.394934,
0.099347,
-0.389964,
0.174873,
0.276320,
0.209567,
0.382019,
0.046409,
0.457318,
-0.293107,
-0.131653,
-0.311516,
-0.143056,
-0.032470,
-0.269419,
-0.125236,
-0.038457,
-0.023884,
-0.391515,
-0.366085,
-0.463477,
-0.480566,
-0.400129,
-0.261779,
0.052773,
0.231865,
0.404768,
-0.267316,
-0.166467,
0.207056,
0.020455,
-0.061401,
-0.193597,
0.130491,
-0.386529,
-0.417278,
-0.159942,
0.495490,
0.129132,
-0.202624,
-0.297617,
0.497478,
-0.014140,
0.059327,
-0.034992,
0.216441,
0.434091,
0.426551,
-0.307443,
-0.457424,
-0.439533,
-0.270921,
-0.437990,
-0.339662,
-0.032700,
0.114783,
0.392203,
-0.127932,
0.347466,
-0.274264,
-0.420877,
-0.132079,
0.164335,
-0.114474,
0.498412,
0.277806,
-0.031752,
-0.161530,
0.273296,
-0.402620,
0.135846,
0.475679,
-0.405142,
-0.378294,
0.035006,
0.059866,
0.338147,
-0.030903,
-0.013582,
-0.469297,
0.011673,
0.046885,
-0.240218,
0.073683,
0.207223,
0.227082,
-0.311535,
0.099426,
-0.400850,
-0.464069,
0.325162,
-0.321727,
-0.096148,
-0.010504,
0.063800,
-0.097736,
-0.232698,
-0.467952,
0.240734,
-0.459401,
-0.370572,
-0.123421,
-0.483722,
-0.275714,
-0.001715,
0.051284,
0.284153,
-0.163569,
-0.479619,
-0.229429,
-0.132866,
0.032054,
0.317455,
0.126917,
-0.394263,
0.024678,
-0.146001,
-0.205798,
-0.375896,
-0.046851,
-0.169866,
0.449265,
0.131423,
0.233986,
-0.061239,
-0.304778,
-0.363750,
0.206064,
-0.272730,
0.376984,
0.246662,
-0.143302,
-0.246437,
0.262940,
0.080985,
0.251847,
-0.185775,
-0.134862,
-0.411721,
-0.165394,
0.135708,
-0.044587,
0.366660,
-0.046837,
-0.417670,
0.472397,
0.477841,
-0.063671,
-0.233400,
-0.398055,
0.389479,
0.096733,
-0.448790,
0.020902,
-0.169281,
-0.010029,
0.216124,
-0.033031,
-0.303965,
0.443395,
-0.156047,
0.442697,
-0.199907,
0.097516,
0.205638,
0.381078,
-0.150637,
-0.480138,
-0.253784,
-0.062358,
-0.145532,
0.381924,
0.393055,
-0.278872,
-0.164913,
0.475385,
-0.306475,
-0.187071,
-0.088286,
-0.039875,
-0.085126,
-0.198807,
-0.443142,
-0.033916,
0.322095,
-0.112423,
0.456055,
0.038219,
0.354547,
-0.347910,
-0.018387,
-0.301500,
-0.405212,
0.281706,
0.296015,
0.300425,
0.162784,
-0.354622,
0.320287,
0.409000,
0.083020,
-0.325245,
0.290924,
-0.023925,
-0.104117,
-0.373989,
-0.048541,
0.089408,
-0.061060,
0.363174,
-0.450467,
0.353813,
-0.335633,
-0.393609,
-0.180103,
0.486461,
-0.006031,
-0.224048,
0.024680,
-0.151485,
-0.071957,
-0.493707,
0.047015,
0.022830,
0.288000,
-0.156970,
-0.176745,
-0.049216,
-0.011592,
-0.356457,
-0.140216,
-0.428572,
-0.181702,
-0.349292,
0.047503,
0.214181,
-0.223281,
0.498962,
-0.196411,
0.215658,
0.362136,
-0.146878,
0.069472,
-0.473498,
-0.040487,
0.389369,
-0.487037,
0.453481,
-0.334679,
0.037643,
-0.198003,
0.093364,
0.043937,
0.349012,
-0.383806,
-0.168063,
-0.307958,
-0.060551,
0.282721,
0.180450,
0.082992,
-0.357495,
0.251878,
0.401289,
-0.206788,
-0.200619,
0.115470,
0.069931,
-0.201657,
0.419059,
-0.214411,
-0.339521,
-0.227819,
0.355061,
-0.313019,
0.231694,
0.244429,
-0.300056,
0.185175,
0.409750,
0.237588,
0.487172,
0.003114,
-0.218476,
0.336184,
0.119308,
0.113461,
-0.471774,
-0.441243,
-0.103818,
0.208676,
0.141749,
0.038686,
-0.039446,
0.043038,
0.331899,
0.259935,
-0.341492,
-0.098170,
-0.441721,
-0.422433,
0.187419,
-0.281242,
-0.150252,
0.042479,
-0.094261,
-0.418558,
-0.213091,
0.105683,
0.266617,
-0.303341,
-0.156729,
0.253789,
0.199773,
0.124795,
