-0.040780,
0.041004,
0.012054,
0.015397,
-0.001959,
0.018180,
-0.048128,
-0.023333,
0.035481,
-0.001914,
0.022851,
-0.004195,
-0.015532,
0.021417,
0.032294,
-0.035597,
-0.045365,
0.033730,
-0.014508,
0.014998,
-0.040955,
0.035659,
0.019160,
0.017664,
-0.038530,
0.006786,
-0.022129,
-0.026965,
-0.010403,
-0.024611,
0.016997,
-0.001182,
-0.033607,
-0.020949,
-0.035786,
0.014634,
0.047911,
-0.032989,
0.041825,
0.033859,
0.015062,
0.015176,
-0.020430,
0.050566,
-0.012237,
-0.037908,
-0.036147,
-0.009384,
0.045438,
-0.000930,
-0.044720,
-0.046415,
-0.015806,
0.024162,
0.021249,
-0.004335,
-0.019052,
0.049120,
0.018700,
0.020545,
-0.025377,
-0.014271,
-0.030537,
-0.008698,
0.016594,
-0.012980,
-0.038465,
0.025321,
0.046389,
0.103256,
0.054548,
-0.000913,
0.062869,
0.147248,
0.113387,
0.070316,
0.042824,
-0.019596,
-0.012646,
0.029054,
0.024273,
-0.009236,
0.032142,
-0.041750,
-0.035074,
0.003391,
0.003914,
-0.004127,
0.002523,
-0.026933,
-0.031727,
0.032969,
0.041787,
0.082644,
0.144798,
0.141449,
0.128443,
-0.001064,
0.027584,
-0.145657,
-0.035809,
0.240864,
0.175661,
0.103199,
-0.080928,
-0.062147,
0.030415,
0.038359,
0.021528,
-0.038398,
0.015503,
-0.005089,
0.002366,
-0.002355,
0.003161,
0.017410,
-0.048658,
-0.038803,
-0.025851,
-0.025485,
-0.131137,
0.194499,
0.192391,
0.139241,
0.129484,
0.062139,
0.336198,
-0.381551,
0.004476,
0.537866,
-0.265405,
-0.121653,
0.113399,
0.067718,
0.111493,
-0.041942,
-0.029100,
-0.002173,
-0.034305,
-0.047207,
0.008962,
0.031198,
-0.003041,
-0.038117,
-0.016890,
-0.029500,
0.009646,
-0.180036,
0.044862,
0.075794,
0.252479,
0.298898,
0.311015,
0.072948,
0.163012,
-0.088747,
-0.382331,
0.265195,
-0.072363,
-0.119433,
0.117460,
0.025674,
0.087561,
-0.038244,
0.014222,
0.052828,
0.037323,
0.043739,
-0.005460,
-0.046962,
0.046508,
-0.043879,
0.044706,
0.089614,
-0.036138,
0.023000,
0.274604,
0.038354,
0.078977,
0.283775,
0.389529,
-0.020541,
0.441220,
0.133036,
0.101241,
0.208853,
0.007273,
-0.271899,
0.024093,
-0.043762,
-0.010843,
0.091728,
0.107837,
0.041585,
-0.003404,
0.002445,
0.010006,
-0.017674,
-0.003605,
-0.039819,
0.004079,
0.149519,
0.289843,
0.019910,
0.305369,
0.167800,
0.367629,
0.480560,
0.120650,
0.213721,
-0.007000,
-0.081753,
0.253637,
0.454276,
-0.195969,
-0.226929,
0.080803,
-0.171343,
-0.092879,
0.138787,
0.083219,
0.057816,
-0.006931,
-0.043117,
-0.005208,
0.025377,
0.010091,
-0.037469,
-0.012566,
0.262091,
0.208922,
0.178144,
0.043215,
0.175613,
0.166290,
0.153035,
0.130093,
0.042493,
-0.268829,
0.136475,
0.397892,
0.270086,
-0.227320,
0.199829,
0.271805,
0.078548,
-0.009717,
0.166645,
0.114811,
0.034339,
0.016186,
0.033097,
-0.013516,
0.038509,
0.041837,
0.038065,
0.069049,
0.292482,
0.265404,
0.170151,
0.129164,
0.026838,
-0.151951,
-0.127161,
0.056278,
0.085077,
0.058201,
0.131741,
0.057613,
0.169186,
0.206806,
0.345502,
0.174786,
0.264583,
0.278160,
0.141315,
0.028569,
-0.025911,
0.028283,
0.045345,
0.012647,
-0.016364,
0.029966,
0.053405,
0.022685,
0.157444,
-0.011512,
0.055236,
0.016057,
0.091676,
-0.014371,
0.011476,
-0.103361,
0.025948,
-0.123208,
-0.230736,
-0.245930,
-0.033681,
0.223236,
0.207835,
0.242538,
0.265043,
0.202930,
0.063836,
0.067928,
-0.090143,
0.033966,
-0.032174,
-0.014556,
0.009951,
-0.035760,
0.052103,
0.072014,
0.122502,
-0.100643,
-0.198509,
0.137559,
0.197798,
0.006135,
-0.157135,
-0.054496,
-0.013510,
-0.320077,
-0.412236,
-0.245837,
-0.067135,
-0.234521,
0.147736,
0.556463,
0.364736,
0.207712,
0.095439,
-0.010993,
-0.053955,
0.044351,
-0.043820,
-0.023607,
0.027009,
-0.025041,
0.014868,
0.000981,
0.032048,
-0.193457,
-0.319337,
0.049499,
0.193851,
0.209106,
0.021546,
0.383568,
-0.286532,
-0.498334,
-0.501548,
-0.136282,
-0.017152,
-0.283332,
0.532674,
0.465561,
0.291558,
0.122982,
0.111520,
0.017221,
0.043050,
0.015836,
0.006421,
0.037477,
0.008905,
0.013461,
-0.033236,
-0.000563,
0.021865,
-0.125620,
0.068903,
0.334845,
0.559450,
0.569186,
0.353060,
0.508389,
-0.454269,
-0.354575,
-0.197761,
-0.278859,
-0.262558,
0.175310,
0.641132,
0.422252,
0.353319,
0.197780,
0.032687,
0.012666,
-0.044053,
0.045239,
0.018483,
0.038979,
0.010023,
-0.024699,
0.030056,
-0.017253,
-0.010721,
0.128527,
0.396044,
0.494242,
0.500221,
0.491006,
0.184990,
0.053457,
-0.291871,
0.101996,
0.100991,
0.033453,
-0.198211,
0.137153,
0.526831,
0.403539,
0.313228,
0.132442,
0.126385,
-0.011374,
-0.079997,
0.018530,
-0.015683,
-0.047358,
0.038393,
-0.046839,
0.045375,
0.013657,
0.059241,
0.241231,
0.390501,
0.238497,
0.253307,
0.241442,
-0.133443,
-0.047379,
-0.238781,
-0.282335,
-0.158654,
-0.173941,
-0.239850,
0.375426,
0.610210,
0.399882,
0.396039,
0.167080,
0.052451,
0.052439,
0.008367,
-0.056382,
0.021430,
0.019297,
0.045807,
-0.043731,
0.024899,
0.056700,
0.058568,
0.132216,
0.202718,
0.332528,
0.256595,
0.211106,
0.117030,
-0.165007,
0.025638,
-0.235380,
0.147232,
0.014920,
0.087811,
0.256052,
0.403259,
0.481231,
0.412537,
0.214219,
0.117725,
-0.006722,
-0.004957,
0.041874,
0.019112,
-0.047383,
0.043150,
-0.008648,
0.028470,
0.075707,
0.041269,
0.107741,
0.267123,
0.261671,
0.139383,
0.225354,
0.245019,
0.041764,
-0.130580,
-0.060939,
0.304589,
0.098663,
0.195838,
0.142524,
0.180764,
0.376416,
0.336896,
0.166618,
0.104562,
0.039381,
-0.025177,
-0.008099,
-0.001791,
-0.002596,
-0.019338,
-0.032020,
0.015040,
0.038460,
0.217626,
0.213848,
0.236908,
0.256126,
0.395129,
0.108802,
0.373234,
0.269304,
-0.239153,
-0.139870,
0.134461,
0.424604,
0.213003,
0.126180,
0.064778,
0.120995,
0.261180,
0.171770,
0.079251,
0.050973,
-0.013405,
-0.014623,
-0.050696,
-0.012321,
0.025656,
0.016419,
0.066614,
0.048468,
0.259463,
0.284287,
0.394706,
0.420029,
0.318212,
-0.430337,
0.078326,
0.201116,
-0.050565,
-0.107332,
-0.204716,
-0.041882,
-0.071167,
-0.225836,
-0.279574,
-0.215078,
0.160861,
0.080460,
-0.120691,
-0.069716,
-0.032159,
0.038212,
-0.053249,
0.014185,
-0.026106,
-0.022447,
-0.059058,
0.098187,
0.149174,
0.043304,
-0.059647,
0.256985,
0.095359,
-0.370998,
-0.156528,
0.074573,
-0.187769,
0.073097,
-0.054021,
-0.015532,
-0.003180,
-0.182451,
0.121126,
0.149779,
-0.117281,
-0.126434,
-0.097951,
-0.303794,
-0.064309,
-0.005425,
0.040450,
-0.033703,
-0.017945,
0.057203,
-0.146828,
-0.122682,
-0.076426,
-0.385887,
-0.552905,
0.202644,
0.059941,
-0.066908,
0.113887,
0.102503,
0.071743,
0.043237,
-0.203583,
-0.125921,
-0.015002,
0.174554,
0.246015,
0.051793,
-0.057120,
-0.190844,
-0.220244,
-0.303428,
-0.306569,
-0.001830,
-0.017591,
-0.016259,
0.042884,
-0.023506,
-0.071084,
-0.087692,
0.085014,
-0.121187,
-0.278060,
0.016936,
0.139157,
0.378249,
0.268576,
0.128034,
0.222957,
-0.231148,
0.091094,
0.204280,
-0.200424,
-0.005374,
0.028190,
-0.157583,
-0.187211,
-0.046243,
-0.097175,
-0.122726,
-0.150172,
0.010627,
0.013096,
-0.026950,
-0.040892,
0.045842,
0.010100,
0.005058,
0.268491,
0.171607,
0.098418,
0.070638,
0.019415,
0.074678,
0.158882,
0.036590,
0.010411,
0.101599,
0.149846,
-0.134273,
-0.325377,
-0.140202,
-0.118020,
-0.091851,
0.026566,
0.034655,
0.090831,
0.016911,
0.013943,
-0.009130,
0.002619,
-0.018854,
-0.049129,
-0.034285,
0.005811,
0.005708,
0.254167,
0.056527,
0.242635,
0.441721,
0.081554,
0.150230,
0.170174,
0.230046,
0.129472,
0.145046,
0.479196,
0.465891,
-0.170519,
-0.093121,
0.045648,
0.137464,
0.113408,
0.031343,
0.014356,
0.043632,
0.028448,
0.009190,
0.009441,
-0.007707,
0.049895,
-0.037940,
0.023514,
-0.048053,
-0.015569,
-0.004023,
0.009513,
0.073864,
0.117587,
0.341328,
0.445224,
0.340057,
0.412225,
0.200797,
0.190671,
0.233056,
0.111596,
0.039864,
0.085687,
0.042838,
0.013234,
-0.014267,
0.005193,
0.048520,
-0.047873,
-0.035287,
0.041711,
0.030574,
0.023903,
0.001152,
-0.027058,
0.024626,
0.015902,
0.055399,
0.046090,
0.081747,
0.018994,
0.107273,
0.152932,
0.184155,
0.000014,
0.086580,
0.002567,
0.114680,
0.054130,
0.025925,
0.047648,
0.047082,
-0.000318,
0.028155,
0.023488,
-0.047698,
-0.040604,
-0.022778,
-0.049373,
-0.038477,
-0.008065,
0.042338,
0.042098,
-0.034162,
-0.006163,
-0.034217,
0.041070,
-0.042168,
-0.037454,
0.015737,
0.048025,
-0.014198,
0.000820,
-0.020607,
0.049456,
0.009183,
-0.014043,
0.000141,
-0.007964,
0.008320,
-0.002259,
-0.044616,
0.003206,
0.044955,
0.032394,
-0.023626,
0.047257,
