-0.047223,
0.033077,
-0.001939,
0.013896,
0.041831,
0.033096,
-0.027808,
-0.005271,
-0.027577,
-0.001057,
0.027634,
0.049898,
-0.018414,
-0.035679,
-0.018590,
-0.015575,
-0.001822,
-0.022378,
-0.033645,
-0.006705,
-0.035742,
0.024318,
-0.036108,
-0.038548,
0.031426,
-0.010394,
-0.002705,
-0.033772,
-0.006978,
0.048099,
0.012869,
-0.004201,
0.031176,
-0.039068,
-0.040120,
0.023375,
0.044250,
-0.015471,
-0.019880,
-0.021348,
0.037727,
0.050181,
-0.031446,
-0.035195,
-0.037878,
-0.000223,
0.001898,
0.011385,
0.026405,
0.013796,
-0.048826,
0.039637,
-0.012532,
-0.035044,
-0.048911,
-0.031105,
0.004561,
-0.001616,
-0.014877,
0.047992,
-0.003353,
0.048140,
-0.005837,
-0.013893,
-0.001730,
0.045037,
0.034497,
0.151121,
0.281367,
0.295881,
0.407039,
0.342706,
0.148460,
0.110834,
0.136470,
0.165051,
0.307062,
0.191966,
0.137346,
0.050125,
0.057483,
0.035722,
-0.001488,
-0.024422,
0.047153,
-0.000399,
-0.005527,
0.003773,
0.028759,
0.084609,
0.053539,
0.112833,
0.192906,
0.357522,
0.361445,
0.686785,
0.510150,
0.569528,
0.769058,
0.726171,
0.720993,
0.396459,
0.372264,
0.396983,
0.380111,
0.282568,
0.366416,
0.541232,
0.407034,
-0.000629,
0.036742,
0.037748,
0.041662,
-0.014513,
-0.034591,
0.058357,
0.136007,
0.384095,
0.543532,
0.642192,
0.980843,
0.951579,
0.649330,
0.332878,
0.503058,
0.940077,
0.448359,
0.029322,
0.220446,
0.412367,
-0.039408,
0.522409,
0.646290,
-0.184882,
-0.146663,
-0.544925,
-0.453542,
-0.008048,
0.011869,
-0.014903,
-0.043591,
0.009428,
-0.020772,
0.133289,
0.441153,
0.687437,
1.005380,
0.789907,
0.637985,
0.325630,
0.160842,
0.227687,
0.545098,
0.701688,
0.632870,
0.922638,
0.587874,
0.158330,
0.118966,
0.330072,
-0.576709,
-0.190969,
-0.975865,
-0.923288,
-0.690992,
-0.119432,
-0.067683,
0.025923,
0.041862,
0.000159,
-0.054926,
0.282926,
0.608508,
0.590422,
0.689517,
0.442484,
0.377602,
0.372091,
0.369227,
0.553515,
0.442389,
0.562728,
0.254148,
0.920173,
0.897600,
0.622036,
0.464495,
-0.085975,
-0.067965,
0.075848,
-0.435580,
-0.819022,
-1.496250,
-0.702708,
-0.283147,
-0.006348,
-0.037856,
0.044667,
0.033760,
0.298284,
1.223081,
1.070725,
0.649704,
0.155216,
-0.087484,
0.334077,
-0.069499,
0.140431,
0.544517,
0.756501,
0.269480,
1.258861,
0.419484,
0.372604,
0.405460,
0.395981,
0.303149,
-0.190763,
-0.209649,
-0.538741,
-1.817897,
-1.807431,
-0.100721,
-0.038623,
0.014445,
0.042590,
0.023379,
0.531472,
1.599730,
1.165116,
0.699505,
0.313368,
-0.039463,
0.342998,
0.140086,
0.161660,
0.663754,
0.975828,
0.723073,
0.731890,
0.620635,
0.229293,
0.550949,
0.154233,
-0.201637,
-0.389510,
0.383070,
-0.545954,
-2.073362,
-2.066720,
-0.464241,
0.007393,
-0.044300,
0.032950,
0.053317,
0.478335,
1.171312,
0.712918,
0.312531,
0.134676,
-0.150661,
0.003952,
0.453184,
-0.421472,
0.242023,
0.472655,
0.838014,
1.482651,
1.146134,
0.786027,
0.691685,
0.631616,
0.672477,
-0.538573,
-0.361903,
-0.515526,
-3.189310,
-3.242875,
-0.675922,
-0.073347,
-0.016614,
0.011295,
0.026238,
0.322662,
0.553982,
0.494889,
0.006712,
-0.414765,
-0.359875,
-0.592531,
-0.249504,
-0.350274,
-0.440524,
-0.177757,
0.264398,
0.767787,
1.112492,
1.514309,
1.374794,
1.456575,
1.214213,
0.325057,
-0.278848,
-1.229080,
-3.506662,
-4.423920,
-1.143448,
-0.036352,
0.047512,
0.051110,
0.123109,
0.348101,
0.399503,
0.176883,
-0.811186,
-0.309402,
-0.071537,
-0.103819,
-0.055206,
0.048962,
0.079166,
-0.400709,
0.424275,
0.476906,
0.446653,
0.725128,
0.682570,
1.247679,
2.614707,
2.875892,
2.703649,
1.614246,
0.017878,
-2.344241,
-0.675559,
0.018747,
-0.011099,
0.041623,
0.074112,
0.110065,
0.035020,
-0.212641,
-0.954710,
-0.252863,
-0.012050,
0.697508,
0.063826,
0.183065,
0.237177,
-0.259482,
0.709306,
0.401703,
0.940609,
1.222314,
0.974276,
1.142295,
1.551026,
2.727870,
4.470865,
5.086360,
3.843124,
0.177952,
-0.294520,
-0.048278,
-0.044698,
0.037823,
0.061041,
-0.069066,
-0.267984,
-0.638189,
-0.190256,
-0.199941,
0.236617,
0.132517,
0.175264,
-0.044120,
-0.142173,
0.199568,
1.003412,
0.860075,
1.363330,
1.236245,
0.511258,
0.077500,
-0.345049,
0.097602,
1.874132,
4.120901,
3.187707,
0.547429,
-0.057018,
0.003396,
-0.050059,
0.011455,
0.006954,
-0.098258,
-0.340017,
-0.016026,
0.551650,
0.302927,
0.270178,
0.047066,
-0.148531,
0.558901,
0.252197,
0.508970,
0.567712,
0.679626,
0.918951,
0.952137,
0.673347,
0.895948,
-0.118530,
-0.094068,
0.035440,
1.508638,
1.463514,
0.541129,
0.063359,
-0.032812,
-0.015406,
0.040411,
0.021810,
-0.013005,
-0.120284,
0.855931,
1.286399,
0.753262,
-0.141696,
-0.163119,
0.076099,
0.142669,
0.254863,
0.912763,
1.193543,
0.886631,
0.795462,
0.938290,
0.042406,
0.537116,
0.525636,
0.507384,
0.133673,
0.106914,
0.353748,
0.365551,
0.145319,
0.068568,
-0.005823,
0.005295,
-0.028806,
-0.005777,
-0.196075,
0.595282,
1.061910,
1.650321,
1.106226,
0.531261,
0.238987,
0.255444,
0.049731,
0.116583,
0.877396,
0.427386,
0.942642,
0.727430,
0.917349,
0.505290,
0.222216,
0.581493,
-0.111825,
-0.390214,
-0.048819,
0.368408,
0.277536,
0.020645,
0.017577,
0.020188,
0.013015,
0.038862,
-0.403986,
-0.357685,
-0.979968,
0.933720,
1.426662,
1.703024,
1.732204,
1.386557,
1.536509,
1.055186,
1.281067,
0.769089,
0.491752,
0.277271,
-0.079480,
0.432388,
-0.066684,
0.112335,
0.192924,
-0.524633,
-0.396778,
0.517590,
0.222776,
0.018694,
-0.020904,
0.029290,
0.121627,
0.343184,
-0.491302,
-0.100814,
-1.579554,
-0.364062,
0.493055,
0.928143,
1.403925,
1.248684,
0.604637,
0.147742,
0.003416,
0.523048,
0.209995,
0.175270,
0.632994,
0.435590,
0.069749,
0.149678,
-0.071319,
-0.275064,
-0.356384,
0.419679,
0.097781,
-0.019119,
0.002396,
-0.008773,
0.022450,
0.349254,
-0.417678,
0.326476,
-0.189365,
-0.000997,
-0.612135,
0.010378,
-0.103531,
-0.022866,
-0.155520,
-0.065287,
0.411337,
0.064160,
0.647375,
0.922997,
0.461968,
0.452281,
0.068489,
0.237531,
-0.085897,
-0.368648,
-0.380852,
0.338848,
0.135893,
0.006013,
-0.038933,
0.022143,
-0.001178,
0.342766,
-0.054499,
-0.013713,
0.089322,
0.529340,
0.016174,
-0.024622,
0.172501,
-0.332470,
0.471311,
0.152868,
0.819212,
0.725160,
0.421840,
0.202585,
0.189823,
0.080964,
0.288070,
0.213211,
-0.805425,
-0.553716,
-0.200714,
0.038277,
0.007075,
-0.008741,
0.040717,
-0.020217,
0.146572,
0.268246,
-0.103862,
0.012020,
-0.133315,
0.017139,
-0.062460,
-0.037584,
0.272320,
-0.008554,
0.656940,
0.306430,
0.314074,
0.610315,
0.644240,
0.264109,
0.692350,
0.033212,
-0.519182,
-0.900083,
-0.981308,
-0.616132,
-0.225914,
-0.032750,
0.015339,
-0.038612,
-0.047642,
0.012413,
0.089928,
0.376810,
-0.075659,
0.033486,
0.500989,
0.344972,
0.172958,
-0.075131,
0.539328,
0.254413,
-0.013061,
0.279461,
0.321736,
0.599302,
0.122789,
0.555051,
-0.353463,
-0.189714,
-0.308281,
-0.217780,
-0.472416,
-0.462952,
-0.108119,
-0.041199,
-0.078413,
-0.044577,
0.009447,
0.021155,
-0.004669,
0.096044,
-0.175082,
-0.492550,
-0.029443,
0.748658,
0.161317,
0.312204,
0.087215,
0.405519,
0.300400,
0.524995,
0.113274,
0.376921,
-0.019378,
0.387803,
0.691840,
0.362495,
-0.016900,
0.083767,
0.022540,
-0.176596,
-0.098126,
-0.123661,
-0.068052,
0.018847,
-0.049084,
-0.036604,
0.033141,
0.030164,
0.114696,
0.079973,
0.046312,
0.031947,
0.233862,
-0.445560,
0.131796,
0.239435,
0.235505,
0.011538,
-0.063251,
-0.090054,
0.258854,
-0.070125,
-0.096126,
0.173163,
0.210401,
0.298472,
0.008848,
0.037496,
-0.101768,
-0.001978,
-0.006168,
0.043624,
-0.047703,
-0.006543,
0.012471,
-0.075004,
-0.040821,
0.088188,
0.177695,
0.162918,
0.300082,
0.045919,
-0.001426,
-0.253625,
-0.149683,
-0.115782,
0.303774,
-0.117450,
-0.068802,
-0.007502,
0.184669,
0.337623,
0.376528,
0.158546,
-0.140152,
-0.206304,
-0.161654,
-0.023374,
-0.024641,
0.016039,
-0.022080,
0.014614,
0.009662,
-0.019784,
-0.040394,
-0.018226,
0.098881,
0.277893,
0.431274,
0.398852,
0.253920,
0.178695,
0.244892,
0.311444,
0.566600,
0.217280,
0.185738,
0.244196,
0.403311,
0.282497,
0.142567,
0.209487,
0.070814,
-0.024108,
-0.045767,
0.004218,
0.023359,
-0.002879,
0.030810,
0.048677,
-0.036841,
-0.041270,
0.013292,
0.022822,
-0.011003,
0.022013,
0.046505,
0.024873,
-0.018868,
-0.005056,
0.047844,
0.120489,
0.145297,
0.071337,
-0.003468,
-0.009607,
0.094642,
0.063760,
0.010219,
0.048811,
0.064910,
0.014054,
0.044134,
-0.018164,
0.039803,
0.048366,
