0.036054,
0.013162,
-0.004513,
0.016864,
0.011839,
0.008646,
0.025594,
-0.024869,
-0.018532,
-0.035460,
0.046494,
-0.023577,
0.035764,
-0.019131,
0.030902,
0.006322,
0.025396,
-0.029405,
-0.041576,
0.033802,
-0.013353,
-0.043904,
0.007120,
0.021851,
-0.011106,
-0.015223,
-0.014095,
-0.016972,
0.016613,
-0.024293,
-0.018605,
0.002667,
0.038718,
0.026367,
-0.035539,
-0.010505,
-0.027673,
0.013902,
-0.011303,
-0.039864,
-0.214799,
-0.052749,
0.115459,
0.121476,
0.128401,
0.020557,
-0.050906,
-0.018896,
0.006063,
-0.008008,
0.007647,
-0.021038,
0.017396,
-0.028569,
-0.047264,
-0.043710,
0.006209,
-0.011359,
-0.011309,
-0.027216,
0.010517,
0.018224,
0.004135,
-0.038537,
-0.112105,
-0.135240,
-0.289303,
-0.076459,
-0.279421,
-0.130352,
0.167751,
0.045778,
-0.472663,
-0.880974,
-0.856076,
-0.654520,
-0.614513,
-0.511769,
-0.325860,
-0.209932,
-0.019093,
0.010300,
-0.007695,
0.027965,
-0.026535,
-0.004958,
0.033647,
0.023409,
-0.005314,
-0.036982,
-0.134163,
-0.079272,
-0.031980,
0.089849,
0.081138,
0.044522,
0.392139,
0.212143,
0.355079,
0.119609,
0.241631,
0.280145,
0.061269,
-0.180205,
-0.048031,
0.137934,
0.091442,
-0.259339,
-0.278836,
0.076304,
-0.032066,
-0.030800,
-0.015992,
0.039594,
0.049767,
0.011308,
-0.072943,
0.029978,
0.230067,
0.150673,
0.055012,
0.262247,
0.161932,
0.755776,
0.688217,
0.531619,
0.732963,
0.665992,
0.357080,
0.152798,
0.339497,
0.032896,
-0.222266,
-0.270131,
-0.345349,
-0.280173,
0.326825,
0.211110,
0.051611,
0.010297,
-0.029048,
-0.006967,
-0.049302,
0.056287,
-0.101585,
0.108792,
0.308371,
0.522309,
0.151196,
0.341181,
0.155938,
0.630999,
0.476653,
0.882335,
0.268522,
0.465865,
0.500847,
0.072229,
-0.203832,
-0.383475,
-0.616144,
-0.378579,
-0.201820,
-0.381995,
0.287050,
0.465740,
0.066346,
-0.041883,
-0.016491,
0.041105,
-0.021559,
0.103679,
0.009301,
0.226713,
0.438100,
0.577602,
0.359035,
0.447924,
0.767708,
0.302809,
0.569940,
0.733158,
0.557953,
0.721898,
0.756859,
0.574992,
0.715255,
0.428416,
0.257342,
0.267470,
0.212222,
0.153373,
0.429411,
0.422261,
0.183972,
-0.020526,
0.027073,
-0.006053,
-0.018097,
0.185600,
0.127118,
0.208570,
0.624543,
0.375651,
0.323851,
0.383519,
0.493716,
0.295257,
0.537632,
0.529766,
0.538004,
0.493903,
1.022895,
0.792953,
0.920011,
1.046949,
1.003408,
0.628339,
0.890425,
0.655303,
0.345993,
0.293428,
-0.001224,
-0.000583,
0.016109,
-0.033957,
0.020963,
0.178790,
0.161213,
0.391905,
0.580387,
0.419002,
0.243896,
0.175153,
0.640916,
0.465815,
0.304605,
0.502357,
0.890997,
0.689427,
0.708491,
1.003326,
1.544216,
1.487801,
1.426844,
1.083401,
1.363892,
1.672756,
1.225568,
0.600335,
0.158412,
0.050372,
0.049898,
-0.046656,
-0.006702,
0.277723,
0.168643,
0.425549,
0.425414,
0.035016,
-0.169685,
0.377464,
0.647932,
0.424720,
0.485935,
0.613215,
0.658846,
0.702478,
0.655014,
1.372181,
1.475068,
1.179460,
0.588571,
0.546528,
0.825394,
0.975172,
1.178262,
0.851403,
0.329220,
0.052590,
-0.018916,
0.030998,
0.047772,
0.276786,
0.320196,
0.139023,
0.321340,
-0.055514,
-0.078734,
0.266823,
0.179415,
0.516319,
0.547967,
-0.017290,
0.416815,
0.737422,
0.668289,
0.989221,
0.732491,
0.931550,
0.352764,
0.607590,
0.575779,
0.209133,
0.671744,
0.768212,
0.345820,
0.021465,
-0.049097,
-0.034497,
-0.033357,
0.178898,
0.199171,
-0.193091,
0.060448,
-0.052076,
0.288571,
-0.002327,
0.056995,
0.467490,
-0.024445,
-0.097272,
0.485489,
0.970267,
0.202950,
0.532216,
0.552921,
0.661914,
0.538367,
0.472693,
0.347631,
-0.078104,
0.498279,
0.633081,
0.330058,
-0.004032,
0.009677,
0.026373,
-0.024894,
0.239844,
0.406261,
0.188361,
-0.071396,
-0.166556,
-0.183945,
-0.230987,
0.045156,
-0.503200,
-0.391103,
-0.202565,
0.442410,
0.539590,
0.086786,
0.027715,
-0.093250,
0.419354,
0.451472,
-0.365866,
-0.594835,
-0.843923,
-0.108042,
0.453603,
0.433521,
0.089003,
-0.018973,
-0.033753,
0.047410,
0.218691,
0.494590,
0.108037,
-0.723912,
-0.049506,
-0.216472,
-0.143308,
-0.536647,
-0.064866,
-0.241873,
0.202423,
0.336183,
-0.362682,
0.089554,
0.446484,
0.108760,
-0.062967,
-0.011985,
-0.318936,
-0.683165,
-1.080961,
-0.013123,
0.733104,
0.599492,
0.139145,
0.033947,
0.007845,
0.038595,
0.064975,
0.459422,
0.347280,
-0.557265,
-0.285388,
-0.588684,
-0.249239,
-0.560962,
-0.648585,
-0.162013,
0.157883,
-0.184212,
0.118589,
-0.232330,
0.478060,
0.304023,
0.075058,
0.064189,
0.028933,
-0.627640,
-0.413585,
0.227016,
0.236401,
0.530345,
0.058946,
0.027636,
-0.049901,
0.045492,
0.178400,
0.626573,
0.616875,
-0.185694,
-0.605341,
-0.149372,
-0.308137,
-0.322826,
-0.190779,
0.004990,
0.125039,
-0.648976,
-0.060156,
-0.015008,
0.145854,
0.366307,
0.249404,
-0.440292,
-0.418708,
-0.213987,
-0.176424,
0.471676,
0.430391,
0.574334,
0.024684,
-0.011216,
-0.025237,
-0.001947,
0.163851,
0.528800,
0.514270,
-0.332083,
-0.514584,
-0.013439,
-0.332847,
-0.455851,
-0.861079,
0.125395,
0.159710,
-0.075104,
0.053022,
0.205682,
0.601734,
0.077492,
-0.169891,
-0.118041,
-0.015899,
-0.087801,
-0.064661,
0.390914,
0.842978,
0.620527,
0.067390,
-0.000207,
0.002045,
0.031195,
0.221926,
0.775734,
0.365528,
-0.083392,
-0.117380,
-0.382527,
-0.287094,
-1.047852,
-0.635844,
-0.163003,
-0.258243,
-0.159578,
0.524175,
0.486863,
0.220931,
-0.218385,
-0.134091,
-0.220865,
0.010156,
-0.076205,
-0.331184,
0.398276,
0.870486,
0.408694,
0.085906,
0.010486,
-0.039677,
-0.033088,
0.200125,
0.689147,
0.618825,
0.120878,
-0.351582,
-0.300360,
-0.559986,
-0.458527,
-0.201322,
-0.718464,
-0.338291,
-0.041999,
-0.105994,
-0.207400,
-0.130348,
-0.350349,
-0.194626,
0.128513,
-0.112128,
0.060294,
-0.108620,
0.757718,
0.575623,
0.210241,
0.086683,
0.009733,
-0.003215,
0.021307,
0.240275,
0.599644,
0.606712,
0.299001,
0.057850,
0.131416,
-0.382838,
-0.956420,
-1.010078,
-1.150206,
-0.007905,
-0.226938,
-0.576936,
-0.531729,
-0.286596,
-0.275237,
-0.106098,
0.055660,
-0.157464,
-0.082645,
0.398716,
0.835125,
0.762642,
0.374166,
0.044081,
0.037605,
0.028134,
-0.005869,
0.220158,
0.571854,
0.835139,
0.555445,
-0.017425,
0.038382,
-0.353392,
-0.731499,
-0.457109,
-0.704830,
0.005805,
-1.037022,
-0.621659,
-0.152501,
-0.125635,
-0.198254,
-0.088928,
-0.080329,
-0.034495,
0.581610,
0.518866,
0.645588,
0.295001,
0.036610,
-0.032282,
-0.039754,
0.036235,
0.027357,
0.182411,
0.488060,
0.917949,
1.018503,
0.248161,
-0.394608,
-0.207822,
-0.179017,
-0.543415,
-1.157681,
-1.196862,
-1.000003,
-0.469508,
-0.168968,
-0.630403,
-0.390077,
-0.020443,
0.082837,
0.436331,
0.342885,
0.518867,
0.429481,
0.144642,
-0.022988,
-0.004160,
0.006700,
-0.011094,
0.018055,
0.058489,
0.186470,
0.583354,
1.135187,
0.833456,
0.128258,
-0.216657,
-0.377958,
0.047799,
-0.045032,
0.197331,
0.388608,
-0.544133,
-0.248207,
-0.185220,
0.197319,
0.094971,
-0.124826,
-0.018039,
0.332800,
0.462465,
0.238730,
0.027362,
-0.026056,
-0.012349,
-0.010764,
-0.013023,
0.034195,
0.057689,
0.075459,
0.163283,
0.440301,
0.770485,
1.120786,
1.181499,
1.352379,
1.189946,
0.781932,
0.217540,
0.073884,
0.120565,
0.270922,
0.504000,
0.346287,
0.271022,
0.331309,
0.239928,
0.159665,
0.172167,
0.078758,
-0.011292,
0.007334,
0.023814,
-0.014638,
0.026985,
-0.038571,
0.026159,
-0.028893,
0.069213,
0.099539,
0.233083,
0.397519,
0.698166,
1.137995,
1.474893,
1.686827,
1.736738,
1.761706,
1.623470,
1.104513,
0.839423,
0.754189,
0.598185,
0.361108,
0.203241,
0.087988,
0.055126,
-0.025656,
0.031916,
-0.001992,
-0.004387,
0.048672,
-0.046783,
-0.030544,
-0.015967,
0.030929,
-0.013947,
-0.021959,
0.091498,
0.090964,
0.233120,
0.346541,
0.434550,
0.475266,
0.606820,
0.631625,
0.632974,
0.582137,
0.430449,
0.369351,
0.270963,
0.127726,
0.046009,
0.009868,
-0.010007,
0.034544,
0.034087,
0.046069,
0.046811,
0.013998,
-0.006362,
-0.007576,
0.012715,
-0.002687,
0.013199,
0.051454,
-0.009641,
0.077037,
0.018189,
0.070703,
0.096109,
0.170339,
0.092720,
0.164013,
0.166610,
0.149674,
0.128888,
0.104415,
0.041688,
0.067934,
0.013508,
-0.020614,
-0.020042,
0.023024,
0.006837,
0.006988,
0.004949,
-0.009369,
0.002853,
0.001761,
-0.045371,
0.046494,
0.044360,
0.018023,
-0.004847,
0.009123,
0.019080,
0.028712,
0.007902,
0.028858,
0.051021,
0.026988,
0.010235,
0.052368,
0.005321,
0.004760,
0.028421,
-0.028214,
-0.022766,
-0.038805,
-0.048725,
0.013793,
-0.019754,
-0.020004,
-0.013245,
