-0.193379,
0.257918,
-0.089974,
-0.210803,
-0.053785,
-0.141234,
-0.173229,
-0.379810,
0.304702,
0.331739,
0.158612,
-0.013423,
0.426647,
0.081668,
0.337104,
-0.394668,
-0.072091,
0.224203,
-0.191883,
-0.058572,
-0.147606,
0.343408,
-0.068784,
-0.363604,
0.493500,
-0.467640,
0.169004,
-0.217051,
-0.014456,
-0.319877,
-0.146649,
0.292165,
0.438041,
0.263377,
-0.418639,
-0.115744,
-0.377857,
-0.091868,
0.004446,
0.426844,
-0.260129,
-0.336941,
-0.086578,
-0.333482,
0.244726,
-0.249475,
-0.228150,
-0.327365,
0.474728,
0.079967,
0.114064,
-0.172878,
-0.076625,
-0.454720,
-0.036482,
-0.083125,
-0.422360,
-0.367478,
0.199824,
0.063184,
-0.187355,
-0.446825,
-0.144652,
-0.249313,
0.316552,
-0.063290,
0.134943,
0.438695,
0.344842,
-0.360611,
0.365539,
-0.415287,
-0.197552,
-0.221039,
-0.248769,
-0.452826,
0.029486,
0.023081,
-0.280190,
0.004214,
-0.396952,
0.333873,
0.331336,
0.026423,
0.379153,
-0.205146,
0.443298,
0.456793,
-0.072623,
0.143121,
0.019976,
0.240022,
0.196296,
0.375325,
0.490709,
0.012848,
-0.187966,
0.125652,
-0.048457,
-0.343124,
0.265041,
-0.182918,
-0.258411,
-0.432511,
0.096042,
-0.007180,
-0.385337,
-0.374472,
-0.484099,
-0.165527,
0.129743,
-0.381052,
-0.331654,
-0.038921,
0.145371,
-0.452501,
0.255933,
0.088669,
-0.495709,
-0.316690,
-0.268210,
0.024268,
0.423332,
0.428086,
-0.100408,
0.414041,
-0.059066,
0.211627,
0.039694,
0.392477,
0.368503,
-0.195265,
-0.290441,
-0.389909,
-0.127776,
0.305601,
0.102911,
-0.013113,
0.431130,
0.118812,
0.321360,
0.060872,
0.237760,
0.489706,
-0.478049,
-0.116869,
-0.462795,
0.277884,
0.471799,
-0.458503,
0.461194,
-0.296411,
0.065764,
0.384526,
-0.368325,
0.465357,
0.298567,
0.072610,
0.176984,
-0.161739,
-0.034913,
0.045486,
0.142996,
0.174646,
0.155577,
-0.484780,
-0.019753,
-0.241512,
0.002107,
-0.088623,
0.377300,
-0.176533,
0.472248,
0.115060,
-0.186826,
0.494199,
0.498191,
-0.149621,
0.272083,
0.469990,
-0.108124,
0.233277,
-0.326421,
0.457640,
0.117802,
-0.194746,
0.422997,
-0.083631,
0.377864,
0.099981,
0.254630,
-0.157049,
-0.354533,
-0.102375,
-0.482404,
0.301044,
-0.087155,
-0.002157,
-0.440468,
0.414952,
0.409220,
0.436832,
-0.261580,
0.381468,
0.051892,
0.051594,
0.375668,
0.050082,
0.401973,
0.147751,
0.020072,
-0.206151,
-0.118973,
0.193651,
-0.248511,
0.498830,
0.498906,
-0.325514,
-0.084801,
0.376770,
0.274466,
-0.330171,
-0.280280,
0.419933,
0.067454,
-0.262683,
0.220977,
0.480300,
0.235160,
0.280509,
0.395252,
0.144380,
0.217341,
-0.366328,
0.025848,
-0.230767,
0.185265,
-0.098484,
0.319316,
0.087238,
-0.450734,
-0.160612,
0.381087,
-0.069707,
-0.466961,
-0.367424,
-0.070877,
-0.468055,
-0.192939,
0.344322,
0.408715,
-0.418472,
-0.485849,
-0.371565,
-0.498539,
0.081605,
-0.134248,
0.222438,
0.061905,
-0.399088,
0.002947,
-0.042843,
0.245292,
-0.279712,
0.090828,
-0.228860,
-0.010478,
-0.223906,
0.172655,
-0.191163,
0.363332,
0.221922,
0.148225,
0.244419,
-0.347785,
0.181264,
0.376994,
0.081338,
0.213210,
-0.315945,
-0.074340,
0.121925,
-0.234417,
-0.060189,
0.250360,
-0.232956,
-0.478584,
-0.383888,
0.489482,
0.083321,
-0.282975,
-0.007571,
-0.459522,
0.462317,
0.212717,
0.131307,
-0.266544,
-0.297761,
0.407401,
0.406112,
0.011076,
0.270732,
0.128034,
-0.340699,
0.015151,
0.280249,
0.340565,
-0.107855,
-0.138414,
0.053775,
0.076201,
0.287246,
-0.324300,
0.341784,
-0.272943,
0.426060,
-0.391172,
-0.251526,
-0.457827,
-0.401690,
0.331795,
-0.240803,
0.090739,
0.372274,
-0.278486,
-0.196544,
0.003581,
-0.045030,
0.005694,
-0.089019,
-0.138918,
-0.483230,
-0.318286,
0.489116,
-0.323929,
0.196865,
0.269364,
-0.483363,
-0.410990,
-0.369049,
0.070412,
0.165210,
0.418197,
0.246112,
0.006994,
-0.354745,
0.172172,
0.115822,
-0.106272,
0.214344,
0.214132,
-0.274476,
0.473542,
-0.195130,
-0.402203,
-0.304945,
0.108326,
0.101378,
0.150025,
-0.385980,
-0.487641,
-0.488892,
-0.369209,
-0.305927,
-0.499777,
-0.193138,
0.390937,
0.269587,
-0.176501,
0.479947,
0.400538,
0.393911,
0.145157,
0.318735,
0.140022,
-0.347848,
0.463990,
-0.187806,
0.267974,
-0.142282,
-0.473461,
-0.017894,
0.083242,
-0.499920,
0.286976,
0.181039,
-0.304864,
-0.104698,
-0.217583,
0.345161,
0.009322,
-0.205224,
0.356269,
0.140113,
-0.011151,
0.356492,
0.446975,
-0.120214,
0.126079,
-0.229526,
-0.140267,
0.026617,
-0.335615,
-0.495109,
-0.154648,
0.304407,
-0.342958,
-0.190658,
-0.383399,
0.425016,
0.167060,
-0.356860,
-0.092878,
-0.249698,
-0.356779,
-0.305903,
0.431341,
-0.161644,
0.089399,
-0.286241,
-0.316482,
-0.401278,
0.008535,
-0.460214,
0.238835,
0.497384,
0.396278,
0.185810,
-0.122830,
0.022358,
0.456284,
0.236904,
-0.451025,
-0.379331,
0.241794,
-0.105672,
0.425076,
0.398837,
0.203670,
-0.458322,
0.323853,
-0.129270,
-0.315182,
-0.269026,
0.121032,
-0.171962,
-0.074928,
0.052373,
0.166395,
-0.485529,
0.266132,
0.349912,
-0.386807,
-0.225333,
0.389699,
0.352028,
-0.227949,
0.285977,
0.037838,
0.149221,
-0.191665,
-0.005878,
-0.113875,
-0.142690,
0.114792,
-0.372081,
0.251638,
0.039868,
-0.473244,
-0.044693,
0.081546,
0.350609,
0.326037,
0.266364,
-0.418417,
-0.052931,
-0.405598,
0.006655,
0.499442,
0.260797,
0.021125,
0.265574,
0.110709,
0.134318,
-0.459760,
0.000408,
-0.013654,
-0.187709,
-0.213615,
-0.475816,
0.461512,
0.094720,
0.018306,
-0.152363,
0.452030,
-0.366902,
-0.024444,
0.203667,
0.172966,
0.002312,
-0.341025,
-0.245488,
-0.147079,
0.485012,
-0.479124,
-0.065496,
-0.067919,
-0.384722,
0.441158,
-0.068477,
0.376075,
-0.037716,
-0.302904,
-0.013216,
-0.403398,
-0.262664,
0.487192,
0.082947,
0.049627,
-0.226423,
0.107131,
0.011140,
0.368297,
-0.374563,
0.358777,
0.320326,
-0.241465,
-0.165667,
0.023994,
0.431501,
0.336645,
0.182968,
-0.313987,
-0.310434,
0.167980,
-0.293112,
0.124070,
-0.399939,
-0.177834,
0.065228,
0.031583,
-0.301759,
-0.472488,
0.228679,
0.185025,
-0.375887,
0.466016,
0.172217,
0.207061,
0.015643,
0.445794,
-0.185808,
-0.473217,
0.314090,
-0.060371,
0.385559,
0.134416,
0.198164,
-0.280108,
-0.341590,
0.129665,
-0.443463,
0.341378,
0.315678,
-0.253897,
0.009358,
-0.477434,
0.370172,
0.109419,
-0.155268,
-0.064600,
-0.358998,
0.042973,
-0.037088,
0.369681,
-0.272002,
0.087025,
0.335697,
0.400215,
-0.205914,
-0.148660,
0.346009,
0.108278,
-0.121878,
0.160099,
-0.452093,
-0.236318,
-0.205485,
0.246072,
-0.016427,
-0.047074,
-0.124263,
0.040110,
-0.205696,
-0.308585,
0.286213,
0.303662,
-0.286018,
0.156385,
-0.086919,
0.058714,
-0.408215,
0.054083,
-0.398313,
0.054696,
-0.076235,
-0.170315,
-0.358279,
-0.240538,
-0.270100,
-0.064193,
0.110801,
-0.424091,
-0.455915,
0.488924,
0.236008,
-0.408008,
-0.247395,
-0.469476,
0.338064,
0.236179,
-0.016551,
-0.286199,
-0.223711,
0.277753,
-0.094783,
-0.437498,
0.081415,
0.119198,
0.218886,
0.494497,
-0.322088,
0.310671,
0.048580,
-0.220401,
-0.134632,
0.472344,
0.109284,
0.007089,
-0.268194,
0.339185,
0.442896,
0.342607,
0.415094,
0.486981,
0.331531,
0.151102,
-0.421026,
-0.415863,
0.181626,
0.417038,
0.320316,
-0.334925,
-0.369161,
-0.403395,
0.442828,
0.036055,
-0.340894,
0.024244,
-0.344747,
0.377993,
0.018740,
-0.166835,
0.188664,
-0.432680,
0.112764,
-0.445968,
-0.460336,
-0.277951,
0.061121,
-0.228530,
-0.438766,
0.004017,
-0.385922,
0.476328,
-0.009002,
0.445609,
0.127430,
0.069972,
-0.470254,
-0.190944,
-0.012991,
0.350061,
-0.025868,
0.117848,
0.446666,
-0.083040,
-0.346096,
-0.394228,
0.441204,
-0.190843,
0.483765,
-0.040056,
0.142323,
0.172429,
0.027264,
-0.244913,
0.226461,
0.066928,
-0.022864,
-0.212418,
0.338399,
0.038370,
0.291599,
0.452476,
0.014697,
-0.217403,
0.398085,
-0.357873,
0.352569,
0.427831,
-0.048816,
-0.160422,
0.277892,
0.425315,
0.457426,
0.224559,
-0.157725,
-0.388670,
0.330331,
-0.216521,
-0.079512,
0.314096,
0.243423,
-0.437190,
-0.013475,
-0.229313,
-0.182103,
-0.287014,
0.337615,
0.295033,
0.000568,
0.176014,
-0.166597,
-0.207833,
0.128490,
0.348100,
0.074764,
0.026576,
0.490228,
-0.072668,
-0.045594,
-0.058589,
0.266910,
-0.267701,
-0.133273,
0.224337,
0.456857,
0.209002,
0.335667,
0.287188,
0.492481,
-0.243845,
0.101284,
0.235904,
-0.181035,
-0.412190,
-0.493409,
0.136862,
-0.199204,
0.344207,
-0.068104,
0.301364,
0.020221,
0.265298,
-0.406469,
-0.351289,
0.113399,
0.168294,
0.175287,
0.103626,
-0.404373,
-0.370307,
-0.454962,
0.362537,
-0.138008,
-0.088235,
0.086874,
-0.181151,
-0.379233,
-0.077459,
-0.393962,
-0.386752,
0.178695,
