0.039434,
-0.009663,
0.004209,
0.026110,
0.027051,
0.018265,
-0.018251,
0.005661,
0.039286,
0.019621,
-0.039422,
-0.024529,
-0.007787,
0.040348,
0.043982,
-0.045147,
-0.004034,
-0.040321,
-0.025090,
0.045432,
-0.046855,
-0.036787,
-0.002827,
0.047789,
0.020081,
-0.005557,
0.036763,
-0.002524,
-0.031550,
-0.013841,
0.036518,
-0.042116,
0.026628,
-0.006489,
0.182296,
0.316444,
0.174901,
0.085380,
0.209796,
0.301976,
0.429781,
0.173841,
0.078004,
0.227632,
0.226448,
0.094228,
0.084832,
0.163002,
0.083417,
0.076503,
0.101175,
0.035763,
0.017701,
0.040063,
-0.024622,
-0.012218,
-0.015494,
-0.037859,
0.035559,
0.008953,
0.008483,
0.031148,
0.174559,
0.497643,
0.481499,
0.520627,
0.832981,
0.888135,
1.025753,
0.868890,
0.664760,
0.755257,
0.826684,
0.645145,
0.500275,
0.333874,
0.245954,
0.124673,
0.208095,
0.162238,
0.054248,
0.053421,
-0.039684,
-0.027445,
0.039241,
-0.014306,
0.011001,
-0.007795,
0.004669,
0.037244,
0.288171,
0.606648,
0.683042,
0.941629,
1.052132,
1.164338,
1.479188,
1.800532,
1.275849,
1.307393,
1.286121,
1.155649,
0.993363,
0.665763,
0.417749,
0.357341,
0.245332,
0.153071,
0.109291,
0.013770,
0.006636,
-0.035090,
0.008453,
0.016000,
-0.012364,
-0.000278,
-0.095692,
0.040122,
0.315194,
0.461470,
0.720532,
0.823526,
0.927813,
0.945316,
0.915599,
0.639026,
0.891355,
0.920202,
0.581288,
0.721106,
0.719415,
0.122408,
-0.124395,
-0.067568,
-0.254406,
-0.340803,
-0.204837,
0.014170,
-0.024938,
-0.029448,
-0.040913,
0.006418,
-0.012826,
0.021018,
-0.107840,
-0.086769,
0.105386,
0.314745,
0.304707,
0.206021,
0.450026,
0.338047,
0.475652,
0.610222,
0.104392,
0.110168,
0.056030,
-0.008167,
-0.089966,
-0.171170,
-0.389062,
-0.092793,
-0.468969,
-0.840533,
0.110528,
0.304498,
0.114631,
0.009762,
-0.049040,
-0.001629,
0.031257,
0.011471,
-0.176463,
-0.299684,
-0.010658,
0.139034,
0.050882,
-0.055404,
0.511810,
0.452396,
0.473976,
0.714779,
0.608963,
0.851398,
0.853644,
0.296089,
0.597896,
0.045565,
-0.005192,
-0.016157,
-0.507773,
-0.946466,
0.303449,
0.496229,
0.036547,
-0.023495,
-0.012938,
0.031851,
0.037354,
0.018067,
-0.036368,
-0.312674,
0.028497,
-0.048766,
0.047055,
-0.039825,
0.201993,
0.209033,
0.852518,
0.623703,
0.635812,
0.869138,
0.843380,
0.337359,
0.339389,
0.223805,
0.154847,
-0.002100,
-0.288912,
-0.597951,
0.249936,
0.430932,
0.131468,
0.050987,
0.029715,
0.053348,
-0.045792,
0.047935,
0.108478,
-0.301630,
0.086250,
0.009258,
0.434905,
0.097983,
0.555165,
0.272759,
0.364491,
0.281913,
0.820251,
0.657301,
0.905865,
0.172238,
0.179384,
0.123468,
0.211530,
0.217524,
-0.002530,
-0.000841,
0.140659,
0.199097,
0.296837,
0.085923,
-0.023054,
0.055209,
0.031276,
0.230029,
0.258166,
-0.043059,
0.246284,
0.060133,
0.477577,
0.376179,
0.605883,
0.283140,
0.483428,
0.322794,
0.917439,
0.484472,
0.270889,
0.205884,
0.079540,
0.253689,
-0.041821,
0.076608,
-0.143705,
0.269845,
0.785650,
0.589128,
0.344580,
0.050988,
-0.016695,
-0.021319,
0.127468,
0.428278,
0.280893,
0.571503,
0.513873,
0.102526,
0.233577,
-0.297580,
-0.056840,
0.205843,
-0.016470,
0.562252,
1.344566,
0.349289,
0.421460,
-0.075648,
0.047000,
-0.178606,
0.249494,
0.050792,
-0.122019,
0.699542,
0.512341,
0.304128,
0.215396,
-0.006780,
0.017608,
0.014158,
0.357489,
0.397113,
0.708465,
0.482804,
0.092647,
0.246494,
-0.154010,
-0.272348,
-0.363946,
-0.183419,
-0.392693,
1.414566,
1.385637,
-0.374463,
-0.370315,
-0.097484,
0.361708,
-0.218932,
0.763074,
0.433513,
0.529252,
0.971603,
0.743382,
0.437837,
0.122070,
-0.035166,
-0.002564,
0.063534,
0.266202,
0.537737,
0.989446,
0.309128,
0.230766,
-0.030097,
-0.372255,
-0.060247,
-0.446415,
-0.676175,
-1.371297,
0.235014,
0.788825,
-0.470337,
-0.320756,
-0.047178,
0.092647,
-0.058708,
0.265107,
0.072868,
0.139711,
0.611740,
0.414170,
0.332187,
0.169175,
0.067475,
-0.033283,
0.084437,
0.206434,
0.570540,
0.581231,
-0.018980,
-0.256820,
-0.316049,
-0.698925,
-0.712770,
-0.699484,
-1.081223,
-0.647219,
0.578159,
0.268262,
-0.408970,
-0.104020,
-0.170764,
-0.242427,
0.419288,
-0.424885,
-0.122649,
-0.016135,
0.515208,
0.730161,
0.225601,
0.171283,
0.087670,
0.000017,
-0.000205,
0.051459,
0.356092,
-0.260834,
-0.661339,
-0.530941,
-0.804040,
-0.104418,
-0.200519,
-0.387351,
-0.739222,
-0.366938,
0.598103,
0.166930,
-0.254221,
-0.475884,
-0.521678,
-0.188406,
-0.612197,
-0.444377,
-0.060000,
-0.055443,
0.479948,
0.693459,
0.505421,
0.297377,
0.056864,
0.036365,
-0.031068,
0.016000,
0.148294,
-0.168289,
-0.174731,
-0.311335,
-0.424236,
-0.380625,
-0.601172,
-0.370083,
-0.289211,
-0.481180,
0.421913,
0.113372,
-0.473938,
-0.546598,
-0.506488,
0.089402,
-0.561423,
-0.020071,
0.345202,
-0.361235,
0.109757,
0.986863,
0.632707,
-0.019689,
0.013982,
0.031634,
-0.033441,
0.013859,
0.262172,
0.788724,
0.079215,
-0.109682,
-0.530234,
-0.658837,
-0.589582,
0.101292,
0.475754,
-0.323867,
-0.074858,
-0.267680,
-0.606159,
-0.286826,
-0.348200,
-0.280613,
-0.121928,
-0.346346,
-0.374445,
0.001377,
0.398688,
0.737883,
0.861392,
0.244976,
-0.027851,
0.046460,
0.011229,
-0.047362,
0.520490,
0.785284,
0.100060,
-0.162107,
-0.399590,
-0.445885,
-0.201644,
0.207312,
0.506876,
0.276079,
-0.733489,
-0.882356,
-0.402183,
-0.502640,
-0.540396,
-0.381000,
0.116822,
0.127442,
-0.050988,
0.433998,
0.293542,
0.653518,
0.581905,
0.220527,
-0.000955,
-0.009471,
-0.020070,
-0.052355,
0.369224,
0.663934,
0.009077,
0.057468,
0.095609,
0.082132,
-0.088308,
0.952388,
0.655588,
-0.672784,
-0.846232,
-0.733700,
-0.230492,
-0.350550,
0.684031,
0.286677,
-0.057856,
-0.186052,
0.008621,
0.635961,
0.308745,
0.492292,
0.387264,
0.052218,
0.036236,
-0.017049,
0.055958,
0.045863,
0.093349,
0.308709,
-0.078002,
-0.038689,
0.384535,
0.638620,
0.706515,
0.921076,
0.287833,
0.716251,
0.169276,
-0.408282,
0.024656,
0.070455,
0.567372,
0.371757,
0.623474,
0.480632,
0.189578,
0.937714,
0.514977,
0.309690,
0.298254,
-0.036189,
-0.012197,
0.047102,
0.042096,
-0.056617,
0.023885,
0.370358,
0.478474,
0.489409,
0.896010,
1.130698,
0.776860,
0.845771,
-0.208764,
0.554128,
0.885893,
0.042712,
0.149060,
0.195751,
0.090880,
0.165050,
0.625402,
0.548986,
0.231610,
0.432492,
0.425389,
0.199593,
0.178236,
0.009774,
-0.035999,
0.020269,
0.012783,
0.007899,
0.199590,
0.323655,
0.397429,
0.925504,
1.058139,
0.382599,
0.394487,
0.286629,
0.309063,
0.540601,
0.279671,
0.135338,
-0.021320,
0.271975,
-0.094186,
0.107586,
-0.014801,
-0.033892,
-0.093422,
-0.059270,
0.060851,
0.188651,
0.165484,
0.016346,
0.043888,
0.006353,
-0.032100,
-0.036961,
0.182331,
0.344252,
0.420528,
0.661049,
0.522799,
0.351219,
0.587584,
0.244005,
0.241281,
0.360049,
0.069580,
0.288761,
0.181495,
-0.078159,
-0.212214,
-0.298334,
-0.551019,
-0.140706,
-0.435111,
-0.180459,
0.110681,
0.128681,
0.146885,
-0.030867,
-0.031112,
0.010927,
0.032208,
-0.033686,
0.024194,
0.078809,
0.191010,
0.161984,
0.170018,
0.085340,
0.218918,
0.345266,
0.107420,
0.295131,
0.251827,
0.038285,
0.036514,
-0.461999,
-0.295820,
-0.311297,
-0.313535,
-0.366574,
-0.241082,
0.194757,
0.103283,
0.108890,
0.000948,
0.017132,
0.013177,
-0.033884,
0.037808,
0.032501,
0.034021,
0.059014,
0.063081,
-0.063594,
0.214107,
0.048573,
0.091064,
0.295671,
-0.116372,
0.407696,
0.427828,
0.262720,
0.503648,
0.245470,
0.596787,
0.336143,
0.158421,
0.276088,
0.222255,
0.027345,
-0.005008,
0.066953,
-0.033692,
0.018010,
0.020678,
0.021277,
-0.014135,
-0.015928,
0.037618,
-0.036178,
0.064917,
0.223386,
0.479404,
0.700504,
0.835933,
0.726820,
0.920268,
1.450896,
1.064085,
1.119392,
1.005954,
1.457188,
1.343044,
1.104171,
1.192203,
0.836270,
0.683642,
0.276291,
0.026246,
0.083383,
0.013311,
0.026847,
-0.016385,
0.047177,
-0.005856,
-0.045707,
0.018485,
0.013850,
0.016411,
0.185546,
0.355504,
0.632702,
0.780292,
1.101965,
1.205541,
1.268512,
1.331209,
1.492135,
1.238983,
1.141013,
1.013950,
0.918332,
0.760345,
0.507180,
0.355112,
0.218402,
0.007490,
-0.036044,
0.049360,
-0.017726,
-0.048580,
0.011119,
-0.041246,
-0.014965,
0.008296,
0.002898,
-0.009631,
-0.004868,
0.085210,
0.178969,
0.152949,
0.146208,
0.072504,
0.044200,
0.063858,
0.249613,
0.113421,
0.117960,
0.110742,
0.115592,
0.105490,
0.069295,
0.030011,
0.023851,
-0.013199,
-0.015198,
-0.046583,
0.000803,
-0.003360,
