-0.040780,
0.041004,
0.012054,
0.015397,
-0.001959,
0.018180,
-0.048128,
-0.023333,
0.035481,
-0.001914,
0.022851,
-0.004195,
-0.015483,
0.021601,
0.032379,
-0.035593,
-0.045365,
0.033730,
-0.014508,
0.014998,
-0.040955,
0.035659,
0.019160,
0.017664,
-0.038530,
0.006786,
-0.022129,
-0.026965,
-0.010403,
-0.024611,
0.016997,
-0.001182,
-0.033601,
-0.020927,
-0.035568,
0.015181,
0.056790,
-0.025637,
0.047451,
0.036906,
0.018622,
0.018471,
-0.040242,
0.020666,
-0.006498,
-0.034354,
-0.034436,
-0.008217,
0.045824,
-0.000962,
-0.044761,
-0.046332,
-0.015806,
0.024162,
0.021249,
-0.004335,
-0.019052,
0.049120,
0.018725,
0.020561,
-0.025327,
-0.014140,
-0.029332,
-0.002261,
0.069392,
0.089765,
0.039488,
0.105684,
0.013776,
-0.068946,
-0.005625,
-0.258147,
-0.155227,
0.022264,
0.022354,
0.017777,
0.075376,
0.006292,
-0.004712,
0.031682,
0.025426,
-0.008795,
0.032142,
-0.041750,
-0.035074,
0.003391,
0.002380,
-0.004374,
0.002792,
-0.020896,
-0.011991,
0.134400,
0.220972,
0.356111,
0.559827,
0.700736,
0.498178,
0.398585,
0.659907,
0.185141,
-0.067901,
0.216406,
0.346213,
0.213353,
0.215672,
0.218597,
0.123135,
0.067089,
0.039488,
-0.013697,
0.057754,
-0.005089,
0.002366,
-0.002340,
-0.002225,
0.016505,
-0.058722,
-0.070379,
0.001914,
0.151497,
0.160575,
0.405685,
0.546474,
0.700452,
0.474869,
-0.023051,
0.037932,
0.056431,
0.105202,
0.349527,
0.517942,
0.138820,
0.131452,
0.108674,
0.081618,
0.097739,
0.271770,
0.178932,
-0.019433,
-0.039981,
0.008962,
0.031198,
-0.003187,
-0.063355,
-0.045703,
-0.117364,
0.031376,
0.187404,
0.499214,
0.721023,
0.516718,
0.665693,
0.615900,
0.144773,
0.018119,
-0.214012,
0.411276,
0.425949,
-0.137869,
0.008990,
-0.018247,
-0.326101,
-0.245579,
-0.097184,
0.036511,
0.317821,
0.077043,
0.054219,
-0.005460,
-0.046951,
0.073754,
-0.093685,
0.038249,
0.113908,
0.129270,
0.376736,
0.576680,
0.690674,
0.348017,
0.215963,
0.471689,
0.344721,
0.312269,
0.373084,
0.432498,
0.578124,
0.099194,
0.126094,
-0.061020,
-0.147976,
0.078572,
0.106090,
0.133264,
0.242274,
0.022055,
0.003072,
0.009932,
-0.017259,
0.043434,
-0.017083,
0.040651,
0.303844,
0.427954,
0.403005,
0.776226,
0.443021,
0.263446,
0.416868,
0.093829,
0.458141,
0.211162,
0.613826,
0.521479,
0.435868,
0.393371,
0.115382,
0.035923,
-0.070298,
0.115273,
0.128695,
0.396103,
0.285647,
0.008895,
-0.032955,
-0.005487,
0.025676,
0.041689,
-0.021121,
0.052080,
0.240860,
0.403450,
0.436762,
0.619178,
0.630061,
0.417562,
0.465218,
0.217120,
0.193899,
0.027451,
0.241028,
0.571480,
-0.057288,
0.284014,
0.358201,
0.375224,
0.326294,
0.324026,
0.540330,
0.669015,
0.329106,
0.047022,
0.040701,
-0.008513,
0.058234,
0.063247,
0.056303,
0.138913,
0.372157,
0.382030,
0.251425,
0.392194,
0.557251,
0.253536,
0.216434,
0.198416,
0.017827,
-0.294143,
-0.423433,
-0.085315,
0.103266,
0.249431,
0.499876,
0.388350,
0.408940,
0.547502,
0.580685,
0.370930,
0.158377,
0.043998,
0.046838,
0.018522,
-0.012416,
0.041288,
0.088746,
0.105534,
0.336283,
0.456313,
0.384930,
0.252943,
0.480403,
0.195828,
-0.126574,
-0.032845,
-0.552178,
-0.660905,
-0.947078,
-0.269922,
-0.133398,
0.416662,
0.215420,
0.523146,
0.345979,
0.419038,
0.355411,
0.311936,
0.049468,
0.058178,
-0.031934,
-0.013925,
0.009911,
-0.034006,
0.072466,
0.116999,
0.217288,
0.405668,
0.356285,
0.494000,
0.598919,
0.263266,
0.110858,
0.296912,
-0.484799,
-0.660938,
-1.027648,
-0.280528,
-0.092957,
0.139271,
0.265626,
0.425889,
0.427104,
0.338383,
0.185374,
0.074725,
0.046480,
0.053829,
-0.043722,
-0.023582,
0.027245,
-0.023312,
0.021487,
0.004713,
0.087444,
0.165350,
0.295271,
0.380833,
0.278020,
0.617878,
0.531334,
0.082168,
-0.437154,
-1.128519,
-0.868476,
-0.093338,
0.039367,
0.029808,
0.528714,
0.575225,
0.298877,
0.246461,
0.194176,
0.075079,
0.054584,
0.024610,
0.009103,
0.037351,
0.008757,
0.014250,
-0.029515,
-0.027722,
0.134512,
0.238359,
0.541496,
0.311488,
0.273502,
1.034878,
0.746032,
0.077690,
-0.284000,
-0.572403,
-0.641934,
-0.146360,
-0.403688,
0.314030,
0.937187,
0.691499,
0.463379,
0.395515,
0.171816,
0.085740,
-0.023307,
0.059534,
0.018766,
0.039023,
0.009941,
-0.024491,
0.031329,
-0.051884,
0.180426,
0.464740,
0.764824,
0.513856,
0.403555,
0.856049,
0.844604,
0.239784,
-0.321198,
-0.411611,
-0.510455,
-0.136497,
0.061083,
0.890543,
1.139298,
0.869455,
0.512072,
0.319115,
0.219156,
-0.003530,
-0.045180,
0.036262,
-0.015590,
-0.047341,
0.038383,
-0.047138,
0.047557,
0.038726,
0.245356,
0.590712,
0.716135,
0.481267,
0.430572,
0.496421,
0.271189,
-0.058866,
-0.458136,
-0.590414,
-0.019872,
-0.396709,
0.618039,
1.245851,
1.396899,
1.000599,
0.601169,
0.428982,
0.199441,
0.104382,
0.037331,
-0.046320,
0.021938,
0.019313,
0.045662,
-0.043697,
0.033337,
0.096006,
0.257102,
0.628194,
0.736949,
0.592790,
0.037618,
0.137927,
0.209966,
0.358900,
-0.201180,
-0.739531,
0.121193,
-0.211461,
0.987683,
1.067125,
1.149748,
0.879218,
0.534801,
0.445811,
0.294609,
-0.022733,
0.017407,
0.050933,
0.019688,
-0.047383,
0.042676,
-0.007102,
0.043078,
0.137374,
0.389330,
0.692386,
0.708179,
0.243531,
0.114525,
0.077947,
0.315552,
-0.076699,
-0.541939,
-0.800064,
-0.181962,
0.260558,
0.782365,
0.480999,
0.603095,
0.509031,
0.372562,
0.161563,
0.134105,
-0.092258,
0.015401,
-0.002945,
-0.001479,
-0.002441,
-0.019333,
-0.027423,
0.037317,
0.144503,
0.611536,
1.054712,
0.593400,
0.051849,
0.208030,
0.507134,
0.272286,
0.231551,
-0.080177,
-0.289520,
0.167460,
0.772083,
0.450904,
0.017623,
0.176841,
0.071644,
0.205856,
0.258723,
0.196234,
-0.052275,
-0.096057,
-0.017073,
-0.044579,
-0.012397,
0.025656,
0.021934,
0.093575,
0.229548,
0.861543,
0.718603,
0.147164,
0.233601,
0.135801,
0.142335,
0.250963,
0.319655,
0.030537,
0.384041,
-0.122337,
-0.167138,
0.319773,
0.004780,
-0.150681,
-0.049002,
0.198129,
0.347911,
0.096438,
-0.142117,
-0.111286,
0.043006,
-0.050372,
0.014185,
-0.025431,
-0.011237,
0.017833,
0.239964,
0.707197,
0.399261,
0.076940,
-0.084578,
-0.030024,
-0.191397,
-0.168514,
-0.189273,
0.219945,
-0.026846,
0.241116,
-0.210104,
-0.135537,
-0.295486,
-0.263043,
0.010260,
0.067081,
0.333906,
0.201701,
-0.052156,
0.001552,
-0.001745,
0.040270,
-0.033891,
-0.017444,
0.075069,
0.004534,
-0.086991,
-0.337080,
-0.176619,
-0.103152,
-0.021953,
-0.017641,
-0.282468,
0.322377,
0.194008,
0.273527,
-0.156732,
-0.050530,
0.031721,
0.112661,
-0.379181,
0.030327,
-0.118622,
-0.026360,
0.464923,
0.295313,
-0.008311,
-0.062545,
0.005188,
-0.017591,
-0.016441,
0.042877,
0.000714,
0.024543,
-0.117674,
-0.891880,
-0.493261,
0.038828,
-0.126803,
-0.140012,
0.279895,
0.596645,
0.597733,
0.536668,
0.117625,
0.044650,
-0.117302,
-0.254747,
-0.615235,
-0.085743,
-0.212756,
0.028267,
0.372437,
0.188784,
0.045072,
-0.015757,
0.001299,
0.013096,
-0.026950,
-0.040892,
0.048074,
0.108689,
0.101742,
-0.398315,
-0.491658,
-0.076915,
0.104720,
0.134264,
0.236342,
0.262428,
-0.026165,
0.322383,
0.485182,
-0.126610,
-0.201155,
-0.261602,
-0.017935,
0.000913,
0.071701,
0.206052,
0.134745,
0.199622,
0.049292,
0.003517,
-0.055293,
0.002619,
-0.018854,
-0.049129,
-0.033818,
0.059150,
0.057087,
-0.014511,
-0.027925,
0.084144,
0.397669,
0.317111,
0.506339,
0.629884,
0.814109,
0.863022,
0.699131,
0.632082,
0.940586,
0.295974,
0.163172,
0.032551,
0.157297,
0.096968,
0.111106,
0.035572,
0.046088,
0.021349,
0.007950,
0.009441,
-0.007707,
0.049895,
-0.037903,
0.024505,
-0.012067,
0.128384,
0.208715,
0.319239,
0.464136,
0.653846,
1.084863,
1.093314,
0.889214,
0.827018,
0.829452,
0.908762,
0.684177,
0.482535,
0.261848,
0.209398,
0.097345,
0.022284,
-0.009329,
0.007421,
0.048954,
-0.047721,
-0.035165,
0.041711,
0.030574,
0.023903,
0.001152,
-0.027044,
0.026515,
0.022128,
0.073718,
0.095265,
0.143558,
0.112032,
0.280745,
0.292963,
0.557394,
0.428480,
0.422263,
0.269350,
0.176369,
0.073698,
0.065152,
0.050684,
0.054216,
0.001878,
0.028603,
0.023553,
-0.047686,
-0.040558,
-0.022778,
-0.049373,
-0.038477,
-0.008065,
0.042338,
0.042098,
-0.034029,
-0.005990,
-0.034102,
0.041302,
-0.041164,
-0.035885,
0.022975,
0.074397,
0.022478,
0.057293,
-0.014306,
0.053723,
0.013056,
-0.018896,
-0.028527,
-0.021655,
0.008486,
-0.002492,
-0.044703,
0.003229,
0.044955,
0.032394,
-0.023626,
0.047257,
