-0.047223,
0.033077,
-0.001939,
0.013896,
0.041831,
0.033096,
-0.027808,
-0.005271,
-0.027577,
-0.001057,
0.027634,
0.049898,
-0.018459,
-0.035779,
-0.018590,
-0.015575,
-0.001822,
-0.022378,
-0.033645,
-0.006705,
-0.035742,
0.024318,
-0.036108,
-0.038548,
0.031426,
-0.010394,
-0.002705,
-0.033772,
-0.006978,
0.048099,
0.012869,
-0.004201,
0.031176,
-0.039071,
-0.040305,
0.023007,
0.044025,
-0.018113,
-0.032029,
-0.032648,
0.031543,
0.046164,
-0.033005,
-0.036986,
-0.038681,
-0.001622,
-0.003163,
0.009336,
0.030166,
0.015042,
-0.048379,
0.039637,
-0.012532,
-0.035044,
-0.048911,
-0.031105,
0.004561,
-0.001616,
-0.014877,
0.047584,
-0.003290,
0.048016,
-0.006617,
-0.022172,
-0.039322,
0.015873,
-0.035526,
-0.039025,
0.104922,
0.108485,
0.231451,
0.191015,
0.082772,
0.131661,
0.132119,
0.013482,
0.237072,
0.238970,
0.147546,
0.008969,
0.038145,
0.032197,
-0.001488,
-0.024422,
0.047153,
-0.000399,
-0.005527,
0.001714,
0.048009,
0.029953,
0.001598,
-0.002297,
0.045129,
0.115179,
0.155886,
0.163406,
-0.129521,
0.022386,
0.259853,
0.520184,
0.454236,
0.397824,
0.378044,
-0.079842,
0.086350,
0.122363,
0.114640,
-0.078140,
-0.037068,
-0.040535,
0.036960,
0.037748,
0.041662,
-0.014528,
-0.036674,
0.038933,
0.039104,
0.034225,
0.121108,
0.256095,
0.018948,
0.159636,
0.266438,
0.165366,
0.006565,
0.107092,
-0.102628,
0.259231,
0.243836,
0.144129,
0.197139,
0.139734,
-0.237163,
-0.118351,
-0.022459,
-0.028840,
-0.350119,
-0.189590,
0.022468,
-0.020181,
-0.043591,
0.009428,
-0.032285,
0.111767,
0.336016,
0.436864,
0.774555,
0.717426,
-0.028869,
0.298865,
0.416495,
0.187262,
0.406131,
0.408734,
-0.098271,
0.292408,
0.174940,
-0.266287,
-0.236321,
0.333775,
-0.359273,
-0.040665,
-0.643746,
-0.146387,
-0.221159,
-0.205736,
0.035783,
0.021135,
0.041862,
0.000149,
-0.047438,
0.184917,
0.373367,
0.429383,
0.716459,
0.442476,
-0.373776,
-0.264080,
0.055683,
-0.192878,
-0.292204,
0.424847,
-0.090669,
0.151919,
0.213370,
0.459267,
-0.065826,
-0.255941,
-0.042361,
0.132905,
0.038657,
0.015185,
-0.271910,
-0.490356,
-0.275773,
0.037339,
-0.037764,
0.050757,
0.008717,
0.074929,
0.501806,
0.391233,
0.283794,
0.654444,
-0.356227,
0.069864,
-0.018227,
-0.034016,
-0.052765,
0.072666,
-0.091092,
0.443654,
0.085550,
0.089769,
0.737869,
0.159279,
-0.128572,
0.082599,
0.188485,
-0.463378,
-1.003768,
-0.657052,
0.182281,
0.006836,
0.014820,
0.042892,
-0.016106,
0.304387,
0.642376,
0.294229,
0.050480,
0.526605,
-0.069161,
-0.358774,
0.535163,
-0.527188,
0.001221,
0.025824,
0.396711,
-0.003646,
0.205028,
-0.228195,
-0.329051,
-0.031169,
-0.458268,
-0.646177,
0.140601,
-0.572283,
-0.868353,
-1.065807,
0.141810,
0.088766,
-0.044341,
0.033508,
0.028500,
0.227995,
0.149902,
-0.129825,
-0.233353,
0.415088,
-0.127931,
-0.164732,
0.556313,
-0.515598,
0.279789,
0.296754,
0.321164,
0.634613,
0.713688,
0.164932,
0.055411,
0.670718,
0.496436,
-0.191817,
0.313097,
0.053947,
-1.161399,
-1.502291,
-0.316253,
-0.048243,
-0.016771,
0.010156,
-0.005562,
0.010530,
0.071776,
0.112400,
0.082608,
-0.033825,
-0.181759,
-0.090126,
-0.805014,
-0.334789,
-0.136015,
-0.841378,
-0.481154,
0.332665,
0.421970,
0.867984,
0.543018,
0.392539,
0.801569,
0.430915,
0.207394,
0.348563,
-0.412300,
-1.705306,
-0.475723,
-0.012848,
0.047372,
-0.017792,
0.004426,
-0.001776,
0.101730,
0.052926,
-0.140785,
-0.156520,
-0.647838,
0.180676,
-0.182515,
-0.348659,
-0.155423,
0.126831,
0.557381,
0.201191,
-0.095521,
0.363349,
0.296477,
0.610517,
1.283203,
1.068305,
1.387586,
0.885304,
0.267853,
-0.713001,
-0.216070,
0.033356,
-0.011214,
-0.029050,
-0.025347,
-0.002638,
0.031105,
0.166761,
-0.426006,
-0.322845,
0.104051,
-0.011526,
0.025887,
-0.323361,
-0.034183,
-0.260272,
-0.160241,
0.084439,
0.165548,
0.354864,
0.181477,
0.305041,
-0.043918,
0.286893,
0.946667,
1.132681,
0.602899,
-0.084155,
-0.012215,
-0.048669,
-0.044698,
0.028235,
0.044767,
0.000277,
0.032362,
0.382576,
-0.167012,
-0.398331,
-0.491008,
-0.054780,
0.253349,
-0.386983,
-0.054333,
0.008899,
0.195846,
0.299220,
0.843726,
0.191900,
-0.050421,
0.297354,
-0.088640,
-0.119556,
1.060585,
1.072456,
0.606930,
0.031048,
-0.026434,
0.002963,
-0.032288,
0.010197,
0.004779,
-0.020899,
0.020203,
0.473177,
0.177436,
-0.121445,
0.146414,
-0.262232,
-0.440870,
0.034769,
-0.607700,
0.304406,
0.262525,
-0.048740,
0.014754,
0.071126,
0.392393,
0.047640,
0.374390,
0.123299,
0.415291,
0.696873,
-0.164381,
0.097027,
0.041510,
-0.033047,
-0.010586,
0.040332,
0.020277,
-0.023088,
0.078497,
0.082901,
0.314965,
0.908222,
0.205520,
-0.025802,
-0.592655,
0.443877,
-0.124626,
0.433551,
-0.173049,
0.262990,
0.268608,
0.330814,
0.047497,
-0.275352,
-0.048205,
-0.048522,
0.606679,
0.004698,
-0.376479,
0.032805,
0.111570,
0.044883,
-0.011533,
0.005238,
-0.023886,
0.011887,
-0.103268,
0.103741,
0.632223,
1.214148,
0.544318,
-0.036262,
-0.000736,
0.139782,
0.033432,
0.011584,
0.172299,
-0.006971,
0.749124,
0.210669,
0.289509,
0.242531,
-0.041910,
-0.145313,
0.090138,
0.147519,
-0.262053,
-0.072846,
0.156879,
-0.032961,
0.017577,
0.020072,
-0.012480,
-0.023391,
-0.041704,
0.061044,
-0.150466,
-0.347400,
0.334621,
0.937082,
0.515732,
-0.279713,
0.814985,
0.545922,
0.677062,
0.120079,
-0.205534,
-0.145505,
0.167086,
0.343293,
0.156689,
-0.050165,
0.019524,
-0.296290,
-0.308552,
-0.096542,
0.169279,
0.015911,
-0.020969,
0.026250,
0.019575,
0.015326,
-0.005988,
-0.183787,
-0.870001,
-0.538032,
0.501433,
0.896452,
1.006823,
0.281488,
0.665201,
-0.228867,
0.305446,
-0.297974,
-0.175635,
0.005701,
-0.374019,
0.079469,
-0.063484,
0.127738,
0.270882,
-0.142351,
-0.147603,
-0.139476,
0.008785,
-0.049154,
0.002390,
-0.015812,
-0.530248,
-0.421995,
-0.366569,
0.774456,
-0.483714,
-0.390224,
-0.171745,
-0.130056,
-0.407857,
-0.277218,
-0.019772,
-0.545321,
-0.249742,
0.224714,
0.569211,
0.432490,
-0.171061,
-0.277990,
-0.067696,
-0.322677,
-0.200706,
-0.357638,
-0.293423,
0.069583,
-0.011600,
-0.023172,
-0.038933,
0.015233,
-0.370588,
-0.394523,
-0.312365,
0.376199,
0.347247,
-0.151737,
-0.449963,
-0.676778,
-0.143278,
-0.040836,
0.235914,
-0.256414,
0.738079,
0.619041,
-0.128283,
-0.282221,
0.638281,
0.038263,
0.170445,
0.412988,
-0.150124,
-0.628209,
-0.250617,
0.088070,
0.003082,
-0.007761,
0.040717,
-0.024264,
0.023723,
0.091918,
0.027428,
-0.312523,
-0.127844,
0.244165,
-0.479644,
-0.011056,
0.255242,
-0.358431,
0.318202,
-0.014218,
-0.287822,
-0.178460,
0.093181,
0.229490,
0.577011,
-0.170066,
-0.143714,
-0.021973,
-0.390578,
-0.466590,
-0.264851,
0.184089,
0.025494,
-0.038627,
-0.047642,
0.012353,
0.005254,
0.156804,
0.184904,
0.213087,
-0.223034,
-0.505023,
0.285086,
0.105859,
0.067135,
-0.184351,
-0.246838,
-0.074711,
-0.286320,
0.141877,
0.154934,
0.194095,
-0.551798,
-0.048021,
0.031481,
-0.252702,
-0.516515,
-0.401421,
0.073132,
0.129796,
-0.040442,
-0.044605,
0.009447,
0.021155,
-0.032761,
0.029761,
0.120191,
0.054654,
-0.139639,
-0.318084,
-0.062869,
-0.138573,
0.172946,
0.079599,
-0.429637,
0.328539,
-0.234106,
-0.186897,
-0.043010,
-0.036724,
0.332237,
0.431533,
0.007945,
0.093607,
-0.092328,
-0.049278,
0.008111,
-0.048990,
-0.045675,
0.018847,
-0.049084,
-0.036604,
0.024242,
0.012168,
-0.033520,
0.040158,
0.040532,
0.458184,
0.194839,
0.230736,
-0.342403,
-0.198464,
-0.183041,
0.115223,
-0.313161,
-0.188497,
0.208402,
0.106199,
-0.006639,
-0.134640,
-0.054673,
0.276205,
-0.095782,
0.048804,
-0.019575,
-0.048672,
-0.010703,
0.043624,
-0.047703,
-0.006543,
0.012471,
-0.046712,
0.008032,
-0.026148,
0.018571,
0.283302,
0.166442,
-0.065713,
-0.007577,
0.327014,
0.090765,
-0.048600,
-0.050017,
0.029456,
-0.026303,
-0.187110,
0.107344,
0.118630,
0.313501,
0.471529,
0.019483,
0.009199,
-0.004852,
-0.023408,
-0.024682,
0.016039,
-0.022080,
0.014614,
0.009662,
-0.019709,
-0.041101,
-0.024610,
-0.032149,
0.008097,
0.054910,
0.110998,
0.008599,
0.063318,
0.077360,
0.073252,
0.124362,
-0.065313,
-0.039607,
0.045261,
0.169906,
0.049617,
0.121466,
0.425974,
0.129602,
-0.024197,
-0.045767,
0.004218,
0.023359,
-0.002879,
0.030810,
0.048677,
-0.036841,
-0.041270,
0.013292,
0.023169,
-0.010236,
0.023095,
0.046960,
0.024982,
-0.008728,
0.009941,
0.029381,
0.002237,
-0.000996,
0.009827,
-0.033528,
-0.027700,
0.057042,
0.027210,
0.002834,
0.282514,
0.218389,
0.014054,
0.044134,
-0.018164,
0.039803,
0.048366,
