0.012152,
-0.019134,
0.045597,
0.006755,
-0.022086,
-0.002018,
-0.007075,
-0.046908,
-0.038197,
-0.034869,
0.046836,
0.033416,
0.041443,
0.062745,
0.002539,
-0.016344,
-0.030874,
0.018463,
-0.003022,
-0.044342,
-0.044070,
0.017051,
-0.012866,
-0.009279,
0.005872,
0.042186,
0.035211,
0.048499,
0.029195,
0.046875,
-0.016065,
-0.008652,
-0.022259,
-0.020464,
0.048385,
0.007007,
0.028282,
-0.007825,
0.013337,
0.061597,
0.061904,
0.035642,
0.037269,
0.048755,
0.121929,
0.054769,
0.063068,
0.046348,
0.069956,
0.008566,
0.069184,
0.053403,
0.037054,
-0.037782,
-0.009613,
-0.007074,
-0.045596,
-0.024402,
-0.008324,
0.033615,
-0.027479,
0.025448,
-0.024206,
0.003293,
-0.040241,
-0.015847,
-0.008123,
0.132760,
0.165161,
0.204842,
0.263835,
0.243854,
0.302062,
0.281587,
0.177686,
0.161736,
0.102178,
0.039461,
0.061503,
0.035398,
0.003211,
-0.034727,
0.013133,
-0.010317,
-0.022768,
-0.046480,
0.033183,
-0.017902,
-0.020642,
-0.021221,
-0.026014,
0.018567,
0.102186,
0.101817,
0.119223,
0.228843,
0.404312,
0.452468,
0.785727,
0.815199,
0.754080,
0.601484,
0.397479,
0.359649,
0.183610,
0.100350,
0.066077,
0.032773,
-0.007288,
-0.046061,
-0.013907,
0.042405,
-0.032057,
0.049208,
-0.017803,
-0.004235,
-0.042438,
0.000752,
0.057861,
0.118348,
0.253718,
0.504935,
0.645623,
0.790812,
1.145902,
1.377918,
1.712985,
1.820686,
2.161699,
1.728780,
1.174715,
0.965179,
0.699164,
0.591895,
0.365054,
0.185762,
0.080336,
-0.021570,
0.014062,
-0.032739,
-0.026362,
0.049087,
-0.040186,
0.006631,
0.124287,
0.277716,
0.514378,
0.757518,
0.894906,
1.250402,
1.137945,
0.181356,
0.147124,
0.229372,
1.322422,
1.593087,
2.926384,
2.516942,
2.568808,
2.172512,
1.801724,
1.859878,
1.626414,
1.234418,
0.616066,
0.098263,
0.046051,
0.003924,
-0.011903,
-0.002721,
0.026717,
0.099669,
0.326011,
0.937762,
1.300200,
1.893781,
1.728647,
1.110095,
0.771789,
-0.014222,
-0.580396,
-1.318925,
-1.386596,
-1.213905,
-1.757946,
-1.320348,
-0.906060,
-0.049195,
0.143988,
1.194775,
2.212435,
2.159499,
1.344247,
0.482451,
0.164074,
0.040295,
0.016469,
0.049345,
-0.006665,
0.189756,
0.755395,
1.657272,
1.760293,
1.750936,
0.845207,
0.684595,
0.421114,
0.316745,
-0.617218,
-1.491277,
-2.269106,
-2.535763,
-2.285486,
-0.856289,
-0.164807,
0.304587,
-0.049274,
0.199060,
1.399446,
1.919740,
1.870258,
0.974983,
0.271305,
0.070136,
-0.000368,
-0.002103,
0.128557,
0.564039,
1.072046,
1.276628,
0.913423,
1.026799,
0.329124,
0.921869,
0.630646,
0.970048,
0.496044,
-0.898541,
-1.147377,
-1.165572,
-0.735125,
0.227314,
0.014739,
0.752831,
0.451617,
-0.300188,
0.723072,
1.407525,
1.651205,
1.075127,
0.219616,
0.041632,
0.045128,
0.037796,
0.209060,
0.658396,
1.366888,
0.845156,
-0.112402,
0.545884,
0.631164,
0.363070,
0.043459,
-0.010987,
0.169168,
-0.075506,
-0.911427,
-0.782219,
0.789395,
0.568775,
0.315072,
0.680668,
0.274663,
0.563123,
0.901540,
1.597465,
1.734664,
0.939160,
0.266897,
0.085464,
0.017038,
0.090503,
0.291739,
0.798976,
1.372190,
0.389932,
-0.144228,
0.299502,
-0.363933,
0.343382,
-0.450015,
-0.285823,
0.491544,
0.649664,
-0.013892,
0.936783,
0.772768,
0.700081,
0.134870,
-0.196114,
0.237677,
0.349893,
0.254768,
1.110162,
1.832088,
0.810738,
0.363602,
0.140189,
0.019262,
0.154390,
0.676539,
1.150571,
0.977801,
-0.319660,
-0.253709,
-0.778926,
-1.343328,
-0.624532,
-0.577865,
-0.327331,
0.595731,
0.743820,
1.003764,
0.028867,
-0.051146,
-0.539750,
-0.343581,
-0.590575,
-1.609013,
-1.315156,
-0.706852,
0.950230,
1.395835,
0.759275,
0.289155,
-0.012996,
-0.033223,
0.134061,
0.820888,
1.288993,
0.181484,
-0.923751,
-0.970219,
-0.687209,
-0.431505,
-0.662140,
-0.388097,
-0.023972,
0.303400,
-0.184584,
-0.793989,
-1.079641,
-0.242842,
-0.807073,
-0.805807,
-1.405171,
-1.282674,
-1.442452,
-1.300097,
0.003860,
1.229732,
0.832582,
0.315870,
0.026371,
0.047769,
0.077241,
0.575808,
0.841540,
-0.480131,
-1.318487,
-0.752869,
-0.782871,
-0.692794,
-0.717457,
-0.328788,
-0.209395,
0.002156,
-0.100068,
-0.864200,
-1.030646,
-0.888591,
-0.358167,
-0.791030,
-1.156475,
-0.713802,
-0.940667,
-0.263000,
1.158632,
1.517503,
0.715462,
0.225426,
-0.004410,
0.009553,
0.013190,
0.310752,
0.213102,
-0.491487,
-0.429441,
-0.538265,
-0.241498,
-0.289822,
-0.254913,
-0.160086,
-0.426779,
-0.350149,
-0.021709,
-0.181490,
-0.598038,
-0.076736,
-0.188087,
0.233016,
0.491898,
0.214965,
-0.034321,
0.561437,
1.653096,
1.485010,
0.342706,
0.149633,
-0.035767,
0.014604,
-0.023742,
0.195661,
0.300758,
-0.419329,
0.266055,
0.493478,
0.309392,
-0.113018,
0.000567,
-0.381155,
-0.484662,
-0.514657,
0.208591,
1.108958,
0.165571,
-0.316836,
-0.189788,
0.237941,
0.431905,
0.397737,
0.611654,
0.702079,
1.487388,
1.334316,
0.452313,
0.106781,
-0.029993,
-0.020324,
-0.025533,
0.084737,
0.224967,
-0.502216,
0.097299,
1.017957,
0.451588,
-0.273452,
0.016492,
-0.832156,
-0.706654,
-0.412490,
0.628931,
0.995165,
0.693084,
-0.336747,
0.330098,
0.134516,
0.897764,
0.652501,
1.180131,
0.775627,
1.592205,
1.374263,
0.534015,
0.120987,
0.053182,
0.040557,
0.031772,
0.100296,
0.388536,
0.382286,
0.680664,
0.624144,
-0.214632,
-0.484506,
-0.223313,
-0.428079,
-0.471350,
-0.293865,
0.488874,
1.139979,
-0.144331,
0.606909,
0.393272,
0.275195,
0.775956,
0.352725,
0.805682,
1.142519,
1.527230,
1.283118,
0.409421,
0.051269,
0.001657,
0.013603,
-0.001146,
0.152105,
0.706090,
0.887980,
1.237246,
0.649768,
0.236748,
0.179415,
0.021902,
-0.587498,
-0.762467,
0.347596,
0.534945,
0.052702,
-0.028837,
0.396422,
0.329306,
0.682561,
0.405518,
0.083213,
0.753776,
1.250391,
1.416250,
1.023351,
0.323099,
0.055278,
0.051365,
0.046822,
0.064006,
0.169274,
0.575742,
0.905578,
0.904317,
0.907103,
0.794363,
0.859736,
1.078180,
0.866697,
0.177933,
0.395736,
0.459294,
1.051379,
1.234021,
0.314610,
0.820623,
0.631836,
0.378585,
0.313810,
0.870693,
1.090680,
1.103813,
0.657921,
0.307919,
0.062067,
0.024513,
-0.007848,
0.012947,
0.180831,
0.454232,
0.626692,
0.423576,
0.950676,
1.409544,
1.546121,
1.980155,
2.380417,
1.602323,
1.862635,
0.867064,
1.295348,
1.149645,
1.031260,
1.150413,
0.614558,
0.095246,
0.542764,
0.888514,
0.758369,
0.607916,
0.281797,
-0.043738,
0.087013,
-0.037013,
-0.006388,
0.000013,
0.176308,
0.510062,
0.494814,
0.535076,
0.811351,
1.078544,
0.894071,
0.874929,
1.049307,
1.660541,
0.952923,
0.944968,
0.883497,
0.810645,
1.031891,
1.196667,
0.889262,
0.637980,
0.294961,
0.384320,
0.329222,
0.143923,
-0.004142,
-0.030582,
-0.003338,
0.032451,
-0.016970,
0.041164,
0.173161,
0.362753,
0.441302,
0.876639,
1.177680,
1.130586,
0.228224,
0.124015,
-0.004122,
0.161144,
-0.126670,
0.367021,
0.247604,
1.280510,
0.940176,
1.009474,
0.818981,
1.587321,
0.668311,
0.431564,
-0.262953,
-0.359619,
-0.125878,
-0.001324,
-0.015388,
-0.028527,
0.007292,
-0.019220,
0.002588,
0.160227,
0.397360,
0.664710,
0.832913,
0.945706,
0.034902,
0.888379,
0.365688,
0.656657,
0.540206,
0.797916,
0.635556,
1.045983,
0.739410,
0.882094,
1.183944,
0.872517,
0.340021,
-0.345850,
-0.961323,
-0.701093,
-0.280856,
0.042441,
0.039819,
-0.042830,
-0.025573,
0.045358,
-0.010365,
0.106962,
0.052330,
-0.060683,
0.199736,
0.368783,
0.469995,
0.723274,
0.761317,
1.237928,
1.110117,
1.521391,
1.609708,
0.743123,
0.484685,
0.018129,
0.036707,
-0.390461,
-1.358032,
-1.392215,
-1.277178,
-0.923094,
-0.049158,
0.000691,
0.015521,
-0.011437,
-0.045254,
0.049728,
-0.009995,
0.015512,
0.079600,
-0.346360,
-0.167856,
0.473093,
0.358986,
0.416943,
0.069275,
0.222148,
-0.597155,
-0.342111,
-0.191537,
-0.196749,
-0.789719,
-1.500316,
-1.826205,
-2.014717,
-2.646556,
-1.801347,
-0.779235,
-0.390984,
-0.024907,
-0.006116,
0.063122,
0.044582,
-0.004583,
-0.043695,
-0.016855,
-0.004919,
-0.231639,
-0.214228,
-0.381676,
-0.393009,
-0.421820,
-0.179014,
0.173306,
0.535469,
-0.170467,
-0.055429,
-1.051684,
0.029582,
-0.250128,
-0.326852,
-0.644393,
-0.653264,
-1.022384,
-0.395835,
-0.146605,
-0.104576,
-0.000185,
-0.026957,
-0.000725,
0.038532,
0.010108,
-0.024842,
0.033114,
-0.044476,
-0.018187,
0.004431,
0.038362,
-0.056425,
0.039832,
0.008507,
0.048965,
0.149387,
0.257640,
0.578619,
0.416107,
0.445868,
0.446195,
0.457422,
0.397566,
0.086215,
-0.076755,
0.033127,
0.019401,
0.049836,
-0.011550,
-0.039523,
-0.045132,
0.042612,
