-0.034392,
-0.016440,
0.032327,
0.049890,
0.038301,
0.028684,
-0.046851,
-0.021503,
0.014726,
-0.031555,
-0.040500,
-0.003955,
-0.023487,
-0.038471,
-0.029686,
0.035829,
0.034395,
0.040059,
0.020650,
-0.029370,
0.033997,
-0.018949,
0.003516,
-0.029733,
-0.041198,
0.013595,
0.036419,
-0.033641,
-0.004013,
-0.011745,
0.000735,
0.011594,
0.021815,
-0.016938,
0.011484,
0.010316,
-0.037574,
0.015557,
0.039337,
0.027210,
0.033714,
0.049648,
-0.026619,
-0.039378,
-0.038814,
-0.006423,
0.046190,
0.045138,
-0.015357,
0.016738,
-0.035056,
-0.033113,
0.047122,
0.018182,
-0.012846,
-0.044075,
-0.018223,
-0.026427,
-0.027717,
0.027763,
0.011828,
0.023062,
-0.010442,
-0.015917,
-0.042072,
-0.045546,
0.051095,
-0.023917,
0.026879,
0.083871,
0.142273,
0.059046,
0.138416,
0.092978,
0.288136,
0.310923,
0.039360,
0.015211,
0.035247,
0.188848,
0.035684,
0.048828,
-0.040580,
-0.033241,
0.017010,
-0.003426,
-0.027316,
0.048786,
0.020147,
-0.004155,
0.029356,
-0.013221,
-0.017445,
-0.010808,
0.074315,
0.000621,
-0.038642,
0.041178,
0.384070,
0.317401,
0.784175,
1.223780,
1.152951,
0.696275,
0.529054,
0.282044,
0.022523,
0.129872,
0.017564,
0.046515,
-0.044818,
0.012128,
0.045342,
-0.035398,
0.028887,
0.012470,
0.048363,
0.031544,
0.118794,
-0.081376,
-0.174129,
-0.391972,
0.125183,
0.505494,
0.692790,
0.292010,
0.726147,
0.514005,
-0.279336,
0.714761,
0.349596,
0.431621,
0.921087,
0.399322,
0.733719,
0.295562,
0.052124,
0.036589,
-0.017673,
-0.035236,
0.011135,
-0.012492,
0.027189,
0.008614,
0.012974,
0.310106,
0.478617,
0.625608,
0.935926,
1.014990,
0.735940,
0.277205,
-0.161859,
0.437889,
-0.699146,
0.271894,
-0.164016,
-0.140895,
-0.405319,
-0.094370,
-0.069816,
-0.050265,
0.846906,
0.424830,
0.261137,
-0.029128,
-0.048234,
0.000139,
0.022041,
-0.043834,
0.014949,
-0.011929,
0.004644,
0.327048,
0.556226,
0.718012,
0.521808,
0.323189,
0.211329,
-0.036085,
0.102361,
-0.668299,
0.219386,
-0.039085,
0.418956,
-0.892818,
0.466702,
0.482103,
0.495490,
-0.337852,
-0.168664,
-0.196459,
0.139115,
0.340116,
0.313643,
0.115117,
0.036207,
0.049988,
-0.008693,
0.019679,
0.120621,
0.429745,
0.909175,
0.254900,
-0.542643,
0.240830,
0.141279,
-0.018999,
0.559942,
0.090474,
0.078390,
-0.313144,
0.373771,
0.565953,
0.759750,
-0.395160,
0.438321,
-0.301889,
0.392610,
-0.815785,
0.606579,
0.768967,
0.136525,
0.102330,
0.020372,
0.015138,
0.036294,
0.034632,
0.573000,
1.079669,
0.135529,
-0.104892,
-0.286002,
-0.796050,
0.065264,
0.095779,
0.309999,
0.117221,
0.644128,
0.341954,
-0.150735,
0.388408,
-0.107477,
-0.475154,
0.449836,
0.312323,
-0.202124,
-0.284901,
0.045888,
0.940485,
-0.121093,
0.005241,
0.003632,
0.098522,
0.026467,
0.024623,
0.342260,
0.175289,
-0.556370,
0.655525,
-0.280138,
-0.009971,
-0.249717,
-0.179670,
-0.249464,
0.105261,
0.196656,
0.871702,
0.106705,
-0.600360,
0.892885,
-0.187180,
0.265193,
-0.517033,
-0.631385,
-1.011500,
0.120084,
0.767063,
0.181149,
0.003334,
-0.007907,
0.050704,
-0.002195,
0.197698,
-0.103213,
-0.265840,
-0.791842,
-0.784104,
-0.256007,
-0.100470,
-1.603266,
0.685336,
-0.419295,
0.830882,
0.711658,
1.306814,
0.176496,
0.571877,
0.370969,
-0.783110,
-0.095079,
-0.816324,
-0.789475,
-0.941694,
0.173856,
0.789664,
0.036782,
-0.039028,
0.023531,
-0.005646,
0.038440,
0.241087,
-0.245299,
-0.079809,
-0.401190,
-0.829580,
-0.336116,
0.239566,
-0.463617,
0.069894,
-0.953631,
-1.172131,
0.449707,
0.902390,
0.933180,
0.084357,
-0.423138,
-0.059852,
-0.484112,
0.036660,
-1.074757,
-0.195874,
-0.426517,
0.566254,
-0.039946,
0.029927,
0.023639,
-0.027740,
-0.025248,
0.249852,
-0.492965,
-0.678012,
0.213733,
-0.030888,
0.498616,
-0.073846,
0.395289,
-0.253366,
-0.160838,
-0.260409,
-0.330435,
-0.930747,
0.046497,
0.293522,
-0.153992,
-0.844592,
-0.271517,
-0.661029,
-0.487386,
-0.293651,
-0.122664,
0.143497,
-0.039097,
0.010904,
-0.046631,
-0.028933,
0.044954,
0.129221,
0.218535,
0.200103,
0.420653,
0.593827,
0.037986,
0.559877,
0.632727,
0.361939,
-0.619105,
-0.059384,
0.154968,
-0.413776,
0.076600,
0.907547,
0.982247,
0.581675,
0.453328,
-0.070226,
-0.721280,
0.547482,
0.395734,
-0.037497,
-0.042558,
0.041264,
-0.031578,
0.044952,
0.040042,
-0.023567,
0.339793,
0.851403,
1.232126,
0.320655,
0.442113,
0.386192,
0.550666,
-0.937747,
-0.340060,
0.470938,
0.127256,
0.377976,
-0.403454,
-0.239878,
0.212912,
0.486014,
1.111500,
0.691615,
-0.049474,
0.579498,
0.254542,
0.091850,
-0.035347,
-0.030634,
-0.029351,
-0.028842,
-0.039009,
-0.006118,
0.266901,
0.581922,
0.852212,
0.354114,
1.136644,
0.415826,
0.184894,
-0.235510,
-0.232439,
-0.425242,
0.305415,
-0.096009,
0.262191,
0.330536,
0.278158,
0.121458,
0.525257,
0.775982,
0.508716,
0.610627,
-0.169663,
0.112998,
0.173508,
-0.015174,
0.020983,
0.003290,
-0.001159,
0.052210,
0.176832,
0.195883,
0.491126,
0.624540,
1.078153,
0.089833,
-0.103710,
-0.199204,
0.641612,
-0.809525,
0.353044,
-0.618669,
-0.688472,
0.893197,
0.783712,
-0.072826,
-0.669133,
0.112891,
0.668860,
0.230615,
0.113004,
0.227829,
0.225710,
-0.012303,
0.015939,
0.042043,
0.006799,
0.046483,
0.063771,
0.361726,
0.482986,
-0.209476,
-0.237507,
0.157066,
-1.173103,
0.090822,
-0.302816,
0.124256,
-0.404924,
0.535591,
0.929626,
-0.284332,
0.635944,
1.080957,
0.096721,
0.533705,
0.078217,
0.770252,
-0.130883,
0.271233,
0.201098,
0.003732,
0.035453,
0.021283,
0.020863,
0.222645,
0.288169,
0.230355,
0.783571,
-0.376335,
-0.476155,
-1.023569,
-0.832216,
-0.492243,
-0.185985,
0.366031,
0.798516,
0.419643,
-0.403970,
0.564649,
0.550397,
0.210064,
0.556433,
0.369763,
-0.086308,
0.365279,
0.208765,
0.045834,
0.034233,
0.039262,
0.044042,
-0.020118,
-0.025243,
0.146449,
0.521865,
0.273233,
1.083086,
0.726605,
0.149616,
-0.163765,
0.292631,
-0.463470,
0.027732,
0.935138,
0.436195,
0.324261,
0.297498,
0.520779,
0.759589,
-0.199871,
1.145262,
-0.642509,
-0.124452,
-0.317692,
0.477575,
0.304858,
0.080606,
0.012756,
-0.012597,
0.033967,
-0.005991,
0.191751,
0.833880,
-0.513146,
-0.304510,
-0.185054,
0.392710,
0.181090,
0.190930,
0.499060,
0.109071,
0.789138,
0.532259,
0.386901,
0.461065,
0.153894,
0.017440,
-0.256214,
-0.103398,
-0.728711,
-0.095151,
-0.122652,
0.060037,
0.292873,
0.269793,
-0.000340,
0.045963,
0.022956,
-0.036254,
0.173926,
1.244660,
0.254276,
-0.342857,
-0.181874,
-0.987069,
-0.125423,
0.807464,
0.455029,
0.220889,
-0.109750,
-0.159550,
0.197014,
0.067088,
-0.543676,
-0.223129,
0.144342,
0.506133,
0.193728,
-0.339241,
-0.346614,
0.070700,
0.133845,
0.092904,
-0.000003,
0.006054,
0.034690,
0.051572,
0.046889,
1.036755,
0.346556,
-0.578421,
0.237039,
0.892641,
0.818922,
0.022217,
0.191452,
-0.408439,
-0.390947,
0.521872,
0.400297,
0.429721,
0.644793,
-0.669469,
-0.052438,
0.566864,
0.404435,
-0.800727,
-0.105833,
0.023218,
0.046104,
-0.043527,
-0.033782,
0.011293,
0.041688,
0.016890,
0.022971,
0.664194,
0.454168,
1.055573,
1.070065,
0.152563,
0.165875,
-0.611523,
-0.425320,
-0.515365,
-0.581327,
0.268387,
-0.225420,
0.203149,
0.116577,
-0.058083,
-0.111754,
0.196204,
-0.549074,
-0.055664,
-0.070820,
0.056651,
-0.026322,
-0.004741,
0.027143,
-0.034632,
-0.004865,
0.043361,
0.141951,
0.604688,
0.862742,
0.981362,
0.567818,
0.082987,
-0.197173,
0.248395,
0.659949,
0.512277,
-0.042239,
-0.402484,
-0.518645,
-0.828991,
0.249963,
-0.401550,
-0.460993,
0.017088,
0.029129,
0.266510,
0.049954,
-0.022397,
0.022107,
-0.049716,
-0.030787,
0.044469,
-0.009565,
0.046356,
-0.040088,
0.053356,
0.174957,
0.426183,
0.721611,
0.668471,
0.956027,
1.095384,
1.217772,
0.872697,
0.999093,
0.590383,
0.474265,
0.458667,
0.437813,
0.255709,
-0.173905,
0.125411,
0.105746,
0.026098,
0.171541,
0.058940,
-0.030540,
0.027846,
0.042224,
0.041567,
0.028130,
-0.038563,
0.040211,
-0.002245,
-0.011597,
0.184310,
0.217388,
0.353711,
0.562985,
0.473500,
0.519079,
0.679532,
0.898278,
0.806547,
0.493927,
0.451565,
0.425328,
0.149851,
0.028257,
0.012419,
0.096697,
0.013085,
0.008554,
0.042809,
0.025142,
-0.030798,
0.010161,
0.044603,
0.047048,
0.002385,
0.036170,
0.025178,
0.014168,
0.023024,
0.045327,
0.071500,
0.193650,
0.206061,
0.120420,
0.270751,
0.176082,
0.073960,
0.060945,
0.117750,
0.008095,
-0.005209,
-0.009878,
-0.011615,
0.094741,
0.040662,
-0.005510,
-0.007373,
0.037010,
-0.038336,
-0.014564,
