0.041790,
0.003596,
0.047884,
-0.046687,
0.045531,
0.040222,
0.045411,
-0.038631,
-0.016288,
-0.039624,
-0.048995,
-0.009586,
-0.028353,
0.015204,
-0.011897,
0.006859,
-0.035288,
0.015776,
0.004632,
0.022243,
0.042011,
0.021405,
0.049415,
0.000309,
-0.031220,
-0.045434,
-0.046485,
-0.036265,
0.036960,
-0.020111,
-0.039008,
0.028750,
0.033485,
-0.041125,
0.032063,
0.035615,
0.119691,
0.170798,
0.135413,
0.000014,
0.051557,
0.058638,
0.047812,
-0.071155,
-0.103199,
-0.015441,
0.027749,
0.028393,
0.036984,
-0.019109,
-0.000605,
0.019113,
0.042395,
-0.007037,
-0.030579,
-0.038826,
-0.002471,
-0.027064,
-0.025091,
-0.015511,
0.003849,
-0.010672,
-0.021361,
0.007890,
0.135664,
0.198016,
0.110149,
0.018887,
-0.177378,
-0.083801,
0.616183,
0.814775,
0.540684,
0.362818,
0.444942,
0.383896,
0.156897,
0.057798,
-0.003434,
-0.031457,
-0.001623,
0.018546,
-0.042557,
-0.000134,
-0.038491,
-0.023135,
0.011040,
0.009038,
-0.000093,
0.102748,
0.185676,
-0.003285,
0.011119,
-0.243724,
-0.453817,
-0.557816,
-0.191881,
-0.049211,
0.032721,
0.410222,
0.141639,
0.682565,
0.671761,
0.385774,
-0.016920,
0.126024,
-0.005207,
0.056505,
-0.007548,
-0.014242,
-0.013357,
0.049549,
-0.045697,
-0.005913,
-0.000585,
-0.032540,
0.047000,
-0.019636,
-0.048714,
-0.407721,
-0.227562,
-0.557627,
-0.250560,
0.305059,
0.168307,
-0.117157,
-0.211005,
-0.047119,
-0.007094,
0.241779,
0.390329,
0.198196,
0.246154,
0.202733,
0.558177,
0.131456,
0.144345,
0.057062,
-0.032042,
-0.014800,
0.030128,
0.004602,
-0.013314,
0.055671,
0.023895,
-0.182520,
-0.348294,
-0.126670,
-0.380238,
-0.074426,
0.103762,
-0.014507,
-0.225426,
-0.283314,
-0.197920,
-0.015024,
-0.324201,
-0.267883,
-0.393760,
0.154450,
0.039954,
0.377760,
0.490101,
0.334894,
0.043677,
-0.080646,
0.043345,
-0.021468,
-0.002826,
-0.040292,
0.011734,
0.212976,
0.070806,
-0.158335,
0.203793,
-0.021231,
-0.089696,
0.178596,
0.046953,
0.113857,
0.154837,
-0.161734,
0.073916,
-0.288821,
-0.116710,
0.083625,
-0.047174,
0.050268,
0.129734,
0.147925,
0.072966,
0.508403,
0.366736,
0.059005,
-0.008609,
-0.017096,
0.027621,
-0.023748,
-0.078659,
0.171157,
-0.021534,
0.016511,
0.451539,
-0.113084,
-0.492567,
0.365952,
-0.148308,
-0.445628,
-0.016669,
0.051205,
0.182881,
0.119906,
0.028562,
0.560146,
0.305093,
0.329524,
0.167684,
-0.120541,
0.036835,
0.693362,
0.490426,
0.292890,
0.018733,
0.033355,
-0.001884,
0.041657,
-0.086780,
0.237191,
-0.184863,
-0.230308,
0.256206,
0.012293,
0.069108,
-0.120773,
-0.444913,
0.005695,
0.329825,
0.203485,
0.034024,
0.103098,
0.104783,
-0.337273,
-0.238695,
-0.181775,
-0.143829,
-0.028332,
-0.371613,
0.544823,
0.670425,
0.398953,
0.014576,
-0.022037,
-0.029847,
-0.025120,
0.031940,
0.160547,
0.043586,
-0.351478,
0.103322,
0.094248,
-0.070200,
-0.266108,
0.165948,
-0.015080,
-0.119482,
-0.442855,
-0.339261,
0.268125,
0.496588,
0.005112,
-0.346352,
-0.034992,
-0.122866,
0.242676,
0.077857,
0.279420,
0.210083,
0.215400,
0.015348,
0.043959,
0.041985,
-0.019014,
0.037230,
0.159933,
0.282933,
-0.336514,
0.320552,
0.080913,
-0.142511,
-0.356452,
-0.029596,
0.000342,
-0.040806,
0.736056,
0.466597,
0.017939,
0.261227,
0.045997,
0.298991,
0.007052,
-0.332770,
-0.186367,
0.103520,
0.251387,
-0.114616,
0.067649,
-0.036874,
-0.015567,
-0.031032,
0.016842,
-0.013537,
0.178559,
0.190811,
-0.221072,
0.533785,
0.670296,
0.911052,
1.088033,
0.592127,
0.528252,
0.025721,
0.768910,
0.727556,
-0.000736,
-0.114691,
0.071944,
0.553337,
0.123303,
0.016760,
0.164112,
0.301666,
0.263734,
-0.348591,
-0.255394,
0.029320,
-0.020326,
0.017408,
0.041387,
0.022649,
0.292182,
0.234515,
0.499731,
1.077680,
0.901673,
0.771873,
0.357913,
0.785799,
0.427589,
0.388400,
0.363094,
-0.221227,
0.499213,
0.406476,
0.322877,
0.241847,
0.233941,
0.125525,
0.037778,
0.441401,
0.279441,
0.031860,
-0.328702,
-0.282701,
-0.031286,
0.041957,
-0.039230,
0.007082,
-0.080180,
0.450373,
0.714308,
0.575849,
0.561146,
0.758124,
0.590510,
-0.177611,
-0.023451,
0.419872,
0.002586,
0.700894,
0.382801,
-0.277007,
0.003713,
-0.184908,
0.190327,
-0.240934,
0.161352,
0.170685,
-0.282915,
-0.165828,
-0.109712,
-0.171504,
0.041249,
0.032355,
0.003279,
-0.033088,
-0.118971,
0.167759,
0.325349,
0.126140,
-0.365297,
-0.085358,
0.360316,
0.601079,
0.353488,
-0.152357,
0.348779,
0.085382,
0.088870,
0.571241,
-0.191982,
0.053519,
0.704730,
0.136301,
0.469992,
0.388390,
0.234974,
0.244809,
0.143571,
-0.062470,
0.007570,
0.002878,
-0.045749,
0.003873,
-0.201622,
-0.212605,
0.041746,
-0.209480,
-0.732024,
-0.575316,
-0.403800,
-0.065607,
-0.744329,
0.043929,
-0.130595,
-0.068147,
-0.090554,
0.251220,
0.332427,
0.033362,
-0.132455,
-0.235128,
-0.032384,
0.520778,
0.844658,
0.395259,
-0.419936,
-0.533057,
0.048196,
0.031074,
0.037432,
0.021717,
-0.323456,
-0.212070,
-0.524342,
0.057450,
-0.268770,
0.064710,
-0.014120,
-0.305054,
0.041566,
-0.416499,
0.035536,
0.097007,
-0.564996,
-0.012850,
-0.063570,
0.429540,
-0.227963,
-0.032244,
-0.108109,
0.011415,
0.439724,
-0.281525,
-0.710830,
-0.513534,
0.036796,
0.023659,
0.040381,
0.053603,
-0.089479,
-0.058427,
-0.515061,
-0.411957,
-0.001917,
0.396047,
-0.069999,
0.189536,
-0.310546,
-0.185109,
-0.198882,
0.028510,
-0.151322,
0.134400,
-0.295882,
0.075967,
0.456114,
0.215596,
-0.189193,
-0.627628,
-0.500602,
-0.193575,
-0.266947,
-0.495964,
-0.017121,
-0.048668,
0.040691,
-0.016785,
0.471163,
0.191510,
-0.052031,
-0.202472,
-0.499182,
-0.077574,
-0.024173,
-0.342622,
0.104372,
-0.653106,
-0.074684,
-0.252822,
-0.264883,
0.002392,
-0.236908,
-0.316818,
-0.105929,
-0.062628,
0.087154,
-0.687895,
-0.056056,
-0.139919,
-0.371171,
-0.086003,
0.030093,
-0.007245,
0.004385,
0.005631,
0.451176,
-0.078097,
-0.064251,
0.043377,
-0.756061,
-0.427489,
0.071275,
-0.224410,
-0.521559,
-0.027083,
-0.096288,
-0.229900,
-0.099270,
-0.008902,
0.331575,
0.168605,
0.139994,
-0.114886,
-0.028810,
-0.197487,
0.164577,
-0.042832,
-0.253203,
0.014303,
0.020687,
0.019906,
-0.020068,
-0.050270,
0.235259,
-0.162835,
-0.010208,
-0.430302,
0.039597,
-0.194192,
-0.130640,
-0.023562,
-0.383020,
0.177439,
-0.130178,
-0.051993,
-0.039127,
-0.159425,
0.203341,
-0.002886,
0.067681,
-0.200811,
-0.304652,
0.142893,
-0.274476,
-0.112220,
-0.132837,
-0.117868,
-0.028190,
0.048790,
0.038932,
-0.025332,
0.300073,
0.135312,
-0.037521,
-0.234038,
0.280132,
0.645061,
-0.205857,
-0.154923,
-0.382472,
-0.181680,
0.110159,
0.303255,
0.587988,
0.058952,
-0.151943,
-0.107512,
-0.373633,
-0.450173,
-0.555641,
-0.306383,
-0.419482,
-0.082751,
-0.109196,
-0.004604,
0.026917,
-0.047291,
0.017473,
0.066692,
0.289476,
-0.008352,
0.287368,
-0.303708,
-0.851983,
-0.126484,
-0.245037,
-0.251738,
-0.041608,
0.042365,
-0.224149,
0.181276,
0.348048,
0.154606,
0.036485,
-0.372513,
0.915342,
0.289984,
-0.253308,
-0.209734,
-0.129144,
-0.080923,
-0.118363,
-0.011862,
0.045733,
0.023790,
-0.042069,
0.027252,
0.192356,
-0.064036,
0.242731,
-0.165743,
-0.289045,
0.535182,
0.728438,
0.430822,
0.428083,
0.036074,
0.205453,
-0.161324,
0.165942,
0.248881,
0.098112,
-0.191251,
0.030484,
-0.337665,
-0.029445,
-0.223854,
-0.171966,
-0.002004,
-0.022017,
-0.031323,
-0.003992,
-0.012989,
0.035355,
-0.008259,
0.011934,
0.136355,
0.503855,
0.489456,
0.032107,
-0.115990,
0.242993,
0.064477,
0.084008,
0.270552,
-0.095841,
-0.012711,
0.015146,
0.461171,
0.039423,
-0.158354,
-0.445931,
-0.205834,
0.057009,
0.080106,
0.082845,
0.012533,
-0.041128,
-0.006354,
-0.011505,
-0.007223,
0.031933,
0.034503,
0.029788,
0.041151,
0.467153,
0.641374,
0.711307,
0.652512,
0.543707,
0.438777,
0.326897,
0.347654,
0.452849,
0.565555,
0.389133,
0.431555,
0.259093,
-0.007379,
0.077132,
0.313905,
0.199305,
0.080414,
0.099147,
0.032723,
-0.044586,
-0.013324,
0.048964,
-0.035714,
0.030323,
-0.012541,
0.007138,
0.014494,
-0.020723,
0.055821,
0.094792,
0.101530,
0.122224,
0.178153,
0.117828,
0.033598,
0.051816,
0.019316,
0.081326,
0.210734,
0.089589,
0.013396,
0.102329,
0.012773,
0.040036,
-0.030836,
0.049416,
-0.002355,
-0.013031,
0.031018,
-0.034176,
-0.007618,
-0.032306,
-0.035212,
0.006668,
0.048017,
0.002593,
-0.035451,
0.011913,
0.031418,
0.025430,
0.066091,
-0.014799,
0.049578,
0.069150,
-0.017718,
0.034663,
0.050166,
-0.023121,
-0.017548,
-0.001307,
-0.034471,
-0.012943,
-0.015083,
-0.030216,
-0.037844,
0.001812,
-0.031088,
0.009801,
