0.089973,
-0.180919,
-0.261744,
0.118198,
-0.122162,
0.134438,
-0.173126,
-0.480413,
-0.326876,
0.287428,
0.062626,
-0.494978,
0.047364,
0.221134,
-0.093148,
0.105642,
0.298701,
-0.405729,
0.324400,
-0.351551,
0.136750,
-0.269861,
-0.270109,
0.423659,
0.335822,
0.496508,
-0.379682,
-0.320908,
0.250297,
0.320091,
0.303887,
-0.159731,
-0.360829,
-0.457857,
0.458467,
0.017009,
0.176581,
-0.214659,
0.036597,
0.349705,
-0.427230,
-0.400778,
0.354727,
0.120134,
0.320356,
-0.238421,
-0.274224,
0.119058,
-0.144150,
-0.449824,
0.267507,
0.492600,
-0.219685,
0.497398,
0.416258,
-0.383864,
0.493906,
-0.463424,
-0.204772,
0.244202,
0.356667,
-0.400884,
-0.415529,
0.495838,
-0.358741,
-0.457061,
0.012847,
0.317840,
-0.171720,
-0.450556,
0.167544,
-0.098950,
-0.351334,
0.022272,
-0.478816,
0.469022,
0.283851,
-0.253040,
0.088080,
-0.360300,
-0.202864,
-0.144413,
-0.367700,
0.077451,
-0.147015,
-0.451441,
0.193587,
-0.153109,
-0.414865,
0.488816,
-0.408907,
0.441801,
-0.412069,
-0.324436,
0.437639,
-0.270810,
-0.281497,
-0.049513,
-0.452970,
0.046783,
-0.000070,
0.214574,
0.447833,
0.148596,
-0.263154,
0.469017,
0.117619,
-0.479304,
-0.284023,
-0.294301,
-0.339603,
0.013113,
0.061286,
-0.207303,
-0.409436,
0.414270,
-0.158744,
0.284151,
-0.238839,
-0.073610,
0.272967,
-0.147746,
-0.131809,
0.360898,
0.027818,
-0.194169,
-0.409912,
0.246321,
0.256317,
-0.362882,
-0.206896,
-0.243752,
0.351692,
-0.259062,
0.404844,
-0.411462,
-0.290045,
0.022463,
-0.390766,
-0.074068,
0.228161,
-0.230369,
0.439045,
-0.210553,
0.062328,
-0.470391,
-0.296283,
0.403584,
0.313761,
-0.035122,
-0.170026,
0.086727,
0.317132,
0.198165,
-0.052375,
-0.155050,
-0.496004,
0.037714,
-0.408729,
0.260313,
0.174832,
-0.115624,
-0.483439,
0.026524,
0.125314,
0.421405,
0.115062,
0.335268,
-0.056133,
0.224296,
-0.238800,
-0.327971,
0.493927,
-0.299754,
-0.038524,
0.056255,
-0.270145,
0.165193,
-0.040161,
-0.456385,
-0.369928,
0.289813,
0.130343,
0.447204,
-0.012022,
-0.422032,
-0.207846,
-0.008026,
0.115682,
-0.116575,
-0.247713,
-0.209487,
0.267801,
-0.231152,
0.317037,
-0.106886,
-0.309748,
-0.067901,
-0.271617,
0.134120,
-0.343605,
-0.010417,
0.306149,
-0.349678,
0.189829,
-0.232376,
0.206577,
0.419683,
0.432818,
-0.333584,
0.463299,
-0.437111,
0.456229,
0.093642,
-0.489907,
-0.055794,
0.171610,
-0.197753,
0.436180,
-0.212708,
0.185672,
-0.311533,
0.077805,
-0.046527,
-0.042685,
-0.105158,
0.346587,
0.147567,
0.326941,
-0.425030,
-0.218313,
0.483336,
0.064553,
-0.412165,
-0.366341,
-0.245618,
-0.144540,
0.340236,
-0.325935,
-0.211723,
-0.493348,
-0.362636,
-0.148833,
0.462881,
0.231006,
-0.138740,
-0.092913,
-0.097385,
0.163507,
-0.156732,
0.189907,
-0.150821,
0.031735,
-0.232288,
0.302652,
0.489049,
0.162554,
0.149239,
0.136616,
-0.010505,
0.224209,
0.418303,
-0.027168,
-0.211238,
-0.493862,
0.106490,
0.043144,
-0.138403,
-0.053274,
0.217209,
0.149875,
-0.046622,
0.354573,
-0.498958,
-0.083741,
0.085579,
-0.137698,
0.323347,
0.488194,
-0.474191,
-0.333386,
0.178101,
-0.125012,
0.198349,
0.445813,
-0.322361,
0.187398,
0.108368,
0.326878,
-0.175986,
-0.402137,
0.051088,
-0.257683,
0.070695,
0.339850,
-0.251545,
-0.322815,
-0.117006,
0.110052,
0.123911,
-0.399797,
-0.240073,
-0.422711,
0.454776,
-0.239032,
-0.006451,
0.040355,
0.123270,
-0.183105,
0.028549,
0.149079,
-0.016490,
-0.293350,
-0.475934,
-0.318141,
-0.347536,
-0.298294,
0.369257,
0.260831,
-0.471416,
-0.306729,
0.358694,
0.079672,
-0.064412,
-0.070611,
-0.080479,
0.184042,
0.106573,
0.302515,
-0.205906,
-0.269516,
0.402718,
0.054021,
-0.192226,
0.357493,
0.314989,
0.301322,
-0.102152,
-0.061741,
-0.381783,
0.426397,
-0.412662,
0.101727,
-0.366953,
-0.388596,
0.283585,
-0.214489,
-0.186890,
0.152842,
-0.453658,
-0.158306,
0.346113,
0.405036,
0.421365,
-0.218299,
-0.165575,
-0.159113,
0.465743,
0.440998,
-0.356598,
-0.240163,
-0.328518,
-0.453881,
0.313858,
-0.020744,
0.403612,
0.128847,
-0.219422,
-0.198540,
-0.432894,
-0.101205,
-0.272143,
-0.345556,
-0.499478,
-0.139096,
-0.234152,
0.284108,
0.146415,
0.078958,
-0.063050,
0.192757,
0.420652,
-0.216937,
0.097793,
0.342017,
0.064764,
0.432218,
-0.317096,
0.030507,
0.373216,
-0.173695,
0.290344,
-0.455301,
-0.127576,
0.104201,
0.023955,
-0.223963,
-0.266952,
0.304533,
0.077497,
-0.199845,
-0.296672,
0.305354,
-0.045401,
-0.296149,
-0.333742,
0.220447,
0.487959,
0.312673,
-0.200595,
-0.075091,
0.005431,
-0.279944,
0.207972,
-0.396776,
-0.437927,
-0.227264,
-0.464558,
-0.255023,
0.303242,
0.408659,
0.071282,
0.093586,
0.453358,
0.443706,
-0.302212,
-0.022688,
-0.280257,
-0.069164,
-0.218155,
0.297240,
0.230991,
-0.014827,
0.102594,
-0.314411,
0.189024,
0.268852,
0.406036,
0.176982,
0.081526,
-0.294559,
-0.398109,
-0.413043,
-0.074503,
0.309863,
-0.309819,
-0.012430,
-0.417402,
-0.274377,
0.232547,
0.385841,
-0.365718,
-0.196171,
-0.020573,
-0.412361,
-0.252465,
0.177214,
0.064951,
-0.032722,
-0.391950,
0.346796,
-0.235482,
0.339041,
-0.168031,
0.367112,
-0.475370,
-0.479007,
0.135965,
0.430666,
0.197975,
-0.282510,
-0.363893,
0.299866,
-0.195553,
0.061603,
0.109728,
-0.005373,
-0.450827,
0.192326,
0.220250,
0.281720,
0.078167,
0.354532,
-0.414451,
-0.442406,
0.442171,
-0.166916,
0.234808,
0.007122,
0.300362,
0.342858,
-0.146081,
-0.435120,
0.181899,
0.185888,
0.431993,
0.206530,
0.206881,
0.067957,
0.137196,
-0.095144,
0.285448,
0.273303,
-0.295278,
-0.410105,
-0.165094,
0.314450,
0.084522,
-0.115920,
0.006776,
-0.195228,
-0.334200,
-0.415057,
-0.340696,
-0.248652,
-0.357463,
-0.398525,
0.084432,
0.377345,
0.108598,
-0.115205,
0.220204,
0.462517,
-0.050325,
-0.097897,
0.148405,
-0.118332,
-0.391367,
-0.144715,
0.449625,
0.245829,
0.260141,
0.235073,
0.019132,
0.464863,
0.324967,
0.354038,
0.279313,
-0.090510,
-0.261882,
-0.213911,
0.214262,
-0.096083,
-0.128967,
0.373566,
0.155266,
0.013570,
0.475042,
-0.260302,
-0.109085,
0.083640,
0.124493,
-0.388881,
0.046156,
-0.425832,
0.013222,
-0.305439,
-0.044164,
0.121855,
0.049846,
-0.094539,
-0.132316,
-0.190013,
-0.359466,
0.386816,
-0.225150,
0.465502,
0.240854,
-0.445837,
-0.125009,
0.478972,
-0.159748,
-0.410747,
-0.117111,
0.211285,
0.462820,
-0.461845,
-0.275146,
0.437861,
-0.222146,
0.115769,
0.021501,
0.402347,
0.226888,
-0.432343,
0.476515,
-0.259890,
-0.237782,
-0.067649,
0.361965,
0.312064,
0.337813,
-0.270351,
-0.377948,
0.478347,
-0.383536,
-0.103098,
0.443849,
0.357318,
-0.048935,
-0.181160,
0.336290,
0.291317,
-0.091907,
-0.280821,
0.002602,
-0.129087,
-0.242666,
0.227456,
-0.191226,
0.035188,
-0.156774,
0.330275,
-0.062466,
-0.429886,
0.397932,
-0.085950,
-0.189776,
-0.339850,
0.346401,
-0.327811,
0.472215,
0.184214,
-0.098163,
-0.405734,
0.162561,
0.018301,
-0.008832,
0.106410,
-0.124380,
0.442234,
0.425251,
-0.288091,
0.233551,
-0.166656,
-0.068912,
-0.263848,
0.204257,
0.188422,
0.463609,
-0.486969,
-0.276390,
-0.193166,
0.343306,
0.161144,
-0.123052,
0.241239,
-0.424806,
0.187172,
0.401389,
0.421595,
0.359360,
0.373604,
0.105809,
-0.238802,
0.467871,
-0.231630,
0.279499,
-0.040961,
0.374781,
-0.344881,
-0.098727,
0.300031,
-0.132972,
-0.365177,
-0.366625,
0.298116,
-0.129024,
0.337632,
-0.013462,
-0.165416,
0.350663,
0.210148,
0.141419,
0.193970,
-0.128708,
-0.481633,
-0.064791,
-0.053514,
0.205539,
-0.163402,
-0.131919,
0.064899,
-0.289798,
0.473890,
0.326097,
-0.321927,
-0.257739,
0.105596,
0.137112,
-0.382959,
0.260714,
-0.461616,
0.417072,
-0.372258,
-0.326793,
-0.449553,
0.425858,
0.044183,
0.388080,
-0.087603,
0.378767,
0.238743,
-0.377455,
0.020186,
-0.067288,
-0.006163,
0.038553,
0.367921,
0.440324,
-0.255908,
-0.295481,
-0.191595,
0.308991,
-0.085279,
-0.217705,
0.135088,
0.092793,
0.024556,
-0.259317,
-0.270095,
0.141597,
-0.498603,
-0.231711,
0.058669,
-0.370861,
-0.058504,
0.109117,
-0.445002,
0.485679,
-0.002804,
-0.032606,
0.364447,
-0.264061,
0.089939,
-0.115367,
0.168651,
-0.416223,
0.423186,
0.036572,
-0.475899,
-0.332722,
0.241091,
-0.167494,
0.476269,
-0.344188,
0.114801,
0.111356,
0.248606,
-0.360643,
0.352040,
0.478511,
0.280954,
0.353437,
-0.253200,
-0.160377,
0.482576,
0.188296,
0.448740,
-0.462426,
0.173976,
-0.054064,
0.004968,
0.038422,
0.181875,
-0.405092,
0.423055,
-0.149473,
-0.321315,
0.346241,
0.387099,
-0.297215,
-0.486481,
0.128191,
0.035291,
0.489788,
0.284003,
-0.349908,
0.101144,
0.032608,
-0.210551,
-0.046816,
0.011119,
-0.429597,
