0.039434,
-0.009663,
0.004209,
0.026110,
0.027051,
0.018265,
-0.018251,
0.005661,
0.039286,
0.019621,
-0.039422,
-0.024529,
-0.010517,
0.031706,
0.041017,
-0.045270,
-0.004034,
-0.040321,
-0.025090,
0.045432,
-0.046855,
-0.036787,
-0.002827,
0.047789,
0.020081,
-0.005557,
0.036763,
-0.002524,
-0.031550,
-0.013841,
0.036518,
-0.042116,
0.026496,
-0.009273,
0.033994,
0.004547,
-0.036878,
-0.027930,
-0.006766,
0.232914,
0.069811,
0.158080,
0.079254,
0.192067,
0.169296,
0.017343,
0.019742,
0.003299,
-0.021623,
0.006007,
-0.006553,
-0.022412,
0.017701,
0.040063,
-0.024622,
-0.012218,
-0.015494,
-0.037859,
0.035258,
0.002957,
-0.001587,
0.022133,
0.012441,
-0.022897,
-0.022668,
0.020078,
0.303594,
0.340047,
0.163124,
0.363088,
0.513789,
0.275964,
0.193418,
0.519585,
0.297608,
0.183300,
0.154103,
0.182842,
0.151697,
0.032821,
0.004889,
0.049178,
-0.039684,
-0.027445,
0.039241,
-0.014306,
0.010337,
-0.026253,
-0.002154,
0.001224,
0.036492,
0.056160,
-0.000269,
0.083591,
0.405569,
0.485499,
0.341964,
0.801859,
0.733770,
0.285744,
0.616972,
0.653630,
0.373087,
0.265414,
0.283572,
0.347730,
0.083538,
0.025296,
0.011189,
0.009275,
0.005669,
-0.035090,
0.008453,
0.015985,
-0.012535,
-0.002188,
-0.096662,
0.134799,
0.234883,
0.033122,
0.028517,
0.053096,
0.191710,
0.040599,
0.343751,
0.527033,
0.462471,
0.001402,
0.527374,
0.365549,
0.469125,
0.112001,
-0.281004,
-0.127781,
-0.398363,
-0.062401,
-0.006458,
0.002802,
-0.049251,
-0.030330,
-0.040913,
0.006418,
-0.015420,
0.018251,
-0.185242,
-0.007319,
0.094105,
0.095737,
-0.018956,
0.028635,
0.030607,
0.095196,
0.214157,
0.242918,
-0.133511,
-0.057047,
-0.029875,
-0.687885,
0.307238,
0.145787,
-0.471073,
-0.084737,
-0.283671,
-0.103948,
0.155609,
0.023189,
0.004579,
0.009355,
-0.049040,
-0.001629,
0.032023,
-0.046631,
-0.394874,
-0.203665,
-0.014781,
-0.046646,
-0.384694,
0.025841,
0.134367,
0.190235,
0.261609,
0.341590,
0.201414,
0.246624,
-0.046263,
0.352368,
0.432454,
0.048513,
-0.241490,
0.125489,
-0.349811,
-0.291848,
0.240837,
-0.053933,
0.172559,
-0.025593,
-0.012772,
0.032297,
0.033149,
-0.010599,
-0.114007,
-0.035405,
0.121799,
0.159351,
-0.093129,
-0.000821,
0.104971,
0.006204,
0.378408,
0.382933,
0.250671,
0.520698,
0.617953,
0.343439,
-0.439396,
0.102620,
-0.019985,
-0.391766,
-0.005852,
0.107001,
0.202032,
-0.082139,
-0.020574,
0.055940,
0.030015,
0.031741,
-0.024140,
0.094121,
-0.072131,
0.064041,
0.116948,
-0.138918,
0.285437,
0.225166,
0.018265,
0.102746,
0.514502,
0.119822,
0.463284,
0.107230,
0.001728,
0.029814,
0.168242,
0.229938,
0.136315,
-0.206442,
-0.058499,
0.317195,
0.080685,
0.089773,
-0.056623,
0.229083,
-0.024676,
0.046167,
0.089884,
0.148206,
-0.272459,
-0.166906,
-0.034079,
-0.170520,
0.031474,
0.438157,
-0.088199,
0.011269,
0.166678,
0.191911,
0.738063,
-0.055140,
-0.107610,
0.179357,
0.558280,
-0.274414,
0.269023,
0.278477,
-0.054279,
0.280542,
0.120775,
-0.049925,
0.125508,
0.009024,
-0.018709,
-0.028638,
0.365416,
0.499036,
0.137762,
0.231503,
0.358661,
0.089887,
0.212133,
0.205661,
0.031581,
0.262682,
0.106920,
0.346181,
0.453959,
-0.187165,
0.324252,
-0.110027,
-0.077863,
0.166865,
0.217530,
0.098524,
-0.159438,
-0.057791,
0.046830,
-0.105670,
0.017850,
-0.009011,
0.017392,
-0.014521,
0.302252,
0.572304,
0.300236,
-0.013398,
0.283074,
-0.060689,
-0.237707,
0.010089,
0.185009,
-0.481621,
-0.012522,
0.184764,
0.744623,
0.083821,
0.259895,
-0.191216,
0.165933,
-0.212029,
0.220144,
-0.005550,
-0.119818,
0.436814,
0.076572,
0.188099,
0.045987,
-0.041506,
-0.002564,
0.000193,
0.007524,
0.286932,
0.109930,
-0.201718,
0.138504,
0.152507,
-0.136101,
-0.248793,
-0.103298,
-0.239969,
-0.114713,
-0.001597,
-0.191977,
-0.265117,
-0.328727,
0.177291,
0.113912,
0.263150,
0.074020,
0.030082,
0.480843,
0.195545,
-0.035511,
0.258695,
0.167518,
0.025809,
-0.033283,
0.029486,
0.073611,
0.187143,
-0.430775,
-0.078908,
-0.012716,
-0.279803,
-0.094329,
-0.324086,
-0.324749,
-0.327386,
-0.406115,
0.341278,
0.228990,
0.100416,
0.131043,
-0.340372,
-0.420686,
-0.061824,
-0.441979,
-0.034953,
0.346931,
0.375448,
0.230886,
0.238974,
0.104419,
-0.002266,
-0.000072,
-0.024391,
-0.032585,
0.098470,
-0.381646,
-0.018563,
-0.588753,
-0.568697,
0.155625,
-0.423369,
0.099789,
-0.249025,
-0.600573,
0.160809,
0.487339,
0.011559,
-0.109648,
-0.236356,
-0.082402,
-0.372324,
0.143678,
-0.226697,
-0.158989,
0.202766,
0.355929,
0.145207,
0.079378,
0.046846,
0.036311,
-0.031322,
-0.016611,
0.043628,
-0.162071,
0.390431,
-0.344201,
0.125612,
-0.267872,
-0.141184,
0.390479,
-0.279793,
-0.192696,
-0.148131,
0.112330,
-0.294957,
-0.217061,
0.310268,
0.202861,
-0.079904,
0.342477,
0.045471,
-0.259224,
0.179410,
0.513544,
0.183286,
0.100588,
0.010573,
0.031493,
-0.033444,
0.027440,
0.165352,
0.569776,
-0.010024,
0.325903,
0.124503,
-0.485046,
0.064438,
-0.185220,
0.003229,
-0.237764,
-0.090627,
0.325828,
-0.394904,
0.072530,
-0.191385,
-0.304373,
-0.374685,
-0.124159,
0.083684,
-0.049838,
-0.340604,
0.095476,
0.433937,
0.171632,
-0.036537,
0.046460,
0.011082,
0.027934,
0.171299,
0.746301,
-0.131903,
0.396360,
-0.382506,
-0.512086,
-0.309672,
0.294110,
0.339559,
0.105402,
-0.271762,
-0.054794,
-0.009972,
-0.535892,
-0.179762,
0.184711,
0.102134,
0.136546,
0.381636,
0.123871,
-0.271472,
0.103938,
0.161640,
0.249164,
-0.042048,
-0.031001,
-0.020176,
0.080185,
0.135763,
0.811290,
-0.066510,
-0.249876,
0.173277,
-0.028631,
0.278366,
0.343199,
0.478543,
-0.548962,
-0.650218,
-0.228683,
-0.191326,
0.259008,
0.443895,
0.212372,
-0.424548,
-0.126539,
0.316342,
0.644812,
0.361039,
0.364979,
0.004706,
0.065394,
0.035955,
-0.017049,
0.032888,
0.231604,
0.128185,
0.360784,
0.054396,
-0.502741,
0.561637,
0.821696,
0.039662,
-0.100110,
0.113185,
0.262016,
-0.153943,
0.099786,
-0.600567,
0.067197,
0.109726,
0.161545,
0.183333,
0.090091,
0.173372,
0.532512,
0.350246,
0.115387,
0.083175,
-0.042366,
-0.012197,
0.047102,
0.041565,
-0.016843,
0.019579,
0.152628,
0.231965,
0.048067,
0.239565,
0.243682,
0.141092,
0.846236,
0.009110,
0.149282,
0.251750,
0.035274,
-0.329055,
0.119714,
-0.048081,
0.194874,
0.265312,
-0.024771,
0.024371,
0.114940,
0.120628,
0.136141,
0.028725,
0.006399,
-0.036313,
0.020269,
0.012460,
0.008553,
0.039025,
0.097530,
0.275623,
0.505430,
0.529818,
0.261609,
0.319366,
0.009297,
0.290619,
0.653955,
0.157778,
0.083832,
0.474336,
0.293180,
-0.128263,
0.024288,
0.192244,
-0.296152,
-0.180598,
-0.301090,
0.070091,
0.149671,
0.027705,
0.013244,
0.043873,
0.006353,
-0.032122,
-0.041035,
-0.013300,
0.075522,
0.166369,
0.540982,
0.176957,
0.071061,
0.291722,
0.511458,
-0.110228,
0.558933,
-0.201427,
0.247431,
0.120791,
-0.040271,
-0.211725,
-0.230520,
-0.039495,
0.032413,
-0.045380,
-0.207230,
-0.127063,
0.001852,
0.020898,
-0.030071,
-0.031140,
0.010927,
0.032208,
-0.036659,
-0.018506,
-0.015145,
0.048278,
0.173161,
0.027061,
-0.234175,
-0.277725,
0.282164,
0.005141,
-0.002663,
0.342867,
0.282834,
-0.103946,
-0.151866,
-0.432352,
-0.116770,
-0.029060,
-0.110556,
-0.176162,
0.089914,
-0.046157,
-0.035063,
-0.014524,
0.018366,
0.013177,
-0.033884,
0.037808,
0.032037,
0.035343,
0.043863,
0.085396,
-0.205960,
0.029869,
0.172905,
-0.135100,
0.314085,
0.035934,
0.176312,
0.132553,
-0.058633,
0.450398,
0.140708,
0.317944,
0.287249,
0.520875,
0.424389,
0.216787,
0.151215,
0.037269,
-0.012533,
-0.014582,
0.017664,
0.020678,
0.021277,
-0.014135,
-0.016146,
0.037468,
-0.021652,
-0.001858,
0.161745,
0.600540,
0.220960,
0.243201,
0.480487,
0.460899,
0.570846,
0.385710,
0.173215,
0.049951,
0.677868,
0.504977,
0.375626,
0.399879,
0.300513,
0.398646,
0.114589,
-0.257762,
-0.009311,
0.011759,
0.026480,
-0.016385,
0.047177,
-0.005856,
-0.045707,
0.018455,
0.036150,
0.006279,
0.087552,
0.221597,
0.139354,
0.245467,
0.268076,
0.197145,
0.270271,
0.338595,
0.541225,
0.359288,
0.418421,
0.505126,
0.162367,
0.069279,
0.057693,
0.206424,
0.135896,
-0.012788,
-0.038162,
0.049360,
-0.017726,
-0.048580,
0.011119,
-0.041246,
-0.014965,
0.008296,
0.002898,
-0.008241,
-0.016452,
0.090050,
0.087302,
0.033782,
-0.007373,
0.003850,
-0.009093,
0.014818,
0.097787,
0.087644,
0.066600,
0.048106,
0.013921,
0.031400,
0.059861,
0.029495,
0.021704,
-0.014157,
-0.015198,
-0.046583,
0.000803,
-0.003360,
