-0.121034,
-0.079782,
0.255693,
0.253379,
0.397541,
0.280595,
-0.095864,
-0.080340,
-0.066313,
0.407284,
0.000065,
0.475934,
0.308179,
-0.148149,
0.159387,
-0.361174,
-0.047095,
-0.446353,
-0.467265,
-0.386793,
0.439121,
-0.373188,
0.038568,
-0.324504,
-0.219813,
0.187766,
0.234831,
-0.219407,
-0.374567,
-0.341393,
0.199784,
0.004399,
0.078825,
-0.044523,
-0.242222,
-0.023634,
-0.263929,
0.161914,
0.396026,
0.169759,
0.069198,
-0.103909,
0.145693,
-0.122623,
0.247942,
-0.194920,
0.016203,
-0.299153,
-0.141273,
0.048938,
-0.185946,
-0.202151,
0.175750,
0.352622,
-0.026655,
0.455938,
0.040389,
-0.291825,
-0.263469,
0.165822,
-0.133217,
0.436315,
-0.329779,
0.445608,
-0.108208,
-0.072001,
-0.078025,
0.127863,
-0.410086,
-0.182000,
-0.202378,
0.159112,
0.214091,
0.443315,
-0.463511,
-0.037967,
-0.251605,
0.052692,
0.162880,
0.107122,
-0.398370,
0.476935,
0.404971,
0.277380,
0.329557,
-0.121684,
0.233318,
-0.130054,
0.086491,
0.469849,
-0.464233,
0.453274,
0.406164,
-0.294011,
0.398882,
-0.202044,
0.133988,
-0.179143,
0.425819,
0.223902,
0.138857,
-0.276559,
-0.116987,
-0.147052,
-0.333245,
-0.080498,
0.314982,
-0.084850,
0.472194,
-0.022138,
-0.477727,
-0.426176,
-0.045203,
0.427244,
0.351204,
-0.215646,
-0.194440,
0.084522,
0.154299,
0.392051,
0.054371,
0.190067,
0.345325,
-0.039465,
0.396055,
0.244207,
0.258491,
0.030043,
-0.434936,
0.184309,
-0.246055,
0.203921,
0.407750,
0.136959,
-0.443131,
-0.425495,
-0.443539,
0.371851,
-0.010344,
-0.471345,
-0.150287,
0.011929,
-0.397521,
0.304510,
-0.060827,
0.453683,
-0.411136,
0.244732,
0.038205,
0.243163,
0.136783,
-0.407424,
-0.066770,
-0.017893,
0.053111,
-0.170715,
-0.273686,
-0.188398,
0.359329,
-0.208622,
0.495912,
-0.386726,
0.495298,
0.403662,
0.250232,
-0.447833,
0.478167,
0.306693,
0.424018,
-0.032177,
0.335348,
-0.226269,
0.479752,
0.437826,
-0.421759,
-0.081075,
0.391509,
-0.332896,
-0.336343,
-0.070286,
0.410267,
0.300440,
0.022290,
-0.156503,
-0.217453,
-0.424599,
0.172782,
0.008861,
-0.112997,
0.032111,
0.300239,
-0.117085,
0.145385,
0.295537,
-0.213423,
-0.104383,
0.347705,
-0.235255,
-0.297690,
0.271723,
0.232568,
-0.462342,
-0.454546,
0.212320,
0.475484,
-0.376305,
-0.368756,
0.366993,
-0.209201,
-0.205099,
-0.203293,
-0.298933,
-0.404659,
0.318996,
0.044564,
-0.122112,
0.394397,
-0.282654,
0.386749,
-0.218599,
0.249457,
0.186988,
0.164316,
-0.105158,
-0.017475,
0.450893,
0.290458,
-0.169770,
-0.284362,
0.492768,
-0.398047,
0.448206,
-0.469574,
-0.352593,
0.160526,
-0.494090,
-0.228898,
0.291770,
0.372903,
0.061902,
-0.413329,
-0.330390,
0.262968,
-0.317988,
0.488606,
-0.192468,
0.059900,
0.383004,
0.024878,
-0.053351,
-0.335595,
-0.225665,
-0.366363,
0.328721,
0.169177,
0.116163,
0.279615,
-0.040365,
0.446393,
0.495253,
-0.047596,
-0.451654,
0.443459,
-0.017170,
-0.304247,
0.103984,
-0.011260,
-0.033145,
-0.104246,
-0.138356,
-0.471243,
-0.017574,
0.031254,
0.291725,
0.164438,
0.019860,
-0.400742,
-0.275662,
-0.097136,
0.124136,
0.170987,
0.067269,
0.398471,
0.304625,
-0.104010,
0.067648,
-0.079213,
-0.324395,
-0.472716,
-0.132820,
-0.329143,
-0.020312,
-0.084474,
-0.385684,
0.462518,
0.111279,
0.218300,
-0.048742,
-0.421865,
-0.385946,
0.312902,
-0.393108,
0.096480,
-0.155844,
0.398617,
-0.239082,
0.364016,
0.497875,
-0.014743,
-0.233120,
0.122011,
-0.343756,
0.334149,
0.020482,
0.460868,
-0.269861,
-0.411870,
-0.118344,
-0.094256,
-0.384586,
0.248836,
0.076601,
0.095102,
-0.335638,
0.190917,
0.057619,
0.275641,
-0.090783,
-0.491123,
0.353776,
0.023271,
0.321779,
0.460668,
-0.380248,
-0.334066,
0.359285,
-0.119330,
-0.470050,
0.357159,
0.365927,
-0.203170,
-0.020830,
-0.477830,
-0.369021,
0.499652,
0.483039,
-0.138881,
-0.412218,
-0.135305,
0.266863,
-0.296804,
-0.386470,
-0.156536,
0.298297,
-0.222108,
-0.465620,
-0.144084,
-0.446466,
-0.056403,
-0.135207,
0.407310,
0.466868,
-0.313428,
0.367977,
-0.413380,
-0.147494,
0.227262,
-0.032710,
-0.117543,
0.084421,
-0.166783,
0.179287,
-0.436409,
-0.144613,
0.310266,
-0.436757,
-0.161574,
-0.328615,
-0.348975,
0.203121,
0.438247,
-0.145779,
0.316651,
-0.218289,
-0.347482,
-0.405457,
-0.183909,
0.008434,
-0.351923,
0.259688,
0.373228,
-0.444613,
0.226557,
-0.440200,
0.423364,
0.313177,
-0.087694,
0.150626,
-0.219533,
0.294763,
-0.264953,
0.113683,
-0.025950,
-0.201361,
0.469070,
-0.215684,
-0.138119,
-0.192504,
-0.044299,
0.012906,
-0.489383,
-0.106052,
0.367127,
0.327268,
0.175659,
-0.480355,
0.421812,
0.491751,
0.028079,
-0.430111,
0.251439,
-0.098694,
-0.374725,
-0.022004,
-0.038894,
-0.451361,
-0.208827,
0.373412,
0.199265,
0.071639,
0.168175,
0.434312,
-0.314677,
-0.357775,
-0.267049,
-0.345607,
-0.073459,
0.094832,
-0.038110,
0.382242,
-0.392262,
-0.027493,
-0.223810,
0.474865,
-0.200225,
0.451850,
0.494510,
-0.278413,
0.443601,
0.022588,
-0.208525,
0.195040,
0.423895,
-0.083250,
-0.326964,
-0.114999,
-0.034611,
-0.035792,
-0.241587,
-0.335346,
-0.464152,
0.426588,
-0.401034,
-0.278829,
-0.431186,
-0.168083,
-0.124436,
-0.004645,
0.426749,
0.337454,
-0.122403,
-0.465513,
-0.190039,
0.153787,
-0.490648,
0.109736,
0.105637,
-0.496138,
0.331323,
0.049238,
0.026450,
-0.377202,
-0.255723,
-0.049655,
0.039549,
-0.082687,
0.335346,
-0.495062,
0.381521,
-0.406241,
-0.330408,
0.417369,
-0.479653,
-0.231442,
-0.361461,
-0.410839,
0.100475,
0.014103,
0.084516,
0.027224,
-0.148443,
0.462112,
0.061712,
0.161518,
0.115899,
0.071064,
-0.228746,
-0.278464,
0.074926,
-0.397423,
0.270774,
-0.398623,
-0.274625,
-0.484949,
0.051721,
0.264924,
-0.067636,
-0.112933,
0.269862,
-0.186115,
-0.019174,
0.439454,
-0.268747,
0.001173,
-0.291988,
-0.130207,
0.090334,
0.308488,
0.383896,
-0.325150,
-0.164288,
-0.264547,
-0.363038,
0.397424,
0.396971,
0.252861,
-0.031512,
-0.331775,
0.474398,
-0.456585,
-0.229197,
0.245172,
-0.355209,
-0.003822,
0.260223,
0.196513,
-0.238898,
-0.307414,
-0.416420,
-0.469037,
0.006471,
0.064406,
0.470417,
0.237724,
-0.434421,
-0.321570,
-0.392483,
0.155914,
0.486918,
0.491413,
0.330764,
-0.177370,
-0.273134,
0.467726,
-0.279946,
-0.376162,
0.220587,
0.188542,
-0.207937,
0.194985,
0.231957,
0.062866,
-0.059843,
0.376748,
-0.440957,
-0.299621,
0.073261,
-0.179855,
-0.107035,
0.156840,
-0.148891,
0.399437,
-0.278754,
-0.178474,
0.137161,
-0.213175,
-0.000044,
0.244678,
0.442739,
-0.013127,
0.236091,
0.273503,
0.309503,
0.462958,
0.241229,
-0.470443,
-0.413205,
-0.038184,
0.218099,
-0.121141,
-0.343199,
-0.049944,
0.441724,
0.096958,
-0.173196,
-0.499232,
0.297337,
0.400065,
-0.179087,
-0.309697,
0.056905,
0.172021,
-0.410261,
0.278152,
0.493547,
0.226900,
-0.435023,
-0.006497,
-0.028421,
-0.492284,
0.480376,
-0.292330,
0.281219,
0.289879,
-0.329372,
0.022448,
0.319436,
-0.242577,
0.484264,
0.037536,
0.136282,
-0.358935,
0.487592,
0.078006,
0.238023,
-0.185603,
0.078774,
0.035360,
-0.285538,
0.399687,
0.225663,
0.271367,
0.071708,
0.315402,
0.049519,
0.065256,
0.042302,
0.114496,
-0.441241,
-0.486119,
0.122212,
-0.460865,
-0.278449,
-0.096569,
0.329014,
-0.107821,
0.425878,
0.148451,
0.149603,
0.410142,
-0.314013,
-0.214115,
-0.448792,
-0.326421,
0.363891,
0.289231,
-0.012024,
-0.057335,
-0.175409,
0.202437,
-0.157648,
-0.449746,
-0.026195,
0.414060,
0.365657,
-0.476677,
-0.020685,
-0.092041,
0.137819,
0.038074,
-0.078160,
-0.239970,
0.077209,
0.143391,
0.163461,
-0.093776,
-0.464429,
0.089339,
-0.445325,
0.185173,
-0.000519,
-0.259338,
0.471058,
0.050689,
-0.085759,
0.334949,
-0.160080,
0.402216,
-0.222386,
0.164511,
0.104654,
0.119965,
0.214766,
-0.421542,
0.034025,
0.080422,
-0.398218,
-0.486659,
0.488382,
0.239600,
0.051415,
-0.089778,
0.499631,
-0.371376,
-0.446387,
0.163091,
0.034848,
-0.410816,
-0.247570,
0.089522,
0.274357,
0.251912,
0.330184,
0.245415,
-0.197399,
-0.255575,
0.080364,
0.142521,
-0.353359,
0.357978,
-0.192968,
0.251295,
-0.022057,
-0.478202,
0.329754,
-0.488032,
0.102221,
0.431535,
-0.474691,
0.090602,
0.171135,
0.076724,
-0.499176,
0.170766,
0.205347,
-0.445563,
-0.166143,
-0.259805,
-0.356379,
0.086287,
0.329717,
0.417979,
-0.161801,
0.159901,
0.163394,
0.140800,
0.404326,
-0.256242,
-0.216679,
-0.449033,
-0.398265,
0.090354,
0.302262,
0.079678,
0.112152,
0.132015,
0.091647,
-0.285627,
0.063550,
0.116955,
0.304975,
-0.265314,
-0.306321,
0.305799,
0.405452,
0.399026,
0.360237,
-0.260691,
-0.360779,
-0.496142,
0.325596,
0.468939,
0.421837,
-0.336204,
