0.037060,
0.036984,
0.041704,
-0.022309,
-0.010164,
-0.006535,
-0.017680,
-0.013673,
-0.012351,
0.049619,
0.029673,
0.043686,
0.013620,
0.000076,
-0.007702,
-0.017045,
-0.008298,
-0.041266,
0.036776,
-0.011460,
0.009364,
-0.012397,
-0.035319,
0.029893,
0.008925,
-0.027946,
0.031122,
-0.027282,
0.002300,
-0.038883,
0.009473,
-0.010640,
0.048101,
0.001177,
0.017051,
-0.011863,
0.045322,
0.050295,
0.024753,
-0.017466,
0.049070,
0.004614,
-0.022645,
0.016400,
-0.043151,
0.019557,
0.046375,
-0.003672,
0.027908,
0.032877,
0.034533,
-0.013626,
-0.030056,
0.048936,
-0.033733,
0.028869,
-0.029010,
0.047389,
-0.048413,
0.023290,
-0.041493,
0.011082,
-0.037250,
-0.042992,
-0.035928,
0.034193,
-0.000792,
-0.038309,
0.040931,
-0.015164,
0.003111,
0.042387,
0.042312,
0.038802,
0.017797,
0.047145,
-0.005243,
-0.008585,
-0.026212,
-0.039474,
-0.031387,
-0.043268,
-0.003194,
-0.011477,
-0.044332,
0.013074,
-0.032608,
-0.023342,
0.010463,
-0.030682,
0.051042,
0.021156,
0.035762,
-0.025594,
0.044255,
0.072303,
0.092073,
0.063953,
0.168029,
0.110244,
0.062204,
0.070094,
0.076606,
0.021410,
-0.011960,
0.057651,
0.045280,
-0.011682,
-0.023053,
-0.039084,
-0.002674,
-0.005080,
-0.032352,
0.044132,
0.033442,
-0.026449,
0.008631,
-0.044197,
0.007247,
-0.016470,
-0.000208,
0.065422,
0.122920,
0.097758,
0.110604,
0.137062,
0.131075,
0.267330,
0.347847,
0.319854,
0.220602,
0.200469,
0.148925,
0.118541,
0.039735,
0.006457,
0.025005,
-0.028119,
0.019974,
0.042069,
-0.017697,
-0.032700,
-0.012267,
0.002111,
-0.031729,
0.062624,
0.237336,
0.165114,
0.035687,
-0.146526,
-0.032630,
-0.113017,
0.090734,
0.048877,
-0.180057,
-0.169082,
0.533769,
1.125133,
0.852136,
0.572758,
0.387646,
0.278097,
0.209478,
0.137415,
0.082930,
0.028879,
0.038173,
0.008076,
0.043100,
0.007011,
0.002947,
-0.013032,
0.098654,
0.241074,
0.146316,
-0.238226,
-0.320173,
-0.293338,
-0.207885,
0.095027,
0.014664,
-0.044304,
0.022562,
0.029127,
-0.390343,
-0.197619,
0.262732,
0.091011,
0.202056,
0.098342,
-0.135965,
0.226405,
0.154109,
-0.010889,
-0.023271,
0.031222,
0.025666,
-0.042279,
0.028539,
-0.062583,
-0.040698,
-0.138638,
-0.331297,
-0.548059,
0.348828,
0.021780,
-0.056182,
-0.029382,
-0.255893,
0.185231,
0.532153,
-0.073565,
-0.066486,
-0.017850,
-0.112398,
0.148780,
-0.112591,
-0.116012,
0.068255,
0.295048,
0.305037,
0.177083,
0.000094,
0.027297,
0.000621,
-0.033289,
0.001640,
-0.159883,
0.110950,
-0.060138,
-0.533155,
-0.325422,
-0.227363,
-0.515638,
-0.092206,
0.130964,
-0.267896,
-0.050760,
-0.160409,
-0.495557,
0.293606,
-0.072521,
-0.132683,
-0.000835,
-0.095246,
0.038877,
-0.195900,
0.192674,
0.183574,
0.284399,
0.111664,
-0.025535,
-0.011025,
-0.011331,
-0.013321,
-0.077569,
-0.130987,
-0.191032,
-0.178502,
-0.242957,
-0.131791,
0.181327,
-0.281321,
-0.167234,
-0.365402,
0.450815,
-0.058634,
-0.133141,
-0.386705,
-0.240194,
-0.323163,
-0.046553,
0.014376,
-0.025169,
-0.226208,
0.006226,
-0.005152,
0.173555,
0.017478,
-0.045244,
0.010194,
-0.055214,
-0.102288,
-0.544759,
-0.445073,
-0.384104,
0.207925,
-0.161746,
-0.193087,
-0.128044,
0.070441,
-0.262960,
-0.200602,
-0.658860,
-0.032842,
-0.362283,
-0.485996,
-0.032082,
-0.034630,
-0.084947,
-0.184455,
0.022848,
-0.145374,
-0.214426,
-0.110381,
-0.007974,
0.008868,
0.028993,
0.029612,
0.034734,
-0.039853,
-0.754406,
-0.479444,
-0.108447,
0.205769,
-0.222158,
-0.639127,
0.003156,
-0.059799,
0.149585,
-0.036025,
-0.096675,
-0.031001,
-0.458622,
-0.169446,
-0.195982,
-0.625468,
-0.114257,
0.012237,
-0.156603,
0.146514,
0.063534,
0.161171,
0.042536,
0.020981,
-0.044716,
0.030334,
-0.040092,
-0.003917,
-0.614487,
-0.425153,
0.551177,
0.536585,
0.244233,
0.088770,
0.443546,
0.250724,
0.293197,
0.309588,
0.202776,
0.209916,
-0.240194,
-0.028578,
-0.106334,
-0.145607,
-0.050133,
-0.220628,
-0.118743,
-0.142315,
0.319975,
0.160867,
-0.010953,
-0.014207,
0.015238,
-0.047424,
0.045337,
0.006274,
-0.324747,
-0.501465,
0.143347,
-0.070789,
0.498507,
0.490055,
0.232022,
0.032370,
0.256369,
0.579853,
0.534589,
0.515332,
0.200480,
-0.187405,
0.032682,
0.487476,
0.252439,
0.122154,
-0.316419,
-0.249193,
0.415643,
0.131904,
0.019341,
0.035226,
-0.045650,
-0.000088,
-0.034696,
0.017270,
-0.260893,
-0.157667,
-0.165593,
-0.183546,
0.225176,
-0.109978,
-0.225250,
-0.017687,
-0.004460,
0.517493,
0.100055,
0.105393,
0.206738,
-0.262522,
0.230422,
-0.028198,
-0.106012,
-0.197297,
-0.042103,
0.363808,
0.102361,
0.147197,
-0.193123,
0.036550,
-0.046284,
-0.023732,
0.019388,
-0.041934,
-0.257090,
-0.011451,
0.124423,
-0.040705,
0.253774,
0.085300,
0.095457,
0.198445,
0.395485,
0.040299,
0.451631,
0.111871,
0.507637,
0.531710,
-0.478722,
-0.189057,
-0.123228,
-0.294115,
-0.335140,
-0.035436,
-0.119997,
-0.000377,
-0.104190,
0.030942,
-0.014556,
-0.026012,
0.013306,
-0.009521,
-0.169960,
-0.452320,
-0.003749,
-0.320517,
-0.062184,
-0.093575,
0.249536,
-0.080466,
0.307450,
0.149381,
0.033100,
0.171291,
0.066949,
0.114905,
0.020094,
-0.454891,
0.020861,
-0.264285,
0.209759,
0.266982,
-0.065824,
0.213705,
0.026246,
0.048150,
0.035472,
0.036141,
0.022790,
-0.023652,
-0.040492,
-0.367160,
-0.188862,
-0.304517,
-0.169603,
-0.009059,
0.159335,
0.048007,
-0.048865,
-0.171385,
0.117835,
0.020339,
-0.430324,
-0.137448,
0.223337,
-0.018826,
0.345478,
0.142947,
0.436430,
0.690162,
0.180728,
0.202320,
-0.024366,
-0.020532,
0.004422,
0.027346,
-0.029509,
-0.016833,
0.110102,
-0.130627,
-0.060747,
0.503589,
0.492688,
0.443166,
0.441744,
0.299302,
0.450923,
0.139227,
0.044179,
-0.286286,
-0.005307,
0.498653,
-0.093082,
-0.277424,
0.338725,
0.196782,
0.070657,
0.430363,
0.111597,
-0.168510,
-0.032930,
0.009223,
-0.014718,
-0.036314,
0.031600,
0.020010,
0.085388,
0.120811,
0.293090,
0.602233,
0.585988,
0.559660,
0.296900,
-0.005142,
-0.021710,
-0.194240,
0.093719,
0.522018,
-0.134332,
0.028204,
0.071366,
0.022527,
0.626316,
0.463051,
0.219893,
0.543284,
0.071858,
-0.217687,
0.009101,
-0.018944,
-0.038221,
0.009775,
0.037109,
-0.007427,
0.091177,
0.151937,
0.301560,
0.447095,
0.356633,
0.095826,
-0.117926,
-0.054360,
0.268827,
-0.525558,
0.158879,
0.211096,
-0.175618,
0.375289,
0.094633,
0.037097,
0.299171,
0.164172,
0.112322,
0.504360,
0.297029,
0.001699,
-0.025725,
0.018470,
-0.026429,
0.024046,
0.046487,
-0.015984,
0.042709,
0.125929,
0.283320,
0.362645,
0.294923,
-0.100673,
-0.241479,
0.125315,
0.074475,
-0.215265,
0.066437,
-0.001507,
0.453362,
0.101137,
0.152949,
0.255575,
0.434276,
0.144504,
-0.004279,
0.470675,
0.300114,
0.047783,
-0.016442,
0.018095,
0.035001,
-0.002035,
-0.021592,
-0.041155,
0.028335,
0.111973,
0.135807,
0.175540,
0.095879,
0.022997,
-0.086130,
0.187559,
0.442830,
-0.247684,
-0.118073,
0.362475,
-0.079338,
-0.347613,
0.506081,
0.470199,
0.341585,
0.305708,
0.098197,
0.627548,
0.279004,
0.010140,
0.016890,
0.034737,
-0.022232,
0.040068,
-0.005278,
-0.036960,
-0.006653,
0.128572,
0.044937,
-0.001062,
-0.185254,
0.178088,
0.202508,
0.113990,
0.292516,
0.057593,
0.276725,
0.173466,
0.181096,
0.091949,
0.217682,
0.365537,
0.378216,
0.327249,
0.328379,
0.517869,
0.291946,
-0.033018,
-0.024176,
-0.004451,
0.014314,
0.037676,
-0.025131,
0.042082,
0.073635,
0.181457,
-0.018294,
-0.162418,
-0.227498,
0.125794,
-0.191356,
0.284908,
0.089467,
0.110457,
0.333211,
-0.204259,
-0.342537,
0.314780,
0.008033,
0.322579,
0.347851,
0.347262,
0.093395,
0.254204,
0.143733,
-0.021339,
0.017911,
-0.037561,
-0.008722,
0.043059,
0.005351,
-0.044408,
0.031257,
0.021779,
-0.121505,
-0.176202,
-0.347037,
-0.133089,
-0.256842,
0.143335,
-0.288980,
-0.245956,
0.045160,
-0.453453,
0.362905,
0.079078,
-0.353251,
-0.022730,
-0.111504,
0.050563,
0.052060,
0.156358,
0.117714,
-0.027276,
0.001066,
0.023016,
-0.001593,
-0.031022,
0.035455,
0.039685,
-0.037517,
-0.008321,
0.037936,
0.345017,
0.043607,
-0.100691,
-0.257539,
-0.166284,
0.053221,
0.111264,
0.096564,
0.336067,
0.321392,
0.008333,
-0.263169,
-0.373368,
-0.499903,
-0.046960,
-0.075450,
0.095658,
0.106236,
-0.023179,
-0.016784,
0.031725,
-0.002050,
0.034282,
0.004741,
0.046357,
-0.046740,
-0.009804,
0.028750,
-0.053576,
-0.018145,
-0.008063,
-0.074800,
-0.107613,
-0.056243,
-0.113270,
-0.125724,
-0.089716,
0.064546,
-0.062451,
-0.001041,
-0.010984,
-0.023542,
-0.021500,
-0.097241,
-0.120904,
0.016152,
-0.042444,
0.032392,
0.001835,
-0.015623,
