0.288590,
-0.332352,
0.141188,
-0.453153,
0.156098,
-0.086106,
-0.401142,
0.335050,
-0.037280,
0.443863,
-0.039354,
0.339351,
0.074214,
0.262871,
-0.377511,
-0.016258,
-0.419205,
-0.485193,
-0.287355,
-0.462594,
-0.230761,
-0.178018,
0.235147,
-0.470989,
0.431338,
0.400163,
-0.459244,
0.011386,
0.244056,
-0.232433,
-0.173320,
0.032647,
-0.064784,
0.467868,
0.079494,
-0.408686,
-0.118238,
0.178351,
0.426364,
0.344482,
0.122214,
-0.112989,
0.183833,
-0.303572,
-0.350118,
0.306322,
0.180170,
-0.269323,
0.321129,
0.392815,
-0.231916,
-0.409632,
-0.285203,
-0.496769,
-0.380621,
-0.353865,
0.403394,
-0.339865,
0.157522,
0.147450,
-0.072298,
0.484202,
-0.319904,
0.362918,
0.452070,
0.259590,
0.454232,
-0.166168,
-0.062058,
0.380596,
-0.321686,
-0.439844,
-0.232393,
0.362147,
-0.243417,
-0.082511,
0.168469,
0.436754,
0.148167,
-0.010403,
0.329569,
0.416250,
0.079965,
-0.455634,
0.419482,
0.199344,
-0.309499,
0.322875,
0.359479,
0.348023,
-0.029675,
-0.212819,
0.332225,
0.150421,
-0.349901,
0.284295,
-0.089989,
-0.395669,
-0.381874,
0.347953,
0.484927,
-0.203560,
0.408109,
-0.247465,
-0.341413,
-0.335308,
0.170024,
0.327056,
-0.398554,
-0.181809,
-0.183347,
0.431014,
-0.265559,
0.396618,
0.475380,
-0.346077,
0.095963,
-0.334118,
0.476798,
-0.044558,
-0.486095,
-0.052877,
0.242623,
0.346130,
-0.402456,
0.392721,
0.130424,
0.007555,
0.497052,
0.248551,
-0.144492,
0.481980,
-0.455009,
-0.236383,
-0.265486,
-0.296422,
-0.071691,
0.404539,
-0.469366,
0.029754,
-0.277271,
-0.152713,
-0.039232,
-0.042829,
-0.256095,
-0.063851,
0.111093,
0.339868,
0.102030,
0.087891,
-0.204691,
0.115935,
-0.464986,
-0.462068,
-0.037935,
-0.367442,
0.430653,
-0.407511,
0.140113,
0.427706,
0.341040,
0.495620,
0.409686,
0.386031,
-0.240763,
-0.355800,
-0.410391,
0.187545,
-0.451261,
-0.379757,
-0.282700,
-0.228532,
-0.032471,
0.178068,
0.228638,
0.211434,
-0.385784,
-0.160268,
0.051302,
0.216247,
0.427623,
0.346611,
-0.167818,
0.462637,
0.384543,
0.294247,
-0.404806,
0.315197,
0.386736,
0.235307,
0.242903,
0.227776,
0.230928,
0.152588,
0.113807,
0.490165,
0.296788,
0.203416,
0.177710,
0.345527,
0.323659,
0.395010,
-0.383005,
-0.208812,
0.073077,
0.345633,
-0.497377,
0.187294,
-0.314635,
0.053925,
-0.096459,
-0.387012,
-0.099464,
0.235723,
-0.424375,
-0.214920,
0.029970,
-0.329181,
-0.399724,
-0.083294,
0.406126,
0.343179,
-0.355518,
0.137054,
-0.004233,
0.258290,
0.127218,
-0.207445,
-0.038294,
-0.195071,
-0.361918,
-0.214635,
-0.300062,
-0.244924,
0.076553,
0.273016,
-0.399291,
0.079176,
-0.039691,
-0.213926,
-0.366900,
0.363850,
-0.100938,
0.033636,
0.099573,
-0.025313,
0.318716,
-0.370458,
0.145507,
0.418992,
0.046248,
0.051633,
0.262171,
0.190731,
-0.311313,
-0.242061,
-0.050980,
0.315905,
0.050494,
0.410726,
-0.379166,
0.188576,
-0.303909,
-0.179228,
0.443652,
0.272644,
-0.406212,
-0.455638,
-0.148181,
0.054097,
-0.169564,
-0.015081,
-0.082053,
0.229499,
-0.481444,
-0.482480,
-0.295814,
0.337272,
-0.352938,
0.349692,
0.256264,
0.193311,
-0.098675,
0.018436,
-0.115959,
0.090012,
0.276374,
0.333062,
-0.094083,
-0.173132,
0.243788,
0.026751,
-0.484556,
0.439879,
0.347523,
0.459096,
0.212522,
0.441311,
-0.496542,
-0.435658,
-0.004592,
-0.166106,
0.049261,
0.413355,
-0.436607,
0.067817,
0.430875,
-0.232422,
-0.094911,
-0.422063,
-0.382729,
-0.338647,
0.271248,
0.018596,
0.179788,
-0.344711,
-0.391392,
-0.043838,
0.488351,
0.014525,
0.283031,
0.232138,
-0.458724,
0.298474,
0.172017,
0.388799,
0.257571,
-0.115461,
0.330110,
0.261029,
-0.051119,
-0.174482,
-0.405077,
0.498142,
-0.261127,
-0.341684,
0.065959,
-0.330252,
-0.074106,
0.471047,
-0.252315,
0.043165,
-0.367600,
-0.481067,
-0.438239,
0.312189,
-0.325778,
-0.329632,
-0.231649,
-0.337427,
0.184893,
-0.448618,
0.394711,
0.226169,
0.349856,
0.066728,
0.114968,
0.107427,
0.451267,
-0.054921,
-0.131545,
-0.099852,
0.270597,
-0.036622,
-0.101710,
-0.490530,
0.121694,
0.464248,
-0.320782,
-0.452412,
0.435296,
-0.073096,
0.090753,
-0.432304,
-0.054164,
0.152514,
0.379885,
0.120058,
0.322882,
-0.351764,
0.282631,
0.007775,
-0.300383,
0.177342,
-0.266056,
-0.450527,
-0.255931,
0.348912,
0.156900,
-0.304664,
-0.206009,
-0.474645,
0.095484,
-0.435412,
-0.011267,
0.493774,
-0.425942,
-0.389573,
0.458022,
-0.246724,
-0.341985,
0.393318,
0.180180,
0.248768,
0.461014,
-0.373984,
-0.098718,
0.340899,
0.246074,
-0.275836,
0.489134,
0.028705,
0.231938,
-0.311248,
-0.293953,
0.465882,
-0.261775,
-0.049883,
0.314794,
0.395125,
0.145453,
-0.391215,
0.420479,
-0.259063,
-0.326627,
-0.090787,
-0.265289,
-0.252569,
0.019640,
-0.307266,
0.000707,
0.177655,
-0.413948,
-0.319114,
-0.073577,
-0.452934,
-0.193098,
0.327705,
0.387964,
-0.447023,
-0.448131,
0.377099,
0.081682,
0.283807,
-0.434149,
0.287729,
0.249690,
-0.195925,
-0.262154,
0.064484,
-0.300800,
0.383299,
0.173269,
-0.380321,
-0.375764,
0.346642,
0.028892,
-0.141052,
-0.405927,
-0.451468,
0.051681,
0.094779,
0.226187,
0.137733,
0.275665,
-0.347390,
0.184799,
-0.417432,
0.480315,
0.072763,
-0.364455,
-0.467816,
-0.050138,
0.217227,
0.315991,
0.015712,
0.004956,
0.065681,
0.319788,
0.242802,
-0.369835,
-0.481012,
0.126101,
0.303434,
-0.361333,
0.250337,
0.150077,
0.167559,
-0.390715,
0.244149,
0.216091,
0.160966,
-0.161071,
-0.057722,
-0.201302,
-0.385406,
0.094888,
0.483497,
-0.302838,
0.075203,
0.056260,
-0.167294,
0.107387,
-0.493878,
-0.450067,
-0.076622,
0.021834,
0.054889,
0.489059,
-0.158378,
-0.202309,
-0.380776,
-0.139390,
0.423792,
0.422658,
-0.000722,
0.174129,
0.072735,
-0.333163,
0.283413,
-0.183116,
0.382928,
-0.055621,
0.155813,
-0.174794,
0.243078,
0.270407,
0.420094,
0.226575,
0.467568,
-0.004703,
-0.217165,
-0.199725,
-0.397317,
-0.211043,
-0.149793,
0.026061,
0.310791,
0.405096,
0.015120,
-0.347587,
-0.297213,
0.134344,
0.013024,
-0.373421,
0.057002,
-0.487699,
0.300708,
-0.370263,
-0.320862,
0.084121,
-0.053378,
-0.437933,
-0.471500,
-0.397566,
-0.112727,
0.271578,
0.372841,
-0.192634,
-0.001847,
0.340409,
0.302663,
0.280987,
-0.359316,
0.405346,
-0.430056,
-0.009109,
-0.068593,
0.380735,
-0.104012,
0.446527,
-0.466852,
0.098775,
0.080872,
0.046172,
0.225354,
-0.362126,
0.058473,
0.026062,
-0.232389,
0.237611,
-0.389817,
0.214233,
0.299678,
-0.361316,
0.316667,
-0.313049,
0.410262,
0.189509,
-0.005683,
-0.091586,
0.029918,
-0.203020,
-0.310599,
0.170602,
-0.297674,
-0.240655,
-0.338506,
0.133734,
-0.359920,
0.057481,
0.080261,
-0.326772,
-0.343743,
-0.338867,
0.219400,
0.381611,
-0.200993,
-0.222127,
-0.092327,
0.066618,
-0.484516,
0.017856,
-0.219149,
0.315162,
0.156539,
-0.402481,
-0.497887,
0.066801,
0.287027,
-0.003570,
0.475215,
-0.183055,
0.293410,
-0.335383,
0.487547,
0.495737,
-0.076038,
-0.350959,
0.129471,
0.064042,
0.206522,
-0.290268,
0.237270,
0.362779,
-0.129135,
-0.043330,
0.244390,
0.169871,
0.234543,
-0.347938,
-0.263510,
0.250027,
0.169918,
0.017341,
0.065189,
-0.173542,
0.114859,
0.067302,
0.393259,
-0.098114,
-0.436267,
0.368474,
0.218831,
0.357143,
-0.466909,
0.206378,
0.352880,
-0.042948,
0.355419,
-0.017650,
-0.478906,
0.061941,
0.192082,
0.258364,
-0.075280,
-0.437053,
-0.284967,
-0.330891,
0.232818,
0.449576,
-0.178829,
0.469308,
0.199603,
0.491090,
-0.013352,
-0.235207,
-0.182452,
-0.398493,
0.332095,
-0.289194,
0.003394,
0.395828,
-0.420719,
-0.277775,
0.252971,
-0.387629,
0.428603,
0.105850,
0.069424,
0.284022,
-0.411799,
0.090518,
-0.154037,
0.280283,
-0.151119,
0.270682,
0.343230,
0.063915,
0.439791,
0.076048,
0.013491,
-0.239037,
0.045356,
-0.286906,
-0.247947,
-0.467996,
-0.022113,
0.069600,
-0.366488,
-0.190018,
0.280407,
0.136905,
-0.294191,
0.359687,
0.359130,
0.458780,
0.472059,
0.287733,
0.064630,
0.041482,
0.071755,
0.152831,
-0.368000,
0.417717,
-0.066886,
-0.019119,
0.188399,
-0.223656,
-0.455204,
0.128191,
0.352391,
0.058287,
0.389154,
-0.102253,
0.271381,
-0.358793,
-0.070249,
-0.250733,
0.210807,
0.063263,
0.059249,
-0.008786,
-0.299832,
0.265058,
-0.149099,
-0.440702,
0.223838,
-0.177040,
0.347031,
-0.211532,
0.364442,
-0.081215,
0.441299,
0.496442,
-0.163498,
-0.125587,
-0.022677,
-0.475098,
0.150757,
0.022119,
0.153093,
0.003148,
-0.419595,
0.042247,
0.400895,
0.351786,
0.183453,
-0.169353,
-0.398946,
-0.105740,
0.393909,
0.160302,
0.385474,
-0.405923,
-0.074639,
-0.263625,
-0.346625,
-0.350801,
0.059335,
-0.499594,
-0.062333,
-0.076223,
-0.080809,
