-0.046653,
-0.017004,
0.019064,
-0.007751,
-0.029373,
-0.024987,
0.013656,
0.036362,
-0.019834,
-0.047508,
-0.013501,
0.026538,
-0.018111,
-0.035974,
-0.039071,
0.026078,
-0.041833,
0.005096,
0.006465,
0.024327,
0.048176,
-0.028115,
-0.004560,
0.001865,
0.007384,
0.005523,
0.022855,
0.012887,
0.029613,
0.008372,
-0.022523,
0.032960,
0.041374,
0.046568,
-0.024243,
-0.036688,
-0.026342,
0.042024,
0.055872,
-0.013947,
-0.007310,
-0.031229,
-0.008250,
-0.049742,
-0.080822,
-0.046289,
0.054319,
0.010123,
0.046634,
0.006996,
-0.018481,
0.042363,
0.027560,
0.026363,
-0.005932,
-0.015056,
-0.018114,
-0.033077,
0.047882,
-0.034661,
0.025552,
-0.022380,
0.080384,
0.083077,
0.042370,
0.191170,
0.302535,
0.218996,
0.264164,
0.349334,
0.414241,
0.595283,
0.651839,
0.621147,
0.489451,
0.410914,
0.331997,
0.104129,
0.006282,
0.016182,
0.030860,
-0.001738,
-0.001462,
0.005476,
-0.025819,
0.042606,
0.040551,
0.037491,
-0.012610,
0.116849,
0.189205,
0.273828,
0.275395,
0.549598,
0.804393,
0.733854,
0.847025,
0.542568,
0.800397,
1.030386,
1.200465,
1.195511,
1.240082,
0.983279,
0.853680,
0.651508,
0.413630,
0.129726,
0.017361,
0.115908,
-0.017507,
-0.036703,
-0.005962,
0.014503,
0.019023,
0.017996,
0.017775,
0.181416,
0.244086,
0.399046,
0.393617,
0.432153,
0.455202,
0.344310,
0.704246,
0.552680,
0.799694,
0.408836,
0.942843,
0.500465,
0.281687,
0.597503,
0.542716,
0.563007,
0.525539,
0.474368,
0.370493,
0.154718,
-0.036101,
0.014537,
-0.015195,
-0.027974,
0.028467,
0.030079,
0.083434,
0.223186,
0.145211,
0.422960,
0.513712,
0.545190,
0.065458,
-0.075742,
0.334749,
-0.219718,
-0.154568,
-0.414809,
-0.127339,
0.054296,
-0.235365,
0.127072,
0.318965,
0.247194,
0.183355,
0.590909,
0.808596,
0.430012,
0.105369,
0.004856,
-0.014234,
0.037468,
0.039342,
0.030820,
0.062910,
0.128136,
0.190565,
0.425046,
0.595736,
1.078441,
-0.085944,
0.152247,
0.286283,
-0.586946,
-0.427579,
-0.005329,
0.003476,
-0.287829,
-0.344836,
-0.279407,
-0.103236,
-0.411746,
-0.361017,
0.417924,
1.210936,
0.825084,
0.380572,
0.147815,
-0.041049,
0.048885,
0.053239,
0.031608,
0.265961,
0.261065,
0.245110,
0.521986,
0.923768,
0.323654,
-0.130399,
0.126143,
0.266027,
-0.296475,
-0.260697,
0.017373,
0.156360,
-0.590987,
-0.461131,
-0.339036,
-0.070143,
0.311619,
0.157869,
0.333972,
1.167765,
1.095611,
0.351157,
0.071347,
-0.013035,
-0.019399,
0.026806,
0.094495,
0.345945,
0.482982,
0.251626,
0.387828,
0.418796,
-0.062392,
0.146377,
0.350059,
-0.014594,
0.228229,
-0.342112,
-0.388529,
-1.021471,
-0.909403,
-0.437895,
-0.333786,
-0.238843,
0.051364,
-0.043817,
-0.069174,
1.001425,
0.961910,
0.296122,
0.016092,
-0.044149,
0.017382,
0.008219,
0.124728,
0.428795,
0.382107,
0.088740,
0.215293,
0.214119,
0.070735,
0.019748,
0.294117,
0.034203,
-0.127229,
0.374609,
0.421154,
-0.483642,
-0.668925,
-0.350410,
-0.309126,
-0.307907,
0.076594,
-0.071762,
-0.394895,
0.987339,
0.962280,
0.414870,
-0.007048,
-0.029346,
-0.001403,
0.023671,
0.172303,
0.347990,
0.275763,
0.130567,
0.069403,
0.002597,
0.205755,
0.389986,
0.064249,
0.165440,
-0.024820,
-0.044598,
0.113614,
0.103616,
-0.592734,
-0.464236,
0.221229,
-0.134753,
-0.034203,
-0.437394,
-0.833495,
0.612860,
1.020761,
0.387553,
0.008386,
0.023146,
-0.056388,
0.078737,
0.199096,
0.673951,
0.466666,
0.060413,
-0.045207,
0.107895,
0.356664,
0.272913,
0.054261,
0.354264,
0.151983,
0.716005,
1.096576,
0.684539,
-0.029095,
0.033281,
-0.356163,
-0.197187,
-0.255850,
0.142410,
-0.493154,
0.259968,
0.758314,
0.302781,
-0.048558,
0.010614,
0.028742,
0.026057,
0.082486,
0.723629,
0.161046,
-0.341926,
-0.109509,
0.101884,
0.154778,
0.084792,
0.206328,
0.123429,
0.033597,
1.149564,
1.295754,
1.102179,
-0.138520,
-0.306788,
-0.334975,
-0.199565,
-0.599981,
-0.568268,
-0.224444,
-0.067802,
0.294796,
0.162132,
-0.049116,
-0.042942,
0.012542,
-0.038543,
0.192311,
0.388976,
-0.117106,
-0.686409,
-0.487193,
-0.348038,
-0.104624,
-0.395340,
0.235563,
0.072853,
0.968251,
1.243481,
1.902446,
1.368143,
-0.134940,
-0.416203,
0.065857,
0.456783,
-0.299173,
-0.796055,
-0.390156,
0.076408,
-0.004066,
0.053229,
0.007106,
0.015759,
0.029873,
0.028226,
0.332229,
0.392650,
-0.445172,
-0.210336,
-0.838623,
-0.411022,
-0.306557,
-0.197705,
-0.240168,
-0.541206,
0.567416,
1.877873,
2.179148,
1.474417,
-0.128436,
-0.197440,
0.053925,
-0.168544,
-0.339030,
-0.277988,
-0.367588,
-0.261903,
0.005004,
0.037606,
-0.039256,
0.007565,
0.013675,
0.038628,
0.385256,
0.275218,
-0.575418,
0.029516,
-0.698509,
-0.575087,
-0.786508,
-0.543364,
-0.258547,
-0.159670,
1.646894,
2.414345,
1.624477,
0.690220,
0.347245,
0.188757,
0.299330,
-0.295882,
-0.272294,
-0.240201,
-0.366425,
-0.173424,
0.085021,
0.074595,
0.059886,
0.006968,
0.026648,
-0.034738,
0.416885,
0.294984,
-0.464634,
-0.267862,
-0.388491,
-0.502105,
-0.522352,
-0.589084,
-0.626458,
0.634006,
2.140996,
1.893343,
0.679521,
0.435685,
0.146347,
0.204190,
-0.033227,
-0.430765,
-0.153892,
-0.194199,
-0.125990,
0.221649,
0.409521,
0.170102,
-0.018714,
0.007496,
-0.005654,
-0.025451,
0.456774,
0.268221,
-0.390807,
-0.579567,
-0.269188,
-0.113244,
-0.323213,
-0.784443,
0.122359,
0.478192,
1.475386,
1.461874,
0.845788,
0.492432,
0.145947,
0.179685,
-0.083021,
0.068111,
0.255327,
-0.491981,
-0.112453,
0.356765,
0.398265,
0.047673,
-0.082696,
-0.044746,
0.006918,
-0.011306,
0.807844,
0.471922,
0.030958,
-0.140757,
-0.287651,
-0.426746,
-0.686243,
-0.484358,
-0.207287,
0.662460,
1.313719,
0.975683,
0.636471,
0.442887,
0.246913,
0.190250,
0.367920,
0.582852,
-0.016116,
-0.345040,
0.130153,
0.488582,
0.315403,
0.008982,
0.011817,
-0.004924,
-0.010605,
0.036252,
0.792508,
0.510847,
0.015480,
-0.148482,
-0.006976,
-0.399918,
-0.191941,
-0.589828,
-0.301631,
-0.107509,
0.597300,
0.883331,
0.583149,
0.104658,
0.159915,
0.109484,
0.571170,
0.073486,
-0.155347,
-0.215487,
0.316306,
0.356042,
0.252112,
-0.031978,
-0.035719,
0.021888,
-0.027147,
0.058516,
0.524742,
0.434042,
-0.201576,
0.023176,
0.130672,
-0.124023,
-0.000062,
-0.458365,
-0.813599,
-0.557618,
0.050751,
0.636774,
0.385003,
0.691106,
0.362683,
0.474221,
0.585387,
0.382919,
0.120108,
0.065324,
0.401447,
0.387024,
0.165365,
0.000118,
0.048452,
-0.024476,
-0.002277,
0.043358,
0.388944,
0.425951,
-0.006450,
-0.328800,
0.245721,
0.299254,
-0.170650,
-0.531896,
-0.637678,
-0.284733,
0.098229,
0.403551,
0.188774,
0.168649,
0.496970,
0.453433,
0.731641,
0.530670,
0.280592,
0.161047,
0.300044,
0.288301,
0.165889,
-0.079642,
0.011492,
-0.000673,
0.004252,
0.032006,
0.237723,
0.605094,
0.193202,
-0.463831,
-0.021360,
-0.223809,
-0.148828,
-0.224771,
-0.365688,
-0.001793,
-0.659312,
-0.174215,
0.047103,
0.398846,
-0.075463,
0.361210,
0.205096,
0.405410,
0.408427,
0.222347,
0.188752,
0.280047,
0.040164,
-0.003941,
0.042074,
-0.028044,
0.008586,
0.008720,
0.098480,
0.421769,
0.394543,
0.068628,
-0.031623,
-0.134563,
-0.330945,
-0.505313,
-0.315488,
-0.506699,
-0.520840,
-0.417732,
0.056091,
0.352683,
0.021071,
0.454323,
0.718665,
0.944393,
0.574204,
0.248089,
0.154854,
0.138800,
0.071616,
0.038411,
-0.041290,
-0.049006,
-0.011142,
-0.046645,
-0.018669,
0.177231,
0.172626,
0.334510,
0.404916,
0.569504,
0.529962,
0.756886,
0.833319,
0.521563,
0.528478,
0.480906,
0.695663,
1.022586,
0.974709,
0.940139,
0.756907,
0.648086,
0.521485,
0.273365,
0.038283,
-0.040504,
0.001210,
0.008124,
-0.026861,
-0.020562,
-0.004033,
-0.018036,
-0.018813,
0.067975,
0.156408,
0.376211,
0.572009,
0.847320,
1.124696,
1.533402,
1.521061,
1.840097,
1.641037,
1.624466,
1.726610,
1.261517,
1.173383,
0.854722,
0.431867,
0.344658,
0.312103,
0.151722,
0.044679,
0.038962,
-0.020065,
0.013633,
0.038035,
0.030299,
-0.028410,
-0.038826,
-0.040247,
0.019297,
0.122005,
0.182797,
0.260329,
0.358754,
0.620761,
0.590768,
0.609873,
0.530711,
0.700339,
0.814992,
0.725800,
0.537020,
0.404499,
0.319450,
0.168626,
0.129474,
0.240766,
0.155699,
-0.001419,
-0.017521,
-0.023522,
0.043486,
-0.031908,
0.006176,
0.007037,
-0.043873,
-0.013524,
0.028842,
-0.030976,
0.000870,
0.004590,
0.022009,
0.056416,
0.073058,
0.020311,
0.083414,
0.059834,
0.138467,
0.186524,
0.157505,
0.007167,
0.029010,
-0.022322,
0.037871,
0.017724,
0.150437,
0.035748,
-0.038435,
0.032811,
0.047518,
-0.006038,
