-0.046653,
-0.017004,
0.019064,
-0.007751,
-0.029373,
-0.024987,
0.013656,
0.036362,
-0.019834,
-0.047508,
-0.013501,
0.026538,
-0.018214,
-0.036427,
-0.039325,
0.026067,
-0.041833,
0.005096,
0.006465,
0.024327,
0.048176,
-0.028115,
-0.004560,
0.001865,
0.007384,
0.005523,
0.022855,
0.012887,
0.029613,
0.008372,
-0.022523,
0.032960,
0.041368,
0.046540,
-0.024792,
-0.037805,
-0.027767,
0.039788,
0.049081,
0.002458,
0.041639,
-0.014468,
-0.020737,
-0.021075,
0.014604,
-0.009830,
0.050020,
0.006718,
0.044070,
0.006079,
-0.018799,
0.042203,
0.027560,
0.026363,
-0.005932,
-0.015056,
-0.018114,
-0.033077,
0.047832,
-0.038501,
0.025294,
-0.024692,
0.044458,
0.016852,
-0.025323,
-0.012670,
0.046145,
-0.002098,
-0.026640,
0.048265,
0.072044,
0.089821,
0.070011,
0.128544,
0.059209,
0.027920,
0.017426,
-0.026183,
-0.032732,
0.006339,
0.027951,
-0.002182,
-0.001462,
0.005476,
-0.025819,
0.042606,
0.040420,
0.006066,
-0.040471,
0.038252,
0.017898,
0.037281,
-0.012614,
0.096236,
0.149721,
0.246379,
0.345875,
0.173595,
0.076238,
0.132396,
0.148949,
0.158646,
0.270519,
0.166276,
0.171748,
0.067717,
0.059562,
0.018211,
-0.010609,
0.046220,
-0.034050,
-0.036703,
-0.005962,
0.014488,
0.018773,
0.018219,
0.010261,
0.016195,
-0.016372,
0.040380,
0.053232,
0.218993,
0.253454,
0.170816,
0.107880,
-0.100969,
0.008889,
-0.030452,
0.074819,
0.075304,
-0.111569,
0.089921,
0.116349,
0.112876,
0.115844,
0.019091,
-0.011899,
-0.010799,
-0.043924,
0.014417,
-0.015195,
-0.027974,
0.027714,
0.029400,
0.042379,
0.013454,
0.032487,
0.070767,
0.091061,
0.250794,
0.197181,
0.154820,
0.207161,
0.037000,
0.000624,
-0.004920,
0.041926,
0.090055,
-0.029804,
-0.058973,
0.031521,
0.095846,
0.052896,
0.007440,
0.088047,
0.063546,
0.031823,
-0.026612,
-0.014234,
0.037453,
0.037770,
0.021295,
-0.032217,
0.038385,
0.061381,
0.143817,
0.141437,
0.120561,
-0.108169,
-0.063878,
-0.180830,
-0.126004,
-0.147100,
-0.111109,
-0.117993,
-0.119449,
0.092373,
-0.313692,
-0.047748,
-0.234715,
0.014175,
0.171784,
0.248572,
0.173683,
-0.031815,
0.024140,
-0.040994,
0.047881,
0.047349,
-0.002381,
0.052935,
0.078523,
0.059435,
0.176364,
0.104445,
-0.088287,
-0.087841,
-0.034954,
-0.011056,
-0.096376,
-0.127472,
-0.162340,
-0.077101,
-0.159512,
0.049905,
-0.155274,
0.016661,
0.022029,
0.210649,
0.111712,
0.134834,
0.168964,
-0.031955,
0.038309,
0.003424,
-0.020979,
0.013774,
0.022656,
0.040200,
0.124468,
0.136881,
0.209595,
0.127493,
0.185603,
0.016942,
0.131475,
0.183591,
0.066993,
-0.118690,
-0.083872,
-0.083487,
-0.137752,
-0.159355,
-0.113668,
0.044774,
0.088740,
0.140212,
0.079310,
0.086997,
0.113671,
0.004300,
0.003637,
-0.044347,
0.014225,
-0.004254,
0.024571,
0.127254,
0.092628,
0.111348,
0.149107,
0.148628,
0.224960,
0.166111,
0.007593,
0.013551,
-0.085366,
0.018135,
0.127605,
-0.020859,
-0.160549,
-0.043923,
-0.000168,
0.236037,
0.057045,
-0.030593,
0.073668,
-0.003196,
0.020037,
0.042910,
-0.008565,
-0.029733,
-0.005917,
0.048785,
-0.005818,
0.049000,
0.078128,
0.126493,
0.037166,
0.051662,
0.033514,
0.030226,
-0.083898,
-0.038027,
0.046685,
-0.006231,
0.181056,
0.060871,
-0.266522,
-0.191319,
-0.051708,
-0.053771,
-0.156060,
-0.137031,
-0.074870,
-0.039512,
-0.027738,
-0.039792,
0.007400,
0.022795,
-0.047718,
0.052413,
0.067747,
0.067902,
0.088035,
-0.089365,
-0.156457,
0.073619,
0.004527,
-0.136537,
-0.286867,
-0.007884,
0.059774,
0.124965,
0.038204,
0.060915,
-0.027289,
-0.239634,
-0.182011,
-0.169380,
-0.128993,
-0.137458,
-0.206678,
-0.049696,
0.000804,
0.011024,
-0.049067,
0.010410,
0.026607,
0.010422,
-0.001691,
0.092374,
-0.044292,
-0.139398,
-0.111757,
-0.021547,
0.043288,
0.025254,
0.042946,
0.029019,
0.235460,
0.352875,
0.108145,
0.041634,
-0.124444,
0.025700,
-0.117348,
-0.006207,
0.041795,
-0.117433,
-0.115026,
-0.036992,
0.028257,
0.042952,
-0.049634,
-0.042955,
0.013117,
-0.048883,
0.034297,
0.059433,
-0.071967,
-0.193396,
-0.160750,
-0.104231,
-0.013095,
-0.041746,
0.033540,
0.204647,
0.232452,
0.461074,
0.329447,
0.274801,
-0.074983,
0.127119,
0.012675,
-0.076600,
0.138760,
-0.147245,
-0.191878,
-0.040489,
-0.027797,
0.032447,
0.006254,
0.015670,
0.029411,
0.006521,
0.046976,
0.077400,
-0.167814,
-0.205137,
-0.248437,
-0.085270,
0.084859,
-0.050466,
-0.072176,
-0.169970,
0.106092,
0.644393,
0.507483,
0.274704,
-0.116729,
0.026686,
0.074226,
0.041343,
-0.054705,
-0.141777,
-0.163517,
-0.221232,
0.007124,
0.030979,
-0.039404,
0.007528,
0.013404,
0.016850,
0.022609,
0.058753,
-0.158051,
-0.118061,
-0.266982,
-0.130236,
-0.155872,
-0.043114,
-0.081283,
-0.367824,
0.364203,
0.905142,
0.344080,
0.066087,
0.193253,
0.238821,
0.145009,
-0.023397,
-0.021186,
-0.045490,
-0.206678,
-0.096325,
-0.033209,
0.046460,
0.047920,
0.006921,
0.026399,
-0.041174,
0.026763,
0.113751,
0.059740,
0.025233,
-0.324490,
-0.177058,
-0.084733,
-0.141339,
-0.241118,
0.045624,
0.742882,
0.786861,
0.194329,
0.099669,
0.136431,
0.222546,
-0.135192,
-0.001229,
0.044878,
0.162665,
-0.047415,
-0.055711,
0.035366,
-0.000664,
-0.045490,
0.007496,
-0.005991,
-0.046893,
-0.005289,
0.107367,
-0.028967,
-0.005469,
-0.086940,
-0.066002,
-0.065118,
-0.289594,
-0.269662,
-0.048371,
0.351067,
0.264951,
0.195485,
0.192502,
0.040649,
-0.086762,
-0.002463,
0.187751,
-0.099812,
0.002276,
0.165697,
0.070272,
0.043013,
-0.040435,
-0.045784,
-0.044881,
0.006670,
-0.035842,
0.071877,
0.204367,
-0.028342,
0.003782,
-0.194236,
-0.037118,
0.048783,
-0.077286,
-0.194473,
0.053979,
0.551931,
0.299523,
0.077532,
0.145545,
0.110621,
0.008733,
0.019179,
0.040002,
-0.198311,
0.140631,
0.199009,
0.055943,
0.057771,
-0.013083,
-0.000264,
-0.004930,
-0.005275,
0.030125,
0.089219,
0.130711,
0.100211,
-0.044171,
-0.144681,
-0.089826,
0.043020,
-0.244102,
-0.191878,
0.019353,
0.470121,
0.228293,
0.175407,
-0.006577,
0.182655,
0.053637,
0.099462,
0.068383,
0.050658,
0.112996,
0.188219,
0.103965,
0.026556,
-0.049578,
-0.042433,
0.021888,
-0.013202,
0.013896,
0.039714,
0.107356,
0.037102,
0.123650,
0.004244,
0.021873,
0.010516,
-0.457039,
-0.362008,
-0.161721,
-0.102301,
0.109457,
0.019679,
0.179659,
0.228176,
0.178890,
0.300392,
0.211530,
0.198294,
0.078010,
0.232949,
0.153835,
-0.000853,
-0.007133,
0.048393,
-0.024489,
-0.003039,
-0.043131,
0.067199,
0.061084,
0.004110,
-0.105856,
0.042063,
0.031694,
-0.029342,
-0.124241,
-0.184636,
-0.021515,
0.168440,
0.145875,
-0.007204,
0.127766,
0.352970,
0.313284,
0.185638,
0.174819,
0.022466,
0.088240,
0.167175,
0.069216,
0.048580,
-0.048409,
0.011767,
-0.000685,
0.004194,
0.010670,
0.030235,
0.006077,
-0.005239,
-0.011772,
0.105755,
0.039279,
-0.016628,
-0.084726,
-0.060485,
0.029986,
-0.040012,
-0.077402,
0.012677,
0.195707,
0.181161,
0.162298,
0.044427,
-0.020820,
0.013020,
0.006094,
0.148423,
0.147672,
-0.028567,
-0.002563,
0.042582,
-0.028044,
0.008586,
0.004416,
0.022584,
0.010276,
-0.027259,
0.019192,
0.085573,
0.047394,
-0.157803,
-0.256925,
-0.192203,
-0.315168,
-0.301245,
0.008221,
0.253634,
0.279179,
0.085818,
-0.042603,
0.092651,
0.145921,
0.104364,
0.035386,
0.037562,
-0.014112,
0.028906,
0.037927,
-0.041290,
-0.049006,
-0.011142,
-0.048708,
-0.026469,
0.068382,
0.016017,
0.079965,
0.043977,
0.162276,
0.163771,
0.069967,
0.124038,
0.057213,
0.209979,
0.234997,
0.180260,
0.366166,
0.146756,
0.083873,
0.084682,
0.104982,
0.081632,
0.075211,
-0.041137,
-0.047458,
0.000532,
0.008040,
-0.026861,
-0.020562,
-0.004033,
-0.018151,
-0.019568,
0.034860,
-0.015146,
0.010313,
0.050025,
0.101400,
0.109876,
0.204765,
0.078727,
0.075393,
0.014515,
0.190935,
0.255055,
0.209805,
0.119101,
0.038419,
0.026090,
0.066246,
0.053844,
0.011798,
0.015702,
0.035891,
-0.020233,
0.013551,
0.038035,
0.030299,
-0.028410,
-0.038826,
-0.040262,
0.017557,
-0.005952,
-0.004690,
0.012620,
0.052690,
0.087593,
0.059018,
0.105059,
0.074997,
0.063157,
0.050528,
0.030478,
0.068402,
0.026780,
0.061708,
0.064150,
-0.016370,
0.082672,
0.082625,
0.005194,
-0.017603,
-0.023591,
0.043486,
-0.031908,
0.006176,
0.007037,
-0.043873,
-0.013524,
0.028627,
-0.032352,
-0.002969,
-0.002027,
0.012327,
0.038347,
0.052193,
-0.008277,
0.038886,
-0.007484,
-0.041235,
-0.023467,
0.015409,
-0.021302,
0.006886,
-0.038476,
0.013022,
-0.014104,
0.047007,
0.010207,
-0.038435,
0.032811,
0.047518,
-0.006038,
