-0.477405,
-0.335236,
-0.301067,
0.247157,
-0.366686,
0.033348,
-0.256894,
0.053743,
0.277093,
-0.400753,
0.041075,
0.272392,
0.335409,
-0.061955,
-0.301113,
-0.488212,
0.105223,
0.087725,
-0.095044,
0.000659,
0.078877,
0.138513,
0.074408,
-0.405152,
-0.290722,
-0.465817,
-0.046327,
0.269301,
-0.216825,
-0.043045,
-0.014150,
-0.194230,
0.121719,
0.184782,
-0.447073,
0.255033,
-0.281869,
-0.203967,
-0.191224,
0.495223,
-0.104720,
0.349850,
0.267615,
-0.269311,
-0.212105,
0.466503,
-0.257523,
0.393119,
0.054228,
0.147433,
-0.106223,
-0.366896,
-0.214054,
0.468185,
-0.272048,
-0.004776,
-0.497632,
0.181625,
-0.235475,
-0.214457,
-0.361420,
0.250374,
0.091312,
0.260300,
-0.064843,
0.144239,
0.015333,
0.153287,
0.440271,
0.324109,
0.148511,
-0.164449,
0.173959,
-0.083874,
0.066241,
0.461854,
-0.117372,
0.308718,
0.354973,
0.436856,
-0.043849,
-0.251250,
-0.430040,
0.242097,
-0.283065,
-0.202088,
-0.262679,
-0.280697,
0.479537,
0.001846,
0.004845,
-0.381882,
-0.247779,
-0.403843,
0.378417,
0.187377,
0.240396,
-0.106250,
-0.159336,
0.180667,
-0.282142,
0.489175,
-0.483781,
0.391817,
-0.094699,
0.082460,
0.353671,
0.287929,
-0.108822,
0.208644,
0.224785,
0.347330,
0.457394,
0.294745,
0.089427,
-0.325670,
-0.407343,
0.326748,
-0.106368,
-0.427806,
-0.171405,
0.398478,
-0.309688,
0.080815,
0.494635,
-0.431271,
-0.231808,
0.235031,
-0.037521,
0.108857,
-0.084301,
0.180337,
0.098032,
-0.068082,
0.072154,
-0.496668,
-0.485623,
-0.074174,
0.291261,
-0.094445,
-0.365530,
0.016046,
-0.247115,
-0.408136,
-0.189210,
0.342312,
-0.233806,
-0.096553,
0.169060,
0.159826,
-0.024359,
0.497655,
0.058304,
0.165953,
0.078470,
0.052939,
0.234682,
0.346663,
-0.212030,
-0.302839,
-0.044481,
0.203669,
0.377498,
-0.446449,
-0.364414,
-0.050348,
-0.443117,
-0.350036,
0.375478,
0.348144,
0.055519,
-0.490052,
-0.135810,
0.308404,
-0.398188,
0.174980,
0.150716,
-0.131994,
-0.421573,
-0.180224,
-0.472167,
0.054068,
-0.182569,
0.086137,
-0.279978,
0.395901,
-0.360924,
0.454704,
0.242564,
-0.072954,
-0.348135,
-0.301917,
-0.369285,
-0.470637,
-0.248366,
-0.233699,
-0.020985,
-0.191483,
-0.083736,
-0.145507,
-0.343338,
0.471783,
-0.135559,
0.020852,
0.280187,
-0.033747,
-0.304169,
-0.069097,
0.334260,
-0.225742,
0.250679,
0.362092,
0.328327,
-0.431890,
-0.051771,
-0.451651,
0.464012,
0.087305,
-0.496947,
0.206575,
-0.485650,
-0.345083,
0.404658,
-0.354935,
-0.315720,
-0.343708,
-0.088634,
0.163295,
-0.035190,
0.327630,
-0.482212,
0.121472,
0.299414,
-0.117771,
-0.357677,
0.079601,
0.348482,
-0.161845,
-0.489496,
0.182742,
0.112413,
0.261183,
0.044834,
-0.059260,
0.329294,
0.493064,
-0.010911,
0.293305,
0.080368,
-0.007859,
-0.000119,
0.094719,
0.147059,
-0.095461,
0.239784,
0.331339,
0.060831,
-0.348851,
-0.005366,
-0.474359,
0.478780,
0.012422,
0.147113,
0.278193,
0.394651,
0.289437,
-0.142206,
0.243133,
-0.372409,
-0.131702,
-0.074125,
0.240005,
-0.370519,
0.470710,
-0.319255,
0.458775,
0.463773,
0.169833,
0.252080,
0.044142,
-0.338025,
-0.248039,
-0.361140,
0.309034,
0.156500,
0.378644,
0.140373,
-0.282669,
-0.470207,
-0.364993,
-0.257027,
-0.491427,
0.147429,
0.390086,
0.286766,
0.042080,
0.179523,
-0.355440,
-0.214787,
0.307114,
0.012858,
0.211088,
0.047119,
0.142339,
0.181798,
0.227863,
0.101114,
0.145571,
-0.102303,
-0.146805,
-0.310287,
0.059672,
0.105156,
-0.171427,
-0.131295,
-0.238344,
-0.292783,
-0.490922,
-0.021013,
-0.262990,
-0.355916,
0.221960,
-0.254417,
0.291513,
0.112046,
-0.467650,
-0.166407,
-0.208431,
-0.323090,
0.118806,
-0.401317,
0.189768,
-0.170106,
0.145801,
-0.167893,
-0.488307,
-0.126335,
0.433221,
0.157264,
0.271361,
-0.213584,
0.346977,
-0.168967,
0.391572,
-0.324450,
0.199738,
-0.346773,
-0.117233,
0.208816,
0.132214,
0.119777,
0.352900,
-0.145826,
0.365361,
0.144413,
0.466220,
0.397710,
0.478006,
-0.242211,
-0.425380,
0.096812,
-0.143529,
0.264388,
0.426707,
-0.497727,
-0.403505,
0.438399,
-0.124063,
-0.470283,
0.095663,
-0.352701,
-0.183867,
-0.057360,
-0.021668,
-0.292296,
0.118190,
-0.321930,
-0.139068,
-0.499043,
0.386886,
0.493146,
0.120734,
0.239786,
-0.152680,
-0.013905,
-0.115801,
-0.186460,
-0.116195,
-0.137795,
0.071328,
-0.041574,
0.459017,
0.427800,
-0.277186,
0.385723,
0.430072,
-0.180691,
0.324122,
-0.193990,
-0.150974,
-0.080215,
-0.046691,
0.165159,
0.362425,
0.431640,
0.372863,
-0.019385,
-0.390290,
-0.266205,
-0.018428,
0.496596,
-0.273059,
-0.397694,
0.236382,
0.074260,
0.088401,
-0.379420,
0.387800,
0.472206,
-0.017215,
-0.040872,
-0.069368,
-0.058198,
-0.113072,
0.153445,
-0.172475,
-0.183000,
0.472754,
-0.348353,
0.123010,
-0.178220,
0.071433,
-0.423681,
0.486939,
-0.066142,
-0.492041,
0.359802,
0.414473,
-0.382331,
-0.406404,
-0.103955,
-0.385735,
-0.179463,
-0.001649,
0.350647,
0.394797,
-0.413248,
0.471227,
0.282597,
-0.441042,
-0.045988,
-0.258274,
-0.010411,
0.395813,
0.128654,
-0.356966,
-0.276662,
0.445654,
-0.384211,
-0.125015,
0.068664,
-0.062431,
0.446418,
0.144983,
-0.075493,
-0.119724,
0.152942,
-0.215691,
-0.205251,
0.270611,
-0.122095,
0.190794,
0.384877,
0.198442,
-0.310855,
0.235523,
0.093240,
-0.224103,
0.206750,
-0.124163,
-0.165146,
-0.339238,
0.117563,
0.324444,
-0.443424,
-0.253783,
0.467478,
-0.220086,
-0.308129,
-0.416733,
0.154899,
0.260536,
0.020836,
0.101317,
-0.094481,
0.445343,
0.481593,
-0.441539,
-0.270348,
-0.223657,
0.329072,
0.107557,
0.467137,
0.213949,
-0.194000,
-0.343718,
-0.050528,
0.399239,
-0.067821,
-0.343777,
-0.224924,
0.267033,
-0.183015,
0.392639,
0.091477,
-0.126439,
-0.361144,
0.058955,
0.153475,
-0.169272,
0.142222,
-0.191626,
-0.408737,
-0.336943,
0.409692,
-0.003218,
-0.391600,
0.391285,
0.055243,
-0.161948,
-0.332372,
-0.115684,
0.445610,
-0.365235,
-0.401735,
-0.248391,
-0.208954,
0.047737,
-0.349152,
0.223225,
0.203960,
-0.074075,
-0.009742,
-0.479055,
-0.181436,
-0.418265,
-0.105494,
-0.042580,
0.140689,
-0.452018,
0.288148,
-0.217089,
-0.143644,
0.379411,
-0.054032,
-0.233952,
-0.123807,
0.054369,
-0.342667,
0.431437,
0.392421,
-0.175039,
-0.184247,
0.338030,
-0.040274,
-0.085982,
-0.410360,
0.250772,
0.461755,
-0.259512,
-0.026003,
0.165715,
0.166412,
0.464255,
0.186661,
0.484976,
-0.454011,
-0.418833,
-0.057604,
0.186678,
-0.370851,
-0.269456,
0.469589,
-0.014495,
-0.390045,
-0.084442,
0.251553,
-0.013852,
0.469926,
0.408886,
-0.082415,
0.362347,
-0.266153,
0.233338,
0.200378,
0.193572,
-0.352644,
0.290017,
-0.055656,
-0.390889,
-0.469495,
0.418341,
0.274826,
0.196918,
0.382596,
-0.038514,
0.181894,
0.428585,
0.042654,
-0.375710,
0.115263,
0.171802,
-0.145166,
0.084853,
-0.342693,
-0.035211,
-0.499589,
0.408860,
0.450937,
0.470337,
0.317746,
-0.131477,
0.332684,
-0.448408,
-0.398139,
0.033062,
0.245165,
-0.250784,
-0.176921,
-0.310491,
-0.141673,
-0.146416,
-0.392150,
-0.366847,
-0.449498,
0.490446,
0.094639,
0.232396,
0.419031,
-0.362707,
0.356686,
0.034294,
0.309095,
-0.288480,
-0.380853,
0.466402,
0.176309,
-0.380442,
0.375261,
0.127247,
-0.410105,
0.193007,
0.495769,
0.422579,
0.244599,
-0.402370,
-0.044359,
-0.010236,
-0.153154,
0.278720,
0.179273,
0.205173,
-0.367695,
0.287124,
0.338325,
-0.317193,
0.277570,
-0.067036,
0.415202,
0.196600,
0.070257,
0.271888,
-0.269105,
-0.120649,
0.483408,
-0.149958,
-0.154247,
0.159718,
-0.030400,
-0.278986,
-0.213036,
0.059494,
0.414021,
-0.217267,
-0.017927,
0.158620,
-0.119637,
0.437715,
-0.351616,
0.227209,
0.216435,
0.327658,
-0.067618,
0.348739,
0.114781,
-0.229293,
-0.468454,
-0.107649,
0.203671,
0.446748,
-0.411049,
-0.226072,
0.218636,
-0.180154,
0.153280,
0.202045,
0.169888,
0.499033,
-0.138238,
-0.360512,
-0.279953,
0.148727,
0.198982,
-0.365931,
0.431460,
-0.318944,
0.292689,
-0.188177,
-0.381230,
0.441074,
-0.460968,
0.335205,
0.268731,
-0.028586,
0.183944,
-0.116488,
0.242122,
0.215490,
0.275863,
-0.054207,
0.162239,
0.364814,
0.219721,
-0.119125,
-0.315340,
-0.126999,
-0.417080,
0.354548,
-0.127966,
-0.055318,
0.494035,
0.092081,
-0.406591,
0.193017,
0.226150,
-0.475131,
0.374073,
0.018839,
-0.163308,
0.492843,
-0.040087,
-0.124276,
0.328048,
-0.271356,
0.347139,
0.011992,
0.112156,
0.089260,
-0.272517,
-0.111981,
-0.464947,
0.389721,
-0.247167,
0.254775,
-0.229404,
-0.062507,
-0.372224,
-0.146484,
-0.207959,
-0.000190,
0.298198,
-0.213923,
-0.408109,
0.391607,
0.479094,
0.318041,
0.416476,
0.353167,
-0.163120,
-0.246833,
0.346010,
0.296793,
0.128892,
0.174058,
