0.037060,
0.036984,
0.041704,
-0.022309,
-0.010164,
-0.006535,
-0.017680,
-0.013673,
-0.012351,
0.049619,
0.029673,
0.043686,
0.013669,
0.000260,
-0.007617,
-0.017041,
-0.008298,
-0.041266,
0.036776,
-0.011460,
0.009364,
-0.012397,
-0.035319,
0.029893,
0.008925,
-0.027946,
0.031122,
-0.027282,
0.002300,
-0.038883,
0.009473,
-0.010640,
0.048107,
0.001227,
0.018636,
-0.008632,
0.048622,
0.054800,
0.034291,
-0.003140,
0.068001,
0.015860,
-0.015281,
0.020782,
-0.037836,
0.023304,
0.048080,
-0.002391,
0.028553,
0.032931,
0.034935,
-0.012925,
-0.030056,
0.048936,
-0.033733,
0.028869,
-0.029010,
0.047389,
-0.048388,
0.023432,
-0.041353,
0.011298,
-0.034008,
-0.034328,
-0.023075,
0.057202,
0.041352,
0.014930,
0.100720,
0.049442,
0.061339,
0.092608,
0.088742,
0.069811,
0.039834,
0.067422,
0.009897,
0.000328,
-0.020556,
-0.036863,
-0.030447,
-0.043065,
-0.003194,
-0.011477,
-0.044332,
0.013074,
-0.032536,
-0.022766,
0.010932,
-0.028010,
0.058552,
0.052917,
0.130199,
0.061700,
0.162342,
0.233697,
0.283898,
0.239630,
0.304961,
0.261962,
0.211746,
0.180978,
0.193020,
0.103524,
0.050089,
0.092530,
0.063887,
-0.000796,
-0.019157,
-0.038464,
-0.002627,
-0.005080,
-0.032352,
0.044147,
0.033516,
-0.027441,
0.009070,
-0.022736,
0.038838,
0.100481,
0.155166,
0.258290,
0.420942,
0.480134,
0.547764,
0.660361,
0.873343,
0.923749,
0.940831,
0.910942,
0.751834,
0.591143,
0.422858,
0.206706,
0.131337,
0.067679,
0.045411,
-0.023622,
0.020609,
0.042140,
-0.017697,
-0.032700,
-0.012612,
0.001375,
0.006184,
-0.127011,
-0.085917,
-0.133554,
-0.143774,
-0.096976,
0.249332,
0.404526,
0.283847,
0.177795,
0.223542,
0.410545,
0.570977,
1.079412,
1.066941,
1.324966,
1.200362,
0.778258,
0.611508,
0.394424,
0.181451,
0.054295,
0.044479,
0.008492,
0.043100,
0.007035,
-0.011955,
-0.137414,
0.074480,
-0.008338,
-0.321927,
-0.186279,
-0.293747,
-0.004340,
-0.168424,
-0.552957,
-0.555530,
0.082651,
-0.022886,
0.061778,
-0.042294,
-0.218569,
0.091477,
0.142619,
0.355008,
0.154013,
0.287993,
0.536036,
0.285645,
0.064674,
0.004984,
0.033766,
0.026311,
-0.052145,
-0.068171,
-0.239757,
-0.005282,
0.239676,
0.001353,
-0.387941,
-0.068954,
-0.175444,
-0.458782,
-0.142490,
-0.223334,
0.069619,
0.544901,
0.171208,
0.002440,
-0.300439,
-0.193144,
-0.142163,
-0.443889,
-0.380578,
-0.253649,
0.181488,
0.361473,
0.275685,
0.026518,
0.029026,
0.005053,
-0.124612,
-0.164039,
-0.526226,
-0.356303,
-0.140206,
-0.219681,
-0.787258,
-0.443638,
-0.315026,
-0.115220,
-0.390805,
-0.605138,
0.055587,
0.066148,
-0.507669,
-0.173240,
-0.241436,
-0.516308,
-0.163827,
-0.335993,
0.175042,
-0.423163,
-0.088611,
0.389271,
0.402757,
0.128673,
-0.027651,
-0.013693,
-0.123714,
-0.239165,
-0.575333,
-0.748152,
-0.332668,
-0.236438,
-0.310526,
-0.239670,
-0.564600,
0.129453,
-0.079069,
-0.742209,
-0.176213,
-0.646391,
-0.327825,
-0.286728,
-0.872684,
-0.317053,
-0.144659,
0.046408,
-0.426141,
-0.178905,
0.036033,
0.385375,
0.243605,
-0.003346,
-0.117231,
0.005613,
-0.197110,
-0.492942,
-0.500368,
-0.720521,
-0.556175,
-0.138643,
-0.124885,
0.254892,
-0.093942,
0.033638,
0.249277,
0.103094,
-0.947747,
-0.732393,
-0.754325,
-0.980349,
-0.416271,
-0.454616,
-0.467338,
-0.575665,
-0.388117,
-0.541674,
0.071969,
0.167194,
0.043848,
-0.006353,
0.009816,
0.026070,
-0.158253,
-0.759052,
-0.889625,
-0.545228,
-0.286058,
0.260853,
-0.151872,
0.505630,
0.069846,
-0.371243,
0.004701,
0.355214,
-0.031076,
-0.435839,
-0.709226,
-0.264427,
-0.095473,
-0.623687,
-0.311557,
-0.348661,
-0.223712,
-0.139786,
0.298440,
0.324420,
0.142577,
0.085979,
-0.050266,
0.027843,
-0.226983,
-0.688661,
-0.961397,
-0.570132,
-0.071833,
0.383724,
-0.452485,
-0.405644,
0.401825,
0.552336,
0.235437,
0.999308,
1.218940,
0.418045,
-0.592765,
-0.621809,
-0.498722,
-0.268753,
0.256794,
0.089563,
-0.043121,
-0.120509,
0.509365,
0.342960,
-0.065568,
-0.042482,
-0.010832,
-0.047324,
-0.081719,
-0.343990,
-0.497940,
-0.313638,
-0.044869,
0.205908,
0.112800,
0.201655,
0.481562,
0.156508,
0.079316,
1.028679,
1.598988,
0.595115,
0.124445,
-0.164983,
0.040677,
0.394549,
0.540329,
-0.203815,
-0.247325,
-0.027351,
0.249176,
0.115825,
0.007421,
0.039565,
-0.042612,
-0.000088,
-0.107080,
-0.160760,
-0.126876,
0.137402,
0.122792,
0.503967,
0.451379,
0.346552,
0.493399,
0.083081,
0.432453,
1.138031,
1.141181,
0.409700,
0.248178,
0.030446,
0.077252,
-0.443727,
-1.119715,
-0.435430,
-0.009809,
-0.380550,
-0.338825,
0.201720,
0.027189,
0.055719,
-0.046218,
-0.023825,
0.019388,
-0.056967,
-0.033474,
0.361915,
0.531370,
0.264365,
0.377211,
0.658588,
0.467883,
0.076412,
0.479480,
0.562853,
0.669702,
0.523033,
-0.027129,
0.286842,
-0.632740,
-0.542993,
-0.306959,
-0.541009,
-0.472249,
-0.614072,
-0.158303,
0.336838,
0.230360,
0.049525,
-0.013837,
-0.026545,
0.013779,
0.008095,
0.080683,
0.034566,
0.224451,
0.081512,
-0.360045,
0.156721,
0.107913,
0.332579,
0.977435,
0.265964,
0.214803,
0.607081,
-0.035288,
0.124402,
-0.222363,
-0.016830,
-0.069247,
-0.494267,
-0.149483,
0.118912,
0.177400,
0.150926,
0.236306,
0.080156,
0.037160,
0.036141,
0.022444,
-0.019542,
0.041846,
-0.183641,
-0.108858,
0.193824,
0.375557,
0.491301,
0.345548,
0.857137,
0.223813,
-0.065009,
0.084637,
0.033635,
-0.061612,
0.137793,
0.116336,
-0.460071,
0.118478,
-0.088998,
0.206347,
0.297575,
0.273402,
0.100789,
-0.045496,
-0.052545,
0.008413,
0.025962,
-0.029789,
-0.000388,
0.075729,
-0.010635,
0.029299,
0.768162,
0.582164,
0.374629,
0.423464,
0.773915,
0.129236,
0.158954,
-0.284490,
0.176999,
0.279485,
0.496070,
0.065503,
0.116026,
0.284517,
0.246225,
0.195586,
0.426600,
0.700327,
0.433182,
-0.001027,
-0.034630,
-0.017225,
-0.036296,
-0.005881,
0.046106,
0.193082,
-0.022021,
0.358942,
0.765326,
1.039636,
0.626327,
0.451545,
0.434326,
0.192280,
-0.173426,
0.023655,
-0.156101,
0.136275,
0.533765,
0.443995,
0.699579,
0.347950,
0.622064,
0.819755,
0.815472,
0.711921,
0.165872,
0.077235,
-0.013655,
-0.039736,
0.009775,
0.038193,
0.031510,
0.288195,
0.507645,
0.641778,
1.058806,
1.236753,
0.563311,
0.633580,
0.654423,
0.255947,
-0.105758,
0.335791,
0.140439,
0.201250,
0.690034,
0.766250,
1.031832,
0.726830,
1.045886,
0.955953,
0.956232,
0.609017,
0.072614,
0.034827,
0.020145,
-0.026409,
0.024121,
0.047538,
0.097500,
0.313408,
0.603101,
0.773109,
1.043730,
0.965590,
0.288419,
0.413923,
0.340122,
0.265220,
0.171836,
0.281458,
0.653650,
0.244130,
0.313049,
0.517147,
0.740999,
0.779591,
0.652063,
0.825063,
0.816875,
0.552425,
0.117913,
-0.010657,
0.016361,
0.035001,
-0.001962,
-0.021527,
0.145167,
0.405891,
0.565175,
0.237553,
0.448384,
-0.024497,
-0.018254,
0.219688,
0.221129,
0.535754,
-0.069197,
0.434830,
0.321882,
0.033900,
0.188640,
0.460175,
0.484472,
0.291139,
0.659167,
0.864940,
0.740372,
0.458551,
0.059477,
0.020559,
0.033385,
-0.022232,
0.040068,
-0.005278,
0.115095,
0.346603,
0.230912,
-0.121412,
-0.412982,
-0.572287,
0.305245,
0.234200,
0.285319,
0.696217,
0.592180,
0.303160,
0.404442,
0.148712,
0.224846,
0.336343,
0.416531,
0.531905,
0.663346,
0.810385,
0.686556,
0.455323,
0.002136,
-0.018720,
-0.005986,
0.014314,
0.037676,
-0.025131,
0.142739,
0.155390,
-0.071180,
-0.566340,
-0.661934,
-0.234658,
0.059933,
0.175972,
0.201513,
-0.095266,
0.405708,
-0.231401,
-0.122723,
-0.137271,
0.205195,
-0.070535,
0.471826,
0.418439,
0.407570,
0.302342,
0.431338,
0.397155,
0.096151,
0.065404,
-0.037523,
-0.008722,
0.043059,
0.005351,
-0.034582,
0.011259,
-0.142046,
-0.022902,
0.098821,
0.048409,
-0.103314,
-0.109035,
0.137724,
-0.478373,
-0.403924,
0.044256,
-0.261128,
-0.162199,
0.022936,
-0.279058,
-0.217599,
0.145707,
0.410993,
0.209545,
0.130367,
0.185058,
-0.028154,
0.001698,
0.023057,
-0.001593,
-0.031022,
0.035455,
0.039685,
-0.037785,
0.084563,
0.253389,
0.353484,
-0.122773,
-0.268871,
-0.412522,
-0.387716,
-0.130051,
0.035391,
-0.129162,
-0.213438,
-0.299700,
-0.102927,
-0.112904,
-0.243441,
0.050498,
0.246747,
0.046833,
0.024873,
0.115602,
-0.022146,
-0.017455,
0.031725,
-0.002050,
0.034282,
0.004741,
0.046357,
-0.046740,
-0.011476,
0.026114,
-0.048540,
0.040684,
0.012303,
-0.104886,
-0.171657,
-0.036663,
-0.070204,
-0.330004,
-0.325400,
-0.228876,
-0.236270,
-0.147727,
-0.094168,
-0.088973,
0.002401,
-0.074128,
-0.144124,
-0.007450,
-0.042444,
0.032392,
0.001835,
-0.015623,
