0.041790,
0.003596,
0.047884,
-0.046687,
0.045531,
0.040222,
0.045411,
-0.038631,
-0.016288,
-0.039624,
-0.048995,
-0.009586,
-0.027790,
0.013240,
-0.015455,
0.006711,
-0.035288,
0.015776,
0.004632,
0.022243,
0.042011,
0.021405,
0.049415,
0.000309,
-0.031220,
-0.045434,
-0.046485,
-0.036265,
0.036960,
-0.020111,
-0.039008,
0.028750,
0.033548,
-0.040919,
0.036029,
0.043189,
0.098816,
0.137267,
0.156922,
0.047284,
0.144419,
0.137299,
0.161220,
0.175453,
0.111117,
0.137765,
0.117096,
0.179660,
0.127464,
-0.009527,
-0.002970,
0.020389,
0.042395,
-0.007037,
-0.030579,
-0.038826,
-0.002471,
-0.027064,
-0.025041,
-0.015398,
0.005895,
-0.013791,
-0.032959,
0.042996,
0.230321,
0.340205,
0.463474,
0.598826,
0.707345,
0.768413,
1.001450,
0.855385,
0.915971,
1.064618,
1.041317,
0.831333,
0.495487,
0.271739,
0.202779,
0.053838,
0.010548,
0.015299,
-0.042557,
-0.000134,
-0.038491,
-0.023135,
0.011262,
0.009485,
0.001125,
0.030113,
0.006613,
-0.148553,
-0.138663,
-0.534867,
-0.575621,
-0.271730,
-0.080312,
-0.177013,
0.173118,
0.683043,
0.326000,
0.467226,
0.858827,
0.599446,
0.703233,
0.659605,
0.402696,
0.281352,
0.059363,
-0.011752,
-0.012561,
0.049549,
-0.045697,
-0.005615,
0.000409,
-0.013953,
0.106850,
-0.015824,
-0.129210,
-0.240948,
-0.190170,
-0.465662,
-0.245870,
0.089622,
-0.110526,
-0.121712,
-0.295428,
0.097893,
-0.252603,
0.466033,
0.428641,
0.551357,
0.445755,
1.013339,
0.957667,
0.697356,
0.498423,
0.099108,
-0.021464,
-0.006128,
0.030128,
0.004602,
-0.015422,
0.060089,
0.065500,
0.159530,
0.095954,
-0.116130,
-0.288710,
0.250548,
-0.013556,
-0.375586,
-0.256252,
-0.350117,
0.007455,
-0.144235,
-0.584850,
-0.378166,
-0.528595,
0.065634,
-0.145638,
0.103024,
0.487730,
0.887147,
0.693694,
0.086376,
0.080027,
-0.008650,
-0.002826,
-0.040259,
0.054460,
0.100213,
0.068181,
0.117202,
-0.009017,
-0.095031,
-0.064795,
-0.209498,
-0.223396,
0.052320,
0.044566,
-0.144183,
0.063010,
-0.307679,
-0.339196,
0.144684,
0.249299,
0.215125,
0.420116,
0.005256,
0.433226,
1.089934,
0.730402,
0.194179,
0.006142,
-0.019053,
0.027713,
-0.021120,
-0.058186,
0.025819,
0.024190,
0.069737,
0.049518,
0.292546,
-0.306554,
0.157692,
0.339882,
-0.137951,
0.155363,
-0.417922,
-0.256208,
0.336288,
-0.085298,
0.455903,
0.074983,
0.303959,
0.265531,
-0.175143,
-0.153855,
1.163310,
0.873119,
0.229238,
0.045716,
0.032945,
-0.001094,
0.046541,
-0.007093,
0.137964,
-0.111628,
0.058852,
0.266338,
0.031137,
-0.002712,
0.142844,
-0.490635,
-0.107787,
0.127617,
0.192906,
-0.001457,
0.430744,
0.091942,
-0.002090,
0.440203,
-0.072977,
-0.054729,
0.177581,
-0.078758,
0.473684,
1.006320,
0.374478,
0.037936,
-0.021599,
-0.029666,
-0.027524,
0.093535,
0.186996,
-0.103301,
-0.352697,
0.415021,
0.088192,
0.352770,
-0.154167,
-0.076949,
-0.113430,
-0.091786,
-0.037399,
-0.036295,
0.076006,
-0.256007,
0.064645,
0.096363,
0.105750,
0.392931,
0.500816,
0.152098,
0.362131,
0.942655,
0.291619,
0.045021,
0.046880,
0.042276,
-0.028733,
0.084920,
0.106470,
0.249840,
-0.246881,
-0.489361,
0.037399,
-0.102841,
-0.433093,
-0.115869,
-0.401543,
-0.056644,
0.203191,
-0.032224,
0.330918,
0.287062,
-0.381110,
-0.233757,
0.262847,
0.091687,
0.214531,
0.110057,
0.360453,
0.560024,
0.158303,
-0.035154,
-0.012762,
-0.030425,
0.020453,
0.015259,
0.278023,
0.384140,
-0.161200,
0.262040,
0.876422,
1.148575,
1.129349,
1.554206,
1.154724,
1.495561,
1.319649,
0.946605,
0.517963,
0.218844,
0.418815,
0.089708,
-0.102951,
0.285046,
-0.156319,
0.285939,
0.542031,
0.240314,
-0.133759,
-0.003163,
-0.016513,
0.017919,
0.039152,
0.023136,
0.569124,
0.536269,
0.852498,
2.038270,
2.218433,
1.386726,
1.417108,
1.293105,
1.523197,
1.357973,
0.938149,
1.316807,
1.028545,
0.447293,
0.765168,
0.244808,
-0.248005,
0.210834,
-0.282713,
0.566007,
1.320936,
0.005816,
-0.612947,
-0.342428,
-0.059507,
0.041957,
-0.044332,
0.001061,
0.461227,
1.097022,
1.668402,
1.998691,
1.621086,
0.827415,
0.612607,
0.376686,
-0.068256,
0.001392,
0.031137,
0.235267,
0.598317,
0.625649,
0.175590,
0.227794,
0.543924,
0.414341,
0.153658,
0.731722,
0.884712,
-0.256846,
-0.992326,
-0.664550,
-0.155778,
0.032355,
0.037932,
-0.011117,
0.412937,
0.743908,
1.428896,
0.845556,
-0.007600,
0.215828,
0.357702,
0.392812,
0.019841,
-0.059393,
0.255429,
-0.081505,
0.500349,
0.102666,
0.191206,
0.024009,
0.340816,
-0.165580,
0.466785,
0.589519,
0.482716,
0.030275,
-0.823934,
-0.571875,
-0.010769,
0.002878,
0.035317,
0.087478,
0.082059,
0.009387,
-0.402159,
-0.477150,
0.102664,
0.210093,
-0.280285,
-0.160405,
-0.148138,
-0.005143,
-0.047132,
0.072471,
-0.013819,
-0.306858,
0.500834,
0.489481,
-0.093248,
0.665015,
0.570989,
0.632697,
0.814206,
-0.145903,
-0.960212,
-0.862984,
-0.037859,
0.031074,
0.076745,
0.176428,
-0.183438,
-0.337381,
-0.464677,
-0.670720,
-0.145264,
0.157113,
-0.327055,
-0.265833,
-0.353251,
-0.420030,
-0.586302,
0.230207,
-0.047116,
-0.333870,
-0.387594,
0.037851,
-0.049768,
0.315951,
-0.473627,
-0.309972,
0.069597,
-0.382783,
-1.357330,
-0.902903,
-0.051561,
0.023659,
0.055754,
0.205751,
-0.071891,
-0.424690,
-0.495972,
-0.452506,
-0.235602,
-0.445211,
-0.105385,
-0.115334,
-0.417079,
-0.477077,
-0.536775,
-0.138444,
-0.437497,
0.021409,
0.231969,
0.091034,
0.401904,
0.177468,
-0.035943,
-0.228724,
-0.196793,
-0.713022,
-1.482617,
-0.540513,
-0.032472,
-0.048626,
0.042152,
0.293128,
0.475715,
-0.268032,
-0.877396,
-0.490707,
-0.793741,
-0.386085,
0.005832,
-0.329380,
0.149426,
-0.516626,
-0.313976,
-0.348978,
-0.133776,
-0.126218,
-0.424058,
0.003557,
0.117104,
0.113967,
-0.023704,
-0.326211,
-0.605183,
-1.209777,
-1.096294,
-0.183525,
0.020432,
-0.007033,
0.007441,
0.279253,
0.760880,
-0.196419,
-0.132398,
-0.208014,
-0.407336,
-0.078262,
-0.354218,
-0.411283,
-0.301653,
-0.308729,
-0.434449,
-0.321458,
-0.536427,
-0.345874,
-0.302211,
-0.314437,
0.196987,
-0.340150,
-0.494622,
-0.381444,
-0.519125,
-0.956671,
-0.788732,
-0.125227,
0.014864,
0.019906,
-0.017909,
0.092667,
0.278205,
-0.454295,
-0.466020,
-0.541716,
-0.998801,
-0.705495,
-0.342503,
-0.354233,
-0.395216,
0.035946,
0.201340,
0.198633,
0.346573,
0.089070,
0.609563,
-0.161693,
-0.484876,
-0.312639,
-0.413970,
-0.012578,
-0.920609,
-1.353201,
-0.653486,
-0.127950,
-0.027430,
0.048941,
0.036767,
0.127715,
0.150786,
-0.218938,
-0.259881,
-0.100379,
0.187577,
0.220340,
-0.482325,
-0.082637,
-0.022925,
0.088209,
0.103203,
0.359008,
0.656580,
-0.177100,
-0.314272,
-0.184940,
-0.426919,
0.002067,
-0.304538,
-0.881499,
-1.491306,
-0.940524,
-0.438598,
-0.011324,
0.027085,
-0.047145,
0.017554,
0.129924,
0.011683,
-0.318194,
-0.062008,
-0.437857,
-0.293839,
-0.368136,
-0.379245,
0.111850,
-0.396962,
-0.086879,
-0.147859,
0.289716,
0.395764,
0.175397,
0.266039,
-0.367181,
-0.049410,
-0.343551,
-0.565286,
-1.097209,
-0.941475,
-0.559933,
-0.214874,
0.035874,
0.046044,
0.023790,
-0.042069,
0.027288,
0.223789,
0.244372,
0.327452,
0.207198,
0.220610,
0.321496,
0.116197,
0.437746,
0.324163,
0.316420,
0.464746,
0.277951,
0.435046,
0.446535,
0.329004,
-0.393207,
-0.456219,
-0.276231,
-0.602583,
-0.574190,
-0.407644,
-0.366190,
-0.161551,
0.009959,
-0.003992,
-0.012989,
0.035355,
-0.003775,
0.218611,
0.464190,
0.676886,
0.980584,
0.878046,
0.393406,
0.328412,
0.518867,
0.371458,
0.135390,
0.001388,
-0.332792,
0.040794,
0.387795,
0.156741,
-0.107209,
0.128156,
0.115438,
-0.004860,
-0.014053,
-0.097171,
-0.405009,
-0.237720,
-0.009576,
-0.011505,
-0.007223,
0.031933,
0.034724,
0.106479,
0.168702,
0.353652,
0.573950,
0.868037,
1.073441,
1.287631,
1.136802,
1.174484,
1.012030,
0.835613,
0.582553,
0.371605,
0.428662,
0.450351,
0.756961,
0.674769,
0.445043,
0.518659,
0.283440,
0.209020,
0.076673,
-0.047452,
-0.016750,
0.048964,
-0.035714,
0.030323,
-0.012541,
0.007078,
0.019458,
0.012737,
0.080601,
0.141536,
0.216295,
0.229766,
0.324911,
0.445433,
0.300422,
0.333653,
0.281294,
0.303969,
0.359987,
0.308376,
0.118075,
0.094169,
0.017928,
0.127835,
0.013068,
0.049447,
-0.002353,
-0.012846,
0.031018,
-0.034176,
-0.007618,
-0.032306,
-0.035212,
0.006668,
0.048040,
0.002774,
-0.033436,
0.015228,
0.028990,
0.009973,
0.078387,
0.002746,
0.058303,
0.060933,
-0.008328,
0.055028,
0.066072,
-0.011412,
-0.013467,
0.000090,
-0.029472,
-0.007827,
0.038309,
-0.030216,
-0.037844,
0.001812,
-0.031088,
0.009801,
