0.128840,
0.085230,
0.304596,
0.033165,
0.328988,
-0.412083,
0.084132,
0.430723,
0.178271,
-0.113606,
0.010402,
-0.209577,
-0.481591,
-0.397952,
0.004796,
0.081960,
0.219004,
-0.190229,
0.316646,
0.412683,
-0.384429,
0.222097,
0.311709,
0.475807,
0.461406,
0.450930,
0.479666,
0.287003,
0.419869,
0.401503,
0.450798,
0.048708,
-0.013267,
0.255394,
-0.418127,
-0.184279,
0.343312,
0.166005,
-0.253555,
0.021583,
-0.447601,
0.256846,
0.312006,
-0.429192,
0.358895,
-0.183198,
0.152768,
0.077898,
0.126573,
-0.030587,
-0.009419,
0.242143,
-0.308489,
-0.197710,
0.217951,
-0.347083,
-0.246780,
0.197616,
0.439920,
-0.326911,
0.099119,
0.390718,
0.221797,
-0.414148,
0.146113,
0.303670,
-0.098427,
-0.010576,
-0.030324,
0.148018,
-0.488993,
0.022075,
-0.095136,
0.323013,
0.092883,
-0.236241,
-0.360186,
-0.254349,
0.341657,
0.266387,
0.215065,
-0.167762,
0.008530,
0.406575,
0.134528,
-0.273519,
-0.440508,
0.387748,
0.424097,
0.499412,
-0.439164,
0.023216,
0.390130,
0.282633,
0.109068,
0.036243,
0.086303,
-0.489358,
-0.474333,
-0.444021,
0.158659,
-0.463326,
0.078054,
-0.436476,
0.359686,
-0.329063,
-0.172718,
0.499500,
-0.083411,
-0.331060,
0.265887,
-0.368347,
0.001178,
-0.225583,
-0.461771,
-0.364295,
0.000898,
-0.402279,
-0.476547,
-0.075005,
-0.402867,
-0.415711,
0.448211,
0.487263,
0.366922,
0.057279,
0.023506,
-0.046774,
0.067921,
0.049173,
0.009205,
-0.273420,
0.085846,
-0.412741,
-0.209896,
-0.054467,
-0.241804,
0.117387,
-0.054967,
0.174785,
0.286326,
-0.289080,
0.306438,
-0.212496,
-0.014663,
0.344667,
-0.076791,
0.486235,
0.442388,
-0.053338,
-0.088770,
-0.460479,
0.030952,
-0.140559,
-0.473216,
-0.102126,
0.416720,
0.050290,
0.351100,
-0.015359,
-0.400537,
-0.139695,
0.211222,
0.185309,
-0.052436,
-0.498674,
-0.369158,
0.205760,
0.118712,
0.075875,
-0.119456,
-0.094962,
0.286796,
-0.313017,
0.192542,
-0.227867,
-0.468351,
-0.384248,
-0.241632,
0.474037,
0.062414,
0.169598,
-0.486442,
-0.406634,
-0.470960,
-0.459657,
-0.008760,
0.445760,
0.090633,
-0.157660,
-0.069599,
0.190096,
0.202645,
-0.358377,
-0.124595,
-0.349792,
-0.357051,
0.006247,
0.355968,
0.261661,
-0.417878,
-0.263488,
-0.333301,
0.368918,
-0.076505,
0.359242,
-0.358949,
-0.044856,
0.474993,
-0.100580,
-0.070818,
0.037407,
-0.430982,
-0.057260,
0.130773,
-0.401943,
-0.016917,
-0.377987,
-0.456183,
-0.426284,
-0.035647,
-0.025781,
0.263811,
-0.333002,
0.115842,
-0.360784,
-0.182794,
0.258790,
0.145464,
-0.326826,
0.020451,
0.227586,
-0.090313,
0.187151,
0.096504,
0.333182,
0.046393,
0.237555,
-0.211674,
0.021386,
-0.363025,
0.217508,
-0.441207,
-0.294007,
-0.339752,
0.189566,
-0.195950,
0.143331,
0.311579,
-0.152132,
0.217047,
-0.224067,
0.322086,
-0.019141,
-0.057069,
-0.062072,
0.120075,
0.260137,
-0.303281,
-0.234461,
0.433311,
0.217170,
0.493125,
-0.157002,
-0.095679,
0.089629,
-0.323821,
0.450714,
-0.172816,
-0.035495,
-0.027901,
-0.035841,
-0.317986,
0.030892,
0.170152,
-0.157738,
-0.279541,
0.474202,
0.485593,
-0.467962,
-0.177930,
0.202641,
-0.192029,
-0.355844,
-0.316500,
0.250902,
0.082084,
0.303575,
0.011039,
0.278803,
-0.430886,
-0.055650,
-0.004027,
-0.437761,
0.287347,
0.400294,
0.151868,
0.463527,
0.351007,
0.479052,
-0.071968,
-0.176893,
-0.056789,
0.110046,
0.353999,
-0.386637,
0.452308,
-0.425542,
-0.412435,
0.437901,
-0.393504,
-0.090365,
0.140542,
-0.085533,
0.053791,
0.324041,
-0.334632,
-0.364125,
0.127616,
0.176407,
0.414678,
0.196730,
-0.379243,
-0.089349,
0.258969,
0.408104,
-0.189056,
-0.089164,
0.371631,
-0.338048,
-0.110112,
-0.200337,
-0.014941,
0.333099,
0.409708,
-0.160942,
0.446461,
0.362016,
-0.086484,
-0.465974,
0.299917,
0.020012,
-0.056339,
-0.059542,
0.434478,
0.497451,
-0.235500,
-0.400153,
-0.366674,
0.392116,
0.276254,
-0.451996,
0.088846,
0.397011,
-0.041345,
-0.152185,
0.305115,
0.269599,
0.258651,
0.176745,
0.431551,
-0.351461,
0.476408,
-0.083391,
0.481637,
0.386116,
0.255667,
0.428099,
0.248131,
-0.330818,
0.462125,
0.048048,
0.189194,
-0.094214,
0.488506,
0.123672,
-0.096763,
-0.246994,
0.223519,
0.036564,
-0.354878,
-0.000227,
0.084568,
0.233968,
-0.103216,
-0.456778,
-0.418217,
-0.298101,
0.312821,
0.340433,
0.378644,
0.244372,
0.488972,
0.355051,
-0.339018,
0.470610,
0.241167,
0.416649,
0.398709,
-0.010702,
-0.414169,
0.360834,
-0.462653,
0.275025,
-0.233380,
-0.474147,
-0.101302,
0.169857,
-0.221141,
-0.377783,
-0.293579,
-0.076019,
0.121990,
0.290989,
-0.342051,
-0.481226,
0.334212,
-0.260268,
-0.279327,
0.147033,
-0.419834,
-0.400684,
-0.108595,
-0.430862,
0.454368,
0.052387,
-0.460252,
0.195535,
-0.030965,
0.438456,
-0.315167,
0.054866,
0.299290,
-0.277820,
-0.170108,
-0.434090,
-0.251967,
0.228589,
0.235767,
0.026892,
0.350806,
0.442188,
0.450873,
-0.027204,
0.233178,
-0.391177,
-0.008429,
0.067389,
-0.151445,
0.212244,
-0.285578,
-0.071280,
0.311560,
0.105827,
-0.002142,
0.265928,
-0.341786,
0.037606,
-0.038538,
0.127250,
-0.023938,
0.146295,
-0.317884,
-0.224648,
0.368475,
0.012008,
-0.158738,
-0.383492,
-0.259403,
-0.422971,
0.143400,
-0.408597,
-0.480783,
0.094273,
0.064199,
0.252395,
0.203096,
-0.444230,
-0.180216,
-0.448349,
0.268013,
0.034206,
-0.019629,
0.079573,
-0.359967,
0.478229,
-0.154499,
-0.201752,
0.015835,
0.306963,
0.425497,
0.491897,
-0.046741,
-0.392387,
-0.232751,
-0.178266,
0.119621,
0.108510,
-0.061758,
0.360217,
0.185539,
-0.418358,
0.451620,
0.204757,
0.175915,
0.015819,
-0.042849,
-0.120989,
0.071589,
0.276935,
-0.069338,
-0.160398,
-0.188859,
0.411033,
0.419176,
-0.048825,
0.389262,
-0.235324,
0.249422,
-0.094902,
-0.428360,
0.174919,
-0.103005,
0.024898,
0.282533,
0.164243,
0.346632,
-0.097847,
-0.227246,
-0.215126,
-0.237629,
0.458293,
-0.133484,
-0.286009,
0.163049,
-0.457569,
0.229810,
-0.379799,
-0.078558,
-0.198601,
0.397136,
0.352104,
0.141001,
-0.291722,
0.263137,
0.060176,
0.159452,
0.152399,
0.324853,
-0.091125,
-0.442503,
0.396493,
-0.416206,
-0.045509,
-0.078609,
0.366327,
-0.381265,
-0.231977,
-0.231520,
-0.108512,
0.052897,
0.030851,
-0.150219,
0.419412,
0.244841,
-0.487170,
0.461843,
-0.025349,
-0.366969,
-0.116715,
0.276050,
-0.469833,
-0.264612,
-0.082949,
-0.261555,
0.498525,
0.477227,
0.397897,
0.150924,
0.302080,
-0.193228,
0.208421,
0.198573,
-0.109434,
-0.337088,
-0.380036,
-0.243107,
-0.218353,
-0.112013,
0.025373,
0.173135,
0.440884,
-0.443777,
-0.477084,
0.360296,
0.301065,
-0.464254,
0.322139,
-0.224284,
-0.331222,
-0.294576,
-0.448234,
-0.301055,
-0.059187,
-0.031183,
-0.062610,
-0.060662,
-0.053955,
-0.164713,
-0.409738,
-0.251875,
0.142059,
0.298683,
0.446698,
-0.467375,
0.461596,
-0.433338,
-0.210482,
-0.256757,
-0.045351,
0.314890,
0.416378,
-0.104468,
0.371113,
0.439294,
-0.244172,
0.172178,
0.475040,
-0.422032,
0.447894,
-0.356182,
-0.216608,
0.499660,
-0.157237,
0.224205,
-0.031523,
0.280153,
-0.336457,
0.414522,
-0.384560,
-0.246195,
-0.337353,
0.257500,
-0.447512,
-0.390655,
0.290125,
-0.485916,
-0.323994,
-0.420358,
-0.242673,
0.130655,
0.394532,
-0.326296,
-0.473813,
0.265645,
-0.387002,
-0.217984,
-0.062177,
-0.411962,
-0.140016,
-0.114283,
-0.268145,
0.143376,
-0.114622,
0.074618,
-0.132419,
0.353855,
-0.145229,
0.031124,
0.268377,
-0.029789,
0.284929,
0.431024,
-0.272289,
0.337417,
-0.459632,
-0.482165,
0.351502,
-0.283625,
-0.402523,
-0.391172,
0.347030,
0.492010,
-0.217468,
0.373217,
0.257655,
-0.104470,
-0.344767,
-0.304522,
-0.016432,
0.015216,
0.081196,
0.215423,
-0.341408,
0.466573,
-0.209959,
0.026173,
0.320428,
0.144812,
-0.442703,
0.088805,
-0.384976,
0.342226,
0.019828,
-0.157265,
0.179643,
0.060197,
-0.139430,
0.031144,
0.276571,
-0.041952,
0.139973,
0.123601,
-0.049943,
0.422505,
-0.003182,
-0.292288,
-0.181965,
0.152051,
-0.096809,
0.301603,
-0.332733,
0.484386,
0.017026,
-0.174141,
0.450959,
0.307067,
0.352032,
0.271387,
-0.048121,
0.409329,
-0.139808,
0.066903,
0.251554,
0.380020,
0.409638,
-0.068803,
-0.059783,
-0.229791,
0.462342,
-0.283211,
0.228256,
0.102314,
0.340390,
-0.321686,
0.024819,
-0.162792,
-0.113974,
0.342854,
0.489258,
0.289217,
0.144457,
-0.343475,
0.273603,
-0.338518,
-0.017616,
0.224562,
0.468549,
-0.165584,
-0.004051,
-0.079571,
-0.256256,
0.356141,
0.487332,
0.495299,
0.236162,
0.396970,
-0.073504,
-0.323621,
-0.332821,
-0.111162,
-0.106833,
0.395435,
0.491152,
-0.266443,
-0.426251,
0.015971,
0.070765,
-0.040225,
-0.141175,
0.060023,
-0.251008,
-0.496718,
0.216548,
