0.038781,
0.049930,
0.025625,
-0.018837,
-0.032376,
0.040413,
0.037831,
-0.034359,
-0.007341,
-0.048438,
0.025915,
-0.033132,
0.002147,
0.015817,
-0.010633,
-0.019831,
-0.004334,
0.000536,
-0.036483,
-0.005021,
0.027032,
-0.004616,
0.043430,
0.042561,
0.032441,
-0.021653,
-0.037656,
0.044597,
0.030159,
-0.018744,
0.004397,
0.018939,
-0.018814,
-0.019978,
-0.049898,
-0.001170,
-0.029565,
0.038086,
0.015687,
0.014613,
0.040015,
-0.009168,
0.039156,
0.002641,
-0.041051,
-0.029960,
0.022083,
0.002708,
0.020538,
0.035418,
0.046816,
-0.003184,
-0.019296,
0.040173,
-0.010629,
-0.036855,
-0.031480,
0.001715,
-0.042259,
0.048679,
0.032981,
0.012595,
0.020495,
-0.031020,
0.057124,
0.056589,
0.072798,
-0.025293,
-0.033929,
-0.039870,
0.000502,
0.116339,
0.118817,
0.098954,
0.150312,
0.122365,
0.080253,
0.058602,
0.009546,
0.000901,
-0.005728,
-0.027544,
0.041483,
0.024614,
-0.037436,
-0.019146,
0.037922,
-0.018879,
0.033132,
-0.074715,
-0.022380,
0.024438,
0.071047,
0.400514,
0.433591,
0.003090,
-0.332352,
-0.006324,
-0.344994,
-0.354035,
-0.264299,
-0.421398,
-0.385820,
-0.450583,
-0.435165,
0.104691,
0.187893,
0.147620,
-0.003212,
-0.012335,
-0.036650,
0.005191,
0.009789,
-0.046138,
-0.020844,
0.012232,
-0.075400,
-0.345803,
-0.316509,
-0.313946,
-0.297880,
-0.232431,
-0.316617,
-0.141648,
-0.189025,
-0.231560,
-0.128473,
-0.081334,
-0.095692,
0.406325,
-0.399066,
0.008703,
0.393744,
0.768260,
0.646167,
0.796496,
0.155176,
-0.010204,
0.033627,
-0.003658,
0.013212,
0.046658,
-0.046697,
-0.148513,
-0.445615,
-0.828526,
-0.853482,
-0.565889,
-0.044835,
-0.036273,
-0.538184,
-0.033341,
0.077958,
0.135707,
0.173939,
-0.004142,
-0.208693,
0.760066,
0.290081,
0.166582,
0.625376,
1.094302,
1.215455,
1.103582,
0.422376,
0.135740,
0.027082,
0.042144,
-0.025330,
0.004582,
0.004017,
-0.201758,
-0.658359,
-0.433754,
-0.533885,
0.102797,
-0.187438,
-0.630654,
-0.475679,
-0.290213,
-0.119914,
-0.552173,
-0.067474,
-0.274076,
-0.254752,
-0.191860,
-0.304886,
0.588927,
0.006494,
0.029466,
0.687636,
1.073639,
0.595598,
0.231972,
0.034180,
0.039988,
0.029475,
-0.021053,
0.289237,
-0.037567,
-0.609177,
-0.540837,
-0.120516,
0.116744,
-0.051713,
-0.147212,
0.309789,
0.375358,
-0.289500,
0.016339,
-0.429882,
-0.465074,
0.235331,
-0.118490,
0.192016,
0.061710,
-0.118758,
0.540599,
0.628096,
1.596292,
1.257295,
0.351847,
-0.011530,
-0.008511,
0.027148,
0.102195,
0.463930,
0.324254,
-0.202462,
-0.018081,
0.046008,
0.038605,
0.321248,
0.610269,
0.005295,
0.326127,
-0.390445,
0.268770,
0.116450,
-0.010240,
-0.287086,
-0.266253,
-0.657885,
-0.454169,
-0.437822,
-0.278613,
0.091564,
2.284309,
1.675731,
0.365006,
0.046963,
0.038635,
0.005834,
0.098941,
0.265042,
0.236646,
-0.394399,
-0.010539,
-0.177725,
-0.240533,
0.262129,
0.158134,
0.441043,
1.143111,
0.767883,
0.589065,
0.095956,
-0.104837,
-0.312918,
-0.299565,
-0.235965,
-0.126268,
-0.648246,
-0.904857,
-0.423606,
1.512907,
1.346992,
0.258431,
0.028357,
-0.042475,
-0.006954,
0.048275,
0.255378,
-0.038850,
-0.264291,
0.028697,
-0.141037,
0.071514,
0.765023,
1.411601,
1.518605,
1.623827,
1.391821,
-0.202310,
-0.678829,
-0.626454,
-0.735695,
-0.545672,
-0.419523,
-0.368698,
-0.650125,
-0.789805,
-0.164729,
0.701198,
0.609966,
0.092127,
0.046016,
0.021278,
0.000692,
0.039372,
0.262693,
-0.068330,
-0.080593,
0.447705,
0.750427,
1.274166,
1.677043,
1.486487,
1.407635,
0.735153,
0.255755,
-0.378505,
-0.584727,
-0.945012,
-0.290323,
-0.791038,
-0.550039,
-0.486729,
-0.656773,
0.550104,
0.929774,
0.782613,
0.344389,
0.032948,
-0.015883,
0.046159,
-0.011917,
0.012154,
0.198138,
0.203218,
0.360288,
0.892426,
1.294632,
1.217871,
1.052477,
0.508515,
-0.132766,
0.401719,
-0.739254,
-0.028011,
-0.802118,
-0.536930,
-0.739138,
0.246907,
-0.110682,
0.002784,
0.414713,
1.850618,
1.983955,
1.103298,
0.207787,
0.047466,
0.022224,
0.044011,
0.019610,
-0.002611,
0.175971,
0.141286,
0.564429,
0.902882,
0.950048,
0.822880,
0.367768,
0.184069,
0.644197,
0.434505,
-0.830557,
-0.450979,
-0.452834,
0.474636,
-0.646134,
-0.281623,
-0.041633,
0.606651,
1.112540,
1.388964,
2.050707,
0.886693,
0.196094,
0.013328,
0.014930,
-0.004911,
-0.008774,
-0.020825,
0.042326,
0.017287,
0.439470,
0.714543,
1.009126,
0.824884,
0.231280,
0.086663,
0.703189,
0.533137,
-0.903193,
0.091343,
0.104167,
0.095314,
-0.519689,
-0.064931,
0.149638,
0.751664,
0.644600,
-0.174242,
0.538359,
0.416253,
0.072999,
0.099116,
0.112491,
-0.022778,
0.037732,
-0.044879,
-0.022375,
-0.036356,
0.312231,
0.349186,
0.662391,
0.728931,
0.917705,
0.407251,
0.362286,
0.064719,
-0.479747,
-0.002375,
-0.100996,
-0.601133,
-0.046761,
0.528607,
0.324413,
-0.031895,
-0.789095,
-0.694534,
-1.009840,
-0.536392,
-0.086564,
0.286056,
0.067812,
0.021963,
0.030971,
0.012765,
-0.126698,
-0.347916,
-0.370900,
-0.005698,
0.456321,
0.629182,
1.342209,
0.548179,
0.644801,
0.088494,
-0.091736,
-0.283808,
0.528808,
0.730565,
0.955664,
0.414092,
-0.695925,
-0.379856,
-0.698913,
-0.577291,
-0.953994,
-0.690645,
-0.146414,
0.464700,
0.111167,
0.015355,
-0.016525,
-0.040943,
-0.219928,
-0.915530,
-0.481826,
0.326954,
0.318333,
0.121771,
0.730812,
1.772702,
2.191294,
1.749985,
0.922953,
1.085674,
1.221144,
1.053799,
0.346295,
-0.515393,
-0.033638,
-0.905535,
-0.189483,
-0.346060,
-0.978998,
-0.479490,
0.703221,
0.652183,
0.135975,
0.044054,
-0.034690,
0.028005,
-0.249162,
-1.486650,
-0.503376,
-0.115466,
-0.028069,
0.389403,
0.264148,
0.939120,
1.828050,
1.791597,
1.748335,
1.818403,
1.186823,
0.231424,
-0.602059,
-0.320521,
-0.240671,
-0.570736,
-0.134922,
-0.733332,
-0.918612,
0.168307,
1.162618,
0.551112,
0.101727,
0.009177,
-0.028143,
-0.021049,
-0.171917,
-1.538890,
-0.866648,
-0.674840,
0.103321,
0.123846,
0.257900,
0.297283,
0.232641,
0.774962,
0.628178,
0.862124,
0.723826,
0.565961,
-0.038772,
-0.647346,
-0.552194,
-0.218650,
-0.021859,
-0.449121,
0.154368,
0.561915,
1.059399,
0.420168,
0.009676,
-0.002608,
-0.018406,
0.010365,
-0.222786,
-1.424544,
-1.200883,
-0.808530,
-0.387794,
-0.258955,
-0.120755,
-0.357264,
0.302389,
0.246055,
0.358778,
0.460869,
0.051969,
0.352487,
0.279124,
0.014227,
-0.426248,
0.246636,
-0.696233,
0.086410,
0.654878,
0.859819,
1.085547,
0.252109,
0.069692,
0.037308,
0.019779,
0.024576,
-0.179334,
-0.851045,
-0.882084,
-0.201913,
-0.097604,
0.123952,
-0.043391,
0.564039,
0.247556,
0.469696,
0.177041,
0.104623,
0.115464,
0.090915,
-0.107309,
0.338073,
-0.242701,
-0.374149,
-0.006138,
0.232336,
0.426151,
0.940829,
0.921115,
0.156089,
0.032356,
0.047726,
-0.044426,
-0.004042,
-0.107589,
-0.613440,
-0.924329,
-0.381861,
-0.179683,
-0.270860,
0.415961,
-0.145102,
0.056785,
-0.199948,
0.303761,
0.085214,
0.378658,
-0.103826,
-0.338184,
-0.006263,
-0.037530,
-0.277992,
-0.211752,
0.144190,
0.262980,
0.505644,
0.413074,
0.075123,
0.018042,
-0.044073,
0.027144,
-0.018472,
-0.140702,
-0.473413,
-1.109756,
-1.167419,
-1.155291,
-0.770742,
-0.162771,
-0.499777,
0.004117,
-0.069448,
0.406041,
-0.056222,
0.453855,
0.393476,
0.555481,
0.144517,
-0.544757,
0.065228,
0.344944,
0.419168,
0.611852,
0.406440,
0.107364,
-0.018353,
-0.014815,
-0.049876,
-0.013511,
-0.044508,
-0.033544,
-0.316417,
-0.672231,
-0.627456,
-0.968389,
-0.988810,
-0.456522,
-0.208325,
-0.309478,
-0.257900,
0.214022,
-0.251458,
-0.002194,
0.256699,
-0.180499,
-0.114179,
1.032355,
0.894479,
0.660499,
0.299507,
0.118549,
0.046798,
0.040672,
0.052552,
0.046161,
-0.041924,
-0.036730,
-0.015589,
-0.043405,
0.029010,
0.009084,
-0.101922,
-0.051675,
-0.094246,
-0.476091,
-0.453932,
-0.323543,
-0.306457,
-0.347812,
-0.119353,
0.150033,
0.588905,
0.640401,
0.923334,
0.554374,
0.175692,
0.399936,
0.355086,
0.094201,
0.038942,
0.004013,
0.021782,
-0.004186,
0.048889,
0.018963,
-0.008104,
-0.043035,
0.032545,
0.032090,
-0.015165,
0.039638,
0.015334,
0.114010,
0.321430,
0.475762,
0.685271,
0.924424,
1.156581,
1.176908,
0.991923,
0.668522,
0.400984,
0.204831,
0.076873,
0.143777,
0.099488,
0.032086,
0.011054,
0.011658,
-0.034550,
0.040941,
-0.034833,
0.036676,
-0.013286,
-0.035944,
0.005639,
0.028610,
-0.028979,
-0.012067,
0.005350,
-0.013191,
0.024218,
0.040595,
0.037127,
0.041701,
0.071460,
0.067803,
0.020496,
0.070000,
0.092142,
0.065465,
0.015766,
0.048875,
0.008733,
0.047719,
0.038973,
0.027395,
0.024007,
-0.000604,
-0.010958,
