-0.001255,
0.010556,
0.015979,
0.014432,
0.025113,
0.009745,
0.017657,
0.002304,
-0.010605,
0.010280,
0.017531,
0.012629,
0.001115,
0.021957,
-0.004618,
0.000099,
-0.034870,
0.000862,
0.006583,
0.007608,
0.004828,
-0.004670,
0.009323,
-0.000357,
-0.002016,
0.028894,
0.012822,
0.007380,
-0.003858,
-0.000172,
0.035809,
0.018677,
0.047076,
0.001201,
0.008891,
0.001043,
-0.000273,
0.010321,
0.025040,
0.012372,
0.000412,
-0.001645,
-0.006963,
0.012410,
0.001192,
0.006625,
0.050237,
-0.003671,
-0.003774,
0.015384,
0.017356,
0.013685,
0.008979,
0.014149,
0.003193,
0.008804,
0.019098,
0.018093,
0.015475,
0.005579,
0.004637,
0.003492,
0.031951,
0.013517,
46.350971,
-0.121313,
-0.082607,
0.000304,
-0.164301,
-0.118582,
-0.000584,
-0.078698,
0.400377,
-0.022568,
0.166295,
-0.790685,
0.031209,
-0.457460,
-0.108828,
0.052945,
0.066430,
0.307851,
0.284936,
-0.138855,
0.369684,
0.090468,
-0.417002,
-0.500640,
0.098746,
-0.118909,
-0.022314,
-0.207975,
-0.095259,
0.104975,
-0.443325,
-0.301730,
-0.551791,
-0.165802,
0.084715,
-0.382970,
-0.042778,
-0.026320,
-0.056338,
-0.139115,
-0.088260,
0.268128,
-0.334431,
-0.000389,
-0.366053,
-0.509259,
-0.013395,
0.053561,
0.063074,
0.005077,
-0.507010,
0.389033,
0.002550,
-0.264419,
-0.210995,
-0.000190,
-0.244680,
-0.618124,
0.019061,
-0.206381,
-0.321040,
0.016522,
-0.127214,
-0.057876,
-0.065052,
-0.075078,
-0.626296,
-0.062137,
0.153575,
-0.306908,
-0.053094,
0.039806,
-0.003771,
0.130455,
-0.320280,
-0.188519,
0.272663,
-0.382992,
-0.200534,
-0.377676,
-0.089217,
-0.177015,
-0.069057,
-0.045712,
0.303719,
0.277993,
0.000121,
-0.275286,
-0.125360,
0.016734,
0.035603,
-0.183253,
0.009701,
-0.569903,
-0.173479,
-0.019325,
-0.724346,
-0.263664,
0.001403,
-0.614371,
0.015001,
-0.003694,
-0.133188,
-0.295996,
-0.002176,
-0.252232,
-0.381797,
0.015827,
-0.025561,
-0.274727,
0.011877,
-0.061297,
-0.691751,
0.078206,
0.022601,
-0.256561,
0.214310,
-0.352931,
-0.274549,
0.020539,
-0.080780,
-0.345995,
-0.039925,
-0.136688,
-0.424561,
-0.039631,
-0.059409,
0.035307,
0.177549,
-0.319056,
0.130039,
-0.313235,
-0.061285,
-0.086041,
-0.045703,
-0.071900,
0.187955,
-0.236559,
-0.007113,
-0.130717,
-0.179459,
0.031089,
-0.604034,
0.606490,
-0.037826,
-0.078327,
-0.648244,
0.001566,
-0.715174,
-0.303669,
-0.002749,
0.204024,
0.073071,
0.000195,
-0.540489,
0.342911,
0.003031,
-0.062292,
0.288668,
-0.031155,
-0.114614,
0.114072,
0.209778,
0.134396,
-0.012310,
-0.043073,
0.019112,
-0.104383,
0.048097,
-0.510745,
-0.579951,
-0.041279,
-0.165177,
-0.284775,
-0.075240,
0.217727,
0.193773,
-0.395852,
-0.115364,
0.057468,
-0.219565,
0.043070,
-0.163108,
-0.140515,
-0.025728,
-0.126418,
-0.158985,
-0.074867,
0.312403,
-0.113771,
-0.092666,
-0.584752,
