0.015943,
-0.019262,
0.031022,
-0.006700,
0.002414,
-0.000423,
0.034351,
0.006689,
0.020290,
0.011097,
0.008890,
0.006604,
0.013738,
0.001421,
0.002842,
0.001289,
0.008269,
-0.017476,
0.018625,
0.023689,
-0.006731,
0.005538,
0.012184,
0.011437,
0.013921,
-0.005239,
-0.003225,
0.001779,
-0.000520,
0.017339,
0.003622,
0.023598,
0.012615,
0.003836,
0.005380,
0.012016,
0.006369,
-0.002139,
0.019151,
0.016107,
-0.010972,
0.005387,
0.004699,
-0.014570,
-0.001586,
-0.004053,
-0.000512,
0.000400,
0.014365,
0.030168,
0.005637,
0.016893,
0.004113,
-0.009540,
-0.012497,
0.017170,
0.008651,
-0.025377,
0.011753,
0.012179,
0.011716,
0.026104,
0.013679,
-0.002922,
0.290526,
0.006376,
0.053133,
0.029677,
-0.260126,
-0.179498,
-0.021203,
-0.167406,
0.401088,
0.501811,
0.035168,
0.027169,
0.047526,
-0.128136,
0.188470,
0.303718,
0.015526,
0.107313,
0.010017,
0.002619,
0.055162,
0.172520,
0.238727,
0.120253,
0.553455,
0.397583,
0.099006,
0.121468,
0.234048,
0.218603,
-0.219715,
-0.072702,
0.174110,
0.273569,
0.037566,
0.238679,
0.194313,
0.212351,
0.470902,
0.425618,
0.290445,
0.076857,
0.401452,
0.312234,
0.126747,
-0.025108,
0.523775,
0.277517,
0.045371,
0.231958,
0.193340,
0.107445,
0.011345,
0.001016,
0.200213,
-0.001634,
-0.051868,
0.084308,
0.321948,
0.279853,
0.095029,
0.292583,
-0.142863,
-0.119974,
