0.005633,
-0.012821,
0.033219,
-0.004914,
0.000686,
0.002392,
0.021451,
0.001977,
0.017186,
0.003968,
0.005452,
0.006958,
0.005528,
0.001411,
0.000048,
0.003853,
0.008945,
-0.015225,
0.018323,
0.020084,
-0.006994,
0.002666,
0.008489,
0.006338,
0.012468,
-0.003665,
-0.002897,
0.001680,
-0.000320,
0.006965,
0.003343,
0.020971,
0.016599,
0.001134,
0.003663,
0.009184,
0.004755,
-0.001456,
0.012576,
0.012996,
-0.010447,
0.008034,
0.004511,
-0.007625,
-0.000611,
-0.005099,
-0.001179,
-0.000080,
0.009919,
0.017451,
-0.001298,
0.015658,
0.001487,
-0.004037,
-0.007072,
0.014142,
0.006922,
-0.021022,
0.011820,
0.004564,
0.004919,
0.016655,
0.011364,
-0.000454,
0.116227,
-0.030158,
0.065216,
0.039096,
-0.166963,
-0.117559,
0.042090,
0.036091,
0.402101,
0.340861,
0.047634,
0.029755,
0.035121,
-0.043511,
0.069023,
0.166690,
-0.002828,
0.018217,
0.004961,
0.002663,
0.078151,
0.106246,
0.167025,
0.081509,
0.370677,
0.298493,
0.003544,
-0.022504,
0.138783,
0.116652,
-0.230210,
-0.082864,
0.273311,
0.274208,
0.087109,
0.117870,
0.052271,
0.073285,
0.396831,
0.326185,
0.202960,
0.120853,
0.206317,
0.145622,
0.085392,
0.040983,
0.278378,
0.128875,
0.045114,
0.119711,
0.155671,
0.096365,
0.015417,
0.000060,
0.101886,
0.024701,
-0.024275,
0.041666,
0.326426,
0.237399,
0.109736,
0.217252,
-0.111158,
-0.099851,
