0.034962,-0.083825,0.084368,-0.015597,0.064671,0.165503,0.049603,0.114562,-0.074931,-0.028153,-0.070961,0.153878,-0.033034,0.004039,-0.030547,0.048617,0.056726,0.094916,0.156300,-0.008543,0.073530,-0.055033,-0.076060,0.044218,0.145565,-0.042876,0.047769,0.088492,0.005161,-0.144652,-0.079092,-0.119142,-0.076958,-0.145212,0.025921,0.138592,-0.134351,-0.101683,0.086715,-0.061569,0.037340,-0.125797,-0.071326,-0.152816,0.028059,0.048966,0.050336,-0.083828,-0.006139,0.042458,0.053776,-0.093587,0.140772,0.132214,0.095744,0.147134,-0.058343,-0.005148,0.077907,0.102836,-0.007236,0.152693,0.136260,0.069136,-0.130493,0.005080,0.046223,-0.125062,0.061127,-0.012683,-0.037785,-0.056190,0.006595,0.049718,-0.066100,-0.130669,-0.056279,0.144775,-0.067986,0.095138,0.030729,0.140861,-0.156614,0.008506,0.119448,0.105558,-0.000982,-0.090595,-0.065308,-0.080281,-0.145251,0.086190,-0.083686,0.142221,-0.000638,-0.066887,-0.004681,-0.095582,-0.039515,-0.110164,0.036410,0.075184,-0.006634,-0.105420,-0.031749,0.082638,-0.072300,0.064177,0.085325,0.006372,-0.001295,-0.033260,-0.008298,0.006814,0.139411,-0.030178,-0.054595,-0.020599,0.023980,0.039474,0.052734,0.032735,-0.031658,0.124632,0.026197,0.119604,-0.116730,-0.133065,-0.127699,0.009897,-0.076787,0.068670,-0.076695,0.074944,0.111836,0.052422,0.024705,-0.120469,-0.034813,-0.048888,0.040726,0.114010,0.068316,-0.118784,-0.036744,0.049963,0.003327,0.053979,-0.118826,-0.129859,-0.058863,0.082608,0.046410,0.059386,0.055431,-0.062859,0.024409,0.102503,-0.053497,0.053605,-0.036003,0.023762,-0.033075,0.049527,-0.056077,-0.086105,-0.058109,0.114709,-0.033004,0.051717,-0.086353,-0.145670,0.026882,0.133947,-0.111104,0.139571,0.033986,0.040841,0.045406,0.065882,0.057486,0.135843,0.004118,-0.028640,0.056591,-0.101893,0.045749,-0.085839,-0.148212,0.142885,0.114838,-0.035806,0.014943,-0.063061,-0.141958,0.113284,0.021914,-0.042885,0.063530,0.138686,-0.122607,0.134280,0.147604,0.061577,0.121677,-0.121141,0.043976,-0.008883,0.078571,-0.070228,-0.088348,-0.015765,-0.084454,0.060971,0.108567,0.114878,0.111922,-0.002917,-0.126302,0.122058,-0.012219,0.152472,-0.064391,0.152495,-0.063716,-0.054727,0.108111,0.109389,0.075383,0.026800,0.088911,0.099166,-0.000271,0.088096,0.002100,-0.025182,0.132659,-0.111234,0.124546,0.060967,-0.024811,-0.113851,-0.113414,0.043169,0.101845,0.147435,-0.000567,0.063456,-0.021495,0.027852,0.031345,0.130386,0.026591,0.119578,0.121213,0.110150,
-0.075734,0.080759,0.074090,0.150517,-0.034767,0.015225,0.080702,0.116927,-0.068370,-0.069488,-0.058161,-0.095642,-0.018923,-0.105385,0.119531,0.109148,-0.037962,-0.149390,0.014865,-0.102703,0.150210,0.141556,0.118225,-0.028715,0.022274,0.017755,-0.043892,-0.113308,-0.045118,-0.078437,-0.150761,0.012382,-0.144293,0.096377,0.007476,-0.032454,-0.086107,-0.072862,-0.071173,0.015301,0.022072,0.041616,0.087626,0.149807,0.072313,0.054892,0.114949,-0.118437,0.062842,-0.067172,-0.061952,0.076301,-0.071541,-0.097004,-0.116744,0.098398,0.056672,-0.003236,0.147054,-0.159453,0.067907,-0.161206,0.023340,0.093740,0.097021,-0.120747,-0.110481,0.134250,-0.027377,-0.019702,0.012532,0.154231,0.151033,-0.061685,0.140463,0.081079,0.142487,0.085511,0.118544,0.039111,-0.131744,-0.094219,-0.047463,-0.036175,-0.042039,-0.013117,-0.090162,-0.161371,0.146416,-0.093614,-0.146642,0.061503,-0.093658,0.034341,0.000707,0.123480,0.065700,0.058241,0.117637,-0.113084,-0.126642,-0.010151,-0.125422,-0.136941,0.044247,-0.132538,0.092877,0.034100,0.100620,0.064732,-0.067481,0.138065,0.121876,0.038702,-0.090400,-0.077267,-0.118786,-0.006004,-0.067809,-0.123710,0.087764,-0.060038,0.094195,0.105293,0.129450,-0.061870,0.087861,0.046991,0.131141,0.039263,0.074899,0.139033,0.152378,0.102708,-0.133014,0.036443,0.109640,0.105256,-0.072335,0.066409,0.021977,0.032245,0.051375,-0.020822,-0.113619,0.119595,0.058272,-0.073780,-0.040388,0.150946,-0.050623,-0.144519,-0.067973,-0.121802,0.127122,-0.099080,-0.044500,0.042603,0.106847,-0.077143,-0.075081,0.026438,-0.091020,-0.077589,-0.022574,-0.063023,0.126418,-0.056491,-0.126870,-0.107225,-0.147741,0.048533,0.062580,0.052894,-0.118384,0.110194,0.018482,0.110486,-0.112537,0.129162,0.094366,-0.009267,0.129084,-0.116725,0.010996,0.091879,-0.037395,0.122916,-0.021449,-0.097892,-0.105832,0.049664,0.099141,-0.037703,0.146811,-0.098657,0.032711,0.122341,0.015591,0.060097,0.165719,0.017762,-0.042544,0.061542,-0.089822,-0.011106,0.005251,0.103277,-0.050353,0.050978,0.061503,-0.112532,-0.112623,0.040393,-0.085250,0.061355,-0.018193,0.032414,0.034636,0.107772,0.084268,0.081893,0.009358,0.014831,-0.098860,-0.007963,0.096669,0.070496,-0.065152,-0.071952,-0.010959,-0.069980,0.087202,0.089727,0.133933,-0.142114,-0.077595,-0.007519,0.090942,0.028474,-0.119112,0.003911,0.052903,-0.080974,-0.108824,0.144955,0.141353,0.022737,0.004729,0.019367,-0.016527,-0.070834,-0.051375,0.145031,0.104543,-0.012264,
-0.012093,0.020130,-0.099280,0.079173,0.103775,0.036652,-0.145924,0.042066,-0.026172,0.140099,0.058144,0.043303,-0.024132,-0.002313,-0.089765,0.007566,-0.149053,0.106694,0.079688,-0.103335,0.083664,0.060683,0.068663,-0.075951,-0.078070,-0.102879,0.010468,0.017759,-0.104953,-0.045453,-0.144735,0.032255,0.129542,-0.087412,-0.038296,0.078998,0.110065,-0.037394,-0.026168,-0.061368,-0.041317,-0.126913,0.143363,0.084420,0.028562,-0.098907,-0.058038,0.039341,-0.140329,-0.132172,0.086508,0.096095,0.082999,0.012094,-0.130237,-0.142675,0.066595,0.029657,0.024793,0.110154,0.134083,0.036631,-0.003502,0.120037,0.088679,0.111832,0.036649,0.067163,-0.071196,-0.132238,-0.143851,0.042863,-0.097412,-0.147434,-0.027697,0.091020,-0.094233,0.075145,-0.021778,-0.086201,0.101057,-0.083644,-0.139319,0.029573,0.081377,-0.120375,0.050247,-0.013072,0.070461,-0.068736,-0.043671,0.060245,0.127222,0.107740,0.021342,0.085498,0.066770,-0.076734,0.010568,0.142077,-0.063305,0.019799,0.036418,-0.000676,0.030395,-0.142666,-0.062767,0.090436,0.092234,0.071232,-0.142873,0.041782,0.142287,-0.129873,-0.079207,0.071262,-0.091345,0.130412,-0.083264,0.132576,-0.094971,0.028090,0.040691,-0.118163,-0.017902,-0.084034,0.119687,-0.105455,-0.017921,-0.018145,-0.106788,0.089201,-0.150601,0.085990,-0.067300,0.037123,0.101058,0.025540,-0.023181,0.041958,-0.052530,-0.012578,-0.068875,-0.065002,0.003771,0.010546,-0.145446,0.070668,-0.016002,-0.072206,0.051805,0.041837,0.105533,-0.058603,0.081410,-0.063260,0.008853,0.051457,-0.010366,-0.151882,-0.115748,0.035172,0.088037,-0.108065,-0.030810,-0.131446,0.084470,-0.080826,0.056102,-0.094322,0.113638,-0.149472,0.047691,-0.106055,-0.059543,-0.093656,0.058133,-0.050578,0.133608,-0.107053,0.030169,0.033884,0.094997,-0.016796,0.125102,0.026415,0.074379,-0.017449,-0.071342,-0.082119,-0.016857,-0.037754,0.106590,-0.076839,0.006168,-0.078847,-0.048741,-0.059075,-0.005296,-0.148038,0.003215,-0.041635,-0.140690,-0.102338,0.004353,-0.049396,-0.042713,-0.089159,0.054584,-0.062685,-0.043240,-0.063282,0.124345,-0.105609,0.075703,0.098159,0.078570,0.008189,-0.067935,-0.146878,0.076644,0.071208,-0.029626,0.032330,0.149568,0.135067,0.104066,-0.053232,-0.074472,-0.048798,-0.043380,0.082820,0.057526,-0.031367,0.133605,-0.084565,0.072993,-0.072341,-0.027395,-0.022603,0.028398,0.088304,0.069646,-0.000701,0.141618,-0.008112,-0.057322,0.066785,-0.156240,0.027887,0.073650,0.079226,-0.049247,-0.106848,-0.046342,-0.053346,
-0.121104,-0.084043,0.047209,-0.045429,0.020701,-0.147362,-0.106116,-0.066192,-0.026547,-0.131523,-0.000113,-0.097175,-0.041229,0.138287,0.028288,0.143356,0.071936,-0.054877,-0.015946,0.062088,0.096072,0.088522,-0.022385,0.100837,-0.029444,-0.104987,0.023983,0.072289,-0.057307,0.139296,-0.134967,-0.023856,-0.097745,0.060193,0.085821,0.075473,0.069210,0.133241,-0.144209,-0.109920,0.148270,0.011764,-0.062195,-0.044013,-0.006105,0.119745,-0.059096,-0.087567,-0.089138,0.089636,0.131328,-0.152026,0.029090,-0.053771,0.100769,0.144994,-0.009145,-0.027860,0.063189,0.088277,-0.042795,0.081553,-0.088674,0.009062,-0.019246,0.149740,-0.056924,-0.087079,0.123805,-0.054976,-0.050799,0.121516,0.109150,0.037919,-0.077455,-0.051296,0.007503,0.020938,0.011766,0.075339,-0.045430,-0.017606,0.077859,0.130892,0.081526,0.025154,0.118157,-0.072631,0.144609,0.025957,-0.142063,-0.050253,-0.050036,-0.078049,0.121878,0.094941,-0.081201,-0.104772,0.153305,-0.105308,0.004799,-0.059795,-0.139141,-0.043175,0.140457,-0.063680,0.060226,-0.003892,0.106663,-0.084909,-0.085088,-0.090701,0.050437,0.143009,-0.107839,-0.019985,0.011732,-0.149808,0.055190,0.006621,0.027754,0.065595,0.103564,0.132620,0.144039,0.069338,0.080481,-0.096095,0.128320,0.070327,-0.051042,-0.031277,-0.134159,-0.041727,0.070667,-0.145850,0.045694,-0.021881,0.002666,-0.002678,0.044703,0.067939,0.053535,-0.049555,0.066527,0.097431,0.076458,-0.077173,0.099357,-0.022530,0.079504,-0.022811,-0.108964,0.035996,-0.038216,-0.113818,-0.043684,-0.121836,-0.063188,-0.076736,0.100468,0.038510,0.044444,0.118294,0.150292,-0.027816,0.125833,0.040142,0.096964,-0.025068,-0.113611,-0.010586,-0.108498,0.097445,0.086633,0.106883,0.040491,0.008455,-0.124474,-0.012095,0.140812,0.108159,0.117778,-0.121497,-0.006099,-0.076534,-0.092466,0.099558,-0.046647,-0.002078,-0.127231,-0.097950,-0.114582,0.067360,-0.134556,-0.116379,-0.119314,0.147409,0.075077,0.136520,-0.040019,0.112181,-0.033107,0.009858,0.058099,-0.098830,-0.034714,-0.054889,0.067942,-0.006770,0.085903,0.053130,-0.052278,0.053046,0.088086,0.094116,0.129811,0.142580,0.038660,-0.070664,-0.009838,0.061780,-0.016813,0.026274,-0.025459,0.003856,0.060998,0.010719,-0.005851,-0.017682,-0.012176,0.112017,-0.056364,0.110499,-0.029369,0.153456,-0.136114,0.094606,-0.054770,0.076172,-0.070343,-0.122148,-0.024965,0.031247,0.082391,-0.097604,-0.028655,0.057437,-0.101053,-0.141047,0.138161,0.043652,0.071008,-0.029438,-0.085054,-0.104887,
0.123672,0.129266,0.080038,-0.032327,-0.042141,-0.092715,-0.076426,0.051420,-0.140017,0.060657,0.055744,-0.119410,-0.015107,0.167774,0.096423,0.074223,-0.115152,-0.082129,-0.038263,0.110521,-0.023487,0.069981,0.026068,0.031193,0.094579,0.021482,-0.084140,0.010087,0.121216,-0.020335,0.046039,0.098890,-0.042996,-0.027782,-0.099964,0.065531,-0.003700,-0.002103,-0.033278,0.005567,-0.131738,-0.126933,0.030030,0.010667,-0.142838,-0.035522,-0.073393,-0.104627,0.036209,0.018736,0.152823,-0.117596,-0.052047,0.015910,0.047758,-0.137934,-0.144243,0.120944,0.018622,0.126263,-0.055497,-0.096915,0.067061,0.050978,0.071974,0.121014,-0.034560,-0.142043,-0.054397,0.079466,0.025863,-0.030850,0.093639,-0.125197,0.151110,0.104842,-0.007012,-0.104974,0.144673,-0.123654,0.066087,0.137952,-0.101469,0.161206,-0.002039,0.084649,-0.146895,0.000385,0.050741,0.011308,-0.028781,0.133421,0.062389,-0.111361,0.042749,-0.074934,-0.146777,0.147613,-0.078184,-0.039883,0.071588,0.093429,0.080290,0.005597,0.103231,0.087838,-0.040732,-0.057276,0.098371,-0.050444,-0.028949,0.024021,-0.062835,0.025949,0.020975,0.075800,-0.057858,0.012874,-0.078219,0.138719,-0.106003,0.046917,0.119364,0.080609,0.088316,0.006990,0.170722,0.096342,0.010730,-0.090231,-0.110162,-0.099529,0.152902,0.116899,0.071691,0.095871,0.017064,-0.132487,-0.128087,-0.040960,-0.030990,0.007621,0.129852,0.053493,-0.138174,-0.025184,-0.023096,-0.034809,0.141356,0.052951,-0.065753,-0.144812,-0.044724,-0.103841,0.110072,-0.100892,0.045202,0.092193,0.121282,-0.129513,0.147465,-0.143168,-0.077709,0.127466,0.127573,0.176017,0.067201,-0.012332,0.147900,0.107054,0.107442,-0.036812,-0.070797,0.069511,-0.136891,-0.064973,-0.110439,0.003394,0.037571,-0.125736,-0.103693,0.125016,-0.123631,0.004155,-0.129753,0.123047,0.023386,0.065613,0.056115,-0.006694,0.094938,0.066059,0.014310,-0.144283,0.044124,-0.022647,0.136080,-0.046292,0.135122,0.138815,-0.134516,0.068740,-0.051360,-0.055930,-0.021257,-0.033876,0.028254,0.039716,0.112749,-0.081265,0.051618,0.160686,-0.112325,0.089865,0.000664,-0.091147,0.056385,-0.139187,0.124580,-0.043985,0.007289,0.058179,-0.144404,-0.146195,0.068575,0.038771,-0.007585,0.050517,0.120060,-0.052713,0.036729,0.132239,-0.124737,0.128018,-0.077981,-0.008028,-0.070142,0.123911,-0.131415,-0.104943,-0.133632,0.070417,-0.118598,-0.092044,-0.003067,0.025312,-0.025287,-0.104208,0.059350,-0.053123,0.005906,-0.118761,0.150092,0.010992,-0.103770,0.061536,
-0.109681,0.025094,-0.042774,-0.145121,0.124589,0.138072,0.138893,0.138055,0.109347,-0.093320,-0.023850,-0.115724,-0.142389,-0.007295,-0.086850,-0.121707,-0.095812,-0.056707,-0.062172,0.052583,0.117059,0.059228,0.102426,-0.002966,0.152181,-0.045636,0.032504,0.151312,0.118159,0.075659,0.058955,-0.144334,-0.053388,-0.136854,-0.137572,-0.082006,0.153887,-0.151350,-0.098552,0.106091,-0.091428,0.031157,0.140393,-0.079866,-0.129727,-0.100118,-0.049749,-0.074352,-0.004073,0.042036,0.132212,-0.040801,-0.054084,0.079789,0.108153,-0.056177,-0.119420,-0.011649,-0.055706,0.153010,-0.090233,-0.151944,-0.146038,0.009064,-0.135227,-0.130487,0.082370,-0.136919,-0.129254,0.135450,0.123481,-0.068438,0.011283,0.109375,0.004462,0.032727,-0.144985,0.105482,0.111370,0.005499,-0.008369,0.089323,0.116485,0.092110,0.016702,0.071997,-0.119339,0.054886,-0.093742,-0.024970,0.048690,-0.030897,-0.024842,0.055646,0.132400,-0.009568,0.078236,0.057602,0.006006,0.102356,0.041543,-0.024370,-0.118902,-0.102467,-0.070714,0.038179,0.083599,-0.062712,-0.010076,0.040600,0.094426,0.133851,-0.023115,0.058280,0.074334,0.146953,-0.023559,0.104469,0.042588,0.035820,-0.071313,-0.062027,-0.148399,0.055505,0.147081,0.135057,-0.107145,0.071802,0.041200,0.051164,0.020768,-0.075099,-0.126207,0.054594,-0.025356,-0.045469,-0.060578,-0.095363,0.044880,0.081750,0.097974,-0.013652,0.062845,-0.077502,-0.107640,-0.019804,-0.084281,0.021618,-0.067652,0.110097,-0.096383,0.011531,-0.104473,-0.092512,-0.088168,-0.110957,-0.110283,-0.042488,0.113318,0.082302,-0.144577,-0.018831,-0.145447,-0.118974,-0.117424,-0.017200,-0.011809,-0.024672,0.039289,-0.119298,-0.096861,-0.016059,0.019780,0.118879,0.058594,0.063642,-0.054234,0.127049,-0.068655,0.030209,0.083930,-0.012993,-0.111172,0.133694,0.049048,-0.047050,-0.130345,0.092141,0.063335,0.133002,0.020972,0.073098,-0.039062,0.027028,0.108329,-0.002215,-0.144170,-0.058914,0.124164,0.048120,-0.025359,-0.125851,-0.121341,0.148118,0.147571,0.090304,0.058223,-0.061502,0.064783,0.141790,0.121789,-0.006549,-0.024302,-0.143029,-0.028436,-0.128641,-0.037367,-0.009291,0.113549,-0.127026,-0.028935,-0.019930,0.098852,0.084731,-0.146467,0.051610,-0.069196,-0.138135,0.144845,-0.100563,0.062413,-0.033989,-0.071937,0.094029,-0.040054,-0.080595,0.031822,-0.133226,0.013015,-0.057822,-0.146772,-0.020129,0.087326,-0.017964,-0.010695,-0.093349,0.006084,0.105125,0.050005,-0.034338,0.130873,-0.133213,0.098577,0.075643,0.105090,0.105079,
-0.027548,-0.120724,0.109839,-0.033521,-0.066575,0.036941,0.091284,0.020174,-0.037139,-0.113750,0.082707,-0.149898,-0.091960,-0.059271,-0.056748,-0.083628,0.073430,-0.125425,0.058976,-0.087680,-0.060473,-0.098537,-0.134951,0.145801,0.017217,0.155464,-0.149696,-0.042300,0.068130,0.107124,-0.082502,-0.116165,0.139034,-0.121164,0.005881,-0.081093,0.062288,-0.067455,0.083667,-0.116443,-0.018978,0.026139,-0.114285,0.032401,0.111902,-0.018595,0.106164,0.039932,0.013378,-0.009449,0.103834,0.109466,0.062925,0.112728,0.084345,-0.071285,0.103908,0.092913,0.041546,0.012010,0.038663,0.111964,0.060224,0.031578,0.125940,-0.088163,0.095147,0.058457,-0.000688,0.035086,0.106800,0.133047,-0.099387,0.136938,0.009759,-0.141902,-0.033927,-0.029519,0.043030,0.136402,0.125142,-0.017661,0.079702,0.024725,-0.059560,0.017352,0.105534,-0.116674,-0.054837,-0.005569,0.064020,0.144349,-0.046139,-0.026547,0.024574,-0.040095,0.037998,-0.020707,-0.139818,-0.118887,-0.131624,0.114738,-0.136450,-0.082160,0.094650,0.038181,-0.063022,-0.087239,-0.148500,0.123706,-0.106433,0.138262,-0.044246,0.134876,0.008606,0.053426,-0.016979,-0.037463,0.099078,0.089385,0.111820,0.011949,0.073803,-0.091127,0.146042,-0.050757,0.015377,0.021362,0.075775,0.026981,0.062112,0.094982,-0.020443,0.077942,-0.147353,-0.074672,-0.040914,-0.065270,0.001548,-0.035634,-0.092313,0.053689,-0.057211,0.021960,0.013240,0.104930,-0.086756,-0.154001,-0.088948,-0.136449,0.085827,-0.132644,0.019732,0.009983,-0.050391,0.024977,0.115543,0.095700,-0.114648,0.036205,-0.026108,0.099476,-0.026151,0.114904,0.025784,-0.007998,-0.098540,0.139299,0.078555,0.052244,-0.051511,0.141361,-0.055000,0.049626,0.006659,0.118838,0.000853,0.080447,0.122324,0.067747,0.088381,0.057997,0.086631,-0.027862,-0.080777,-0.128845,0.137055,-0.131815,0.124087,-0.129843,0.060847,-0.056778,0.140530,-0.113781,-0.094106,-0.000908,0.030845,-0.033060,-0.007037,-0.046661,-0.150654,0.088998,-0.055676,-0.044223,-0.014875,0.103524,-0.084251,0.144714,0.038740,-0.112808,0.052477,-0.027027,0.098295,-0.011504,0.102711,-0.133268,0.015244,0.079995,-0.112874,-0.015243,0.105496,0.102240,0.085157,0.078278,0.143846,0.141560,-0.075011,0.015151,-0.054793,0.060318,0.129007,-0.048088,-0.015450,-0.079607,0.056743,0.131000,-0.128453,0.133327,0.112539,0.061493,-0.138906,0.016000,-0.138962,0.112343,-0.147362,0.112541,0.126547,0.020198,0.036741,-0.146186,-0.147361,-0.005940,0.116601,0.092804,-0.092545,0.106661,
0.084923,-0.006840,-0.021492,-0.129646,-0.101593,-0.068598,-0.020544,0.037275,0.023875,-0.120043,0.023628,0.042730,-0.143067,-0.023270,-0.078934,-0.121962,-0.149038,-0.058628,0.127899,-0.147959,-0.090596,0.111366,0.032102,0.080538,0.127208,0.036523,-0.074772,0.095540,-0.032773,-0.006203,0.041670,-0.102860,0.138614,-0.132276,-0.080691,-0.118717,-0.038775,0.051414,0.083501,0.122331,0.082305,-0.043721,-0.006027,0.099171,0.096712,0.077129,0.133169,0.085860,-0.136500,0.117019,0.119760,-0.089731,0.060277,-0.030927,-0.153338,0.020066,-0.147262,-0.072268,-0.031443,-0.020900,0.071779,-0.140836,0.018663,0.056500,-0.115448,0.092096,0.120497,-0.014627,-0.009694,0.028384,-0.049086,-0.072206,0.129673,0.102760,-0.132052,0.070239,0.026711,0.134795,0.016138,0.033767,0.082723,-0.037196,0.110064,-0.000061,0.087226,0.105292,-0.131068,0.122679,-0.117676,-0.010782,-0.083892,0.109088,-0.003792,0.087639,0.028833,0.008203,0.026106,-0.049194,0.149496,-0.126958,0.154775,-0.057850,-0.059729,0.116591,-0.107024,-0.040252,0.018822,0.070524,-0.063595,-0.115455,-0.039991,-0.129711,-0.003415,-0.097112,0.018722,-0.063469,-0.128929,0.034527,-0.123474,-0.090088,-0.106094,-0.058067,-0.137768,0.018783,-0.121233,0.029763,-0.100839,0.057199,0.151965,-0.123949,0.070478,0.111382,-0.013158,-0.146338,0.071522,0.014114,-0.039288,-0.056587,-0.064690,0.047497,-0.020045,0.048511,0.064288,0.136306,0.118470,-0.077635,-0.079333,0.152410,0.103016,-0.061756,-0.107641,0.128113,0.037443,-0.088288,-0.011903,0.057607,0.097076,0.034378,-0.034667,0.076101,0.052062,-0.117566,0.040572,-0.128058,-0.111320,-0.025511,0.041823,0.003705,0.051162,0.130916,-0.107560,-0.122997,0.028661,0.118029,-0.144854,-0.012227,-0.116673,-0.079723,-0.017879,0.143214,0.014854,0.025471,0.125895,-0.096534,0.086414,-0.046305,0.125072,0.040587,0.129897,-0.082316,-0.039150,0.028983,-0.044515,0.148275,0.057394,-0.003601,-0.052702,-0.043263,0.153530,0.154871,-0.080680,-0.109186,-0.124076,0.096080,-0.145065,-0.113820,-0.065460,-0.107096,-0.029161,0.060712,-0.119188,0.125738,-0.067423,0.153752,-0.147570,-0.134125,-0.045405,0.119034,0.053673,-0.071787,-0.112156,-0.142729,0.119805,-0.008301,-0.147394,0.017569,0.150880,-0.053928,0.099482,0.135680,-0.052319,-0.129673,-0.115134,-0.025887,0.120126,-0.113757,0.009566,-0.094042,-0.062778,0.108826,0.110961,-0.040533,0.087589,-0.108408,-0.044290,0.108524,-0.077469,0.059134,0.066972,0.127561,0.138446,0.108041,0.129973,0.097694,-0.046505,0.128843,
-0.046117,-0.069542,-0.077418,-0.100584,-0.083813,0.024608,-0.068166,-0.054988,0.151894,-0.101435,-0.018298,0.009116,-0.053993,0.064440,-0.023816,-0.095575,-0.130356,-0.089297,-0.056788,-0.020411,-0.142477,0.012874,-0.112151,0.077894,-0.012942,-0.131731,0.031785,-0.042454,0.124518,0.130766,-0.069346,-0.072848,-0.091278,0.010072,-0.017101,-0.022684,-0.122787,0.071016,0.077620,-0.124735,0.110047,-0.093320,0.037272,-0.095646,0.115904,-0.140277,-0.043175,0.144356,-0.076428,0.057071,-0.031772,-0.064977,-0.073067,0.013339,-0.135870,0.056565,0.038239,0.044085,-0.140618,0.007682,0.022207,-0.055868,0.088297,0.083985,0.116876,-0.081873,-0.089019,0.132301,0.136532,0.138816,-0.144527,0.095597,-0.105437,0.047654,-0.150192,-0.134973,0.059749,-0.036765,-0.142907,0.137258,-0.129186,-0.016290,-0.075415,-0.053126,0.149120,-0.065308,-0.151481,0.029131,0.136685,-0.139864,-0.112608,0.005201,-0.043992,0.128701,-0.055863,-0.091981,-0.106073,-0.001702,-0.104179,-0.122651,-0.012384,-0.103687,0.128662,0.035345,0.102993,0.134580,0.053190,0.007669,-0.061848,0.065227,-0.008422,-0.036025,-0.105562,0.063071,0.060806,-0.113342,-0.151938,0.061862,0.073429,0.134994,0.070662,0.113092,-0.009457,-0.122000,0.089772,0.083507,-0.051710,0.135584,-0.069825,-0.019010,-0.140220,0.073600,0.040396,0.138923,-0.044283,-0.014992,0.112519,-0.141527,0.141247,-0.101631,0.075664,-0.020166,0.012141,0.125989,-0.107055,-0.078921,-0.144212,-0.104852,0.133748,0.082152,-0.122554,0.057487,0.047405,0.022272,0.090225,-0.018602,-0.048822,-0.123851,-0.039766,0.034699,0.010087,-0.027991,-0.048883,-0.110463,-0.041439,0.070921,0.024299,-0.083701,0.071641,0.013607,-0.028813,-0.006859,0.143675,0.136156,-0.037003,-0.115108,-0.097056,-0.035311,-0.068870,-0.113893,-0.096958,-0.037281,0.095444,0.091920,0.139062,0.034963,-0.083790,-0.063381,0.063917,0.035082,0.125804,-0.075097,-0.149004,-0.076940,-0.038242,-0.035619,0.137248,0.146178,0.036221,0.061920,0.003286,-0.145976,-0.104120,-0.004203,0.140671,0.011149,0.032936,-0.107608,0.139843,0.118997,-0.068962,-0.113713,-0.071414,-0.127424,0.141042,-0.086903,0.064216,-0.093317,0.003183,-0.024797,0.095183,-0.025681,0.044386,0.100791,0.050792,-0.136301,-0.083467,0.039281,-0.147245,0.103719,-0.057481,0.007704,0.115264,-0.008107,-0.149191,0.100336,-0.141939,0.039411,0.139272,0.150874,0.004139,-0.077258,-0.112208,0.085653,-0.045471,-0.131263,0.149209,-0.134206,-0.063613,0.003216,-0.005251,-0.126334,0.129827,-0.108854,0.127340,0.028751,
-0.094983,-0.112320,-0.085984,-0.090521,0.144974,0.010315,0.070324,0.103360,-0.148259,0.074262,0.051105,-0.138772,-0.040615,0.044627,-0.141934,0.116607,0.122928,-0.102581,0.049440,-0.075530,-0.077362,0.048634,-0.056205,0.007877,-0.101942,0.091599,0.033786,-0.125046,0.135248,0.007880,0.056842,-0.112817,0.048625,0.124028,-0.050321,0.040525,-0.019035,-0.133122,-0.009342,-0.014302,0.094182,-0.111226,-0.000136,-0.099555,0.086481,0.010951,-0.136083,0.056065,0.061464,0.066147,0.133615,0.137271,-0.038400,-0.075858,-0.008191,0.012705,-0.137531,-0.127407,0.040777,0.150876,0.033487,-0.055562,-0.115135,-0.071021,-0.084452,-0.012396,0.122592,0.049206,0.007489,-0.039936,-0.118122,-0.051468,0.001693,0.034750,0.002039,-0.065187,-0.107460,0.018889,0.143884,0.107161,-0.068138,0.124250,0.091163,0.046519,-0.104676,-0.070112,-0.094012,-0.089135,-0.044597,0.099704,-0.091477,0.141930,-0.109023,-0.053532,-0.082173,-0.040692,0.087174,-0.112783,-0.144659,-0.058413,0.000356,-0.109737,0.043175,-0.151132,0.077897,-0.107825,-0.063188,0.123546,0.064053,-0.072506,0.077543,0.149059,-0.101365,0.015741,0.042440,-0.052966,0.098521,0.101475,0.010927,-0.099169,0.048237,0.072545,-0.110381,0.092133,-0.134053,-0.039534,-0.101759,0.106270,0.000914,-0.093381,-0.105302,-0.152134,-0.050089,0.090944,-0.150205,-0.125316,0.136143,-0.060388,0.151337,0.047070,0.020188,0.075837,0.042958,0.071932,-0.061715,-0.067794,-0.134092,-0.116254,-0.119418,0.029873,-0.062438,0.081717,-0.050699,-0.019796,0.020796,-0.031580,0.093840,0.071990,-0.078569,-0.058637,0.131679,-0.030778,-0.057656,-0.071539,-0.092942,-0.054699,-0.043769,-0.109866,0.037854,-0.045497,0.090248,-0.095041,-0.122807,-0.019903,0.129950,-0.031513,0.065385,0.149027,0.005222,0.099013,0.025667,0.095837,0.027586,0.128239,-0.076963,-0.104888,-0.056587,-0.136343,0.120177,0.017774,-0.041899,0.098869,0.140249,0.053488,-0.125783,-0.105905,0.151784,-0.016492,-0.062759,0.036480,0.091009,-0.125655,0.094571,0.121319,0.007570,0.071398,-0.063380,-0.080154,0.067294,0.094935,-0.134281,-0.060271,0.037668,0.046428,-0.085282,0.113747,0.094588,0.010969,0.130425,0.061697,-0.124353,-0.064559,0.007387,-0.137377,0.141972,0.034537,-0.090097,0.140577,-0.135141,0.000065,0.023937,0.108929,0.027514,-0.034632,0.077071,-0.118109,-0.116347,-0.139251,-0.045146,0.104050,0.108595,-0.026378,-0.109548,-0.006805,-0.133132,-0.041772,-0.046088,0.114546,0.122285,-0.068866,0.023111,0.150950,0.019624,-0.122633,-0.139563,0.008468,
0.070083,-0.080996,0.008540,0.077866,0.078013,-0.122572,0.044182,-0.050667,-0.028824,-0.031187,-0.016971,0.026568,-0.025099,0.098465,-0.027380,-0.061654,-0.068616,0.017063,0.084036,-0.065993,0.126277,-0.123641,-0.102773,0.098808,-0.033795,0.073873,0.094971,0.143414,0.102095,0.106349,-0.008274,0.012303,-0.119190,0.139150,-0.056408,0.109629,-0.145966,0.139293,-0.095159,-0.007442,-0.058694,0.045863,-0.135464,0.072496,-0.024204,-0.013429,-0.147501,0.052085,-0.148791,0.087578,0.138855,0.132012,0.122591,-0.112566,0.076411,-0.067253,0.104745,0.015515,-0.097346,0.051064,-0.031361,0.051405,-0.083579,-0.000430,0.058104,0.012857,-0.043034,0.052794,-0.004242,0.013338,-0.112808,0.101605,-0.095927,-0.102829,0.018154,0.041678,0.039287,0.021024,-0.060857,0.035040,-0.048026,-0.070632,0.021585,-0.087954,-0.037139,-0.062747,-0.004381,-0.084089,0.113012,0.057716,0.121737,-0.077628,-0.042729,-0.114152,0.090252,0.153125,0.051366,-0.121084,0.054535,-0.097824,0.033438,0.091731,0.145483,0.099286,0.137982,0.007384,-0.011929,0.023048,-0.129813,0.084639,-0.088841,-0.022429,-0.142220,0.086655,0.040412,-0.028684,-0.129562,-0.111346,0.038115,0.134979,0.107482,0.007320,-0.100170,-0.100140,0.046795,0.135606,-0.103575,-0.049168,-0.125876,0.097357,-0.009641,0.057229,0.029937,-0.022405,0.010084,0.023596,0.132711,0.145990,-0.120418,-0.150550,0.077209,-0.052566,-0.022987,0.082808,-0.121946,-0.127433,-0.095111,-0.107489,-0.087498,0.097443,-0.124226,-0.139728,-0.045360,-0.073618,-0.079188,0.164327,-0.100363,-0.031178,-0.059130,-0.087562,-0.092453,0.083335,0.116723,0.086252,-0.092527,-0.015951,-0.057642,-0.115362,-0.037401,-0.026729,-0.105125,-0.112237,0.071232,0.022878,0.128136,0.096367,0.047295,-0.119681,0.145216,0.112516,0.129706,-0.135214,0.122661,-0.066964,-0.050895,-0.118463,-0.077236,-0.001947,-0.000905,0.019989,0.071071,0.052661,-0.050601,0.033238,0.001485,0.006062,-0.153073,0.098637,0.046224,-0.026651,-0.087896,0.090761,0.005996,0.134712,-0.043322,-0.021646,0.076653,-0.142183,0.016222,0.067658,0.121762,-0.007452,0.087842,0.096691,0.073554,-0.123481,0.129121,0.151907,0.032068,-0.028178,0.016011,-0.052841,-0.130409,0.118010,0.138949,0.019531,-0.023070,0.135319,-0.033527,-0.130437,-0.057519,0.024735,0.116711,0.100612,0.008515,-0.077216,-0.067297,-0.059778,-0.075481,0.100111,-0.153265,-0.099053,-0.059449,0.087066,0.143556,-0.135186,0.120318,0.114750,-0.137663,0.014896,-0.065302,0.028155,0.098897,-0.035886,0.002785,0.074078,
0.140924,0.121496,0.054916,-0.047166,0.144787,0.162226,0.133266,0.115162,0.103928,-0.015921,-0.125054,-0.112129,0.063535,-0.031415,0.134282,0.064297,0.015735,-0.080946,0.004327,0.003587,-0.070428,-0.034957,-0.029244,-0.049288,0.119112,0.054148,0.124590,0.058473,-0.135834,-0.033770,-0.021054,-0.144797,-0.064877,-0.118413,-0.044426,-0.074948,-0.120026,-0.061977,-0.124242,0.135311,0.065153,-0.090163,-0.134452,-0.029548,0.018449,0.148785,-0.119759,-0.119951,-0.085368,0.033184,0.028025,0.001427,0.160217,0.153132,0.095504,0.119676,0.047868,0.066571,0.022544,0.064596,-0.120748,0.155015,0.071993,-0.034691,-0.103523,-0.126409,0.037331,-0.091450,-0.043669,0.070056,-0.104184,-0.136307,0.127047,-0.092892,-0.006096,-0.010898,-0.098450,0.027606,0.017220,-0.021734,-0.090391,-0.106015,0.122755,-0.094082,-0.107205,0.068435,-0.134088,0.090362,-0.026726,0.036214,0.002490,0.002546,0.032620,-0.079420,0.123997,0.067280,-0.052870,0.009817,0.129077,0.055426,-0.072085,-0.135625,0.075080,-0.101203,-0.077948,-0.080560,0.044658,-0.023426,0.093889,-0.095647,0.098537,-0.150922,-0.047040,0.074147,-0.086640,-0.005449,-0.026978,-0.072781,-0.069773,0.098444,0.112859,0.085688,-0.051653,-0.004558,-0.144961,-0.084368,-0.094329,-0.046367,0.083566,-0.124362,-0.143871,-0.150479,-0.107268,0.084369,-0.099654,-0.030676,0.151876,0.094344,0.093013,0.091089,0.151191,0.039023,0.093347,-0.049526,-0.042971,-0.151349,0.094994,0.079684,-0.068222,-0.126881,0.022712,-0.105771,0.114557,0.122121,0.045347,0.130835,-0.116801,0.098539,-0.083028,0.112579,0.128586,-0.073595,0.113089,-0.134656,-0.142663,-0.134051,-0.017924,-0.146932,0.106324,-0.074027,0.103901,0.104468,0.112200,0.038741,-0.099688,-0.088760,0.040237,0.149041,0.139978,0.122344,-0.129751,0.008893,-0.141055,0.135039,-0.015046,0.056465,0.098791,0.013177,0.003235,-0.137433,-0.022187,-0.018362,-0.055664,-0.067577,0.001396,-0.046024,-0.051801,0.136599,-0.040035,-0.095967,-0.098526,-0.095281,-0.147453,-0.137679,0.096835,-0.095233,-0.074864,-0.013687,-0.102115,-0.086071,-0.047831,-0.078736,0.076080,-0.030319,-0.089574,-0.096460,-0.129233,0.152172,0.068205,0.028668,-0.139219,-0.111326,-0.150919,-0.045477,-0.024559,0.005790,0.063201,0.077099,-0.014692,-0.135042,0.129318,0.037112,-0.075932,0.133478,0.052492,-0.136862,-0.111260,0.137991,0.000214,-0.049817,-0.107271,0.107179,0.014547,0.121949,-0.079601,0.070925,-0.131465,-0.055525,0.075606,0.088814,0.124105,0.082402,0.132444,0.130247,-0.117631,-0.044692,
-0.022712,0.099318,-0.121374,0.112570,0.108556,-0.140600,0.003392,-0.115997,0.166950,-0.102600,-0.099123,-0.095605,-0.125232,0.066820,-0.031031,-0.070028,0.006596,0.134947,-0.109770,0.081680,0.057291,-0.081415,-0.126584,-0.026204,-0.147600,0.149868,-0.107035,0.150725,0.119853,-0.063784,-0.063305,-0.044166,-0.126940,-0.034147,-0.093414,0.134637,-0.013111,0.064897,-0.135128,-0.035893,0.106703,-0.083336,-0.011419,0.142723,0.145220,0.109331,-0.083443,-0.023543,0.088791,-0.034859,-0.085140,-0.017500,0.024502,-0.086507,0.103069,0.016904,-0.093919,0.158321,0.017535,-0.109525,-0.069491,0.098714,-0.027537,-0.050222,-0.059422,0.030158,-0.046444,0.043030,-0.067265,-0.047178,0.154245,-0.115975,0.016494,-0.010659,-0.124699,-0.016859,-0.056057,-0.077401,0.110197,-0.115293,0.022763,-0.151615,0.020374,-0.112222,-0.082553,-0.027033,0.044557,0.015159,-0.037212,-0.112379,0.006528,0.044625,0.126946,0.130033,0.149483,-0.119078,0.005306,-0.079200,0.060742,0.088465,0.045709,0.054156,0.127664,-0.104041,-0.110713,0.163087,0.036493,-0.014569,-0.079145,-0.020783,0.017476,0.104315,-0.019538,-0.113322,0.159726,0.060771,-0.000952,0.018596,-0.123248,0.117114,0.075886,0.032424,0.002712,0.037006,0.011113,-0.007513,0.071779,-0.139661,0.089547,-0.031852,0.105388,-0.054791,-0.117118,0.082114,-0.016025,-0.085364,0.095597,-0.140244,0.051355,-0.152424,-0.008214,-0.087505,0.092435,0.134114,-0.039192,0.066882,0.043342,0.122754,-0.067564,0.052163,0.065488,0.142110,-0.067248,-0.083749,0.021276,0.104168,0.069034,-0.065836,0.104150,-0.017234,0.049279,0.058402,0.086914,0.075884,-0.014951,-0.071693,0.138806,-0.081270,-0.074940,0.047435,-0.084319,0.066307,0.111699,-0.146644,0.037783,-0.097023,0.073163,-0.085157,-0.141870,-0.148777,0.118113,0.070764,0.161638,-0.083252,0.153001,0.013873,0.144325,0.066756,0.094723,0.085519,-0.112985,0.001458,-0.004714,0.118576,-0.088303,0.138799,-0.123579,-0.103860,-0.111680,-0.050037,0.087164,-0.050119,-0.130360,0.049228,-0.037097,0.061430,0.107434,-0.123108,0.130756,0.106142,-0.119186,0.082685,0.023561,-0.124040,0.123382,0.014090,0.040078,0.097279,-0.088436,-0.014731,0.034953,-0.048598,0.148040,-0.133563,-0.091983,-0.112514,0.149949,-0.061247,-0.061772,-0.122702,0.041593,-0.125120,-0.003991,0.061806,0.072272,0.092665,-0.035754,0.031633,0.141924,-0.072746,-0.025295,0.155577,-0.153535,0.153633,-0.126923,0.121187,0.016074,0.066277,0.066270,0.074192,-0.105481,-0.056596,-0.131772,-0.127271,-0.042613,-0.067082,
-0.094861,-0.050879,0.029545,-0.003075,-0.019416,-0.082935,0.022262,0.116141,0.119978,-0.058244,0.050109,-0.069365,0.116697,0.016447,0.014599,-0.065328,0.015456,0.016977,-0.060790,0.041042,-0.027393,0.099273,-0.045775,-0.110766,0.024503,0.002088,-0.019458,0.044576,0.024939,0.091127,0.134051,0.082006,-0.112082,0.008002,-0.072962,0.022482,0.068734,0.105993,-0.019034,0.041850,-0.106590,-0.113692,0.130729,-0.141846,0.046729,-0.007811,-0.054829,-0.090234,-0.146082,0.039523,0.101186,-0.016512,-0.015005,-0.093156,0.026402,-0.141308,0.064003,-0.146371,0.060008,-0.065245,0.103855,0.038150,-0.133452,0.141149,-0.103567,-0.053380,0.009599,0.114817,-0.102242,0.142808,-0.002259,-0.057513,-0.131351,-0.025185,-0.047851,0.069794,0.120599,0.053574,0.131892,0.130697,-0.061477,0.086907,-0.041759,0.083111,0.146478,0.142980,0.087587,0.053057,0.149081,-0.009034,0.145206,0.093409,-0.125463,-0.141858,0.081347,-0.085666,-0.041627,-0.063781,-0.129017,0.013819,-0.077074,0.027123,0.106863,-0.054715,0.148571,-0.098906,-0.138166,0.115657,0.110095,0.150126,0.089413,-0.105286,0.082413,-0.103627,0.121489,0.075433,-0.114761,0.059353,-0.020578,-0.120388,-0.104661,-0.027934,0.128338,-0.073809,-0.019365,0.053942,-0.011192,0.095951,0.144208,0.017010,-0.049807,-0.085450,-0.117638,-0.098091,0.018952,-0.118945,-0.041712,0.032857,0.148708,-0.083203,0.027781,0.084333,-0.032871,-0.043862,0.139582,-0.060564,-0.122345,-0.137694,-0.147833,0.013089,-0.099279,-0.094462,0.139326,-0.127319,-0.020865,-0.035434,0.078038,0.126141,-0.089515,0.070085,-0.009163,0.014916,0.139186,0.028137,0.068915,-0.007880,0.059769,-0.126052,-0.122973,0.053569,-0.055301,0.058641,-0.011743,0.061964,-0.137324,-0.028505,-0.150622,-0.104678,-0.011901,-0.150209,0.060354,0.042778,-0.100425,0.041908,0.068442,0.035049,-0.136582,-0.007256,0.008866,-0.073984,-0.090707,0.151401,0.090948,-0.101616,0.028439,0.008367,0.049133,-0.068559,0.033863,0.081139,0.149663,0.134395,-0.017393,-0.017177,0.044067,-0.000615,0.106321,0.044986,0.043696,-0.054327,0.049416,-0.045607,0.142026,0.108883,-0.149357,0.057462,-0.014135,-0.131525,-0.100978,0.148724,-0.052422,-0.036520,0.145677,-0.112831,0.012837,0.021131,0.049544,-0.087438,0.114840,-0.066567,0.142509,0.107259,-0.088438,-0.025328,-0.062294,0.111554,0.130125,-0.104706,0.006930,0.027537,-0.008731,-0.097239,0.137866,-0.020812,-0.145393,0.144235,-0.115903,-0.004512,-0.139905,-0.060520,-0.008387,-0.041906,0.052809,-0.013627,0.004801,-0.085818,
-0.141384,-0.104244,-0.019286,0.122212,-0.019786,-0.026766,0.086905,0.048787,0.106760,-0.131085,0.006455,0.090753,-0.093845,-0.129852,-0.050850,0.059606,-0.077810,-0.066743,-0.117543,-0.075389,-0.074667,-0.081423,0.074631,-0.060677,0.003215,-0.090351,0.045229,-0.089518,0.049125,-0.107458,-0.029018,0.065252,-0.059953,0.091591,0.031106,0.071650,-0.081257,-0.036482,-0.030210,-0.135447,-0.027161,0.123740,0.095748,0.033487,0.145849,-0.111989,-0.069404,-0.090752,-0.025429,-0.030528,-0.013019,0.055077,0.043177,-0.097560,0.138831,-0.110602,-0.043138,0.035735,-0.058752,-0.141851,0.073934,0.069004,0.071391,-0.143266,0.011316,-0.051838,0.089431,0.091357,0.055325,-0.098570,0.106543,-0.123044,-0.122551,0.042995,0.070669,-0.132731,0.086051,0.149983,-0.072776,-0.088527,-0.036360,0.058473,0.114537,0.146581,0.112431,0.095909,-0.117367,-0.070122,-0.028985,-0.020951,-0.069533,-0.108721,-0.107781,-0.150957,-0.087513,0.066884,-0.050676,0.139467,-0.003028,-0.147786,-0.107817,-0.053622,-0.114585,-0.074783,0.148497,0.109405,-0.054370,0.080187,0.096798,0.020725,0.140349,-0.096365,-0.072027,0.104986,-0.083387,-0.112045,0.037204,-0.060355,-0.041199,-0.144371,0.074593,0.042021,-0.107957,0.117174,0.044965,-0.046394,0.028535,0.145027,-0.047853,-0.131906,0.152600,-0.007059,-0.027133,-0.118002,0.059280,-0.031778,0.138715,-0.144692,-0.110063,0.077040,0.027066,-0.122593,0.129329,0.112690,0.131477,-0.113729,0.152144,0.017739,-0.023542,-0.047087,0.021744,-0.108178,0.150387,0.073462,-0.139052,0.055552,-0.121397,0.040102,0.030805,-0.024534,0.058382,0.029373,0.118713,-0.125687,0.064767,0.047548,-0.007181,0.046342,0.040636,0.042953,-0.026879,-0.083895,0.064931,-0.045452,-0.127967,0.036896,-0.008391,-0.131349,-0.103514,0.122537,-0.024548,0.069119,-0.131905,-0.022327,-0.004889,-0.120214,-0.144503,0.023905,0.070646,0.037192,0.153903,-0.019008,-0.082444,0.116360,0.009173,0.134868,-0.004741,0.156688,0.025507,-0.114815,0.016597,0.146521,-0.047168,-0.060968,-0.052097,-0.020622,0.127043,0.088150,-0.002008,-0.131413,0.061367,0.126142,0.091103,0.083389,-0.057239,-0.070145,0.115788,-0.061274,0.100550,0.032664,0.130013,0.097529,-0.142900,-0.109930,0.062321,0.015326,-0.134066,-0.099932,0.006132,0.044319,-0.067120,-0.121985,0.047113,0.040748,-0.031145,0.136748,-0.134611,-0.050282,0.077674,0.010270,-0.035141,-0.016049,-0.022173,-0.095786,-0.090798,0.065432,-0.014085,-0.130771,-0.145256,-0.065421,0.051186,0.137940,-0.124832,0.061260,-0.127140,0.086493,
-0.082127,-0.105938,0.146802,0.070124,0.090283,-0.095691,0.092559,-0.026994,0.102290,-0.092853,-0.044382,0.128864,0.008713,-0.136327,-0.020736,0.129139,0.016219,0.122380,-0.141233,0.072298,0.036004,0.016046,0.087039,0.033092,0.091303,-0.015092,0.022465,0.133883,-0.094458,0.049013,0.069938,-0.032598,0.100222,0.036721,-0.105821,0.041666,0.134116,0.139342,-0.139664,0.084746,-0.084780,-0.029508,0.051566,0.089901,0.014124,-0.110662,0.062102,-0.140872,-0.150708,0.124201,0.113349,0.007885,-0.053479,0.043489,-0.087096,-0.095427,-0.107604,0.085568,-0.108919,-0.036164,-0.007276,0.114798,0.081826,-0.066531,-0.024660,0.131350,0.155408,0.004111,0.129065,0.151320,-0.093042,-0.100674,-0.035075,0.131900,0.124057,0.129808,-0.128723,0.035248,-0.149411,-0.132607,-0.023036,0.112515,0.051550,0.101063,0.003763,0.126894,-0.143205,0.094983,0.067793,-0.091530,-0.133741,-0.089760,-0.128518,0.097805,0.003135,0.022774,0.077784,-0.032306,-0.129169,0.078432,-0.029440,-0.052905,0.106784,0.088960,-0.067710,0.040084,0.050045,-0.044502,-0.045664,0.061185,-0.018219,0.070335,0.012955,-0.128264,0.019127,-0.128247,-0.130371,0.039840,0.081997,0.094649,0.103205,0.097530,-0.155958,0.130914,0.038755,-0.015810,-0.002088,-0.031892,0.122214,0.044497,-0.131873,-0.072868,0.143742,0.119589,-0.145077,-0.072559,0.036243,0.068668,0.040289,0.147338,-0.025181,-0.144653,0.070012,0.143613,-0.079063,-0.042700,-0.127756,-0.072047,0.154477,0.097172,-0.122468,0.111728,0.045061,-0.124185,0.053874,-0.093445,0.022302,-0.060518,0.053386,-0.002283,0.131655,0.076886,0.088025,0.132350,0.041138,0.065302,-0.098614,-0.069577,0.013385,0.085977,-0.084147,0.142951,0.124974,-0.152323,0.136136,-0.115927,-0.043410,0.152426,-0.024860,-0.047350,0.098032,-0.001592,-0.090797,-0.005005,0.021194,0.124156,0.089989,-0.092016,-0.095698,-0.031344,0.060626,-0.134497,-0.122646,-0.010332,-0.134106,0.086312,-0.070806,-0.093123,-0.159385,0.097557,-0.134621,-0.072058,0.080240,0.139384,-0.064472,0.066832,-0.116934,0.027310,0.065438,-0.000395,0.148937,0.004588,-0.152527,-0.091972,0.132089,0.025401,-0.133715,0.064305,0.084058,-0.076932,-0.119901,-0.014216,-0.036811,-0.072624,0.124171,-0.030704,-0.137631,-0.101388,0.042398,-0.124949,0.138132,0.069133,-0.043844,0.074155,0.063811,0.050916,-0.010335,0.096614,-0.049723,-0.115875,-0.055157,-0.067599,0.065677,-0.054648,-0.019141,0.075726,0.135225,0.000721,-0.033463,0.070806,0.074151,0.022169,-0.107708,-0.119011,0.116579,-0.138002,
0.015528,0.119796,-0.077715,-0.094582,0.150008,-0.084975,0.127112,-0.046947,0.152869,0.040440,-0.149595,0.012816,-0.022639,-0.048773,0.052527,0.089787,0.042957,-0.028891,-0.121616,-0.143521,-0.102840,0.151024,0.009142,0.028244,0.052099,-0.051920,-0.103800,0.117284,-0.025972,0.158010,0.111129,0.138738,0.122282,-0.129139,-0.111996,0.114939,-0.054650,-0.146048,-0.081827,-0.070208,0.045170,-0.086925,0.073450,-0.119189,0.018053,-0.033361,0.115841,-0.111250,0.092552,0.141916,-0.089189,0.140197,0.124955,0.062307,0.009170,0.020618,0.147331,0.067422,-0.035877,-0.020977,0.052030,-0.075623,-0.046892,0.023463,-0.019233,-0.006763,-0.008359,0.048994,0.004993,0.055242,0.130149,-0.090016,0.123164,0.044764,-0.062294,-0.017132,-0.142919,-0.123307,0.025375,0.090374,-0.152090,0.073140,0.084418,0.115965,-0.022718,-0.071886,-0.012988,-0.000198,0.149423,0.104725,0.094613,0.049513,-0.124758,-0.103031,-0.073282,-0.016238,0.039352,0.052874,-0.126333,-0.107894,-0.050215,0.160638,-0.053364,-0.076884,0.040075,0.031329,0.060631,0.047993,0.056322,-0.073677,-0.005255,0.063081,0.152027,-0.071975,0.037705,-0.022867,0.009909,-0.138307,0.095603,0.008469,0.149004,0.035927,-0.105961,0.145896,0.084660,-0.033570,-0.032448,-0.023966,-0.116612,-0.006345,0.013556,-0.031295,-0.002449,0.112698,0.042016,-0.117004,-0.004752,-0.057947,0.075301,-0.109707,0.024679,-0.078242,0.099126,0.016276,-0.009030,-0.028303,0.158779,0.165455,-0.018622,0.089060,0.001199,-0.059688,-0.028515,0.047817,-0.060800,-0.088047,-0.143294,0.063626,0.022055,-0.126474,-0.104707,-0.116768,-0.005371,0.038689,0.147385,-0.095215,0.065345,-0.011794,-0.021375,-0.003967,0.029163,-0.151127,0.062169,-0.025741,0.021300,-0.111216,0.098025,0.024948,-0.106310,-0.073165,-0.048288,0.040892,0.039156,0.102234,-0.058589,0.109614,0.134101,-0.043259,0.012046,-0.004148,-0.020612,0.060293,0.038328,0.123686,-0.040877,0.029653,0.152289,-0.133902,-0.148233,-0.023886,-0.007491,0.027714,-0.012235,-0.098921,-0.152227,-0.146308,-0.062202,0.103282,0.030028,-0.027309,-0.125367,0.127974,-0.137671,0.054106,0.031050,-0.050346,0.010934,0.006465,0.049735,-0.133563,-0.152615,-0.125842,0.088945,0.029030,0.153812,-0.129695,-0.096167,0.142758,-0.120801,-0.099065,-0.034633,0.023296,0.094846,0.098860,0.069002,0.086840,0.098377,0.163521,0.040846,-0.041750,-0.026054,0.060889,-0.078307,-0.009987,-0.046955,0.123438,0.097270,0.111298,-0.035370,-0.000749,0.129758,-0.039584,0.014986,0.055275,0.144404,0.001190,
0.077126,-0.110677,-0.021411,0.109411,-0.055965,0.101251,-0.025315,-0.129075,0.060539,-0.105135,0.111820,0.013540,-0.106276,0.001157,0.115004,0.018493,-0.111415,-0.124443,-0.147751,-0.003184,0.150442,0.103165,-0.038596,-0.040931,-0.054618,-0.064654,0.066998,0.111501,0.142760,0.062817,-0.053203,0.068105,0.104413,0.093598,0.022660,-0.109787,0.048412,-0.160597,-0.083175,-0.052075,-0.110463,-0.125999,0.099086,-0.059504,0.016537,0.055861,0.119277,0.060043,0.086749,0.127423,-0.098500,0.077117,0.070900,0.015659,-0.120735,-0.147049,0.106439,0.088356,0.116352,0.096820,-0.006637,-0.095294,0.004724,-0.046804,0.164898,-0.124977,-0.009205,0.030742,-0.123236,0.066327,0.140913,-0.081080,0.094934,0.094223,0.013425,-0.043260,-0.007810,-0.027617,-0.137909,-0.076837,-0.062116,-0.084260,-0.145468,-0.148823,0.093925,-0.121115,-0.144920,0.055432,0.128646,0.112684,-0.029416,-0.019879,-0.137864,0.128982,0.077240,-0.142118,-0.150128,-0.074191,0.060932,-0.125553,0.147362,0.042334,-0.047378,0.089465,-0.020375,0.132071,-0.106065,0.125995,-0.055529,-0.095769,-0.099968,0.046555,-0.022508,-0.093897,0.048547,-0.086804,-0.063624,0.048774,0.096912,-0.084115,0.013276,-0.086308,0.052824,0.024999,-0.106369,-0.020630,0.037887,-0.110420,0.055290,-0.068046,-0.075831,0.043395,0.141777,0.034561,-0.026439,-0.035519,0.013226,0.010015,-0.071753,0.104760,0.075164,-0.017833,-0.003832,-0.099458,0.040375,-0.124494,-0.028463,0.142910,0.073835,-0.095464,-0.111390,-0.077885,-0.022606,0.086229,0.101696,0.016098,-0.099649,-0.022568,0.056480,0.110376,0.068767,0.134670,-0.002882,0.047643,0.015738,0.127086,-0.152364,-0.125977,-0.018947,-0.065292,0.131948,-0.102180,0.063204,-0.037968,-0.053127,-0.048337,-0.007177,0.056260,-0.066935,-0.083793,0.118015,-0.028943,0.011017,-0.056107,-0.088565,-0.051776,0.097920,-0.033764,0.084073,0.006237,-0.074413,0.002190,-0.014856,0.066880,-0.116438,-0.143679,0.034952,-0.111294,-0.130297,-0.134678,-0.012741,0.152864,-0.080482,-0.112613,-0.037516,0.014763,-0.000150,0.116612,-0.069281,0.077364,-0.130248,-0.115153,-0.104844,0.014462,-0.028649,-0.048407,0.120750,-0.076381,0.070356,0.056118,0.080650,0.145525,-0.096634,-0.089222,0.052966,-0.053909,-0.084163,-0.054873,-0.004930,-0.066511,-0.032821,0.124167,-0.067061,0.028421,-0.140211,0.050586,-0.110269,0.009399,0.003936,-0.015574,-0.067192,0.024710,0.017161,-0.020161,-0.103935,0.143398,0.080399,-0.134433,-0.084785,-0.007767,0.074300,0.136419,-0.007871,0.126061,-0.117888,-0.097464,
-0.080043,-0.039521,-0.001580,0.067926,0.045993,0.114050,0.034792,0.133264,0.002393,0.051880,0.028087,0.054484,-0.093294,-0.115769,-0.133315,-0.003874,0.063263,0.031689,0.130088,0.109341,0.022634,0.062148,0.124386,0.082461,-0.090752,0.047096,0.066082,0.066959,0.020536,0.117858,0.113927,0.092877,-0.077539,-0.043721,0.005026,0.120501,-0.070050,-0.117395,0.100363,0.075253,0.091757,-0.029893,-0.031038,0.153017,0.012804,-0.013730,-0.001728,-0.087234,-0.135003,-0.023039,-0.127333,0.036266,-0.126463,0.150593,-0.036052,-0.061886,0.044452,-0.121068,0.151547,-0.082097,0.142835,0.112908,-0.148908,-0.087785,-0.069989,0.008655,-0.118820,0.001939,0.048503,0.133337,-0.075010,-0.012880,-0.046796,0.047282,-0.012698,0.112340,-0.119963,0.130744,-0.126819,-0.104120,-0.055078,-0.105693,0.085208,-0.031653,-0.108755,-0.102401,0.064771,0.102208,-0.072349,0.064120,-0.151101,-0.079455,0.025243,-0.146807,-0.015189,0.099097,0.014240,0.016308,-0.050619,-0.093376,-0.004077,0.033476,0.046667,0.104892,-0.076024,-0.121489,0.063728,-0.043735,-0.140510,0.086761,0.006462,-0.043321,0.134512,-0.056753,0.090737,-0.123248,-0.008681,-0.004834,0.113453,0.072254,-0.087866,0.115407,0.143497,0.086393,0.121875,-0.026624,0.025717,-0.017032,0.147043,0.138490,0.045584,-0.011392,0.014385,-0.057254,-0.064157,0.095001,-0.017205,0.150310,-0.104401,-0.008366,0.085681,0.054075,0.102138,0.063931,0.148960,0.031705,0.099764,-0.008676,-0.125247,0.053615,-0.094155,-0.069224,0.016764,-0.104909,-0.141123,-0.014477,0.021000,0.051028,0.119423,0.014888,0.034580,0.012463,-0.148277,-0.101076,0.107383,-0.062544,0.142271,-0.063577,-0.061445,-0.110954,0.078613,-0.129620,0.097311,0.026575,0.089590,0.088018,-0.093364,0.034467,-0.076194,-0.066222,-0.069421,-0.021359,0.028186,0.108141,0.031785,0.035922,-0.065270,-0.098247,-0.068013,-0.105417,0.064483,0.118946,0.058858,0.069031,-0.132969,0.017033,-0.146219,-0.147686,0.097292,-0.057069,-0.108529,0.022868,-0.028652,0.139731,-0.101499,-0.093834,0.076200,-0.044913,0.087316,0.146298,0.044009,-0.135195,-0.027237,-0.088421,0.107596,0.151898,0.099426,-0.114458,-0.104021,-0.121280,-0.068013,0.115422,0.157498,0.144809,0.030032,-0.138793,0.003418,0.034055,-0.131366,-0.050275,0.130335,-0.085688,0.129866,-0.054786,-0.100804,-0.129085,-0.000814,0.125799,-0.012918,-0.065622,0.119089,-0.127965,-0.050459,-0.061131,-0.067002,-0.087107,-0.061723,-0.121180,-0.056763,-0.012113,-0.090283,0.029888,-0.051575,-0.092500,0.020592,0.127864,
-0.081664,-0.121573,0.036139,-0.060773,-0.027690,-0.001327,0.013089,-0.052637,0.101858,0.079048,-0.023633,-0.051489,0.033605,0.129035,0.024240,0.007119,0.138008,0.130414,0.103123,-0.085762,-0.131814,-0.117283,-0.049875,-0.023714,0.030475,0.013220,-0.141783,0.134707,0.064871,0.035524,0.095592,0.157257,0.062986,-0.036405,-0.069659,-0.114420,0.091284,0.129247,-0.006826,0.019587,0.004136,0.110961,0.114050,-0.103937,0.073838,-0.023329,0.039078,0.053176,-0.050612,-0.015831,0.110933,-0.007616,0.027648,-0.101929,0.116396,-0.113248,0.045637,0.138601,0.161521,-0.033037,0.022826,0.098755,-0.048974,-0.090444,-0.049593,0.033269,-0.034896,0.147029,-0.024048,0.092396,0.007674,0.131954,0.051826,-0.059353,-0.103976,-0.033523,0.073897,0.064980,-0.140817,-0.125196,-0.102819,0.117336,0.011856,0.071249,-0.141734,-0.037958,0.090263,0.057904,-0.060125,0.085546,-0.134741,0.087916,0.021974,-0.032378,0.162171,0.074403,0.151827,-0.054047,0.032207,-0.018921,-0.116009,-0.120700,-0.038030,0.087266,-0.029028,0.015116,-0.093852,-0.112373,-0.108931,-0.083271,-0.092240,-0.061423,-0.119168,0.074053,0.171230,-0.117110,-0.128233,0.083257,0.092829,-0.048871,0.022022,0.110329,-0.114184,-0.116701,-0.082793,-0.103482,0.113332,-0.073364,0.018082,-0.021982,0.048934,0.039718,0.015740,-0.148169,-0.011470,0.133928,-0.009495,0.045928,-0.149771,0.027066,0.105397,-0.088148,0.116219,0.136387,0.142914,0.111068,-0.133766,0.163471,0.045496,0.113083,-0.041974,-0.087516,0.077386,-0.000196,-0.044804,0.166876,0.050550,-0.100282,-0.089564,-0.115510,0.019723,0.112924,0.078340,-0.137365,0.116724,-0.065536,0.138513,-0.055747,0.087191,0.160969,0.134291,0.040092,-0.099071,0.085360,0.023101,-0.128797,0.042351,0.048633,-0.133252,-0.070132,0.011400,-0.022246,-0.018203,-0.071214,0.132412,0.086023,-0.096337,0.030070,0.129234,-0.025013,0.066022,0.016934,-0.068982,-0.016007,0.028042,-0.103696,0.028736,0.004042,0.005372,-0.033758,-0.025090,-0.031370,-0.146824,0.035163,-0.102293,0.036415,0.054904,0.095160,-0.087956,0.082043,-0.126916,0.079137,-0.095560,0.022155,0.151590,-0.119749,-0.052288,-0.107809,0.057007,-0.077736,0.023046,-0.034598,0.076171,0.104657,0.099468,-0.062478,0.145820,-0.019613,0.086410,-0.006353,0.092857,-0.088478,0.142899,0.099382,0.099808,-0.142588,-0.028735,0.017369,0.117294,0.026680,-0.069419,0.137211,-0.048616,-0.008888,-0.009136,-0.072263,0.029426,0.088719,0.003110,-0.058606,-0.141893,-0.153384,0.043555,0.081486,0.119900,-0.012070,
-0.141246,0.103369,0.124583,0.092712,-0.059846,0.059176,-0.143199,-0.088057,-0.004799,0.101131,-0.089317,0.127976,-0.052328,-0.128952,-0.008450,0.036140,0.154157,0.100613,-0.130507,-0.014271,-0.122879,0.048037,-0.077313,0.020649,0.123277,-0.070687,0.011689,0.022827,-0.140131,-0.035193,-0.143619,-0.125581,-0.085766,0.116071,0.119776,0.010410,0.029106,0.133128,0.063778,-0.139116,0.075857,0.138927,0.125227,-0.124237,0.161238,-0.036106,0.057274,0.145985,-0.095452,0.098123,-0.014307,-0.074889,-0.019470,0.048937,0.096933,-0.045156,0.129072,-0.040473,0.131807,0.152323,0.079926,0.137773,-0.133321,0.134047,0.107085,0.138405,0.010427,-0.016566,0.108910,-0.092954,-0.015990,0.029091,-0.120816,-0.049503,0.057882,-0.125681,0.070450,-0.043571,-0.135080,0.137947,-0.115271,-0.004470,-0.093076,0.021480,-0.107641,-0.139028,0.112798,-0.106919,-0.039950,0.082972,-0.132995,-0.119129,0.059110,-0.116154,-0.124586,0.006860,-0.130366,0.005823,0.125289,0.145262,0.077283,-0.044431,0.013568,0.101756,0.059183,-0.094763,0.129357,-0.023773,0.014122,0.142361,-0.049738,0.044338,-0.018194,0.013984,-0.080113,0.030378,0.017172,-0.131164,0.048695,0.132200,0.106270,0.067057,-0.147943,0.014609,0.105470,-0.130125,-0.139952,0.126376,0.049178,0.141990,0.105400,-0.050774,-0.056455,-0.041880,-0.110141,-0.149456,0.019956,-0.133756,-0.023028,-0.122460,-0.149726,0.073368,0.073686,-0.008627,-0.046883,0.144251,-0.135665,0.109444,-0.131286,0.061087,0.091352,0.132977,-0.022337,0.097810,-0.018539,-0.067031,0.127070,0.001502,-0.101114,0.010446,-0.012912,-0.147732,0.116702,0.083025,-0.037884,-0.152371,0.081088,0.131923,-0.130885,-0.093148,-0.143095,-0.125711,0.141560,0.087811,0.015154,-0.073425,0.078202,0.031907,-0.117809,0.091792,-0.062015,0.121201,0.062644,0.076189,0.075022,-0.112291,0.156114,0.042999,0.038820,-0.112946,-0.095485,-0.126324,-0.108941,-0.139540,0.116753,0.011396,-0.135823,0.035177,-0.020746,-0.107944,0.092483,-0.010292,-0.089439,0.084503,-0.069563,0.080337,-0.138596,-0.155740,-0.044561,-0.106192,0.096347,0.041194,-0.137396,0.014637,-0.042291,0.086470,0.044139,-0.063283,-0.031356,-0.068404,-0.021139,0.019529,-0.039236,0.024133,0.027727,-0.086981,-0.117992,0.045234,0.105263,0.015934,0.075389,0.048011,-0.142400,0.144947,-0.017519,-0.067114,0.078140,0.011008,-0.051864,-0.129401,0.043940,-0.117842,0.064508,0.060613,0.036381,-0.130580,-0.003457,-0.072100,-0.039892,0.118775,0.010216,0.097694,-0.023055,0.121527,-0.027765,-0.147624,
-0.126561,-0.006548,0.061360,0.129686,-0.148052,-0.014458,0.021768,-0.137068,-0.032419,-0.142634,-0.052443,-0.094557,0.003099,0.056591,-0.081341,-0.107313,0.072814,0.139745,0.107727,-0.046287,-0.152503,-0.055671,0.031322,-0.027683,-0.093142,-0.110519,-0.097113,0.044940,-0.144214,0.022439,0.038573,-0.112958,-0.134653,-0.067351,-0.136078,-0.127779,0.068539,0.050840,-0.115641,-0.118597,0.050493,-0.010006,-0.074699,-0.085717,-0.126276,-0.008750,-0.048700,0.092042,-0.027269,-0.071673,-0.112205,-0.027129,0.009804,0.076020,0.097458,0.068613,0.114776,0.148630,-0.044321,0.129776,0.023344,0.134334,-0.142339,0.031157,-0.050797,-0.126187,0.062569,0.143244,0.072037,0.094219,-0.145404,-0.032425,-0.075735,-0.071733,0.040035,-0.055399,0.073402,0.132535,-0.123679,-0.100438,-0.112194,-0.079032,0.026772,0.057118,0.151042,-0.031901,-0.051249,0.126939,-0.034022,0.039155,0.080105,0.134887,0.014807,0.089371,0.013674,0.080739,0.115552,-0.088629,0.055866,0.044962,-0.151800,0.061723,-0.140369,-0.072666,0.137938,0.039641,0.030620,0.059325,0.010016,0.059012,0.105193,0.055062,0.132680,-0.018885,-0.046244,0.130823,0.096400,0.041690,0.080465,-0.094197,-0.068530,0.008476,-0.113437,0.099548,-0.055768,0.052316,0.017468,-0.093241,0.130600,-0.081980,0.092197,0.121914,0.131625,0.097757,-0.100662,0.127578,-0.016160,0.071785,0.016999,0.143874,-0.021962,-0.034869,0.043990,-0.043520,0.115094,0.137916,-0.065701,0.051193,0.037676,-0.139589,0.107396,0.118165,0.027131,0.140797,0.058214,0.123037,0.033179,-0.076127,-0.131745,0.000550,-0.003363,0.116020,-0.028666,-0.027668,0.059018,0.005380,-0.071854,-0.115612,-0.069949,0.106553,-0.119282,0.060851,-0.083408,0.064073,-0.135367,-0.134920,0.052413,-0.047276,0.060202,-0.073047,-0.038270,0.009735,-0.108717,0.147014,0.006873,0.093929,0.096307,-0.116539,-0.133842,0.123452,0.042180,0.018500,0.075500,-0.146893,0.144666,-0.006469,0.013617,-0.097396,0.019917,0.103215,-0.132722,0.050845,0.005734,-0.065973,-0.033269,0.024641,-0.041293,-0.136471,0.120941,-0.134924,-0.055616,-0.071664,0.027055,-0.007382,-0.085417,-0.128236,-0.078743,-0.142152,-0.091290,-0.056641,0.132916,0.099814,0.112042,0.060522,0.095859,0.095923,-0.105741,-0.032054,-0.128601,0.072528,-0.093445,-0.117676,-0.025687,0.063760,-0.025907,0.088739,-0.064112,0.092052,0.112973,-0.089654,0.101008,-0.102551,-0.007701,-0.024957,0.033404,0.055960,0.001205,0.109035,0.080591,0.068249,-0.100758,0.046854,0.005995,-0.144434,-0.042948,-0.043994,
0.112876,-0.001092,0.092572,0.134575,-0.075089,0.143356,-0.149499,0.058128,0.032182,-0.028967,-0.025786,0.134926,-0.088673,-0.093811,-0.116836,-0.140911,-0.015956,0.042231,-0.010109,-0.148251,-0.060625,0.132318,0.119728,-0.144433,0.041489,-0.126424,0.053281,-0.106565,-0.124621,-0.151785,0.018634,0.125462,0.005243,-0.050378,0.106592,0.084909,-0.083984,0.113854,-0.035503,0.110670,-0.055342,0.125286,0.091031,0.006828,-0.128567,0.136271,0.017930,-0.008298,0.016082,0.169195,0.014659,0.097977,0.135186,-0.025931,0.109020,0.029090,-0.003806,0.009826,0.100274,0.020323,0.025606,-0.045977,0.005977,-0.124170,0.045640,-0.039050,0.127193,0.117071,-0.077102,-0.076116,0.067889,0.020193,-0.145612,0.002133,-0.141081,-0.124313,-0.016339,0.023413,0.028707,0.159517,0.020641,-0.106295,0.099656,0.030430,0.020715,0.074973,-0.111156,-0.119535,-0.070406,0.133983,0.043540,0.099985,-0.068209,-0.106842,0.144584,0.111737,0.009761,0.080506,0.072801,0.113727,0.163911,-0.003285,-0.047299,0.152526,0.127840,-0.064442,-0.135364,-0.043385,0.128027,0.050481,-0.045028,-0.013265,0.088566,-0.099697,-0.163311,-0.043073,0.134284,-0.106486,-0.028183,-0.088624,-0.112790,-0.140977,-0.142736,-0.041279,-0.091572,0.126643,-0.075969,0.073444,0.065741,0.147814,-0.001104,0.029247,-0.031089,0.091094,0.033175,-0.062959,-0.123507,0.051720,0.056629,-0.136909,-0.056484,-0.140327,0.008067,-0.120080,-0.068505,0.014968,-0.012571,-0.112091,0.073869,0.112522,-0.035341,0.110519,0.129780,-0.035399,-0.107269,-0.137555,-0.057273,-0.024868,0.103173,0.145377,-0.035968,-0.051311,0.029719,0.088613,-0.113704,-0.109129,-0.121543,-0.073114,0.102855,0.074666,-0.063235,-0.103209,0.102188,0.109021,-0.069176,-0.128710,-0.032991,0.081959,-0.078456,-0.126995,0.034107,0.033440,0.105865,0.006984,0.147279,-0.151936,0.075247,-0.060932,-0.029659,-0.015978,-0.060047,0.074984,0.086783,0.116505,0.046477,0.124428,-0.135977,0.063757,-0.104748,0.129881,0.000578,-0.003727,-0.144197,-0.054626,-0.043844,-0.061279,-0.033676,0.069910,-0.133387,0.043990,0.097267,0.042827,-0.075509,0.070926,-0.100238,-0.071513,0.058220,0.094506,0.012962,-0.127171,-0.073660,0.093935,0.106351,-0.138205,0.058988,-0.013652,0.172383,0.065152,-0.116196,-0.104322,0.026568,0.033189,0.038371,0.038976,0.130306,0.150411,0.143296,-0.034219,0.075721,-0.147233,0.140859,0.014025,0.046098,-0.089423,-0.084407,0.125711,0.001367,0.127368,0.047432,0.166573,-0.152620,0.134869,0.098817,0.112193,0.169199,-0.003115,
-0.054332,0.138199,-0.086214,-0.007906,-0.120149,0.112462,-0.129269,0.089594,-0.015088,0.146312,0.073317,-0.006013,-0.062421,0.002920,-0.024764,-0.071895,-0.144138,-0.127589,-0.000827,-0.081488,0.132245,0.130241,-0.110303,0.042902,0.120543,-0.101828,0.001968,0.075635,-0.147670,0.000506,-0.087222,-0.051262,-0.017312,-0.031729,0.090327,0.013699,-0.074328,0.103709,-0.065592,0.059219,0.105529,-0.134265,-0.120764,-0.109548,0.010886,0.002434,-0.026655,0.006060,0.025770,0.127720,0.073307,-0.000948,0.092069,0.114993,-0.124266,0.069315,-0.150577,0.032747,-0.011049,-0.140126,-0.128478,0.043912,-0.041437,0.005524,-0.110449,-0.106210,-0.137239,-0.054160,-0.152527,-0.046297,0.150662,0.101910,-0.038550,-0.124969,0.146126,0.111195,0.029003,-0.044085,-0.045686,-0.086896,-0.085602,-0.128474,0.053838,0.153658,0.140278,0.093098,0.057760,0.156454,-0.040894,-0.120825,0.147168,-0.014067,0.071982,-0.047555,0.142577,0.092755,-0.001285,-0.145842,-0.124769,-0.001201,-0.040565,-0.122447,-0.049131,0.072759,-0.106903,-0.065812,0.039459,0.075133,0.045083,0.137042,0.128452,0.113627,-0.144250,0.042076,0.122183,0.155543,-0.037913,0.016441,0.130851,0.078144,0.054176,0.125816,-0.095136,-0.028067,-0.067899,-0.109063,-0.104984,0.076635,-0.093870,-0.071020,-0.077089,0.007000,-0.053862,0.024749,-0.081554,0.001383,0.122519,0.097441,-0.081232,0.010104,0.084993,-0.105281,-0.028370,0.094641,0.085382,-0.070360,0.096590,-0.108930,0.109205,0.067687,0.118265,-0.000972,0.040006,-0.137828,0.121607,0.126188,-0.096479,-0.133703,0.040435,-0.042614,-0.049319,0.118060,0.117764,0.056630,-0.011792,-0.127916,-0.104467,-0.044926,0.136006,-0.028119,0.118055,0.067680,0.017589,-0.069620,0.008153,-0.058841,0.015280,-0.045668,-0.019901,-0.037759,-0.144918,-0.062771,0.121035,0.065819,-0.031448,0.076306,0.022593,0.011457,0.097731,-0.099266,0.124043,-0.104634,-0.131778,0.086707,0.107888,0.014774,0.121575,-0.158822,0.104926,0.104382,-0.029144,0.070887,0.018526,0.142061,-0.145692,-0.127630,-0.069298,0.016329,-0.027865,0.059687,0.133262,-0.024066,0.150463,0.097247,-0.123709,-0.042771,0.013967,0.036305,0.115496,-0.037593,0.089839,0.086910,0.011863,0.106249,0.017680,-0.045024,-0.036435,-0.016471,-0.036444,-0.085220,-0.070958,0.080568,0.134247,0.097779,0.067526,0.140561,0.123078,0.157366,0.011926,-0.048733,0.054481,-0.013909,0.064557,0.051341,-0.076741,0.099410,-0.149175,0.091183,-0.025960,0.115827,-0.102009,-0.090430,0.048501,0.060535,-0.142180,-0.088495,
-0.137522,-0.026306,0.049509,-0.026487,0.035541,0.122198,-0.105844,0.014227,0.091885,0.128010,0.007618,0.053645,0.113049,-0.131360,0.134855,0.020655,-0.000176,0.044725,-0.087855,0.070845,-0.019972,-0.082342,0.002461,0.098934,-0.122850,0.049067,-0.139577,0.095929,-0.038575,-0.121977,0.143245,-0.015928,-0.000483,0.030623,0.101031,-0.118264,0.018867,-0.150947,0.058043,-0.062847,0.119254,-0.113273,0.137870,0.084546,-0.077494,0.115571,-0.052618,0.063910,0.007931,0.021433,-0.017918,0.142997,0.075156,0.146614,0.095892,0.105309,0.046060,0.113338,0.031545,-0.133432,0.133843,0.025393,-0.013978,-0.023949,-0.061858,-0.066022,0.012279,0.079618,-0.066704,-0.085458,-0.137309,-0.099548,-0.025120,-0.151062,0.148337,0.047671,0.117415,-0.073214,-0.034492,-0.032292,0.093069,0.101390,-0.039733,0.009896,0.091514,-0.106970,-0.024081,-0.001486,-0.142531,-0.138525,-0.002419,0.141983,0.044631,0.137140,-0.034690,0.106904,-0.084167,0.124734,0.037717,-0.007411,-0.120527,0.061310,0.053427,0.016301,0.067915,0.039613,-0.091633,0.026716,0.119480,0.027091,0.149616,0.050131,-0.023742,-0.041623,-0.067364,-0.085963,0.009834,0.050402,0.049844,0.012591,0.068281,-0.106863,0.001784,-0.042018,-0.129382,0.118417,-0.089181,-0.053097,0.096671,0.111032,0.100167,0.141158,0.021987,0.005095,0.004047,-0.062039,-0.103768,0.071214,0.106708,-0.142309,-0.055787,0.102063,0.065938,0.063973,-0.093334,0.140845,0.142684,0.080031,0.036162,0.031691,-0.065697,-0.059753,0.084917,0.090774,0.041782,0.107323,0.055746,0.128973,-0.104041,0.002612,0.081744,0.149956,-0.008714,-0.051867,0.000366,0.153618,0.027410,0.048030,0.064677,-0.005604,0.059885,-0.146112,-0.062619,-0.030688,0.076612,-0.009734,-0.043360,0.061994,-0.091529,0.146928,-0.057229,-0.007890,-0.049724,-0.129763,-0.069384,0.151675,0.118433,0.152044,0.122985,-0.138608,-0.006776,0.057220,-0.151798,0.135387,0.158675,0.011120,0.126921,0.024555,-0.102430,0.034421,-0.147013,0.107670,0.049163,-0.058567,-0.076002,-0.026492,0.085620,0.028442,-0.134198,0.141755,0.027855,-0.033867,-0.018951,0.123135,-0.035285,0.058106,0.122683,-0.067777,0.051331,0.091373,-0.055628,-0.108603,-0.004756,-0.045993,-0.123746,-0.007380,0.109976,0.152557,-0.137261,-0.138821,0.033071,-0.128118,0.140680,-0.074555,-0.035513,-0.107269,0.041008,-0.112928,0.085543,0.060662,-0.116843,-0.045242,-0.121507,0.018554,-0.078397,0.003378,-0.075778,-0.111020,0.086090,0.136373,0.130980,-0.126331,-0.130942,-0.033746,-0.014605,-0.109489,
0.115893,-0.050522,-0.118810,0.133146,-0.032632,0.082499,0.156494,-0.056501,-0.151565,-0.040962,-0.020802,0.061894,0.006517,-0.093013,-0.032669,0.049539,0.019574,-0.003442,-0.082441,0.086307,0.159456,-0.012667,0.127838,0.096273,-0.038625,0.115847,0.119181,-0.010466,-0.076430,-0.044673,0.029051,-0.122095,0.055972,0.064615,-0.145941,-0.132844,-0.003520,-0.158524,-0.046810,-0.007137,-0.034500,0.092584,-0.111623,0.117285,0.150871,0.006150,0.017967,0.003434,-0.147532,0.074356,-0.060847,-0.147598,-0.093513,-0.088966,0.086760,0.023006,-0.136864,0.058180,-0.143057,-0.059086,-0.153239,0.038732,-0.027949,0.063233,-0.034976,-0.022045,0.077594,0.099809,-0.021237,-0.118163,-0.051090,0.097084,0.118408,-0.013617,0.055481,0.107095,0.143812,-0.084659,-0.043499,0.150429,0.135883,0.040263,0.147452,-0.119897,0.101308,0.088910,0.061483,0.127332,-0.015362,0.071321,-0.097255,-0.007544,-0.041858,0.028283,-0.090918,0.069362,-0.147124,0.139124,0.021610,-0.020101,-0.127212,0.123191,-0.078492,0.137480,-0.051929,0.132816,0.093979,-0.060787,-0.100475,-0.111854,-0.065742,-0.114379,0.081150,-0.060698,-0.069108,0.034849,-0.139370,0.141391,-0.008651,0.005485,0.073548,0.046572,0.143474,-0.136808,-0.070694,-0.109132,0.079662,-0.069691,-0.119952,-0.048617,0.066194,-0.111773,-0.087201,0.143644,-0.135254,0.013178,0.131065,0.103233,0.111142,-0.125254,0.147845,-0.101038,-0.089055,0.076058,-0.026680,-0.012062,-0.042572,-0.006406,-0.026273,0.096013,0.139848,-0.128864,-0.012857,0.129349,-0.105111,0.072184,-0.134361,0.127983,0.147000,-0.108233,-0.075890,0.059210,-0.067973,-0.005336,0.049729,-0.043840,-0.141787,0.028323,-0.093403,0.121594,0.053187,-0.098238,-0.137445,0.121155,0.130376,-0.014748,-0.045447,-0.061494,0.129603,0.081377,-0.129524,0.112408,0.117241,0.025458,0.097739,-0.152821,-0.060719,0.109302,0.126562,-0.082435,0.154125,-0.106208,0.140139,-0.068398,0.050252,0.033136,0.039279,0.066080,-0.099229,0.097843,0.021829,0.105384,0.156461,0.037473,0.075285,0.127533,-0.135531,-0.124177,-0.087496,0.140484,0.107718,-0.066132,0.101129,0.066178,0.099309,0.039776,0.067589,-0.130743,-0.009844,0.039601,-0.059479,-0.009997,0.092364,-0.082183,0.082022,-0.018293,0.108637,-0.044169,-0.120499,0.150628,-0.100667,0.052067,0.100045,-0.102742,-0.071130,0.022091,-0.125974,-0.051087,0.051517,-0.057093,-0.067231,0.002298,0.011764,-0.119070,-0.086864,-0.030744,0.072483,0.131902,-0.026327,-0.094961,0.015849,0.071747,0.051015,-0.046056,0.136772,-0.031002,
0.084159,0.086465,0.077736,0.117726,0.084072,0.133690,0.015500,0.037540,-0.128184,0.096716,-0.098243,-0.100713,-0.112257,0.103723,-0.019664,-0.026631,-0.048276,0.144076,0.009373,0.017552,-0.055763,-0.076203,-0.005729,0.076853,-0.015917,-0.142385,-0.008650,-0.121042,-0.036986,-0.019908,0.001737,-0.106017,-0.086666,-0.074300,-0.142299,0.150239,-0.096908,0.026474,0.030236,-0.069742,-0.029790,0.086227,-0.017694,0.008821,0.034253,0.114721,0.135920,0.140203,0.105692,-0.009009,0.001015,-0.102016,0.069423,0.151877,0.124499,-0.098378,-0.145183,-0.037415,-0.066542,-0.030357,0.094913,0.086878,0.018883,-0.144373,-0.137365,0.029312,-0.149447,-0.082590,-0.098257,0.035494,0.001977,0.023622,-0.032256,0.135051,-0.119654,-0.151233,0.096296,-0.135211,0.139626,0.051728,0.009354,-0.010807,0.099358,-0.076011,-0.013114,0.071917,-0.022824,-0.008364,-0.119813,0.062463,0.117796,0.128622,-0.003635,-0.015942,0.138142,0.011174,-0.139682,0.144225,0.080602,-0.085936,0.026411,-0.072227,0.092827,0.146432,-0.090253,0.125950,0.150635,-0.146777,0.144191,0.135489,0.055559,0.000390,-0.028059,0.004090,0.079129,0.111230,-0.080470,-0.098065,-0.047937,-0.046830,0.115797,-0.082115,-0.071653,-0.039402,0.056448,-0.087244,0.123130,0.068389,-0.095848,0.051347,0.136716,0.082667,0.129132,0.076162,0.075031,-0.111027,0.049197,0.070667,-0.105092,0.040822,0.053152,0.104528,-0.111859,-0.128232,-0.046526,0.119451,0.133411,0.024562,-0.130484,-0.064718,0.131425,0.139668,0.006052,-0.094353,-0.050304,-0.089434,-0.028475,-0.081753,0.130006,0.027754,0.123311,0.113617,-0.043806,0.102086,0.036724,-0.121780,0.143657,-0.067758,0.102796,-0.114476,0.127515,0.003315,0.141853,-0.138187,0.028027,-0.058868,0.134594,0.012109,0.118157,-0.149771,0.099148,0.095958,0.141632,-0.048454,-0.149230,-0.062292,0.013879,-0.028497,0.009736,-0.009276,-0.153481,-0.019775,-0.049367,-0.042575,-0.069529,0.141605,-0.010216,-0.079639,-0.079122,-0.059907,-0.042124,-0.104852,0.095869,-0.052086,-0.089660,-0.030172,0.040693,-0.107835,0.133525,0.007022,-0.105185,0.080305,-0.050106,-0.114923,-0.118160,-0.047230,-0.024464,0.046565,0.077438,0.137742,-0.116158,0.077908,-0.035630,-0.011869,-0.117136,0.047487,-0.022361,0.025286,0.120924,0.050388,0.117317,-0.074725,0.096959,0.060024,0.025686,-0.145630,-0.121627,-0.086100,-0.101427,-0.136943,0.073767,-0.052842,0.092578,-0.129590,-0.014726,0.126702,-0.026037,0.114211,0.019731,-0.100850,0.099253,0.056065,0.130706,-0.088589,-0.109285,-0.140129,
0.110171,0.020074,0.045832,0.081558,-0.084181,0.012697,-0.151931,-0.133962,-0.091311,0.024862,-0.127584,-0.060361,0.098526,-0.077721,-0.047519,0.012506,0.020991,-0.105256,0.045521,-0.146345,-0.141500,-0.138701,0.120782,0.036226,-0.086893,0.070146,-0.061602,-0.110508,0.131779,-0.018235,-0.094167,0.087679,-0.149862,0.107656,0.016407,-0.077626,-0.049434,0.019406,-0.066232,0.007954,-0.101924,-0.027191,0.099404,0.155420,0.040053,-0.100059,0.017099,-0.098173,-0.057533,-0.089979,-0.090825,-0.044871,-0.084789,-0.124831,0.146057,-0.014378,0.101667,-0.068338,0.045044,0.079853,0.076037,0.091313,0.014087,0.076122,0.066413,-0.122633,0.152585,0.139625,0.052878,-0.071953,-0.014966,0.097489,0.037394,-0.067363,0.095096,-0.084494,-0.015754,-0.047379,-0.032564,0.084035,0.004835,0.032980,-0.115211,0.090924,0.064631,-0.113193,-0.098103,0.013628,-0.028961,0.082171,-0.066138,-0.113794,0.015825,0.099641,0.106623,-0.107566,0.130974,0.106944,-0.128831,0.034635,-0.119599,0.011737,-0.021304,0.063556,0.085823,-0.084002,0.133059,-0.081740,0.023204,-0.050090,0.151808,-0.118374,0.134259,-0.115244,0.102592,0.049658,-0.076825,-0.151228,-0.097708,0.042893,0.090788,-0.009859,0.089964,-0.050556,-0.063056,0.042019,-0.009376,-0.085196,-0.004077,0.014419,0.097212,0.016154,-0.135474,-0.078688,-0.067980,0.104161,-0.004842,-0.093275,-0.128640,-0.134567,0.011285,-0.130635,-0.099659,-0.008976,-0.081429,0.148663,-0.113314,-0.015413,0.164032,-0.056617,-0.119838,0.096587,0.084305,0.112274,-0.116730,-0.137819,-0.000874,0.028992,-0.061276,0.144135,-0.108996,-0.115794,0.012096,-0.089554,-0.042433,0.073745,-0.139330,0.103407,0.147704,-0.116801,0.121311,0.005041,-0.088946,-0.140628,0.150285,-0.025130,-0.141161,-0.110657,0.111370,-0.141271,-0.021397,0.141927,0.098649,-0.086194,0.103821,0.131838,-0.058750,-0.053446,0.007994,0.028184,-0.061543,0.051961,0.063420,0.101694,0.115080,-0.129412,0.034522,0.118893,0.124467,0.028227,-0.124756,0.095707,-0.121702,-0.069692,0.112136,-0.124584,0.060560,0.122123,-0.087261,0.020196,0.133701,0.041269,0.008323,0.082514,0.111440,-0.041158,0.052774,-0.102732,0.058041,-0.087810,0.079410,0.148696,0.118710,-0.010918,0.091220,0.075251,0.016125,-0.022948,0.059305,-0.014469,-0.149300,0.075671,-0.078420,-0.117773,-0.145785,-0.115555,-0.087260,0.070680,-0.138948,-0.015483,-0.067347,0.139540,-0.128368,0.093221,0.066486,0.139204,-0.098836,-0.029610,-0.114665,0.108241,0.037036,0.112179,0.103674,-0.002072,-0.049006,0.046773,
-0.073435,0.109116,-0.132791,0.135309,-0.057886,-0.130168,0.056179,0.021263,-0.087569,0.069716,0.055815,-0.020087,-0.023455,0.069689,0.105479,0.066425,0.057931,0.128051,0.002787,-0.033410,0.114932,0.052610,0.087549,0.144536,0.007866,-0.034682,0.100361,-0.034203,0.123911,-0.105583,-0.146930,-0.102915,-0.151233,-0.131316,-0.124710,-0.057217,-0.098831,0.083129,0.116658,-0.034807,-0.004050,0.010057,0.094570,0.122963,-0.073341,0.045654,0.033392,0.134805,0.022737,-0.111497,-0.052671,-0.017918,0.090783,-0.105411,-0.024172,-0.054894,0.013004,-0.079783,0.051321,-0.013724,-0.039683,0.061941,0.034389,-0.035123,0.100619,0.062394,0.055858,0.142134,-0.006649,0.022833,-0.040226,0.144749,-0.110364,-0.096986,0.120673,-0.024338,0.101155,-0.001061,-0.035642,-0.029604,0.038949,0.070618,0.106559,-0.032406,0.114960,-0.076466,0.079389,-0.021880,0.002387,-0.012780,0.113265,0.119203,-0.099481,-0.006328,-0.061268,0.144489,-0.097676,0.142364,0.147962,0.045389,0.010646,-0.043281,0.038190,0.058385,0.015821,-0.001978,-0.120150,-0.040295,0.153459,-0.004802,0.082188,0.031396,-0.087943,0.036415,-0.135928,-0.129708,0.116205,0.097311,-0.004896,-0.038619,-0.071664,-0.046459,-0.072145,-0.016279,0.100869,0.011835,-0.022185,-0.149334,0.005691,-0.027346,0.051121,-0.130689,0.083182,-0.062868,0.077850,-0.054706,0.089237,0.111856,0.051785,0.090688,-0.046386,-0.016118,-0.027807,0.013770,-0.139148,-0.008506,0.042423,0.137246,-0.069536,-0.119626,-0.056588,0.008505,-0.005094,0.025986,0.143480,-0.063313,-0.116126,-0.022784,-0.064682,0.045986,0.102208,0.138594,0.064020,0.030629,-0.077188,-0.001352,0.122653,-0.138971,-0.048193,0.026980,0.106791,0.058415,-0.149237,-0.071592,-0.077443,-0.134916,0.070800,0.113309,0.151074,-0.148979,0.150781,-0.060105,0.022222,-0.016918,0.119676,0.018110,0.070345,-0.144685,0.148059,-0.150951,0.055760,0.096405,0.135067,-0.034588,-0.020428,-0.088552,0.111191,-0.047918,-0.079513,-0.088212,0.117028,-0.125235,0.122717,0.121860,-0.045825,-0.110010,0.138400,-0.128535,-0.153782,0.134887,-0.123536,0.152654,-0.077564,0.048027,-0.025052,-0.115397,-0.083135,-0.110743,-0.107399,-0.090580,-0.110043,0.097476,-0.151373,-0.121565,-0.085209,-0.014416,-0.055150,-0.132421,0.078776,0.018256,-0.072803,0.044524,0.054811,-0.106269,0.011687,-0.152762,-0.063217,-0.007496,-0.130538,-0.056709,-0.020605,-0.097838,-0.057779,0.054940,0.104844,0.077842,0.091492,-0.133843,0.112968,0.143538,-0.072826,-0.148145,0.086390,-0.067075,-0.116224,0.146620,
0.068714,-0.015714,-0.132803,-0.012396,-0.153989,-0.043600,-0.099881,0.046771,0.005707,0.062020,0.048556,0.099697,-0.107738,0.091296,-0.123225,0.036965,0.138705,-0.031276,-0.057248,0.087508,-0.115762,-0.125640,0.109266,-0.146603,-0.133136,-0.113392,-0.139894,0.105433,-0.037802,-0.097084,0.088520,-0.107524,0.034007,0.103302,0.025496,0.031184,-0.110946,0.088613,-0.067571,0.033754,-0.041306,0.123784,-0.030276,0.002875,0.052541,-0.008385,-0.127173,0.038286,0.117486,-0.056752,-0.035027,-0.131896,-0.000628,-0.095695,-0.142258,-0.000246,-0.078654,-0.113077,-0.068072,0.041080,-0.072676,-0.127321,0.074830,0.104727,0.145779,-0.055849,-0.008254,-0.133949,-0.147354,0.067165,0.059334,-0.031727,0.046300,-0.148160,0.138110,-0.056846,-0.000006,-0.149966,0.125460,-0.034531,-0.037655,-0.079011,-0.025025,0.086786,-0.029444,-0.026955,-0.070632,0.038826,-0.002718,0.013912,-0.064518,0.065461,0.033816,-0.142219,0.032133,0.021540,-0.047244,-0.145989,0.014250,-0.048838,0.080723,-0.094892,0.079969,-0.027188,-0.084844,0.084876,0.080925,0.066160,0.055928,0.042590,-0.125173,-0.130317,0.117706,0.006873,0.130936,-0.068270,0.114739,-0.115386,0.135412,-0.044478,0.058919,-0.082392,-0.140237,-0.071908,-0.072801,0.049430,0.105031,0.035882,0.072908,-0.053070,0.146470,-0.006531,0.012087,0.071920,0.121189,0.074338,-0.021169,0.045537,-0.019066,-0.127903,-0.070522,0.015282,-0.117860,-0.103001,0.154265,0.147250,-0.023772,0.124151,-0.130167,-0.041309,-0.084731,0.074336,0.027811,-0.059112,-0.122794,0.143952,0.148178,0.105287,-0.012219,0.041138,-0.109846,-0.020379,-0.124023,0.042480,-0.101161,0.197949,-0.034104,0.020930,0.039718,0.111923,0.053017,0.123024,-0.047904,0.089330,-0.137481,-0.054644,0.080398,-0.004163,-0.094172,0.110317,0.108436,-0.021907,0.031613,-0.010623,0.076488,0.050782,-0.074818,0.063115,-0.004384,0.077805,-0.053676,0.056310,-0.082938,-0.022262,-0.062974,-0.042218,-0.026186,0.068331,0.147376,-0.140075,-0.029054,0.027087,0.142098,0.092952,-0.041727,0.160044,-0.127496,-0.109127,-0.000259,-0.063902,0.152260,-0.041658,0.066249,0.035363,0.094053,-0.013370,-0.061932,-0.142341,-0.110431,0.082865,0.092618,-0.007807,-0.025565,0.147567,0.126319,0.057524,-0.056709,-0.056463,-0.054546,-0.073247,-0.042721,0.079936,0.127544,-0.052891,0.012050,-0.089292,-0.051748,0.050346,-0.046555,0.084768,0.128287,-0.044876,-0.123617,0.044441,0.138444,0.098105,-0.123750,-0.081997,0.127077,-0.076115,-0.153169,0.054964,0.060007,-0.027388,0.050285,0.025480,
-0.134856,0.156107,0.138677,-0.033053,-0.078461,-0.095170,-0.123487,-0.131202,0.024583,0.053503,-0.056436,0.110661,-0.061343,0.035447,0.029289,-0.080951,0.138990,0.063091,0.096758,0.128721,0.021706,0.138885,-0.100071,-0.035030,-0.089932,-0.087625,-0.123977,0.120181,0.016554,0.073330,-0.009416,0.043942,0.068974,-0.032986,-0.155213,0.146698,0.022481,-0.095402,-0.126060,-0.114820,0.093371,-0.036299,0.139201,-0.111542,-0.140423,0.022531,-0.044445,-0.150214,-0.072853,-0.088159,0.157644,0.103605,-0.110528,-0.127941,-0.083499,-0.072658,-0.079154,-0.044712,-0.088075,0.095528,-0.121695,0.043970,-0.023628,0.095562,0.141063,-0.022205,0.125004,0.037510,0.021018,0.123245,0.077794,-0.033168,-0.071307,0.048732,0.015479,-0.058979,-0.079887,0.099001,-0.048494,-0.003780,-0.150651,-0.074347,-0.051444,-0.092047,-0.047983,0.008291,-0.016301,0.051219,0.117081,0.040730,-0.028149,0.138445,-0.069287,0.103053,0.092231,-0.070211,-0.074556,0.020679,0.092482,0.124135,0.017583,0.014633,-0.078709,0.077945,-0.093561,0.082296,-0.143771,-0.018918,0.010112,-0.043929,0.137111,0.014995,0.034809,-0.079982,0.064809,0.134798,0.093775,-0.113104,0.018493,0.057457,0.100666,0.140143,0.036593,-0.144517,0.088551,-0.030540,-0.035750,-0.140798,0.160474,-0.114049,0.112682,-0.023601,0.063939,-0.130603,-0.098151,0.103197,0.082411,-0.085644,-0.060366,-0.060255,0.017752,-0.073671,0.101189,-0.093731,0.008124,0.003598,-0.110790,-0.039288,0.037412,0.054141,-0.149769,-0.028244,0.047805,0.046521,-0.016671,-0.035013,-0.125226,0.074873,-0.012633,-0.145674,0.099446,-0.053646,-0.007428,-0.003957,-0.030119,0.073918,-0.035434,-0.094524,0.100368,0.065693,-0.011037,-0.034415,0.131344,-0.053277,0.018204,-0.018611,0.098043,0.064479,0.085733,-0.016843,-0.034854,0.089592,0.098894,-0.139419,-0.030689,-0.079934,-0.009956,0.013621,0.134336,0.115311,0.019842,0.091730,-0.081527,0.155524,-0.058105,0.035277,0.036700,0.052217,0.104037,-0.016963,-0.080031,-0.069334,0.104175,-0.095267,0.026941,-0.019454,0.038400,-0.017882,-0.114651,-0.029621,0.109033,-0.006061,-0.095887,0.063970,-0.018402,0.041015,0.131909,0.111321,-0.109846,0.105220,0.078323,0.052707,0.051906,0.141156,0.052920,0.123606,0.031454,-0.068442,-0.017201,-0.042214,0.078237,0.074823,0.056508,0.028593,0.131114,-0.083969,0.139786,0.032561,0.058817,-0.154072,0.137810,-0.003875,-0.012225,-0.108769,-0.105859,0.131708,0.098075,-0.131952,0.098022,0.132428,0.126898,0.011448,0.025957,0.014475,0.013668,-0.073287,
-0.023753,-0.129622,0.012290,0.121242,-0.017716,-0.068194,0.044224,-0.129664,0.102209,0.021104,-0.062479,0.084492,-0.113422,0.120365,0.104521,-0.131655,-0.035852,-0.053761,-0.089286,0.012945,-0.077357,0.149809,0.033595,-0.141864,0.124076,0.009725,0.026293,-0.005125,-0.122392,-0.127415,0.080590,0.006263,-0.102778,-0.057758,-0.022375,0.034760,0.027181,-0.131740,0.058640,-0.017831,0.046271,0.148916,-0.077530,0.084285,0.120988,-0.123794,0.106996,-0.062705,-0.024223,-0.134657,0.102541,0.050420,-0.134787,-0.013591,0.065115,0.146946,-0.149908,-0.063651,-0.007184,-0.122587,-0.034482,-0.078229,0.040900,0.018562,0.007410,-0.133950,-0.102547,-0.106769,-0.110996,0.111520,0.028336,0.087921,0.110142,0.106879,0.017563,0.082567,0.136421,-0.020445,-0.132537,-0.042558,0.002932,0.126761,-0.141445,0.024543,-0.039594,0.078281,0.021245,-0.043830,-0.135350,-0.135578,-0.001719,-0.015423,-0.058515,-0.113127,-0.151192,0.111581,-0.093482,-0.094380,-0.144637,-0.052020,-0.136358,0.035178,-0.116481,0.127195,-0.005907,0.053847,0.055926,-0.021235,-0.114022,0.079956,0.092212,0.041425,0.052909,0.101757,-0.089122,-0.138974,0.031149,0.089883,-0.018678,0.048094,0.101536,0.133639,-0.117608,-0.104084,-0.132882,-0.113641,-0.144277,-0.073864,-0.061200,-0.132373,0.029351,-0.036500,0.056016,0.066740,-0.060717,-0.100045,-0.028298,0.151109,0.035661,0.012467,0.078264,-0.026487,-0.097406,-0.021443,-0.075740,-0.028278,-0.008906,0.106879,-0.091705,0.129820,0.006914,-0.134692,0.108286,0.042975,-0.085362,0.126920,0.083045,-0.074601,-0.093742,-0.124418,-0.052860,0.088285,-0.008705,-0.145302,0.002697,0.077487,-0.088493,0.127088,0.084495,0.096296,-0.012612,0.010097,-0.078841,0.044066,0.142705,0.002663,-0.137037,-0.018474,-0.040352,-0.074196,-0.039793,0.121656,-0.059227,-0.088176,0.009770,0.012291,-0.105856,-0.061738,0.091689,-0.043364,-0.032577,-0.117961,-0.109934,0.115207,-0.109587,0.045687,0.048989,-0.043191,0.024329,-0.020052,-0.092321,-0.139540,0.142053,-0.018714,0.057093,0.132210,0.137504,0.072816,-0.036636,-0.053925,-0.153186,0.079009,-0.085178,-0.057743,-0.152707,0.079186,0.108996,-0.100503,-0.131663,0.047023,0.009338,-0.009431,0.084243,0.056147,-0.045316,0.132906,-0.049384,-0.149049,-0.059818,0.131150,-0.014301,0.000760,0.139814,-0.022494,0.136488,0.049914,-0.041335,0.116864,-0.032293,0.075815,-0.084396,-0.030404,0.005997,-0.016597,0.068628,0.005686,-0.090971,0.024973,0.057718,-0.069789,-0.079742,-0.082129,0.076562,-0.146366,0.127316,-0.121307,
0.139118,-0.073401,-0.118934,-0.066623,-0.091679,0.021936,0.080607,-0.094627,-0.154893,0.063191,0.103165,-0.051764,0.041811,-0.090247,-0.116834,0.095767,0.031344,0.044411,-0.072635,-0.043132,-0.101566,-0.003422,0.146946,0.114301,0.093631,-0.099560,-0.123246,-0.005394,-0.086915,-0.150086,0.039615,-0.101056,-0.068920,0.098743,-0.016683,-0.009196,-0.057804,-0.082745,0.037877,-0.054305,0.137188,0.009657,0.053030,0.019061,0.057309,0.095066,-0.026715,-0.053634,-0.017010,0.059540,0.053451,0.029025,-0.091467,0.046840,-0.003426,0.142612,0.116690,0.011813,0.016475,-0.134671,0.030917,-0.108378,-0.076272,0.121370,0.135310,0.061890,-0.043722,-0.099962,0.133018,0.148620,0.007055,0.106321,-0.015567,-0.083001,-0.028822,-0.107955,-0.147997,0.104161,-0.004792,-0.001990,0.011003,-0.090382,-0.125141,0.089244,0.120830,0.032757,0.065078,0.067585,-0.103452,-0.090120,0.094812,0.082337,-0.051938,-0.137329,0.046539,-0.098135,0.080637,0.158086,-0.022723,0.064024,0.165805,0.124351,0.018276,-0.018900,-0.115229,0.146884,0.019954,-0.109758,0.101578,-0.133404,0.034173,-0.037300,-0.071287,0.053406,-0.130890,-0.109118,-0.063050,0.093937,0.119265,-0.014787,-0.159190,0.059388,-0.069374,-0.046865,0.079871,0.121792,0.028878,0.000637,0.117859,0.135974,-0.090810,0.108515,0.119736,0.079823,-0.059704,0.145073,0.068051,0.112726,-0.113781,0.022567,0.133009,0.073221,0.142348,-0.084858,-0.010133,-0.140600,-0.049666,0.074161,0.113049,-0.081373,-0.089288,0.120175,0.138714,-0.017550,-0.091865,0.040666,-0.052474,0.075890,-0.091996,-0.086282,0.065686,-0.029900,-0.129122,0.024431,-0.102036,-0.052829,0.017759,0.122656,-0.085183,0.048402,-0.007441,-0.108078,-0.024300,-0.024083,-0.046655,0.123870,-0.011654,0.050668,0.044100,-0.056690,0.132304,0.109734,-0.103513,0.090708,-0.062425,-0.032714,0.020099,0.033545,-0.104511,0.074774,0.107036,0.114922,-0.113827,0.124684,-0.023732,-0.057706,-0.066593,-0.154113,-0.084418,0.009933,0.083760,0.067824,0.040255,-0.104341,-0.108227,-0.162130,-0.128742,0.037197,0.055773,0.074880,0.124985,0.026275,0.029461,-0.129110,-0.000616,0.123147,-0.007316,-0.136837,0.008019,0.045767,0.091086,-0.043563,-0.003816,0.134439,-0.075842,0.148917,-0.054800,0.021199,-0.154119,-0.001137,-0.125787,0.069808,-0.098408,0.065447,0.122755,-0.044475,0.071265,0.150255,0.134818,-0.006918,0.070064,0.108842,-0.130913,-0.055702,0.144373,0.017864,-0.088690,-0.010840,0.041613,0.065119,-0.117584,-0.029903,-0.120564,0.039321,-0.049644,-0.029413,
0.040366,0.024210,0.166892,0.028972,-0.120888,-0.131800,-0.044507,-0.059325,0.075065,-0.074313,0.041688,0.020552,-0.083964,0.030976,0.138315,0.151610,0.019474,-0.139941,-0.066651,-0.012880,0.032478,-0.004297,0.136956,-0.093413,-0.076754,-0.140591,0.027372,-0.034066,0.052147,0.126192,0.084036,-0.073015,0.005229,0.072603,0.116128,0.034396,0.092188,-0.078845,0.124665,0.030074,-0.015417,0.026744,-0.112890,0.059045,-0.109571,-0.124488,0.046570,0.048139,-0.113473,0.151615,-0.098146,0.062881,-0.011921,-0.121385,0.127822,0.058710,-0.119915,0.001756,-0.148041,0.084382,-0.025523,0.100330,-0.131122,0.128906,0.013262,0.138913,0.031534,-0.027252,-0.101244,-0.012272,0.144565,0.053558,-0.152409,-0.127708,-0.047260,-0.093762,-0.094563,0.147387,0.118768,-0.060571,0.130566,-0.133691,-0.141752,-0.034161,-0.109740,0.133471,-0.126384,-0.056366,-0.013383,-0.106075,-0.134328,0.111012,0.145637,-0.113817,0.124411,0.009700,-0.127074,-0.054833,0.134574,-0.048719,0.088108,0.126950,0.129713,0.089013,0.150316,-0.093565,0.135951,-0.101523,-0.097793,0.108559,-0.006429,-0.130719,0.120331,-0.002109,-0.010529,-0.148510,-0.010710,0.027469,-0.068215,0.132006,0.087993,-0.052317,0.078938,0.063808,-0.012957,0.022697,-0.072072,0.019612,0.149341,-0.101540,0.089656,0.056571,-0.129810,0.051400,-0.007098,-0.135996,0.103486,-0.016854,-0.092738,-0.142018,-0.068432,0.055633,-0.121589,-0.100801,-0.088133,0.043654,-0.096092,0.042701,-0.085471,-0.011973,0.021728,0.147917,0.099526,-0.048413,0.053682,-0.070645,0.125452,0.135943,0.090095,0.100107,-0.128544,0.024845,0.001183,-0.114477,-0.076543,0.167135,-0.107256,-0.121116,-0.026207,-0.051064,-0.108046,0.062487,-0.145020,-0.060371,0.116320,-0.089625,0.129077,-0.132259,0.109347,-0.110896,0.011825,-0.025622,-0.126060,-0.047640,0.075737,0.078163,0.041626,0.055645,0.052285,-0.043037,0.014674,0.068149,0.132906,-0.142766,0.136876,-0.097210,-0.152039,-0.118246,-0.068695,-0.007800,-0.042551,-0.020316,-0.116952,-0.032311,0.069518,-0.153351,0.029642,0.045067,-0.127082,-0.015271,0.090652,0.032498,0.114752,0.130597,0.128150,0.038055,0.050318,-0.003106,-0.059823,-0.057888,0.105064,0.096031,-0.144568,0.089699,0.114669,0.140326,0.163808,0.104839,0.144735,-0.064688,-0.078976,-0.046381,0.078571,-0.039310,0.076834,-0.009094,-0.026233,-0.028564,-0.118827,-0.017915,0.092544,0.128867,-0.130595,0.053907,0.091751,-0.137000,-0.050160,-0.017297,0.000802,0.060606,0.075437,-0.039368,-0.019229,0.095102,-0.081648,-0.074164,
0.078431,-0.106836,-0.128002,0.068551,-0.016432,-0.044714,-0.130024,-0.097048,0.071500,0.094961,0.043355,-0.112926,-0.105276,0.079914,0.035443,0.139977,0.055210,0.061694,0.034781,-0.004700,0.064657,0.135333,0.128500,-0.082800,0.013635,0.047417,0.030759,0.144851,0.002889,0.083210,-0.080879,-0.073130,0.131665,-0.061829,0.153250,-0.037091,0.060293,-0.134126,0.017326,-0.015687,0.120905,-0.093793,0.027203,-0.137147,0.147143,-0.087511,-0.149571,0.050936,0.126639,0.049885,-0.105408,0.031979,0.030679,-0.124502,0.108428,-0.101458,0.086023,-0.016459,-0.113149,-0.062969,-0.084698,-0.036392,0.019605,-0.105271,0.044739,0.019810,0.009939,-0.028240,0.042880,-0.122921,0.101993,0.012317,-0.055705,-0.012692,0.022700,-0.059016,0.053298,0.036768,0.146564,0.026805,-0.066336,-0.109014,-0.088910,0.114692,-0.081477,-0.129645,-0.133550,-0.145352,0.009083,-0.088128,-0.053862,0.081549,0.029164,0.118782,0.127873,-0.060501,-0.014288,-0.012448,0.068140,-0.125664,0.015789,0.021571,0.039621,0.120258,-0.135801,-0.095586,-0.093259,0.070414,0.106592,-0.097946,-0.055181,-0.116471,-0.053985,0.010769,-0.149318,0.019900,0.036021,-0.125404,0.028332,-0.106641,-0.068928,0.127624,0.127534,0.123304,0.091452,0.100222,-0.095627,-0.074831,-0.063405,0.135590,-0.045039,0.118264,0.005260,0.148556,0.080637,0.028982,-0.088008,0.144636,-0.053573,-0.134352,-0.105587,0.040085,-0.096742,-0.006157,-0.097152,-0.084386,-0.138416,0.087317,-0.056961,0.043052,0.139633,0.037295,0.016730,0.115543,0.001748,-0.043816,0.066441,0.072338,0.037418,-0.140879,0.057752,0.145671,0.129050,-0.083263,0.141130,0.050613,0.096935,-0.100279,0.056220,-0.113207,-0.081373,0.103850,0.088618,-0.021306,-0.054679,0.145640,0.047378,-0.043432,0.085143,0.144816,-0.151437,0.071568,0.030786,0.016847,0.033540,-0.113878,0.128414,-0.050888,0.113760,0.016058,-0.040096,0.012826,0.004521,-0.059570,0.082185,-0.004464,-0.149461,0.025523,0.042264,0.059004,0.075124,0.120970,0.009348,0.012939,-0.052689,0.107014,0.007594,0.143311,-0.087006,-0.061966,0.139601,-0.082659,-0.142121,0.017076,0.090543,0.044152,0.056306,0.071818,0.148146,0.017666,-0.065315,-0.042422,-0.117845,0.097582,0.050757,0.120420,-0.063130,0.055856,0.005177,0.145049,-0.040094,-0.068772,0.108836,0.125415,0.099258,-0.090703,0.084045,-0.052558,-0.097949,-0.154935,0.046310,-0.109101,-0.079329,0.056616,0.062376,-0.138429,-0.055301,-0.033212,0.082680,-0.054588,0.136503,-0.127875,0.055522,-0.132360,0.122071,-0.045960,
0.147146,-0.087882,-0.151746,0.000097,-0.092178,-0.015251,0.091356,-0.120433,-0.043458,0.026570,-0.072191,-0.112655,0.136632,-0.014446,-0.113413,0.027665,0.031810,-0.037463,-0.064654,-0.059087,-0.022403,0.034964,0.063055,-0.076348,0.130460,0.033943,-0.056948,0.030216,0.066223,-0.080988,0.140202,0.060143,-0.019177,0.154177,-0.094841,0.039005,-0.021928,0.139869,0.056114,0.076069,0.019399,0.145290,0.110108,-0.006641,-0.022713,0.150395,-0.126276,-0.154478,-0.039896,-0.041927,-0.065536,0.083199,0.148297,-0.152632,-0.145950,0.127714,0.049857,-0.052509,0.013327,-0.035953,0.015137,-0.000382,-0.133452,0.152305,0.012484,-0.077076,0.032527,0.113041,-0.090479,-0.061465,0.041541,0.073788,-0.075935,0.008887,-0.089261,0.047292,0.000428,-0.056641,0.048634,0.122916,0.053299,0.145709,0.048416,0.044382,0.149112,0.066721,0.018106,0.042302,-0.145886,-0.128691,-0.150127,0.027466,0.019286,-0.134097,0.027904,-0.144985,-0.055903,-0.092916,0.139146,-0.007396,0.003327,0.020501,-0.077789,0.075034,-0.122707,-0.012091,-0.027653,0.027025,0.096113,-0.136365,-0.013870,-0.008570,-0.146091,-0.115429,-0.109092,-0.146676,0.098796,0.057007,0.044027,0.106013,0.073600,0.045106,-0.013625,-0.049431,0.067609,-0.149124,-0.041241,-0.142874,-0.088034,-0.058296,0.016072,0.062393,0.118336,0.097166,-0.020270,0.145527,-0.056250,0.104964,0.020709,-0.114968,0.121436,-0.147216,0.032461,0.131550,-0.104932,0.072236,0.134183,0.141612,-0.020005,0.020324,0.098323,-0.094082,-0.085622,-0.074018,-0.001849,0.135169,-0.069458,0.119112,0.143531,-0.000925,-0.088599,0.006789,-0.093144,-0.121503,-0.049831,0.032685,-0.135281,0.044948,-0.004014,0.033440,0.084098,-0.037815,0.049897,-0.036160,-0.062470,0.095289,-0.117200,-0.090252,0.084015,0.014053,0.089258,0.026315,0.075332,0.146535,0.113666,-0.072099,0.139866,-0.116319,-0.103209,0.121448,0.032259,-0.038509,-0.031294,0.093506,-0.013544,0.079776,-0.012227,0.010763,-0.037229,0.137815,-0.084532,-0.099148,-0.058311,0.116380,0.021875,0.026222,0.056162,0.047691,0.097089,-0.014249,-0.087052,0.030521,-0.139997,0.134505,0.039562,0.120851,-0.085655,0.015467,-0.152706,-0.031680,-0.016268,0.035615,0.075374,0.110555,-0.022965,-0.078401,0.047658,0.117800,0.091914,-0.145365,0.094379,0.152665,-0.093121,-0.116060,0.112089,0.078820,0.080406,0.011006,-0.023831,0.035459,-0.151300,0.044530,-0.088633,-0.139178,0.034638,0.102874,0.126885,0.105049,-0.044017,0.128435,-0.082110,0.099340,0.014777,0.149999,0.052466,0.143612,
-0.085269,-0.057651,0.108789,-0.137445,-0.053273,0.043217,-0.159978,0.000877,0.109168,0.115515,-0.061045,0.017088,-0.015799,0.061046,-0.107492,-0.018913,-0.047141,-0.048093,-0.003069,0.146537,-0.094661,-0.026338,0.101877,0.004062,-0.044414,-0.122536,-0.044549,0.118111,-0.143668,-0.144222,0.105430,-0.074710,-0.054550,0.085176,-0.072509,0.042980,-0.040961,-0.073603,-0.101451,-0.097589,-0.105092,-0.009339,0.072233,0.033410,-0.098754,0.120097,-0.125918,0.008535,-0.079668,0.005388,0.008878,-0.014804,0.122293,-0.054117,0.138867,-0.087449,-0.026379,-0.056217,-0.102373,-0.020275,-0.050254,0.143279,0.049636,0.057750,0.085503,0.132212,-0.054279,-0.144653,-0.087482,-0.003202,-0.075800,-0.044153,0.131925,0.150122,0.144132,-0.125528,0.111776,0.146433,0.040015,-0.126795,-0.005455,-0.113491,0.005940,-0.019521,-0.006947,-0.011017,0.044254,0.116097,0.090137,0.081050,-0.068570,-0.111077,0.073092,0.136515,0.084860,-0.030987,0.113929,-0.109978,-0.017985,-0.132041,0.045224,0.065427,-0.020518,0.011126,0.042779,-0.018450,0.033507,0.002518,-0.035806,-0.080148,0.035498,0.124848,-0.036732,-0.114352,-0.069671,0.107763,0.034429,0.124714,0.065727,-0.028141,0.075254,0.149257,0.021490,-0.027941,0.133284,-0.041954,0.111106,0.092478,-0.011542,-0.071908,0.117239,-0.140803,0.145096,-0.051207,0.031208,0.020011,0.073545,-0.093660,-0.122474,-0.115796,-0.015911,0.074158,0.163751,0.097131,0.100021,-0.078152,0.056272,0.000681,-0.107461,-0.036517,0.109402,0.091854,-0.040309,-0.031748,-0.087105,-0.077189,0.072952,-0.145577,-0.122970,-0.097067,-0.065341,0.147935,-0.078974,-0.080939,-0.056370,0.104046,0.103564,-0.131143,0.152852,0.138201,-0.102376,-0.020393,0.046218,-0.101742,-0.077896,-0.001252,-0.026044,0.133719,0.143733,0.019126,-0.062079,0.100748,-0.034780,0.054552,-0.090853,0.022830,0.148049,0.144106,0.029129,-0.135367,-0.113952,0.123518,-0.132807,-0.041568,-0.117664,-0.042093,-0.102746,0.134732,-0.015146,-0.110008,0.124788,0.031263,0.033260,0.005005,0.081143,0.109795,0.155266,-0.084681,0.088329,0.145203,0.072194,-0.133727,0.089419,-0.125825,0.056983,-0.149573,0.052925,0.056426,0.144143,-0.070683,0.074751,-0.121418,-0.095091,0.085313,-0.012649,-0.069207,-0.101244,0.036345,-0.097392,0.014361,0.099160,-0.134528,-0.107996,-0.032247,0.017361,0.125203,-0.091177,0.015769,-0.117475,0.153039,0.006096,0.095560,-0.142939,-0.058079,0.127108,0.079474,-0.049262,0.027046,-0.019902,-0.072714,0.111705,-0.113480,-0.032115,-0.149252,0.122212,0.111599,
-0.067683,-0.139303,-0.002316,-0.006491,0.029264,-0.066886,0.012062,0.073165,0.048675,-0.121382,0.043947,0.115435,0.049790,0.066580,0.112063,-0.098306,0.010637,0.119161,-0.002763,-0.014729,0.036426,0.096647,-0.140848,-0.146506,-0.118124,0.122435,-0.104410,0.002308,0.127934,-0.132816,-0.037355,-0.092907,-0.117860,0.113867,0.054321,0.064879,-0.108225,-0.085876,-0.015027,0.097499,-0.054768,-0.124847,0.064000,0.146418,0.094898,0.023141,-0.103286,-0.044332,-0.010682,0.044996,0.091668,-0.125973,-0.007621,0.107201,-0.119184,0.027734,0.076965,-0.071421,-0.122802,0.049741,-0.048847,-0.006032,0.112636,-0.013808,-0.045735,0.014040,-0.104520,0.000924,0.081153,0.035232,-0.054195,-0.126993,0.065059,-0.144027,-0.132039,0.009022,0.032732,-0.080148,0.116948,-0.131216,0.121846,0.057997,-0.104244,-0.039542,0.010877,-0.070585,0.142233,-0.070245,0.012088,-0.132016,0.139987,0.115028,0.015803,0.100252,-0.052438,0.124089,-0.038865,0.000208,-0.027601,-0.111323,-0.118247,0.070398,-0.084453,0.100342,0.081258,-0.062364,-0.043418,-0.038815,0.010569,-0.078183,-0.016503,-0.020800,0.133105,0.032316,0.091126,-0.009436,0.114908,0.082343,0.080011,-0.026519,0.100070,0.067833,-0.063404,-0.034305,0.014616,0.038954,-0.063203,0.128748,-0.115232,0.063047,-0.134841,-0.077253,-0.020949,-0.065878,-0.128795,-0.090798,0.024137,-0.018460,0.023692,-0.117795,0.056593,-0.145757,0.014530,0.035932,0.038328,-0.044780,-0.128110,0.000628,-0.115255,0.108072,0.127807,0.142274,0.022448,-0.087936,-0.043288,-0.115955,0.104179,0.046619,-0.139270,0.143353,-0.043186,-0.120990,-0.087895,0.090797,-0.033761,-0.064124,-0.152236,0.142344,0.071721,0.024382,-0.126656,-0.024432,0.031537,0.040763,-0.141031,-0.081816,0.149139,-0.113997,0.071749,-0.118813,0.147476,0.048200,-0.131494,0.014219,0.112956,-0.020302,0.053102,0.062202,-0.126529,0.069497,0.052834,-0.017287,0.101668,0.120039,-0.079794,-0.086349,-0.095445,-0.077728,-0.094090,0.129772,0.099510,-0.067697,-0.048440,-0.022452,0.124711,-0.035987,0.048637,0.122334,0.001764,-0.030771,-0.149745,-0.001246,-0.135738,-0.126294,-0.135626,0.130619,0.006646,0.072844,0.042169,0.032380,-0.011128,-0.057017,-0.138190,-0.062389,-0.088622,-0.062267,0.004582,-0.030640,0.013323,0.064392,-0.053813,-0.040283,0.148222,0.051635,0.091186,0.121985,-0.137366,-0.014027,0.088979,0.020291,0.109815,0.095043,-0.133635,0.127088,0.122163,-0.117300,0.104089,-0.024486,0.109351,-0.006343,-0.144356,-0.054681,0.090752,-0.128025,0.036281,-0.150805,
-0.036053,-0.114132,-0.026141,0.133088,0.108084,0.103435,-0.051921,0.122702,-0.036664,-0.126089,0.072972,-0.008871,0.017567,0.020570,-0.145174,-0.027564,-0.038931,-0.126094,-0.031707,-0.075323,-0.100667,-0.102997,0.049902,-0.120974,0.043152,0.064567,-0.037040,-0.021977,0.084644,0.154904,-0.014422,-0.108020,-0.111057,0.115320,-0.126298,0.150726,0.031615,-0.034729,0.094660,0.149849,-0.005635,0.038373,-0.015646,-0.147486,-0.116381,-0.013039,-0.019891,-0.012469,0.012844,0.077218,0.047843,0.073473,0.140070,-0.045697,0.088364,0.034661,-0.138367,-0.100464,-0.134477,0.093753,-0.099316,-0.009042,0.144298,-0.057916,-0.004379,-0.138321,-0.075571,0.130144,-0.022438,-0.125961,0.126502,0.117594,0.044425,-0.048074,0.120304,0.068235,0.089351,-0.053135,-0.111277,-0.038251,-0.129593,0.100950,-0.136907,0.157082,-0.099507,0.121262,0.016598,-0.100551,-0.143897,0.017553,-0.149871,-0.095519,-0.148638,0.145479,-0.003155,-0.044057,-0.144244,0.087036,-0.071276,-0.021058,0.102686,-0.098315,-0.049778,-0.007100,-0.011153,-0.079127,-0.076752,-0.074401,0.018526,-0.041425,0.026515,0.050305,-0.094958,0.057215,0.044382,-0.035272,0.003643,-0.098652,0.018894,0.010483,0.073061,0.024173,0.072198,0.078533,0.023043,-0.088185,-0.136328,0.029481,0.149370,-0.054324,-0.140309,0.096567,-0.023344,-0.036459,-0.059503,0.130446,0.041556,0.001307,-0.098095,-0.094272,0.114903,0.085216,0.107599,-0.135682,-0.018573,-0.010164,-0.023433,0.121192,0.058053,0.151234,-0.010833,-0.024014,0.017287,-0.105377,-0.095202,-0.098781,-0.045215,-0.082554,0.068031,-0.054767,0.020810,0.081247,-0.114031,-0.145932,-0.109180,-0.036085,0.131992,0.079261,0.131390,-0.123154,0.142598,0.093011,0.115999,0.086719,0.111867,-0.062235,-0.072779,-0.058550,-0.090916,0.128355,-0.070881,0.046657,-0.057454,0.107824,0.108783,-0.008918,0.149982,-0.108425,0.065767,0.063804,-0.012426,-0.066781,-0.004107,0.033187,-0.058344,0.036417,-0.143842,-0.083403,-0.038052,0.141722,-0.030643,-0.047452,0.078035,-0.068658,-0.109864,0.031178,0.015074,-0.033284,0.124535,0.080541,-0.058344,-0.096763,-0.024843,0.040905,-0.127924,-0.076050,-0.125255,-0.139756,-0.035123,0.097745,0.077494,0.111470,-0.127070,-0.086957,-0.011026,-0.038067,0.109484,-0.000918,0.054165,-0.086521,-0.020492,-0.147129,0.007620,-0.095408,-0.068409,0.054278,0.102122,0.107513,-0.130358,0.092599,0.027294,-0.034253,0.130209,-0.152627,-0.148176,0.149605,-0.082983,-0.117866,0.158773,0.035881,0.134735,0.080185,-0.005992,-0.145563,0.143083,0.134659,
-0.019213,0.082185,-0.010086,-0.133383,-0.147454,0.144027,-0.108483,0.029876,-0.151193,-0.047916,-0.084023,0.119591,-0.094610,-0.062533,0.026670,0.087884,0.075112,0.004932,0.104404,0.064182,-0.017914,-0.155043,0.103977,-0.002149,0.037412,0.085704,-0.089339,-0.127967,0.079807,-0.102730,-0.139744,-0.106609,0.140799,0.002105,-0.075776,0.144301,-0.048600,-0.045932,0.001210,-0.034646,0.060672,0.108287,-0.075939,0.117582,-0.135672,0.105372,0.050063,0.079474,-0.044884,-0.016359,-0.008658,0.090824,-0.005763,-0.066537,-0.073898,-0.121094,-0.143868,-0.005168,-0.093556,0.078676,0.045844,-0.083087,0.141635,0.032640,0.079422,-0.089449,0.025059,0.168566,0.014477,-0.130031,-0.031423,-0.074397,0.095366,0.041324,-0.124692,0.110087,-0.005965,0.078909,0.027974,0.107796,-0.096029,-0.127718,0.037080,0.052599,-0.044848,0.130337,0.059808,-0.043459,-0.039909,0.108895,-0.106743,-0.152507,-0.137074,-0.119412,0.046359,0.072642,-0.053375,-0.099897,0.077451,0.124606,-0.083486,-0.109438,-0.116493,-0.147153,0.066486,-0.089216,0.121537,-0.092808,0.139607,-0.001082,-0.146386,-0.100975,0.016427,0.049677,0.080918,0.128782,0.016720,-0.007817,-0.066732,0.134771,-0.034948,-0.019149,0.132656,-0.036455,0.020356,0.011195,-0.124454,0.121737,0.077566,0.092368,0.075317,0.120822,0.118454,0.103526,0.133864,0.032391,-0.141687,0.093110,0.094580,0.153493,-0.062448,0.104809,-0.108156,0.111051,0.001411,0.132621,0.074946,-0.154563,-0.017441,-0.138309,0.137718,0.090092,-0.008848,0.110162,-0.096088,-0.128090,-0.036230,-0.082090,0.130464,-0.134504,-0.143853,0.052344,0.137199,0.127104,0.002195,0.115880,0.003408,0.010210,0.054350,-0.067912,0.013533,0.147396,-0.106982,0.059611,0.103538,0.039742,0.039525,0.035821,0.043695,-0.140487,0.040221,0.027161,0.082813,-0.110610,-0.008601,0.126419,-0.086183,0.092257,-0.109947,-0.122351,0.114718,-0.105531,0.091772,0.106920,-0.119101,-0.069914,0.065457,0.043387,0.095433,-0.022928,0.142246,-0.040482,-0.041428,-0.118711,-0.131074,-0.096730,0.065187,0.059140,0.105477,-0.039600,0.072564,-0.012402,0.141922,0.013102,0.042546,-0.020437,-0.019716,0.093193,-0.081461,0.024680,0.124392,-0.115897,0.067435,0.052900,0.143354,0.095835,0.154221,0.054422,-0.011903,0.087027,-0.136409,-0.036866,-0.117285,-0.020146,-0.006350,-0.085673,0.058581,-0.075067,0.123118,0.006628,0.018821,0.048823,0.139754,0.005551,-0.097061,0.030393,0.140240,0.036675,-0.036221,-0.087457,-0.090131,-0.062425,-0.063306,0.136912,0.150871,-0.078888,
0.084997,0.120653,0.115980,-0.090000,0.054669,0.151768,0.037029,0.109215,-0.023573,-0.131297,-0.140744,-0.116761,-0.078869,0.155222,0.018593,0.097821,0.048098,-0.000564,-0.048658,0.098551,-0.130968,-0.070492,-0.021257,-0.009985,-0.025113,0.027548,0.061857,0.070613,0.020776,0.050031,0.138624,-0.048845,0.015575,0.096296,0.018402,-0.083703,0.112588,-0.109036,-0.135936,-0.064417,-0.085803,-0.128225,-0.037814,-0.015668,-0.127345,0.130041,-0.072119,0.066203,-0.020901,0.037137,0.008574,-0.005578,0.121101,0.149109,0.134019,-0.048608,0.026822,0.039767,-0.148296,-0.101080,-0.074722,-0.154515,0.003687,0.095423,0.102422,-0.132679,-0.146568,0.062803,-0.088132,-0.123222,-0.148245,-0.020572,-0.088084,-0.032062,0.119561,-0.061950,-0.054888,-0.095841,-0.147304,0.081075,0.095445,0.017603,-0.077395,0.047827,0.011078,-0.095896,-0.144068,-0.108302,0.093900,-0.129983,-0.060944,-0.125203,-0.129590,0.094754,0.131379,0.138315,0.115630,0.137594,0.059511,-0.132623,-0.138952,0.059092,0.006571,-0.065398,-0.115723,-0.030749,0.029894,-0.018954,0.034563,0.030048,-0.095579,-0.031215,-0.105442,-0.013376,-0.109377,0.060993,0.036079,-0.103402,0.094851,-0.021248,-0.091800,-0.118697,0.001475,-0.055776,0.132568,-0.023477,-0.083549,0.091136,-0.033304,0.139591,0.120885,-0.004864,0.046435,-0.023775,0.071305,0.093913,0.108718,-0.052317,-0.084985,-0.011440,0.131268,-0.029308,0.111462,-0.127180,0.106060,-0.148254,0.087039,-0.011564,-0.101680,0.025958,0.121287,-0.033285,0.062652,-0.025900,0.065388,0.049391,0.102675,0.145081,-0.024359,-0.074321,0.135951,-0.056479,0.066375,0.036106,0.072292,-0.009842,-0.033825,0.026517,0.099673,0.037096,-0.133885,0.078531,-0.143377,0.134961,0.105759,0.114129,0.139022,0.032839,-0.049676,-0.113139,-0.092157,-0.083485,0.017583,0.123614,0.054858,-0.071028,0.005284,-0.001244,-0.074620,0.133337,0.080521,-0.094926,-0.081509,-0.006591,0.096435,0.151605,0.146681,-0.084413,0.013768,0.093743,0.096517,0.033711,0.018470,0.110848,0.016789,-0.031918,0.072459,-0.005217,-0.150958,-0.134296,0.041883,-0.086826,-0.062005,-0.099347,-0.116458,0.136507,-0.014772,0.033399,-0.019910,0.064202,0.013015,-0.093589,0.118813,0.089706,0.058226,0.069522,0.083232,0.047660,0.137836,-0.049077,-0.020724,0.084196,0.140571,-0.154008,0.042066,0.000729,-0.025630,-0.040911,-0.156476,-0.017687,-0.017715,0.044043,0.043684,0.073635,0.100203,0.081066,0.048792,-0.067825,-0.045448,-0.118823,0.146464,0.127998,-0.058873,0.118893,0.059123,0.146292,
