0.043041,-0.084761,0.076991,-0.025702,0.063070,0.185672,0.064451,0.126805,-0.080764,-0.036676,-0.072337,0.159689,-0.033196,0.004692,-0.031677,0.044426,0.063846,0.104339,0.160177,0.003813,0.082924,-0.050409,-0.077642,0.053688,0.143054,-0.027035,0.047909,0.085005,0.005015,-0.140439,-0.085780,-0.123550,-0.074734,-0.151194,0.029242,0.138603,-0.123788,-0.104847,0.086408,-0.062038,0.046859,-0.106274,-0.082450,-0.153565,0.045440,0.048369,0.057652,-0.077370,-0.003381,0.057647,0.062984,-0.104101,0.153346,0.130671,0.088576,0.157347,-0.058146,-0.008923,0.082569,0.107542,-0.006964,0.158784,0.137428,0.066980,-0.022807,0.005208,0.052002,-0.117161,0.069892,-0.011444,-0.024296,-0.047352,0.009899,0.050755,-0.078519,-0.130677,-0.061151,0.144685,-0.073293,0.103477,0.027669,0.141962,-0.157209,0.015211,0.118456,0.118214,-0.001449,-0.083723,-0.071739,-0.079826,-0.145250,0.082313,-0.083570,0.144529,0.000089,-0.063851,-0.004768,-0.095644,-0.028484,-0.107486,0.043678,0.079420,-0.003845,-0.104291,-0.033931,0.087431,-0.060692,0.062433,0.085920,0.007290,-0.001178,-0.022239,-0.015174,0.008649,0.152311,-0.014337,-0.054819,-0.020160,0.021748,0.046202,0.053475,0.030636,-0.030295,0.125622,0.039649,0.120583,-0.124452,-0.131994,-0.123145,0.011846,-0.076756,0.072466,-0.085932,0.073916,0.114798,0.045814,0.033403,-0.118000,-0.030731,-0.047216,0.038134,0.107973,0.061168,-0.118669,-0.029965,0.051402,0.002131,0.050919,-0.116098,-0.130110,-0.052992,0.090197,0.033261,0.059562,0.080729,-0.062854,0.024655,0.096549,-0.052030,0.057044,-0.035999,0.028100,-0.025026,0.050179,-0.056027,-0.100646,-0.063101,0.111390,-0.033411,0.037254,-0.083360,-0.146320,0.028168,0.133331,-0.111486,0.137338,0.034023,0.037331,0.047753,0.066082,0.051863,0.135676,0.010075,-0.015988,0.078831,-0.101469,0.052120,-0.087069,-0.148803,0.142536,0.114937,-0.044251,0.025360,-0.063925,-0.150647,0.118765,0.024653,-0.036865,0.069247,0.148658,-0.120728,0.135922,0.145913,0.069328,0.123514,-0.124850,0.042765,-0.013647,0.087717,-0.075722,-0.088889,-0.018402,-0.081580,0.067263,0.119217,0.125408,0.113648,-0.002911,-0.126320,0.129781,-0.004075,0.152090,-0.052473,0.150080,-0.056174,-0.054951,0.116372,0.127124,0.091374,0.026372,0.084941,0.099532,-0.011394,0.090805,0.003095,-0.021252,0.149481,-0.100460,0.122204,0.070272,-0.027498,-0.121369,-0.107132,0.050003,0.100640,0.161593,0.007757,0.063744,-0.021243,0.028500,0.034272,0.144942,0.031570,0.129905,0.127924,0.110468,
-0.063256,0.081526,0.081381,0.172761,-0.030592,0.024665,0.072543,0.120829,-0.081154,-0.080831,-0.051737,-0.111411,-0.010648,-0.115441,0.117041,0.127814,-0.032725,-0.155425,0.037598,-0.121217,0.159562,0.129489,0.129254,-0.043405,0.009925,0.028264,-0.044550,-0.122722,-0.045109,-0.087799,-0.156818,-0.000156,-0.146157,0.104128,0.009317,-0.026252,-0.098006,-0.098744,-0.069023,0.015403,0.021239,0.053906,0.088806,0.157368,0.059951,0.054674,0.139400,-0.122461,0.062401,-0.069614,-0.071128,0.106688,-0.067114,-0.090099,-0.127808,0.091843,0.060080,-0.003171,0.143710,-0.178084,0.064680,-0.169296,0.023118,0.108053,0.059582,-0.121044,-0.113900,0.131042,-0.027598,-0.017801,0.022142,0.174147,0.161631,-0.067337,0.139332,0.081099,0.140041,0.085063,0.118325,0.027068,-0.139009,-0.089749,-0.052907,-0.027630,-0.050466,-0.028882,-0.090549,-0.167090,0.150400,-0.093570,-0.147841,0.059968,-0.094557,0.035793,0.006338,0.132809,0.065594,0.073789,0.129663,-0.105216,-0.132142,0.004885,-0.132540,-0.139744,0.033633,-0.138150,0.089697,0.030580,0.097152,0.064603,-0.068422,0.152051,0.128491,0.046908,-0.100925,-0.079281,-0.119834,-0.008050,-0.066546,-0.116089,0.132382,-0.060406,0.109198,0.097976,0.126912,-0.058883,0.090863,0.048792,0.149506,0.043096,0.073222,0.138111,0.156039,0.103311,-0.127819,0.033813,0.103512,0.103706,-0.075316,0.066744,0.030140,0.052227,0.051107,-0.036317,-0.128605,0.113562,0.045885,-0.091910,-0.030717,0.144248,-0.046251,-0.135991,-0.076550,-0.124464,0.128403,-0.113402,-0.045869,0.060566,0.115561,-0.074717,-0.075081,0.028060,-0.088094,-0.075636,-0.022246,-0.053961,0.140424,-0.054859,-0.128493,-0.116412,-0.156706,0.052018,0.064791,0.064359,-0.118853,0.108959,0.018530,0.117177,-0.110093,0.129394,0.081984,-0.009088,0.130088,-0.122852,-0.008838,0.091434,-0.040560,0.117177,-0.020656,-0.101091,-0.098342,0.041662,0.124443,-0.033753,0.165888,-0.100079,0.036144,0.148726,0.031382,0.067149,0.188976,0.014828,-0.038356,0.060178,-0.090921,-0.011774,0.002259,0.126803,-0.042001,0.038277,0.061474,-0.114259,-0.101311,0.046710,-0.099116,0.066083,-0.014217,0.034009,0.034621,0.098448,0.079475,0.083029,0.007051,0.013163,-0.083807,-0.014233,0.112406,0.075744,-0.071684,-0.072244,-0.016301,-0.064039,0.069266,0.095817,0.130069,-0.144119,-0.070273,-0.002838,0.084762,0.040331,-0.120198,-0.000311,0.060896,-0.083535,-0.107574,0.154875,0.147883,0.022584,0.000147,0.032804,-0.014539,-0.069240,-0.045596,0.137619,0.107668,-0.012274,
-0.012602,0.018707,-0.100738,0.079437,0.102823,0.033913,-0.151467,0.038573,-0.027198,0.137881,0.060134,0.038681,-0.021692,-0.008499,-0.090011,0.008836,-0.149675,0.104421,0.078699,-0.105830,0.086202,0.060086,0.065812,-0.081294,-0.083344,-0.102799,0.009571,0.012472,-0.104864,-0.047232,-0.145839,0.031035,0.129767,-0.092314,-0.038978,0.078816,0.107121,-0.046226,-0.026628,-0.061352,-0.042524,-0.132492,0.142992,0.085952,0.027372,-0.099201,-0.056605,0.037742,-0.140617,-0.132516,0.084126,0.100094,0.081357,0.010686,-0.132219,-0.143682,0.067241,0.026894,0.022075,0.110114,0.129393,0.031651,-0.004044,0.122548,0.013946,0.111604,0.032993,0.062562,-0.073011,-0.132063,-0.144706,0.043516,-0.097261,-0.147210,-0.034518,0.091021,-0.096867,0.075004,-0.022486,-0.094197,0.099315,-0.085741,-0.139464,0.028274,0.076408,-0.126325,0.050153,-0.013270,0.072004,-0.068225,-0.044252,0.060193,0.127130,0.109130,0.016591,0.084689,0.066845,-0.073624,0.010760,0.138620,-0.068063,0.015446,0.033881,-0.002314,0.026564,-0.147275,-0.063312,0.089365,0.092282,0.071164,-0.142763,0.042830,0.142091,-0.130427,-0.081696,0.066847,-0.091715,0.130728,-0.082862,0.132302,-0.091249,0.027776,0.042066,-0.117892,-0.017501,-0.081343,0.117076,-0.107340,-0.021510,-0.018204,-0.106838,0.088920,-0.154451,0.085821,-0.069798,0.035464,0.099266,0.022868,-0.023011,0.040617,-0.049582,-0.012369,-0.069761,-0.067593,0.000076,0.010091,-0.146336,0.066765,-0.019337,-0.072852,0.051514,0.039299,0.098803,-0.059061,0.080855,-0.065610,0.009637,0.053193,-0.010353,-0.151951,-0.115747,0.034978,0.089254,-0.107794,-0.030734,-0.134506,0.084746,-0.080229,0.056033,-0.097992,0.112025,-0.149585,0.048822,-0.105125,-0.059751,-0.093966,0.058158,-0.051105,0.134485,-0.106810,0.028288,0.033860,0.096253,-0.018288,0.121434,0.026349,0.068356,-0.018502,-0.071328,-0.081901,-0.017700,-0.041300,0.107944,-0.077022,0.005985,-0.081268,-0.049652,-0.061375,-0.004558,-0.151806,0.005004,-0.041438,-0.138396,-0.102774,0.003923,-0.050912,-0.042619,-0.087801,0.054912,-0.065873,-0.043219,-0.062690,0.124033,-0.108713,0.071868,0.097339,0.079969,0.009080,-0.067939,-0.147122,0.075842,0.071082,-0.030955,0.031508,0.150151,0.129530,0.102097,-0.055595,-0.076140,-0.049052,-0.044422,0.083369,0.054560,-0.031536,0.132753,-0.084072,0.071944,-0.077163,-0.028544,-0.028128,0.027132,0.087306,0.068179,-0.000900,0.141205,-0.010574,-0.057790,0.066286,-0.160167,0.026049,0.073648,0.078078,-0.049111,-0.107531,-0.049671,-0.053354,
-0.124668,-0.088373,0.033512,-0.060781,0.022441,-0.140969,-0.102514,-0.069438,-0.051791,-0.137731,-0.004461,-0.097946,-0.045389,0.145796,0.026467,0.132773,0.059673,-0.058135,-0.029206,0.072290,0.095948,0.088325,-0.028994,0.113913,-0.016277,-0.096912,0.023322,0.067821,-0.057660,0.144411,-0.129558,-0.036929,-0.096275,0.049906,0.086290,0.070493,0.060634,0.144033,-0.146415,-0.110092,0.144139,0.025921,-0.066561,-0.043919,-0.013699,0.120237,-0.068389,-0.084185,-0.087197,0.092584,0.139986,-0.166280,0.041654,-0.049967,0.107400,0.156811,-0.009417,-0.036276,0.066947,0.082898,-0.044903,0.091982,-0.088072,0.001049,0.002348,0.149661,-0.055032,-0.071930,0.119275,-0.058437,-0.053551,0.118993,0.102706,0.036390,-0.099549,-0.051284,0.007725,0.020535,0.003349,0.089935,-0.048568,-0.023614,0.084238,0.127395,0.078566,0.036882,0.117959,-0.086908,0.136769,0.026523,-0.142295,-0.051074,-0.049882,-0.087684,0.111783,0.086410,-0.081210,-0.111940,0.157689,-0.099678,-0.003592,-0.073372,-0.128642,-0.045741,0.136772,-0.067214,0.068346,-0.004378,0.101166,-0.086139,-0.084875,-0.081694,0.047086,0.139468,-0.117061,-0.023364,0.011281,-0.149656,0.052142,0.009201,0.011678,0.064614,0.099854,0.137095,0.156763,0.068365,0.100114,-0.103675,0.124977,0.067958,-0.052782,-0.027854,-0.147157,-0.042400,0.060170,-0.146309,0.040222,-0.019950,0.001773,-0.002988,0.043349,0.058441,0.045874,-0.045252,0.069890,0.104654,0.068872,-0.086393,0.100334,-0.025456,0.077410,-0.031177,-0.114465,0.035682,-0.028190,-0.115988,-0.040259,-0.138857,-0.064277,-0.080352,0.100474,0.032632,0.041018,0.118813,0.150313,-0.034444,0.114985,0.036788,0.096115,-0.046910,-0.120767,-0.010570,-0.122086,0.092870,0.086478,0.106420,0.040445,0.005113,-0.125277,-0.012363,0.135315,0.108201,0.106146,-0.135681,-0.010278,-0.076836,-0.103325,0.094527,-0.047352,-0.002516,-0.130265,-0.100942,-0.114969,0.064070,-0.151644,-0.117887,-0.124219,0.142228,0.070967,0.147177,-0.052420,0.110403,-0.037465,0.001412,0.056932,-0.108903,-0.035385,-0.049705,0.075991,-0.001562,0.085931,0.044693,-0.057131,0.048974,0.091434,0.091856,0.129581,0.141706,0.038662,-0.065611,0.002407,0.059915,-0.023496,0.027658,-0.041975,0.001702,0.054064,0.003217,-0.003394,-0.016852,-0.006080,0.107942,-0.074485,0.108185,-0.032447,0.154940,-0.133156,0.092978,-0.069735,0.089029,-0.071430,-0.122277,-0.032613,0.028664,0.083623,-0.113273,-0.037040,0.057767,-0.098290,-0.143385,0.134960,0.043814,0.066650,-0.018732,-0.084749,-0.105084,
0.117818,0.130841,0.089813,-0.026369,-0.041436,-0.099674,-0.087809,0.039257,-0.145152,0.068501,0.061407,-0.125339,-0.011550,0.192622,0.100692,0.083313,-0.116343,-0.095574,-0.033756,0.107032,-0.032733,0.058792,0.031273,0.029508,0.108696,0.005717,-0.085745,0.027041,0.121347,-0.025477,0.046770,0.102785,-0.043137,-0.011872,-0.104465,0.063949,-0.022573,0.024238,-0.033894,0.006367,-0.149390,-0.139566,0.046545,0.011909,-0.162047,-0.035307,-0.078132,-0.102832,0.033615,-0.000323,0.148503,-0.097294,-0.051720,0.027974,0.067890,-0.145089,-0.143845,0.135963,0.018574,0.118528,-0.061204,-0.107344,0.062380,0.055484,0.050026,0.120635,-0.044590,-0.147627,-0.060771,0.078124,0.026638,-0.045276,0.097071,-0.127339,0.173523,0.104831,-0.008889,-0.105424,0.145798,-0.141668,0.062864,0.140163,-0.096794,0.162442,-0.010600,0.072850,-0.146269,-0.003679,0.065304,0.011215,-0.029374,0.137321,0.062481,-0.105930,0.053974,-0.077635,-0.146467,0.150763,-0.085752,-0.036496,0.048644,0.093854,0.079245,-0.002975,0.102645,0.107209,-0.047482,-0.056409,0.098266,-0.051832,-0.028539,0.026379,-0.054468,0.043507,0.020745,0.062795,-0.059701,0.011447,-0.078829,0.137532,-0.096787,0.050154,0.124645,0.077246,0.084109,0.021569,0.194271,0.095291,0.027325,-0.089909,-0.114720,-0.102167,0.165036,0.117937,0.083787,0.121465,0.016059,-0.127501,-0.130157,-0.042466,-0.026257,0.014342,0.153066,0.046740,-0.141785,-0.028935,-0.025137,-0.033749,0.143891,0.052981,-0.069487,-0.156883,-0.030344,-0.104301,0.110382,-0.074839,0.041764,0.100950,0.121710,-0.131378,0.147460,-0.141260,-0.084800,0.126590,0.127378,0.209135,0.087811,-0.006161,0.147285,0.126193,0.118386,-0.035678,-0.073726,0.071603,-0.136588,-0.062655,-0.110404,0.000677,0.033975,-0.125477,-0.105620,0.125231,-0.129480,-0.005181,-0.141825,0.122469,0.000187,0.066725,0.055936,-0.004101,0.101793,0.078491,0.004623,-0.149915,0.062438,-0.032612,0.129518,-0.050758,0.148681,0.136863,-0.133247,0.072716,-0.044962,-0.066217,-0.031524,-0.025731,0.028050,0.054499,0.112980,-0.081351,0.052529,0.162954,-0.111081,0.095803,0.001703,-0.103247,0.056450,-0.138606,0.124584,-0.054675,0.007662,0.059130,-0.161235,-0.144024,0.074281,0.040161,-0.013364,0.047315,0.112396,-0.052430,0.047576,0.131990,-0.109447,0.128432,-0.079586,-0.013407,-0.087650,0.129616,-0.139553,-0.105566,-0.132955,0.074794,-0.118563,-0.096175,-0.002272,0.011233,-0.036170,-0.106250,0.080622,-0.039679,0.004247,-0.142146,0.147331,0.003753,-0.113151,0.061193,
-0.109678,0.025094,-0.042779,-0.145122,0.124590,0.138076,0.138896,0.138064,0.109346,-0.093321,-0.023853,-0.115727,-0.142388,-0.007290,-0.086850,-0.121710,-0.095817,-0.056709,-0.062172,0.052587,0.117057,0.059226,0.102422,-0.002971,0.152177,-0.045635,0.032504,0.151305,0.118159,0.075662,0.058954,-0.144333,-0.053389,-0.136854,-0.137572,-0.082007,0.153886,-0.151352,-0.098552,0.106091,-0.091427,0.031152,0.140393,-0.079868,-0.129730,-0.100118,-0.049756,-0.074354,-0.004073,0.042025,0.132206,-0.040803,-0.054080,0.079793,0.108151,-0.056179,-0.119420,-0.011650,-0.055705,0.153010,-0.090234,-0.151947,-0.146038,0.009063,-0.135239,-0.130487,0.082360,-0.136929,-0.129253,0.135445,0.123486,-0.068439,0.011283,0.109377,0.004457,0.032727,-0.144985,0.105482,0.111369,0.005498,-0.008369,0.089322,0.116482,0.092103,0.016699,0.071997,-0.119339,0.054877,-0.093742,-0.024970,0.048690,-0.030897,-0.024842,0.055645,0.132398,-0.009568,0.078236,0.057599,0.006003,0.102353,0.041539,-0.024371,-0.118903,-0.102471,-0.070714,0.038176,0.083601,-0.062711,-0.010077,0.040600,0.094426,0.133848,-0.023115,0.058274,0.074332,0.146956,-0.023560,0.104469,0.042588,0.035815,-0.071322,-0.062027,-0.148399,0.055505,0.147085,0.135055,-0.107143,0.071800,0.041193,0.051164,0.020766,-0.075099,-0.126210,0.054594,-0.025357,-0.045469,-0.060582,-0.095363,0.044880,0.081750,0.097973,-0.013651,0.062846,-0.077502,-0.107640,-0.019803,-0.084281,0.021618,-0.067654,0.110096,-0.096383,0.011530,-0.104473,-0.092512,-0.088164,-0.110955,-0.110281,-0.042489,0.113318,0.082302,-0.144577,-0.018832,-0.145450,-0.118974,-0.117424,-0.017203,-0.011808,-0.024673,0.039290,-0.119294,-0.096858,-0.016059,0.019780,0.118876,0.058594,0.063642,-0.054234,0.127045,-0.068657,0.030209,0.083926,-0.012993,-0.111177,0.133688,0.049051,-0.047050,-0.130349,0.092138,0.063335,0.133002,0.020977,0.073097,-0.039065,0.027028,0.108332,-0.002212,-0.144168,-0.058915,0.124166,0.048119,-0.025360,-0.125849,-0.121343,0.148120,0.147571,0.090302,0.058223,-0.061497,0.064780,0.141789,0.121788,-0.006550,-0.024302,-0.143034,-0.028439,-0.128638,-0.037369,-0.009291,0.113549,-0.127026,-0.028935,-0.019932,0.098847,0.084731,-0.146465,0.051612,-0.069196,-0.138137,0.144845,-0.100563,0.062413,-0.033989,-0.071934,0.094029,-0.040054,-0.080597,0.031824,-0.133232,0.013011,-0.057817,-0.146772,-0.020129,0.087326,-0.017965,-0.010695,-0.093350,0.006082,0.105125,0.050006,-0.034342,0.130873,-0.133211,0.098578,0.075643,0.105084,0.105079,
-0.025717,-0.116927,0.102910,-0.038988,-0.063880,0.034516,0.094027,0.013921,-0.057143,-0.118014,0.082806,-0.152834,-0.092584,-0.063333,-0.061104,-0.078386,0.067646,-0.127765,0.065602,-0.082364,-0.041748,-0.095943,-0.141926,0.156025,0.009676,0.175543,-0.151946,-0.042588,0.067590,0.107697,-0.085617,-0.127550,0.141688,-0.139443,0.006916,-0.083937,0.053741,-0.085105,0.081204,-0.117316,-0.014720,0.039772,-0.120570,0.040328,0.116485,-0.018488,0.122795,0.047045,0.017906,-0.020059,0.119171,0.126424,0.073893,0.117363,0.081674,-0.063637,0.105602,0.092513,0.034507,0.006916,0.031720,0.113379,0.062576,0.027742,0.120608,-0.088326,0.089116,0.055219,-0.005512,0.032799,0.121289,0.134191,-0.104720,0.137649,-0.013818,-0.141890,-0.038419,-0.030134,0.045130,0.138943,0.118051,-0.025337,0.081867,0.020483,-0.071739,0.024418,0.105087,-0.112608,-0.060079,-0.005658,0.062033,0.145063,-0.046469,-0.024307,0.017089,-0.037797,0.037880,-0.022614,-0.142708,-0.114483,-0.136297,0.131036,-0.139381,-0.075957,0.073983,0.053996,-0.055026,-0.090582,-0.156098,0.123488,-0.106456,0.156426,-0.045012,0.148348,0.004324,0.066697,-0.019327,-0.038060,0.096996,0.101644,0.130663,0.009456,0.077909,-0.087614,0.160239,-0.048422,0.021389,0.023392,0.070289,0.026276,0.064580,0.100204,-0.037395,0.077357,-0.145139,-0.082192,-0.033969,-0.067029,0.004386,-0.034188,-0.092559,0.058599,-0.067280,0.018654,0.001386,0.103736,-0.082060,-0.167403,-0.093405,-0.143795,0.077474,-0.133953,0.007930,0.008389,-0.033964,0.011727,0.120553,0.091659,-0.114691,0.035090,-0.026105,0.098486,-0.025639,0.119453,0.025767,-0.013852,-0.090909,0.143165,0.076429,0.044802,-0.065344,0.142040,-0.059980,0.061304,0.005727,0.117434,0.000896,0.082479,0.123252,0.067775,0.075139,0.058141,0.088872,-0.013638,-0.080904,-0.129113,0.131554,-0.137101,0.123239,-0.131993,0.062517,-0.064295,0.158938,-0.115443,-0.102824,0.000620,0.035833,-0.022879,0.007290,-0.050089,-0.151804,0.088205,-0.057689,-0.043463,-0.009157,0.104678,-0.085938,0.160239,0.056794,-0.120180,0.052400,-0.032778,0.100104,-0.007324,0.095116,-0.131118,0.020743,0.079963,-0.112893,-0.012614,0.118905,0.100072,0.108415,0.081796,0.142576,0.127050,-0.079527,0.010606,-0.054793,0.059668,0.138994,-0.050310,-0.030415,-0.073755,0.048595,0.135919,-0.130427,0.143070,0.109094,0.081774,-0.140239,0.008430,-0.148478,0.113050,-0.146368,0.130582,0.127967,0.020486,0.040426,-0.153928,-0.147717,-0.002050,0.117717,0.107195,-0.097079,0.106509,
0.082013,-0.004229,-0.011949,-0.139062,-0.097632,-0.073537,-0.012834,0.045855,0.028242,-0.118820,0.016384,0.070336,-0.148574,-0.046043,-0.082735,-0.122778,-0.140328,-0.046884,0.113018,-0.151960,-0.074595,0.115336,0.035575,0.090915,0.129115,0.047098,-0.073243,0.099737,-0.032564,-0.000005,0.043630,-0.102043,0.142542,-0.143134,-0.078802,-0.119171,-0.031280,0.056799,0.084626,0.121972,0.088253,-0.041459,-0.015704,0.101723,0.094347,0.076611,0.149086,0.081178,-0.133758,0.140382,0.141807,-0.094228,0.069611,-0.036321,-0.157997,0.018988,-0.148225,-0.067283,-0.041684,-0.021433,0.068738,-0.133323,0.019133,0.047333,0.009984,0.092553,0.153097,-0.006976,-0.011200,0.032516,-0.046129,-0.067202,0.117171,0.104102,-0.144587,0.070234,0.027636,0.134933,0.031761,0.039242,0.076450,-0.027238,0.117212,-0.002844,0.095135,0.115594,-0.131156,0.145365,-0.115269,-0.008906,-0.082721,0.102659,-0.003493,0.081293,0.035653,0.010407,0.026065,-0.055040,0.159477,-0.126615,0.195642,-0.056105,-0.054879,0.133211,-0.102321,-0.034155,0.012688,0.070593,-0.066004,-0.113889,-0.040136,-0.129927,-0.003855,-0.113225,0.016971,-0.067107,-0.130316,0.035979,-0.114813,-0.081480,-0.094242,-0.060836,-0.138177,0.029243,-0.120446,0.021010,-0.093921,0.059769,0.152932,-0.122006,0.072938,0.117473,-0.011338,-0.147350,0.072445,-0.001366,-0.034974,-0.056201,-0.062016,0.047768,-0.021875,0.046298,0.041581,0.148214,0.120638,-0.074820,-0.072658,0.173182,0.097052,-0.062311,-0.108866,0.145332,0.037753,-0.088494,-0.008564,0.047214,0.106406,0.046789,-0.037777,0.074101,0.052072,-0.122435,0.040864,-0.126356,-0.111240,-0.000620,0.027621,-0.002463,0.052404,0.134975,-0.115649,-0.123590,0.032455,0.130492,-0.145369,-0.012023,-0.116658,-0.082363,-0.010158,0.142690,0.026245,0.025458,0.135131,-0.083840,0.094505,-0.045956,0.145194,0.049107,0.130311,-0.082995,-0.040797,0.021686,-0.033633,0.148408,0.049032,-0.005321,-0.046267,-0.012385,0.151212,0.152502,-0.088046,-0.116714,-0.125454,0.101644,-0.136933,-0.110455,-0.065831,-0.100913,-0.022036,0.048864,-0.119721,0.131098,-0.067900,0.157814,-0.148926,-0.130515,-0.031058,0.118233,0.053681,-0.066628,-0.113989,-0.142411,0.147779,-0.011578,-0.137904,0.026559,0.173516,-0.061050,0.086725,0.135858,-0.050574,-0.130325,-0.110591,-0.024947,0.123405,-0.108818,0.010967,-0.090282,-0.058756,0.116471,0.112027,-0.046415,0.072287,-0.103724,-0.044705,0.126605,-0.075754,0.059662,0.058854,0.128186,0.135890,0.118379,0.133619,0.101191,-0.035758,0.129025,
-0.052167,-0.072933,-0.080446,-0.115845,-0.079721,0.013351,-0.061315,-0.055627,0.155070,-0.090748,-0.019967,0.018561,-0.051481,0.067631,-0.022921,-0.096491,-0.137246,-0.087186,-0.069281,-0.018135,-0.148295,0.016683,-0.105284,0.084314,0.011888,-0.138493,0.032034,-0.037695,0.124496,0.132527,-0.067967,-0.067642,-0.088021,0.019554,-0.020190,-0.028553,-0.125951,0.099201,0.077598,-0.124653,0.106853,-0.097990,0.036944,-0.103677,0.110436,-0.141108,-0.053608,0.144946,-0.077400,0.044417,-0.033354,-0.068533,-0.065619,0.010406,-0.127097,0.053777,0.037605,0.040415,-0.142884,0.010064,0.021639,-0.055641,0.086470,0.080107,0.128017,-0.081589,-0.082415,0.121567,0.135488,0.139938,-0.152601,0.085962,-0.107756,0.049395,-0.156718,-0.134990,0.056615,-0.036222,-0.135376,0.137970,-0.131412,-0.014134,-0.070954,-0.055149,0.155790,-0.055918,-0.151247,0.028606,0.141213,-0.138895,-0.112442,0.003944,-0.043222,0.123898,-0.041311,-0.102659,-0.105967,-0.009443,-0.103384,-0.125250,-0.000543,-0.106715,0.130836,0.040714,0.111155,0.153592,0.046500,0.009379,-0.054734,0.064860,-0.008085,-0.039571,-0.106466,0.058615,0.060083,-0.129612,-0.152377,0.062411,0.076795,0.132427,0.051779,0.112115,-0.010464,-0.122099,0.081458,0.084424,-0.031141,0.137020,-0.073122,-0.020314,-0.139479,0.074951,0.046395,0.138551,-0.042679,-0.008491,0.110698,-0.133079,0.145392,-0.103655,0.074842,-0.026114,0.010573,0.139324,-0.094345,-0.075659,-0.137301,-0.096342,0.128147,0.084105,-0.124032,0.053378,0.061754,0.023984,0.088869,-0.003904,-0.043619,-0.123196,-0.042400,0.033465,0.010082,-0.031246,-0.052086,-0.114386,-0.041629,0.095162,0.011795,-0.090129,0.072809,0.016000,-0.025249,-0.009200,0.140204,0.137856,-0.036654,-0.113842,-0.097119,-0.050754,-0.069204,-0.113542,-0.088797,-0.037339,0.089937,0.079880,0.148524,0.034936,-0.085052,-0.058327,0.063791,0.037812,0.115741,-0.071520,-0.161983,-0.085007,-0.049021,-0.047442,0.130246,0.149390,0.028014,0.061953,-0.001096,-0.142978,-0.108126,-0.003550,0.141091,0.002030,0.033693,-0.113552,0.133363,0.123425,-0.069358,-0.118963,-0.073611,-0.136206,0.149710,-0.089292,0.066267,-0.093068,0.003200,-0.019246,0.101948,-0.026673,0.041306,0.099431,0.042906,-0.132432,-0.081675,0.026710,-0.150920,0.102898,-0.051723,0.004848,0.127523,-0.016593,-0.146931,0.099276,-0.150196,0.044395,0.134968,0.156479,0.004096,-0.076376,-0.112195,0.084107,-0.046908,-0.143820,0.143948,-0.134380,-0.058448,0.000876,-0.006171,-0.136388,0.129574,-0.108908,0.132448,0.028581,
-0.094983,-0.112320,-0.085984,-0.090521,0.144974,0.010315,0.070324,0.103360,-0.148259,0.074262,0.051105,-0.138772,-0.040615,0.044627,-0.141934,0.116607,0.122928,-0.102581,0.049440,-0.075530,-0.077362,0.048634,-0.056205,0.007877,-0.101942,0.091599,0.033786,-0.125046,0.135248,0.007880,0.056842,-0.112817,0.048625,0.124028,-0.050321,0.040525,-0.019035,-0.133122,-0.009342,-0.014302,0.094182,-0.111226,-0.000136,-0.099555,0.086481,0.010951,-0.136083,0.056065,0.061464,0.066147,0.133615,0.137271,-0.038400,-0.075858,-0.008191,0.012705,-0.137531,-0.127407,0.040777,0.150876,0.033487,-0.055562,-0.115135,-0.071021,-0.084452,-0.012396,0.122592,0.049206,0.007489,-0.039936,-0.118122,-0.051468,0.001693,0.034750,0.002039,-0.065187,-0.107460,0.018889,0.143884,0.107161,-0.068138,0.124250,0.091163,0.046519,-0.104676,-0.070112,-0.094012,-0.089135,-0.044597,0.099704,-0.091477,0.141930,-0.109023,-0.053532,-0.082173,-0.040692,0.087174,-0.112783,-0.144659,-0.058413,0.000356,-0.109737,0.043175,-0.151132,0.077897,-0.107825,-0.063188,0.123546,0.064053,-0.072506,0.077543,0.149059,-0.101365,0.015741,0.042440,-0.052966,0.098521,0.101475,0.010927,-0.099169,0.048237,0.072545,-0.110381,0.092133,-0.134053,-0.039534,-0.101759,0.106270,0.000914,-0.093381,-0.105302,-0.152134,-0.050089,0.090944,-0.150205,-0.125316,0.136143,-0.060388,0.151337,0.047070,0.020188,0.075837,0.042958,0.071932,-0.061715,-0.067794,-0.134092,-0.116254,-0.119418,0.029873,-0.062438,0.081717,-0.050699,-0.019796,0.020796,-0.031580,0.093840,0.071990,-0.078569,-0.058637,0.131679,-0.030778,-0.057656,-0.071539,-0.092942,-0.054699,-0.043769,-0.109866,0.037854,-0.045497,0.090248,-0.095041,-0.122807,-0.019903,0.129950,-0.031513,0.065385,0.149027,0.005222,0.099013,0.025667,0.095837,0.027586,0.128239,-0.076963,-0.104888,-0.056587,-0.136343,0.120177,0.017774,-0.041899,0.098869,0.140249,0.053488,-0.125783,-0.105905,0.151784,-0.016492,-0.062759,0.036480,0.091009,-0.125655,0.094571,0.121319,0.007570,0.071398,-0.063380,-0.080154,0.067294,0.094935,-0.134281,-0.060271,0.037668,0.046428,-0.085282,0.113747,0.094588,0.010969,0.130425,0.061697,-0.124353,-0.064559,0.007387,-0.137377,0.141972,0.034537,-0.090097,0.140577,-0.135141,0.000065,0.023937,0.108929,0.027514,-0.034632,0.077071,-0.118109,-0.116347,-0.139251,-0.045146,0.104050,0.108595,-0.026378,-0.109548,-0.006805,-0.133132,-0.041772,-0.046088,0.114546,0.122285,-0.068866,0.023111,0.150950,0.019624,-0.122633,-0.139563,0.008468,
0.071697,-0.090512,0.010619,0.066164,0.072996,-0.104848,0.050444,-0.050128,-0.046428,-0.035802,-0.022798,0.023659,-0.027696,0.108195,-0.026470,-0.052359,-0.056419,0.013618,0.085096,-0.074711,0.120824,-0.138978,-0.102734,0.108526,-0.033101,0.066618,0.095204,0.142678,0.102478,0.105146,-0.008670,0.002051,-0.114331,0.134918,-0.055925,0.117776,-0.145381,0.155495,-0.096461,-0.006381,-0.067280,0.046169,-0.131806,0.069409,-0.043461,-0.013673,-0.146497,0.052508,-0.150018,0.100788,0.137678,0.123904,0.129691,-0.102799,0.084826,-0.061785,0.102347,0.028518,-0.113267,0.045695,-0.032603,0.046033,-0.087102,-0.001995,0.046395,0.012584,-0.036859,0.056553,0.000175,0.014074,-0.114297,0.107672,-0.098420,-0.106728,0.017003,0.041669,0.039586,0.020554,-0.064824,0.022719,-0.053376,-0.061355,0.024479,-0.087534,-0.047941,-0.064001,-0.004202,-0.083741,0.126267,0.059160,0.122568,-0.079290,-0.042479,-0.118799,0.106753,0.159261,0.051593,-0.120994,0.070989,-0.090613,0.013278,0.088015,0.149810,0.085414,0.144232,0.009291,-0.009638,0.022646,-0.135337,0.086513,-0.088778,-0.022086,-0.142574,0.097064,0.028183,-0.033512,-0.131026,-0.111730,0.040050,0.137144,0.115983,0.008692,-0.097793,-0.098871,0.053794,0.138396,-0.111459,-0.038771,-0.113051,0.103911,-0.012897,0.061564,0.027176,-0.022205,0.026719,0.036179,0.133776,0.150492,-0.119702,-0.150430,0.073278,-0.053078,-0.029869,0.064791,-0.124580,-0.129355,-0.099222,-0.115686,-0.092128,0.096472,-0.113094,-0.133805,-0.045768,-0.073879,-0.064629,0.188023,-0.103052,-0.023324,-0.060166,-0.088980,-0.092454,0.087430,0.112446,0.086599,-0.092375,0.007031,-0.054107,-0.117311,-0.037881,-0.028810,-0.090499,-0.111347,0.066167,0.025085,0.127843,0.097243,0.047492,-0.135462,0.147170,0.112354,0.122714,-0.135190,0.126109,-0.074511,-0.040215,-0.118666,-0.100125,0.001239,-0.000638,0.022392,0.082963,0.046018,-0.048027,0.033566,0.010834,-0.001226,-0.154402,0.108773,0.052042,-0.017395,-0.088676,0.090848,0.016330,0.132105,-0.057210,-0.024225,0.075366,-0.145499,0.022389,0.042859,0.122437,-0.002836,0.091855,0.110979,0.077299,-0.131581,0.136239,0.151329,0.032053,-0.034913,0.013585,-0.050989,-0.147706,0.113848,0.161224,0.014061,-0.015872,0.152988,-0.026894,-0.129007,-0.065572,0.026710,0.115446,0.096995,0.010790,-0.082036,-0.067358,-0.051587,-0.096660,0.097081,-0.152741,-0.100863,-0.065549,0.089824,0.142448,-0.138522,0.117505,0.113073,-0.128048,0.042776,-0.066239,0.032184,0.097733,-0.032020,0.010245,0.074127,
0.140365,0.121955,0.054404,-0.044107,0.145317,0.164731,0.135810,0.118907,0.105088,-0.014055,-0.124849,-0.110054,0.063429,-0.026579,0.135295,0.064178,0.016668,-0.081115,0.005571,0.004595,-0.071491,-0.033980,-0.027460,-0.044504,0.121563,0.054510,0.124587,0.060300,-0.135829,-0.033169,-0.021082,-0.143723,-0.064639,-0.118322,-0.044313,-0.074609,-0.119344,-0.058221,-0.124303,0.135378,0.066070,-0.089046,-0.133261,-0.029937,0.021563,0.148802,-0.122666,-0.117526,-0.085358,0.035327,0.028150,0.000488,0.163295,0.154569,0.097011,0.121928,0.047859,0.066569,0.024833,0.065503,-0.120164,0.158882,0.072021,-0.034143,-0.075060,-0.126403,0.036275,-0.089723,-0.043912,0.070588,-0.103551,-0.136905,0.127145,-0.092874,-0.003983,-0.010897,-0.098414,0.027608,0.017610,-0.017103,-0.088711,-0.106167,0.123729,-0.094235,-0.105949,0.072487,-0.134098,0.092134,-0.026077,0.036252,0.002685,0.002936,0.032606,-0.078653,0.125134,0.067177,-0.052832,0.010144,0.129143,0.055828,-0.071375,-0.135769,0.074680,-0.101006,-0.077494,-0.080604,0.045728,-0.023189,0.093691,-0.095920,0.098553,-0.151505,-0.046442,0.076768,-0.083426,-0.004223,-0.026826,-0.072673,-0.069889,0.097884,0.109227,0.085696,-0.051404,-0.005209,-0.144781,-0.084815,-0.095620,-0.046186,0.085225,-0.124377,-0.144178,-0.150267,-0.106252,0.084549,-0.099891,-0.027927,0.155139,0.095108,0.092813,0.091069,0.151515,0.037530,0.093338,-0.047327,-0.040042,-0.151348,0.096870,0.082658,-0.066397,-0.126089,0.023333,-0.105761,0.117310,0.122243,0.045482,0.136152,-0.118044,0.097329,-0.083396,0.112603,0.128590,-0.073733,0.113737,-0.134842,-0.142660,-0.134712,-0.018519,-0.146489,0.106355,-0.071392,0.107706,0.104566,0.111697,0.038367,-0.099669,-0.088659,0.040237,0.149914,0.139898,0.122255,-0.128297,0.008872,-0.140837,0.136927,-0.012153,0.056441,0.101069,0.013586,0.003232,-0.137042,-0.021038,-0.017825,-0.055987,-0.068325,0.003457,-0.043977,-0.051153,0.134120,-0.040706,-0.093479,-0.098667,-0.095159,-0.146877,-0.138363,0.097427,-0.094695,-0.074833,-0.012779,-0.104501,-0.086506,-0.047794,-0.078914,0.076121,-0.029630,-0.086079,-0.095005,-0.129340,0.152210,0.068205,0.030080,-0.139107,-0.111330,-0.150534,-0.045361,-0.025431,0.007234,0.062923,0.078623,-0.012685,-0.134976,0.128630,0.037621,-0.074087,0.132824,0.052312,-0.137005,-0.110678,0.139751,0.002795,-0.048135,-0.107210,0.108284,0.014564,0.122388,-0.079593,0.070446,-0.132058,-0.055339,0.078189,0.087962,0.124258,0.082009,0.132183,0.129942,-0.117647,-0.044706,
-0.028492,0.107830,-0.122123,0.091710,0.109133,-0.145552,0.008002,-0.118918,0.181676,-0.096877,-0.099808,-0.073997,-0.130960,0.063963,-0.030860,-0.081907,0.008882,0.146913,-0.128517,0.112249,0.068551,-0.063755,-0.136684,-0.019946,-0.146066,0.156748,-0.107368,0.166889,0.119577,-0.051881,-0.064277,-0.026144,-0.127155,-0.041745,-0.094312,0.122928,-0.008288,0.072830,-0.136968,-0.036911,0.113481,-0.088779,-0.019695,0.147386,0.172149,0.109444,-0.083669,-0.014590,0.093047,-0.031841,-0.059819,-0.024554,0.026812,-0.094478,0.105813,0.018168,-0.093124,0.160771,0.028949,-0.088918,-0.075382,0.103674,-0.027026,-0.058357,0.029612,0.030753,-0.033919,0.053156,-0.067389,-0.049552,0.160555,-0.133046,0.010450,-0.003197,-0.130204,-0.016890,-0.057964,-0.077427,0.119134,-0.111092,0.020681,-0.155700,0.025556,-0.114384,-0.078717,-0.015890,0.044703,0.031417,-0.047993,-0.112617,0.007131,0.044206,0.127499,0.143473,0.135264,-0.125169,0.005264,-0.090326,0.046402,0.081435,0.069717,0.046899,0.132790,-0.096378,-0.116784,0.179143,0.042424,-0.014439,-0.075663,-0.020908,0.018490,0.107624,-0.023556,-0.121140,0.185857,0.069978,-0.002025,0.020101,-0.124028,0.123440,0.067689,0.030760,-0.007147,0.046176,0.017109,-0.007672,0.088538,-0.147116,0.082408,-0.036509,0.107881,-0.052454,-0.122073,0.079569,-0.021853,-0.094814,0.108184,-0.142752,0.057280,-0.151333,-0.008600,-0.100555,0.095610,0.158800,-0.028230,0.074970,0.050612,0.145598,-0.071661,0.054827,0.053350,0.138320,-0.077137,-0.082969,0.034407,0.096335,0.080891,-0.073717,0.099626,-0.018664,0.049279,0.059660,0.092000,0.077543,-0.015370,-0.075719,0.134340,-0.077192,-0.074136,0.049063,-0.092436,0.063508,0.117160,-0.147834,0.037629,-0.098324,0.073052,-0.084128,-0.142143,-0.148443,0.127013,0.070760,0.169622,-0.059360,0.163231,0.014672,0.154779,0.070680,0.093497,0.085273,-0.121342,0.006938,-0.004143,0.112998,-0.111966,0.141497,-0.127121,-0.115304,-0.109927,-0.062889,0.070989,-0.048263,-0.136075,0.054823,-0.029014,0.072861,0.109293,-0.127147,0.140701,0.123858,-0.119463,0.086525,0.015687,-0.128387,0.133451,0.017289,0.044382,0.096676,-0.088436,-0.000344,0.045003,-0.050823,0.180575,-0.129237,-0.104231,-0.109817,0.146049,-0.069069,-0.060986,-0.123176,0.055109,-0.132461,0.006968,0.069252,0.072564,0.102800,-0.035444,0.029311,0.161733,-0.071739,-0.026599,0.150155,-0.157584,0.160155,-0.126288,0.134204,0.018310,0.066160,0.065882,0.051440,-0.106647,-0.058015,-0.135161,-0.115461,-0.046783,-0.067004,
-0.095393,-0.048875,0.043800,0.007921,-0.018296,-0.078502,0.014581,0.118860,0.132381,-0.058869,0.052812,-0.076860,0.121084,0.014493,0.014638,-0.068641,0.014499,0.017872,-0.057810,0.041067,-0.036815,0.094985,-0.042207,-0.115112,0.024250,-0.002780,-0.019122,0.043054,0.025198,0.090618,0.140021,0.088379,-0.112805,0.026406,-0.072947,0.025390,0.064850,0.116516,-0.019910,0.041984,-0.105090,-0.106402,0.132043,-0.141185,0.046087,-0.007498,-0.054128,-0.095141,-0.146998,0.049221,0.101468,-0.012023,-0.021229,-0.096231,0.021230,-0.143771,0.064203,-0.141735,0.074783,-0.060069,0.115706,0.037872,-0.133147,0.150551,-0.012817,-0.053359,0.027294,0.128486,-0.097470,0.143455,-0.002850,-0.053505,-0.132315,-0.025441,-0.038990,0.069789,0.126326,0.053677,0.133087,0.127097,-0.059210,0.093233,-0.045481,0.093815,0.144653,0.137911,0.087588,0.056294,0.155961,-0.009478,0.145737,0.094604,-0.125428,-0.143956,0.083003,-0.085331,-0.041664,-0.061840,-0.130708,0.017933,-0.069197,0.030438,0.111169,-0.052035,0.150820,-0.103875,-0.138846,0.115786,0.114289,0.150212,0.089321,-0.100237,0.083668,-0.103335,0.126268,0.076263,-0.113315,0.059259,-0.017384,-0.124939,-0.094462,-0.027327,0.128322,-0.074689,-0.026183,0.053278,-0.002769,0.097812,0.160465,0.017147,-0.050456,-0.086949,-0.114356,-0.097901,0.029588,-0.121098,-0.043274,0.037830,0.147841,-0.083102,0.031024,0.087403,-0.025568,-0.044191,0.145728,-0.058063,-0.123755,-0.138616,-0.138220,0.013928,-0.096661,-0.088159,0.142703,-0.127266,-0.027458,-0.035388,0.082248,0.136809,-0.089767,0.069471,-0.009163,0.019563,0.142059,0.027759,0.068924,0.008084,0.059345,-0.123613,-0.122234,0.061858,-0.056622,0.059727,-0.005374,0.058662,-0.136451,-0.028156,-0.150558,-0.097214,-0.013408,-0.150385,0.065531,0.042782,-0.100836,0.035833,0.060575,0.035070,-0.133161,0.003382,0.008936,-0.073910,-0.094657,0.157398,0.093787,-0.094865,0.037087,0.009587,0.045671,-0.068799,0.038739,0.078087,0.157919,0.136025,-0.013386,-0.017701,0.043472,0.005267,0.107086,0.046683,0.040262,-0.052102,0.049458,-0.038106,0.141666,0.111874,-0.153007,0.058557,-0.013286,-0.131304,-0.100979,0.147643,-0.050085,-0.036815,0.151928,-0.113108,0.012970,0.018290,0.058085,-0.080888,0.110690,-0.066230,0.138797,0.107736,-0.080819,-0.025879,-0.060879,0.109490,0.131554,-0.099657,0.021153,0.020260,-0.008090,-0.091579,0.138169,-0.022530,-0.145273,0.146528,-0.116437,-0.004519,-0.137793,-0.051254,-0.008914,-0.044326,0.052005,-0.018297,0.016043,-0.085802,
-0.150680,-0.103920,-0.018750,0.105427,-0.015893,-0.036806,0.097645,0.042255,0.107927,-0.119112,0.001000,0.105333,-0.097739,-0.122700,-0.052147,0.064859,-0.074503,-0.063561,-0.126396,-0.067479,-0.068821,-0.077779,0.076075,-0.047598,0.011106,-0.090410,0.044944,-0.076185,0.048765,-0.100933,-0.026392,0.067826,-0.056533,0.081135,0.030540,0.066502,-0.084565,-0.016741,-0.031475,-0.135945,-0.026477,0.111359,0.098368,0.032534,0.143135,-0.112413,-0.069119,-0.083540,-0.023206,-0.040386,0.006472,0.057977,0.054189,-0.099057,0.149837,-0.107448,-0.045757,0.046488,-0.070423,-0.143472,0.064522,0.071171,0.071522,-0.158067,0.045317,-0.051654,0.090715,0.082140,0.049794,-0.097696,0.110259,-0.130854,-0.136225,0.044905,0.066069,-0.132742,0.081304,0.150198,-0.066687,-0.091247,-0.041394,0.057542,0.119753,0.137757,0.111401,0.102580,-0.117243,-0.058604,-0.023787,-0.020611,-0.069751,-0.109271,-0.107328,-0.153271,-0.077648,0.064647,-0.050553,0.128449,-0.007056,-0.154654,-0.107205,-0.048984,-0.113898,-0.064850,0.149204,0.136792,-0.053801,0.080973,0.099284,0.020263,0.140766,-0.099922,-0.071020,0.114319,-0.074466,-0.115066,0.035410,-0.059945,-0.037911,-0.142086,0.070435,0.039894,-0.113587,0.121253,0.046434,-0.043514,0.040410,0.146313,-0.055025,-0.131967,0.152128,-0.002301,-0.031573,-0.118450,0.063773,-0.031109,0.147708,-0.140953,-0.106347,0.075991,0.019694,-0.124220,0.120880,0.123123,0.135798,-0.109725,0.163816,0.025546,-0.034750,-0.046333,0.015608,-0.116361,0.156815,0.074414,-0.131315,0.074214,-0.113422,0.036248,0.023662,-0.026584,0.058380,0.024561,0.111441,-0.127347,0.064601,0.070202,-0.004660,0.044000,0.040829,0.054393,-0.023896,-0.086049,0.061592,-0.037235,-0.128314,0.037567,-0.008403,-0.141899,-0.102270,0.122089,-0.017409,0.069212,-0.133409,-0.012098,0.009698,-0.120196,-0.146356,0.030932,0.070013,0.038867,0.152387,-0.015134,-0.090664,0.108968,0.003495,0.126072,-0.003734,0.161823,0.029091,-0.120493,0.000583,0.146154,-0.048781,-0.055819,-0.047898,-0.016808,0.127217,0.087550,0.004874,-0.136247,0.061343,0.131376,0.088170,0.082791,-0.050132,-0.071445,0.125211,-0.062685,0.100561,0.037551,0.135905,0.096869,-0.129528,-0.108818,0.066220,0.014129,-0.137973,-0.110847,0.005223,0.043618,-0.055725,-0.124606,0.065259,0.038902,-0.031234,0.139877,-0.139173,-0.046330,0.073103,0.016801,-0.035100,-0.018540,-0.035363,-0.095493,-0.091181,0.067778,-0.021133,-0.130647,-0.136418,-0.064491,0.050348,0.134266,-0.118730,0.068144,-0.128160,0.086350,
-0.083810,-0.106987,0.158703,0.072715,0.084707,-0.087044,0.092803,-0.017751,0.106897,-0.097090,-0.053234,0.146034,-0.003205,-0.152257,-0.021563,0.122969,0.031602,0.128393,-0.149620,0.060484,0.035436,0.012728,0.079748,0.037416,0.077332,-0.017417,0.024652,0.131863,-0.093895,0.051872,0.076509,-0.033865,0.099683,0.023736,-0.103243,0.050018,0.149663,0.135891,-0.139059,0.084849,-0.084363,-0.029568,0.049008,0.092510,0.007965,-0.109961,0.065679,-0.150062,-0.151536,0.161148,0.119825,-0.014903,-0.058750,0.042600,-0.091893,-0.093375,-0.110975,0.088823,-0.112371,-0.035017,-0.001329,0.122431,0.082990,-0.073157,-0.000390,0.131470,0.179690,0.024205,0.129860,0.153345,-0.102043,-0.093040,-0.044159,0.130399,0.132712,0.129813,-0.119276,0.035250,-0.150318,-0.124229,-0.019468,0.120843,0.051881,0.099909,0.012605,0.128088,-0.143136,0.109012,0.066436,-0.091056,-0.132063,-0.092782,-0.128657,0.088909,0.001039,0.031369,0.077735,-0.033661,-0.119015,0.082690,-0.011958,-0.063907,0.113298,0.090834,-0.055858,0.011366,0.046876,-0.043302,-0.053255,0.063809,-0.018729,0.057926,0.011818,-0.146893,0.012764,-0.125693,-0.128494,0.040795,0.086169,0.092750,0.106952,0.098952,-0.163768,0.140154,0.042524,-0.027973,-0.023162,-0.030144,0.127052,0.045847,-0.129756,-0.071449,0.146412,0.119820,-0.150005,-0.081528,0.036138,0.060705,0.036417,0.148827,-0.029606,-0.149343,0.055214,0.141122,-0.081686,-0.041905,-0.128095,-0.056632,0.154492,0.098078,-0.116933,0.130424,0.045461,-0.124979,0.042037,-0.103456,0.020532,-0.053008,0.051749,-0.004564,0.131669,0.075090,0.085545,0.134915,0.041340,0.062620,-0.108326,-0.071839,0.014510,0.090501,-0.083906,0.143899,0.128270,-0.154589,0.136138,-0.115096,-0.043372,0.157821,-0.020688,-0.048361,0.106351,-0.001646,-0.082409,0.005045,0.017826,0.124382,0.108181,-0.088601,-0.094993,-0.032736,0.067221,-0.139766,-0.120529,0.001051,-0.128823,0.095186,-0.064541,-0.084999,-0.174395,0.101385,-0.144299,-0.081466,0.081996,0.138663,-0.063958,0.070299,-0.116461,0.020547,0.063242,-0.008962,0.148943,0.013559,-0.155876,-0.080321,0.126306,0.024152,-0.130734,0.062522,0.084063,-0.081154,-0.135912,-0.011236,-0.034711,-0.075396,0.135529,-0.019921,-0.123885,-0.099127,0.037372,-0.122854,0.127198,0.070272,-0.043958,0.073576,0.069286,0.049966,-0.005783,0.090571,-0.045963,-0.127368,-0.052330,-0.065038,0.052844,-0.053977,-0.018580,0.085775,0.137372,0.001043,-0.044975,0.080899,0.070875,0.037850,-0.110591,-0.121675,0.122088,-0.137746,
0.019174,0.121077,-0.075470,-0.108063,0.146042,-0.092640,0.117641,-0.054219,0.156649,0.033697,-0.149825,0.021686,-0.024288,-0.052680,0.055611,0.094819,0.057675,-0.029423,-0.129656,-0.139844,-0.085024,0.148137,0.004896,0.020933,0.033937,-0.055001,-0.103217,0.125000,-0.025748,0.161197,0.103142,0.140331,0.123701,-0.137143,-0.110616,0.118331,-0.048673,-0.174261,-0.080064,-0.069959,0.036492,-0.117765,0.075235,-0.111777,0.014934,-0.033920,0.130988,-0.113100,0.092957,0.153379,-0.082474,0.139548,0.114439,0.060903,0.011343,0.013747,0.147603,0.079416,-0.053010,-0.017859,0.032592,-0.085983,-0.051124,0.020436,-0.000238,-0.006778,-0.008984,0.043986,0.002320,0.057162,0.141818,-0.086423,0.122318,0.046824,-0.059089,-0.017141,-0.147336,-0.123734,0.023238,0.057583,-0.158439,0.077800,0.089824,0.106814,-0.028933,-0.100102,-0.012631,0.018177,0.152213,0.106330,0.095564,0.046665,-0.124840,-0.086607,-0.084728,-0.008913,0.039632,0.057052,-0.123612,-0.114670,-0.061199,0.148244,-0.058015,-0.084154,0.037860,0.025010,0.061017,0.047301,0.052521,-0.072881,-0.004902,0.054812,0.155387,-0.083382,0.045176,-0.024746,0.006622,-0.137134,0.096311,0.018476,0.165594,0.035886,-0.102557,0.149971,0.089243,-0.025790,-0.047182,-0.028549,-0.117872,-0.002192,0.007080,-0.028343,0.000854,0.111592,0.048982,-0.118117,0.003391,-0.067264,0.075102,-0.109384,0.025669,-0.078144,0.100549,0.006611,-0.023214,-0.032093,0.151226,0.179598,-0.025595,0.091760,-0.001830,-0.064186,-0.044184,0.047799,-0.047101,-0.091339,-0.155699,0.071236,0.022313,-0.124912,-0.104698,-0.112622,-0.006166,0.041440,0.147424,-0.098537,0.073561,-0.007155,-0.021357,-0.003156,0.038127,-0.151800,0.068107,-0.026074,0.020208,-0.111870,0.098161,0.020981,-0.100110,-0.072765,-0.047868,0.040877,0.051414,0.117523,-0.056810,0.110062,0.124564,-0.043385,0.011985,-0.002497,-0.011630,0.051535,0.043514,0.117086,-0.038091,0.030932,0.155071,-0.130969,-0.141175,-0.037042,-0.001290,0.023347,-0.002744,-0.096346,-0.162029,-0.132035,-0.063263,0.104869,0.039908,-0.041672,-0.125034,0.142030,-0.133566,0.056331,0.023824,-0.054882,0.022096,0.006147,0.049722,-0.135481,-0.160886,-0.122505,0.089195,0.027978,0.172543,-0.126688,-0.092628,0.156310,-0.122528,-0.098865,-0.032221,0.026256,0.104108,0.104719,0.067672,0.091817,0.101757,0.144004,0.033038,-0.059671,-0.027432,0.051136,-0.077444,-0.001222,-0.048082,0.137521,0.097914,0.109393,-0.043792,0.002696,0.131079,-0.040290,0.019295,0.049043,0.133190,0.001523,
0.076135,-0.107416,-0.025887,0.099618,-0.057034,0.077359,-0.033717,-0.136939,0.064770,-0.100176,0.118011,0.026324,-0.101513,0.018261,0.122922,0.010451,-0.119409,-0.133879,-0.159336,-0.002020,0.164747,0.110386,-0.038106,-0.033410,-0.035023,-0.071014,0.065692,0.128730,0.143172,0.059473,-0.062658,0.075704,0.106538,0.098357,0.018574,-0.114316,0.040035,-0.157130,-0.081724,-0.051484,-0.129480,-0.140711,0.103675,-0.056369,0.018112,0.054960,0.118012,0.059081,0.084372,0.115451,-0.108361,0.081441,0.071106,0.025398,-0.111682,-0.156109,0.109751,0.078046,0.121504,0.101166,-0.017001,-0.103577,-0.000512,-0.040979,0.160280,-0.125233,-0.013103,0.015899,-0.133232,0.067420,0.145267,-0.101762,0.105539,0.098275,0.013900,-0.043260,-0.014656,-0.027962,-0.132491,-0.090257,-0.065458,-0.087851,-0.139801,-0.152347,0.097568,-0.131125,-0.144383,0.075489,0.132195,0.114822,-0.029484,-0.020027,-0.137621,0.142830,0.074501,-0.150051,-0.149790,-0.069951,0.049943,-0.123432,0.152528,0.034736,-0.053742,0.093972,-0.025283,0.149561,-0.113252,0.126968,-0.056566,-0.096815,-0.099481,0.046607,-0.020530,-0.103536,0.052302,-0.097475,-0.066940,0.049646,0.095964,-0.076958,-0.004695,-0.084528,0.064364,0.027550,-0.102359,-0.010844,0.052950,-0.118786,0.052031,-0.069368,-0.079986,0.044591,0.156746,0.035323,-0.027413,-0.018028,0.021334,0.011212,-0.073213,0.103671,0.086025,-0.022852,0.015033,-0.088180,0.042003,-0.132122,-0.022181,0.169255,0.071576,-0.093501,-0.118635,-0.089517,-0.006796,0.085984,0.109563,0.020966,-0.122822,-0.015601,0.060663,0.111714,0.068778,0.137102,-0.006714,0.050286,0.015547,0.130383,-0.149898,-0.121938,-0.018245,-0.055136,0.141810,-0.103237,0.063194,-0.040950,-0.053556,-0.046323,-0.007138,0.050094,-0.063620,-0.082688,0.117823,-0.029114,0.013885,-0.057730,-0.092015,-0.051740,0.097342,-0.036471,0.083990,0.009363,-0.074840,-0.000697,-0.029212,0.053079,-0.127457,-0.141533,0.032125,-0.117565,-0.132831,-0.139911,-0.003578,0.156905,-0.081688,-0.125294,-0.042941,0.018115,0.000722,0.121108,-0.077094,0.080011,-0.130556,-0.128498,-0.102291,0.014519,-0.027091,-0.056904,0.116399,-0.074567,0.070362,0.054869,0.084963,0.147404,-0.100938,-0.088622,0.044886,-0.042126,-0.089948,-0.057057,-0.012252,-0.067456,-0.019745,0.123964,-0.055129,0.026804,-0.146949,0.053649,-0.129358,0.006462,0.002105,-0.013370,-0.067760,0.020837,0.028345,-0.017798,-0.105471,0.138569,0.075728,-0.136436,-0.082067,-0.022258,0.074421,0.113299,-0.018093,0.114004,-0.137878,-0.097463,
-0.081252,-0.037388,0.003500,0.071475,0.044667,0.113846,0.037269,0.141782,0.015364,0.052452,0.028881,0.065611,-0.093922,-0.114798,-0.132105,-0.006715,0.069441,0.038497,0.125631,0.110196,0.029913,0.065910,0.126289,0.086249,-0.091716,0.045201,0.066125,0.072587,0.020507,0.119917,0.111769,0.099406,-0.077457,-0.044460,0.006061,0.120696,-0.062091,-0.110715,0.100964,0.075122,0.093338,-0.027677,-0.030484,0.155923,0.028472,-0.013930,0.001632,-0.084881,-0.134413,-0.004043,-0.116685,0.030368,-0.125064,0.149167,-0.039767,-0.060142,0.044721,-0.121225,0.158221,-0.079201,0.145086,0.119505,-0.150491,-0.088040,0.000467,0.008602,-0.102320,0.013235,0.048911,0.135867,-0.071753,-0.015136,-0.046732,0.048174,-0.014784,0.112344,-0.120931,0.130565,-0.124238,-0.100823,-0.054164,-0.105028,0.087938,-0.027032,-0.109596,-0.099059,0.064798,0.124296,-0.074606,0.064740,-0.150741,-0.080301,0.025234,-0.144786,-0.013432,0.098475,0.014260,0.016471,-0.056602,-0.090515,0.012188,0.026266,0.047697,0.114190,-0.078471,-0.124408,0.064855,-0.043826,-0.137715,0.087007,0.006511,-0.049585,0.134319,-0.061653,0.106669,-0.118006,-0.009673,-0.004509,0.114229,0.073498,-0.095890,0.115690,0.143206,0.089764,0.123171,-0.028710,0.021103,-0.023411,0.150346,0.138585,0.044874,-0.012045,0.015724,-0.056952,-0.061862,0.094019,-0.008188,0.151679,-0.104162,-0.007188,0.087112,0.045193,0.099733,0.075837,0.157855,0.032825,0.102579,0.003819,-0.121344,0.055718,-0.094061,-0.062751,0.018915,-0.104884,-0.140621,-0.011512,0.020484,0.057246,0.118077,0.015075,0.034581,0.015188,-0.143224,-0.099489,0.107446,-0.068206,0.138915,-0.061165,-0.061112,-0.105747,0.082713,-0.129696,0.104450,0.023073,0.089471,0.088049,-0.093346,0.042460,-0.073726,-0.066246,-0.060955,-0.021465,0.032350,0.118190,0.043683,0.036055,-0.046282,-0.093943,-0.068218,-0.104923,0.063151,0.116565,0.056153,0.067717,-0.129798,0.025753,-0.145985,-0.153166,0.095311,-0.052308,-0.111898,0.019527,-0.026933,0.138454,-0.098370,-0.089438,0.077148,-0.049909,0.086851,0.142646,0.043881,-0.131443,-0.026549,-0.082681,0.111026,0.157791,0.099460,-0.114387,-0.104021,-0.117646,-0.072958,0.114976,0.173109,0.145263,0.028533,-0.133756,0.010865,0.038670,-0.130416,-0.050450,0.128397,-0.083657,0.137844,-0.054142,-0.101843,-0.125618,0.003793,0.132535,0.000510,-0.076640,0.119427,-0.127954,-0.051961,-0.056768,-0.067849,-0.082196,-0.059684,-0.121573,-0.057231,-0.009569,-0.090004,0.031335,-0.051206,-0.092618,0.024712,0.127994,
-0.092766,-0.121132,0.046324,-0.062043,-0.028113,0.005116,0.011435,-0.057698,0.119131,0.090867,-0.023715,-0.057017,0.030940,0.143643,0.025156,0.004776,0.141568,0.135373,0.097075,-0.068571,-0.162650,-0.120649,-0.049642,-0.036838,0.037345,-0.008465,-0.140778,0.144356,0.064755,0.041469,0.105908,0.175903,0.058959,-0.017414,-0.072374,-0.120227,0.090978,0.169550,-0.008460,0.019705,0.005461,0.093805,0.124153,-0.112035,0.071399,-0.022490,0.014882,0.058227,-0.051660,-0.022991,0.117454,-0.015307,0.018542,-0.109826,0.132282,-0.115173,0.042603,0.158680,0.170247,-0.024122,0.028287,0.098067,-0.049586,-0.095937,0.000040,0.033635,-0.037178,0.157540,-0.017380,0.088958,-0.003182,0.120572,0.046766,-0.058921,-0.073625,-0.033560,0.078715,0.065501,-0.143336,-0.128534,-0.097015,0.120993,0.012102,0.074413,-0.140405,-0.037025,0.090785,0.039370,-0.054913,0.083254,-0.133738,0.091790,0.022578,-0.032728,0.166563,0.068811,0.151896,-0.063487,0.022582,-0.029303,-0.129126,-0.133445,-0.028925,0.074999,-0.013730,0.019148,-0.094081,-0.109174,-0.097792,-0.084217,-0.091394,-0.072313,-0.117622,0.082796,0.189099,-0.123879,-0.125697,0.082738,0.092361,-0.064290,0.009795,0.112244,-0.130342,-0.120304,-0.097315,-0.099007,0.127420,-0.074548,0.025237,-0.024440,0.048114,0.033411,0.020117,-0.148981,-0.006910,0.143566,-0.014938,0.050187,-0.147813,0.025792,0.099077,-0.094089,0.133932,0.140092,0.156744,0.120969,-0.139043,0.163006,0.047311,0.120046,-0.041665,-0.096720,0.079457,0.002182,-0.055007,0.194203,0.069328,-0.108295,-0.097045,-0.117558,0.019703,0.113736,0.077523,-0.144147,0.116395,-0.045310,0.143591,-0.054906,0.088209,0.174706,0.143732,0.038770,-0.096295,0.075325,0.024432,-0.128279,0.042226,0.047170,-0.141756,-0.070567,0.025327,-0.022097,-0.026266,-0.077313,0.134566,0.086242,-0.111235,0.038663,0.128666,-0.022857,0.061589,0.041510,-0.088376,-0.014541,0.037669,-0.115061,0.017547,-0.020198,0.007982,-0.039654,-0.042863,-0.026430,-0.144575,0.039468,-0.106365,0.044533,0.056785,0.084175,-0.091568,0.101569,-0.125998,0.096566,-0.104528,0.015342,0.165155,-0.124011,-0.053862,-0.109169,0.057021,-0.076553,0.020424,-0.036019,0.064569,0.107022,0.096811,-0.060228,0.135742,-0.023220,0.090519,-0.005646,0.094877,-0.092562,0.165887,0.099362,0.109911,-0.147276,-0.028411,0.012910,0.125043,0.006572,-0.068516,0.147438,-0.051073,-0.011564,-0.008052,-0.093252,0.021459,0.088472,0.017646,-0.049465,-0.143204,-0.161705,0.046900,0.082911,0.126517,-0.012270,
-0.140640,0.101848,0.128722,0.099812,-0.065069,0.077478,-0.137670,-0.079608,0.000648,0.097383,-0.095019,0.130728,-0.060449,-0.136281,-0.010167,0.031033,0.163289,0.107662,-0.128601,-0.014467,-0.132536,0.048131,-0.083767,0.023090,0.108827,-0.070270,0.013203,0.014460,-0.140008,-0.031507,-0.136501,-0.125430,-0.087901,0.109624,0.122828,0.015996,0.045219,0.129634,0.063024,-0.139114,0.085620,0.150473,0.121628,-0.125512,0.168660,-0.034963,0.051659,0.143655,-0.094978,0.125521,-0.011076,-0.094854,-0.025004,0.044651,0.090002,-0.036752,0.126202,-0.039079,0.137521,0.159565,0.092529,0.148220,-0.129974,0.130537,0.122524,0.138502,0.020035,0.004644,0.115942,-0.094244,-0.023520,0.037443,-0.125916,-0.050175,0.066510,-0.125678,0.080269,-0.043438,-0.141217,0.155851,-0.106471,-0.003394,-0.095222,0.024866,-0.101716,-0.129342,0.112645,-0.109965,-0.045961,0.081912,-0.131918,-0.118492,0.058991,-0.122637,-0.128712,0.012826,-0.130525,0.003332,0.131929,0.146956,0.082494,-0.048202,0.021509,0.099439,0.067654,-0.119825,0.135283,-0.022899,0.011053,0.143892,-0.049928,0.037407,-0.022428,0.008825,-0.080075,0.044245,0.020624,-0.130592,0.047456,0.125326,0.104298,0.067985,-0.159106,0.018394,0.109512,-0.140124,-0.162124,0.129927,0.050838,0.141475,0.108780,-0.051901,-0.061805,-0.041982,-0.116450,-0.157413,0.017177,-0.138840,-0.025071,-0.120862,-0.156264,0.069272,0.064931,-0.012717,-0.043865,0.147909,-0.136195,0.107533,-0.127007,0.062690,0.099077,0.144658,-0.027323,0.098072,-0.027492,-0.071608,0.131887,-0.005685,-0.103383,0.009436,-0.012909,-0.147437,0.120129,0.083385,-0.037770,-0.171162,0.073691,0.131441,-0.130528,-0.094153,-0.144340,-0.125188,0.143573,0.080230,0.015589,-0.073990,0.078198,0.042400,-0.119296,0.091042,-0.058131,0.121134,0.065530,0.084025,0.080044,-0.112036,0.169074,0.044156,0.039078,-0.114360,-0.090077,-0.125292,-0.105277,-0.126153,0.122199,0.021839,-0.132546,0.027762,-0.031218,-0.100822,0.083352,-0.013935,-0.088764,0.088753,-0.067815,0.080402,-0.137735,-0.166932,-0.046164,-0.102409,0.096572,0.048579,-0.142829,0.020035,-0.040201,0.090511,0.042030,-0.064722,-0.031359,-0.067801,-0.029524,0.019893,-0.039933,0.023763,0.029243,-0.084163,-0.113739,0.051911,0.113781,0.017575,0.062708,0.047669,-0.148077,0.145206,-0.011983,-0.068539,0.089988,0.010689,-0.043598,-0.137915,0.045499,-0.112454,0.058790,0.061293,0.037189,-0.125529,0.001594,-0.070988,-0.043966,0.122958,0.009151,0.117409,-0.024884,0.127639,-0.019315,-0.147430,
-0.122924,-0.009123,0.066870,0.131137,-0.157517,0.006459,0.020827,-0.136971,-0.034723,-0.146894,-0.050489,-0.092116,0.002157,0.083641,-0.074485,-0.111275,0.081187,0.132653,0.113581,-0.040394,-0.161680,-0.061903,0.025153,-0.016267,-0.089523,-0.119310,-0.097620,0.053004,-0.143610,0.021699,0.039336,-0.109378,-0.134464,-0.055621,-0.137228,-0.122387,0.073575,0.068072,-0.117372,-0.117318,0.039962,0.003931,-0.068021,-0.085326,-0.122455,-0.007558,-0.056835,0.093027,-0.029659,-0.048670,-0.117853,-0.038952,0.008486,0.090311,0.108437,0.076553,0.114882,0.153709,-0.026988,0.141891,0.031934,0.135513,-0.144966,0.038493,0.008624,-0.126654,0.067258,0.165834,0.078093,0.091173,-0.145927,-0.039508,-0.066624,-0.071035,0.062791,-0.055405,0.080079,0.131822,-0.134663,-0.096861,-0.104809,-0.079425,0.031709,0.070300,0.148714,-0.029099,-0.050717,0.128616,-0.029120,0.039196,0.081074,0.139583,0.014950,0.097196,0.017795,0.081420,0.115765,-0.085314,0.061654,0.057671,-0.164674,0.053721,-0.130300,-0.087368,0.141740,0.033319,0.039863,0.060488,0.003345,0.059886,0.105920,0.060174,0.130108,-0.013603,-0.041935,0.144502,0.097539,0.042262,0.074048,-0.096881,-0.069803,0.013823,-0.114447,0.103391,-0.038742,0.061265,0.016188,-0.088869,0.153661,-0.081961,0.090225,0.120174,0.136445,0.098442,-0.094035,0.151386,-0.015053,0.071564,0.013816,0.145393,-0.019467,-0.039239,0.064830,-0.055209,0.119471,0.134783,-0.067552,0.056751,0.047666,-0.136488,0.118123,0.118986,0.033809,0.140870,0.068744,0.144335,0.022359,-0.078189,-0.129783,0.000103,-0.003357,0.125440,-0.026846,-0.025236,0.058943,0.001261,-0.064512,-0.107732,-0.070315,0.115165,-0.102408,0.062145,-0.083842,0.049910,-0.134899,-0.133650,0.052536,-0.041570,0.056546,-0.072443,-0.043947,0.009612,-0.104708,0.149802,0.012539,0.093897,0.087703,-0.117821,-0.133898,0.126138,0.059625,0.023051,0.072981,-0.139573,0.156721,0.003430,0.009659,-0.116761,0.020170,0.117982,-0.128648,0.056161,0.014713,-0.073899,-0.047566,0.029600,-0.040118,-0.136563,0.121838,-0.129999,-0.054484,-0.070907,0.024343,0.009323,-0.075235,-0.136092,-0.083420,-0.141814,-0.091307,-0.063258,0.132948,0.102260,0.090733,0.061640,0.101097,0.103877,-0.102454,-0.011807,-0.113705,0.074687,-0.096876,-0.118853,-0.023536,0.063381,-0.025030,0.084078,-0.065455,0.103847,0.111288,-0.094087,0.102088,-0.096634,-0.001505,-0.021826,0.033892,0.053775,0.001977,0.107333,0.098727,0.079737,-0.101947,0.049150,-0.006532,-0.140130,-0.047583,-0.043928,
0.117249,-0.006203,0.107588,0.168564,-0.076568,0.166329,-0.146099,0.076154,0.032305,-0.035055,-0.032405,0.132264,-0.094198,-0.117202,-0.121530,-0.132747,-0.004145,0.044924,0.008535,-0.179568,-0.075523,0.120987,0.128191,-0.146241,0.023724,-0.123232,0.055879,-0.130000,-0.124266,-0.156604,0.030821,0.112095,0.001996,-0.047477,0.111563,0.100921,-0.068296,0.100295,-0.033308,0.111025,-0.043751,0.151187,0.090999,0.004556,-0.141497,0.137573,0.023195,-0.023244,0.014082,0.203082,0.002095,0.090510,0.130677,-0.029427,0.092817,0.033931,-0.007341,0.006612,0.100391,0.009066,0.046316,-0.033104,0.011024,-0.121279,0.047002,-0.039119,0.143284,0.136725,-0.071364,-0.073051,0.053338,0.047439,-0.149883,-0.004810,-0.126716,-0.124283,-0.001152,0.023824,0.023047,0.185336,0.031472,-0.098202,0.093682,0.039131,0.032893,0.081907,-0.111548,-0.130380,-0.069907,0.132954,0.044425,0.099107,-0.068860,-0.129828,0.155320,0.124184,0.009460,0.087177,0.095615,0.121616,0.176867,0.006274,-0.042542,0.155404,0.143903,-0.108044,-0.139919,-0.042453,0.122704,0.052835,-0.046485,-0.023299,0.089674,-0.106973,-0.185342,-0.037116,0.139869,-0.106603,-0.025049,-0.099995,-0.092526,-0.139859,-0.147054,-0.041908,-0.097961,0.109676,-0.107213,0.084045,0.079710,0.149688,0.003804,0.026248,-0.027946,0.092740,0.026479,-0.075743,-0.139152,0.046709,0.049212,-0.136363,-0.062104,-0.127875,-0.012595,-0.135222,-0.073508,0.014595,-0.015222,-0.124642,0.086824,0.110611,-0.019634,0.136823,0.135910,-0.036344,-0.137126,-0.150079,-0.053240,-0.019756,0.104904,0.144432,-0.035960,-0.056894,0.030313,0.087980,-0.113208,-0.116780,-0.132691,-0.079525,0.103318,0.073993,-0.070752,-0.100076,0.103120,0.109012,-0.068411,-0.128211,-0.033003,0.101325,-0.077907,-0.128117,0.038477,0.033430,0.103335,0.000357,0.138315,-0.152287,0.102343,-0.060638,-0.027955,-0.019578,-0.050818,0.071567,0.100603,0.139569,0.074794,0.134461,-0.126186,0.080861,-0.122644,0.149525,0.005514,-0.014292,-0.142087,-0.050692,-0.038790,-0.071111,-0.033878,0.070422,-0.142640,0.038041,0.097278,0.049794,-0.076271,0.079090,-0.110589,-0.062895,0.057557,0.093367,0.012972,-0.136301,-0.094129,0.096410,0.092862,-0.142413,0.069578,-0.007718,0.196789,0.065193,-0.117887,-0.102076,0.002347,0.038516,0.023655,0.034022,0.137509,0.142148,0.158804,-0.030420,0.078415,-0.147007,0.144396,0.025101,0.038542,-0.096367,-0.083189,0.131352,0.008918,0.129694,0.036037,0.186863,-0.153957,0.162794,0.102416,0.106748,0.188631,-0.002952,
-0.044148,0.137672,-0.083531,-0.005950,-0.124728,0.123325,-0.124425,0.088966,-0.013194,0.141246,0.074027,0.007928,-0.062147,0.024184,-0.019463,-0.075747,-0.133119,-0.132142,0.003775,-0.075256,0.143998,0.135212,-0.116912,0.057233,0.112288,-0.092211,0.002381,0.089899,-0.147303,0.003553,-0.089387,-0.055209,-0.016301,-0.038175,0.092459,0.017466,-0.068777,0.088496,-0.066471,0.059459,0.102691,-0.129488,-0.121141,-0.105073,0.026333,0.003280,-0.016695,0.012525,0.026370,0.159753,0.075666,-0.009195,0.095506,0.127257,-0.123491,0.081381,-0.149369,0.032281,0.000191,-0.132494,-0.131253,0.049775,-0.041501,0.005986,-0.009821,-0.106789,-0.136001,-0.037505,-0.149935,-0.045167,0.160205,0.110066,-0.030971,-0.121992,0.160291,0.111215,0.032632,-0.044423,-0.059557,-0.078169,-0.077883,-0.134799,0.057289,0.155573,0.142223,0.091913,0.057699,0.173336,-0.042031,-0.119867,0.146668,-0.010977,0.071687,-0.036929,0.140137,0.096138,-0.001198,-0.141517,-0.119523,0.007853,-0.049112,-0.118356,-0.041902,0.073340,-0.107669,-0.066841,0.054735,0.074764,0.037703,0.137495,0.128955,0.120468,-0.148309,0.043478,0.133157,0.180612,-0.037082,0.017767,0.125275,0.081424,0.063179,0.127429,-0.095139,-0.021325,-0.041651,-0.102264,-0.112641,0.079699,-0.079935,-0.071125,-0.079127,0.009214,-0.053162,0.025568,-0.086522,0.012741,0.131577,0.094084,-0.083641,0.011034,0.085793,-0.103491,-0.018702,0.088060,0.082315,-0.074754,0.101100,-0.098848,0.116666,0.070309,0.131017,-0.007526,0.040349,-0.137401,0.135921,0.135102,-0.115241,-0.137694,0.044009,-0.040537,-0.049307,0.123764,0.119655,0.060958,-0.011677,-0.146245,-0.097123,-0.038467,0.135514,-0.019054,0.129895,0.068554,0.022261,-0.077985,0.007733,-0.059026,0.015453,-0.029448,-0.018291,-0.037483,-0.150340,-0.063022,0.131931,0.087819,-0.022463,0.076437,0.033084,0.009010,0.097455,-0.098122,0.139019,-0.103504,-0.127768,0.094817,0.112157,0.034799,0.125117,-0.166232,0.102756,0.114289,-0.023000,0.074094,0.024771,0.141427,-0.151490,-0.120855,-0.068804,0.020104,-0.019422,0.062428,0.133880,-0.021403,0.152245,0.110916,-0.117413,-0.041580,0.015219,0.036739,0.115471,-0.036404,0.092031,0.089243,0.011450,0.107091,0.031153,-0.034829,-0.034539,0.001166,-0.017358,-0.084602,-0.072190,0.082484,0.132162,0.098187,0.066029,0.142179,0.127406,0.162446,0.012039,-0.048833,0.054567,-0.013799,0.072372,0.056269,-0.077035,0.115417,-0.143745,0.090558,-0.019845,0.116548,-0.100711,-0.082821,0.043785,0.066570,-0.150858,-0.088142,
-0.141700,-0.025097,0.057005,-0.020129,0.035921,0.116484,-0.111565,0.013707,0.116277,0.137216,0.008518,0.057083,0.114120,-0.119485,0.139018,0.020887,0.006355,0.042800,-0.091980,0.073210,-0.029042,-0.084786,0.007183,0.086405,-0.118213,0.031521,-0.137737,0.108879,-0.038325,-0.118362,0.145136,-0.003240,-0.003062,0.042088,0.100387,-0.116804,0.022520,-0.140354,0.061205,-0.062363,0.113758,-0.143299,0.149970,0.081631,-0.084364,0.115300,-0.061085,0.061825,0.005195,0.017929,-0.021498,0.138115,0.064236,0.141825,0.103862,0.094410,0.044306,0.127785,0.034041,-0.134191,0.129012,0.019410,-0.016189,-0.025713,0.002421,-0.065996,0.002480,0.071679,-0.066122,-0.081192,-0.137232,-0.100293,-0.026475,-0.150912,0.180664,0.047667,0.117769,-0.072604,-0.035863,-0.046361,0.095742,0.108488,-0.040834,0.005231,0.100123,-0.125524,-0.023590,-0.001189,-0.132283,-0.138854,-0.000680,0.141294,0.044706,0.139985,-0.032229,0.110864,-0.084043,0.126233,0.035226,-0.020441,-0.127269,0.051894,0.051644,0.010387,0.083856,0.040524,-0.096166,0.029898,0.125411,0.026306,0.149337,0.036859,-0.018490,-0.044051,-0.053419,-0.093124,0.010725,0.051004,0.052544,0.003491,0.059370,-0.105837,-0.001756,-0.045276,-0.141116,0.123136,-0.092278,-0.057773,0.097594,0.112675,0.095713,0.136905,0.039735,0.005865,0.006977,-0.057955,-0.103797,0.070282,0.102552,-0.143564,-0.056479,0.102720,0.078951,0.067554,-0.092559,0.140740,0.138024,0.098398,0.039125,0.039924,-0.066857,-0.070331,0.094640,0.092046,0.035097,0.122370,0.049022,0.130070,-0.106501,0.003853,0.081742,0.148505,-0.014265,-0.055569,0.000371,0.165995,0.037274,0.047001,0.066567,0.014154,0.075689,-0.146578,-0.056825,-0.037977,0.076926,-0.008700,-0.043389,0.064569,-0.090295,0.146539,-0.044184,-0.007879,-0.052467,-0.131783,-0.069167,0.151939,0.117696,0.158324,0.123509,-0.136970,-0.002136,0.070749,-0.168857,0.131785,0.171343,0.008785,0.126298,0.016867,-0.101761,0.027392,-0.148361,0.107846,0.052618,-0.056018,-0.079627,-0.014684,0.086543,0.022707,-0.145154,0.146871,0.027990,-0.019715,-0.020041,0.117035,-0.028101,0.054836,0.120566,-0.068459,0.051348,0.086632,-0.068951,-0.106479,-0.020651,-0.046595,-0.115819,0.006582,0.107350,0.159235,-0.140557,-0.138799,0.033351,-0.124971,0.166524,-0.074724,-0.030056,-0.109221,0.041005,-0.128214,0.084218,0.042782,-0.115903,-0.042053,-0.116296,0.019494,-0.078926,-0.009627,-0.082082,-0.111155,0.087629,0.141890,0.132486,-0.136096,-0.124318,-0.050531,-0.022331,-0.109310,
0.123788,-0.049532,-0.124977,0.128592,-0.034489,0.076837,0.162856,-0.052872,-0.151584,-0.045231,-0.022332,0.072277,0.006907,-0.095070,-0.033223,0.050717,0.024446,-0.002898,-0.079537,0.084002,0.186827,-0.007606,0.126738,0.104326,-0.047041,0.132213,0.118862,-0.008751,-0.076432,-0.044989,0.020946,-0.128630,0.058861,0.044674,-0.142604,-0.128927,0.001511,-0.184428,-0.044441,-0.007470,-0.030603,0.092805,-0.116483,0.123047,0.158608,0.005189,0.034285,0.005761,-0.145208,0.080871,-0.053810,-0.145311,-0.085557,-0.084554,0.077206,0.025931,-0.136127,0.052911,-0.150093,-0.066403,-0.160782,0.040489,-0.026503,0.058443,-0.001799,-0.022246,0.075335,0.090174,-0.024257,-0.114484,-0.033689,0.106172,0.118195,-0.013498,0.040714,0.107125,0.136755,-0.084822,-0.043892,0.149979,0.131668,0.037709,0.148960,-0.126251,0.101145,0.085152,0.061050,0.150676,-0.016553,0.073004,-0.097557,-0.011285,-0.042434,0.029656,-0.093160,0.076976,-0.147163,0.142256,0.026655,-0.018497,-0.119690,0.132467,-0.085631,0.146804,-0.061004,0.141410,0.099737,-0.062704,-0.106324,-0.111392,-0.066267,-0.108547,0.079065,-0.062066,-0.062418,0.046747,-0.142220,0.141945,-0.007002,0.015423,0.079998,0.043890,0.148244,-0.135719,-0.057947,-0.109854,0.066755,-0.070634,-0.129957,-0.044761,0.064854,-0.105107,-0.091402,0.144142,-0.134354,0.002666,0.144363,0.101466,0.110151,-0.123749,0.147102,-0.096864,-0.103373,0.076774,-0.033836,-0.018144,-0.038356,0.001423,-0.032790,0.094309,0.139512,-0.129878,-0.016001,0.128234,-0.088914,0.064538,-0.145482,0.131102,0.149485,-0.105640,-0.075876,0.056870,-0.067117,-0.001778,0.050014,-0.055827,-0.137292,0.026751,-0.093770,0.122591,0.055254,-0.097871,-0.136301,0.128352,0.129100,-0.015637,-0.045312,-0.061162,0.137681,0.081437,-0.133954,0.112279,0.123282,0.039133,0.108568,-0.152816,-0.050338,0.109136,0.126822,-0.083743,0.162999,-0.118470,0.146678,-0.072103,0.044400,0.041240,0.050676,0.083799,-0.091343,0.099291,0.028436,0.103170,0.157292,0.039665,0.081942,0.129060,-0.137143,-0.123006,-0.082989,0.122993,0.107052,-0.068987,0.106843,0.071487,0.098589,0.044323,0.075153,-0.130843,-0.009852,0.041090,-0.055435,-0.008904,0.108644,-0.084582,0.092837,-0.015911,0.111934,-0.033956,-0.117100,0.149653,-0.098310,0.056637,0.097920,-0.099673,-0.078087,0.027739,-0.120471,-0.051778,0.048839,-0.050228,-0.067174,-0.007018,0.012666,-0.113065,-0.088220,-0.013213,0.078728,0.132509,-0.035063,-0.100512,0.018195,0.082254,0.054880,-0.047502,0.131323,-0.030763,
0.084159,0.086467,0.077737,0.117736,0.084076,0.133699,0.015508,0.037553,-0.128187,0.096716,-0.098242,-0.100700,-0.112259,0.103730,-0.019665,-0.026632,-0.048272,0.144079,0.009373,0.017553,-0.055762,-0.076201,-0.005724,0.076861,-0.015914,-0.142380,-0.008650,-0.121039,-0.036986,-0.019905,0.001737,-0.106016,-0.086664,-0.074300,-0.142298,0.150239,-0.096908,0.026481,0.030236,-0.069742,-0.029784,0.086237,-0.017694,0.008821,0.034264,0.114721,0.135927,0.140210,0.105693,-0.009001,0.001021,-0.102014,0.069433,0.151880,0.124499,-0.098375,-0.145183,-0.037412,-0.066537,-0.030352,0.094918,0.086887,0.018884,-0.144372,-0.137320,0.029312,-0.149447,-0.082580,-0.098255,0.035497,0.001977,0.023625,-0.032254,0.135050,-0.119649,-0.151233,0.096297,-0.135211,0.139626,0.051740,0.009357,-0.010806,0.099362,-0.076011,-0.013111,0.071927,-0.022824,-0.008357,-0.119814,0.062463,0.117797,0.128624,-0.003635,-0.015940,0.138146,0.011176,-0.139682,0.144226,0.080606,-0.085936,0.026416,-0.072225,0.092827,0.146432,-0.090253,0.125953,0.150639,-0.146777,0.144191,0.135489,0.055560,0.000393,-0.028057,0.004099,0.079138,0.111238,-0.080469,-0.098065,-0.047937,-0.046827,0.115797,-0.082115,-0.071652,-0.039403,0.056452,-0.087244,0.123129,0.068391,-0.095839,0.051347,0.136715,0.082668,0.129134,0.076162,0.075033,-0.111025,0.049202,0.070668,-0.105092,0.040824,0.053153,0.104526,-0.111859,-0.128229,-0.046522,0.119451,0.133417,0.024570,-0.130481,-0.064717,0.131430,0.139670,0.006056,-0.094352,-0.050301,-0.089425,-0.028475,-0.081753,0.130006,0.027754,0.123311,0.113623,-0.043804,0.102087,0.036724,-0.121780,0.143656,-0.067758,0.102796,-0.114474,0.127520,0.003316,0.141855,-0.138187,0.028027,-0.058867,0.134594,0.012113,0.118157,-0.149771,0.099149,0.095957,0.141635,-0.048442,-0.149221,-0.062292,0.013887,-0.028498,0.009736,-0.009277,-0.153481,-0.019774,-0.049361,-0.042576,-0.069527,0.141607,-0.010217,-0.079638,-0.079123,-0.059903,-0.042124,-0.104851,0.095873,-0.052087,-0.089653,-0.030172,0.040693,-0.107836,0.133526,0.007023,-0.105185,0.080306,-0.050106,-0.114918,-0.118153,-0.047223,-0.024463,0.046566,0.077438,0.137745,-0.116158,0.077908,-0.035624,-0.011868,-0.117139,0.047490,-0.022358,0.025288,0.120927,0.050388,0.117316,-0.074724,0.096960,0.060024,0.025687,-0.145630,-0.121624,-0.086091,-0.101421,-0.136940,0.073767,-0.052841,0.092578,-0.129590,-0.014726,0.126708,-0.026034,0.114212,0.019736,-0.100849,0.099253,0.056067,0.130707,-0.088585,-0.109283,-0.140128,
0.120985,0.021304,0.053272,0.107493,-0.089767,0.038654,-0.157018,-0.122047,-0.083588,0.012248,-0.123224,-0.066607,0.099273,-0.081836,-0.046020,0.008516,0.029467,-0.105159,0.061512,-0.152252,-0.150464,-0.141926,0.118348,0.024756,-0.105745,0.072011,-0.060577,-0.122057,0.132129,-0.021405,-0.092904,0.088167,-0.155220,0.117220,0.019024,-0.070247,-0.038996,-0.001605,-0.065252,0.008370,-0.096975,-0.007058,0.098088,0.159456,0.050799,-0.098670,0.018179,-0.103914,-0.059361,-0.061255,-0.104952,-0.051660,-0.094098,-0.122558,0.132476,-0.011991,0.103282,-0.075313,0.067376,0.085453,0.090596,0.095546,0.016063,0.090247,0.070852,-0.122789,0.157226,0.164397,0.060990,-0.073706,-0.019769,0.108956,0.050297,-0.068810,0.113308,-0.084481,-0.005866,-0.047557,-0.043690,0.097169,0.015005,0.032717,-0.121460,0.106354,0.070344,-0.115947,-0.098219,0.006154,-0.036620,0.080891,-0.065586,-0.111793,0.015236,0.101615,0.097777,-0.101391,0.130760,0.118449,-0.120745,0.041084,-0.116606,0.008857,-0.016755,0.055842,0.088536,-0.120541,0.137961,-0.081985,0.020024,-0.049374,0.151469,-0.116809,0.132785,-0.122576,0.103967,0.065418,-0.072920,-0.151577,-0.102243,0.037430,0.103710,-0.006971,0.089548,-0.051704,-0.059802,0.036771,-0.027553,-0.086658,0.011817,0.013486,0.098864,0.011068,-0.131679,-0.078190,-0.078546,0.102782,-0.012274,-0.101054,-0.134087,-0.132732,0.016219,-0.126514,-0.089799,-0.018730,-0.081832,0.147115,-0.121935,-0.020299,0.182731,-0.055650,-0.107079,0.108160,0.076084,0.111339,-0.128450,-0.152070,-0.005975,0.030278,-0.054953,0.146195,-0.108992,-0.110323,0.021190,-0.087586,-0.042244,0.043740,-0.140367,0.107590,0.147609,-0.123081,0.118202,0.007786,-0.081837,-0.152885,0.150935,-0.026050,-0.141177,-0.088770,0.108704,-0.141111,-0.025177,0.141835,0.103151,-0.083770,0.093655,0.131985,-0.043958,-0.059117,0.008723,0.025648,-0.053668,0.051454,0.075714,0.117899,0.130518,-0.112783,0.036034,0.108799,0.117767,0.040244,-0.112575,0.094610,-0.119145,-0.070256,0.110912,-0.124357,0.061218,0.121619,-0.090384,0.030996,0.134003,0.042362,0.008224,0.088845,0.108104,-0.034356,0.043773,-0.101925,0.058031,-0.092320,0.068392,0.150303,0.107924,-0.011154,0.092243,0.081577,0.026255,-0.010422,0.068103,-0.012857,-0.165457,0.078235,-0.094855,-0.113627,-0.142682,-0.118876,-0.072830,0.069966,-0.125882,-0.021665,-0.066725,0.145425,-0.116489,0.092395,0.068209,0.145199,-0.087860,-0.029006,-0.121233,0.111383,0.037997,0.126833,0.098414,-0.005449,-0.045624,0.047008,
-0.077491,0.105249,-0.133408,0.139589,-0.057176,-0.138533,0.059196,0.024681,-0.074224,0.077800,0.053191,-0.016672,-0.021950,0.075630,0.107701,0.069781,0.060025,0.125989,0.003854,-0.044326,0.110458,0.051317,0.096604,0.145527,0.015689,-0.044927,0.101835,-0.034249,0.124154,-0.106501,-0.145314,-0.101415,-0.151302,-0.126432,-0.124187,-0.052043,-0.091186,0.088105,0.119863,-0.034315,-0.007194,-0.006324,0.103068,0.116523,-0.083013,0.044962,0.025862,0.131004,0.019752,-0.115916,-0.061931,-0.023651,0.088796,-0.107927,-0.021284,-0.057501,0.010873,-0.079119,0.044530,-0.020461,-0.042055,0.062851,0.034414,-0.039240,0.118636,0.062327,0.048110,0.125422,-0.008834,0.027251,-0.042808,0.148268,-0.113474,-0.097621,0.133096,-0.024323,0.099941,-0.000360,-0.037712,-0.032829,0.043181,0.074459,0.106441,-0.037815,0.124247,-0.083474,0.079600,-0.019222,0.012931,-0.012321,0.114234,0.117838,-0.099511,-0.013139,-0.050589,0.147581,-0.097520,0.144171,0.153514,0.036682,0.009219,-0.044430,0.031782,0.061547,0.030215,-0.003377,-0.125793,-0.037408,0.156893,-0.005069,0.081832,0.017301,-0.085096,0.033131,-0.135503,-0.138644,0.116747,0.098430,-0.001407,-0.047004,-0.087963,-0.046235,-0.071476,-0.020146,0.092661,0.012901,-0.035654,-0.147838,-0.001714,-0.025024,0.047719,-0.131265,0.094587,-0.061169,0.079430,-0.053288,0.089216,0.112697,0.047856,0.088996,-0.049731,-0.012806,-0.030740,0.014804,-0.136772,-0.011484,0.046452,0.147288,-0.073776,-0.114317,-0.054107,0.004839,0.011726,0.027194,0.134716,-0.046924,-0.125384,-0.023430,-0.067181,0.047862,0.102211,0.133398,0.056684,0.027003,-0.077014,0.004465,0.121342,-0.144751,-0.046698,0.040611,0.122201,0.057586,-0.149124,-0.074344,-0.077374,-0.133296,0.070826,0.108601,0.153962,-0.149278,0.160954,-0.060232,0.016663,-0.024269,0.127595,0.018067,0.075842,-0.139924,0.148852,-0.149028,0.059186,0.098678,0.117455,-0.037720,-0.011978,-0.090250,0.116724,-0.046809,-0.087962,-0.086818,0.119894,-0.126557,0.123973,0.124414,-0.046560,-0.112191,0.138646,-0.135046,-0.168889,0.128004,-0.123762,0.157516,-0.076539,0.042156,-0.021116,-0.116419,-0.083831,-0.111307,-0.107376,-0.094645,-0.119588,0.099939,-0.168204,-0.124770,-0.079158,-0.004398,-0.053614,-0.130992,0.078465,0.017901,-0.076144,0.049440,0.073513,-0.113583,0.013606,-0.155463,-0.062994,-0.015974,-0.138253,-0.062772,-0.019132,-0.094348,-0.056328,0.053665,0.103234,0.067898,0.086034,-0.133349,0.111550,0.147936,-0.070674,-0.148028,0.093382,-0.080873,-0.118870,0.146732,
0.058414,-0.014083,-0.131753,-0.029222,-0.147406,-0.050167,-0.096426,0.039498,0.012659,0.073076,0.046857,0.098810,-0.108599,0.091140,-0.126782,0.040463,0.137380,-0.022653,-0.069816,0.107459,-0.125267,-0.124642,0.110808,-0.156798,-0.125258,-0.119529,-0.139753,0.115728,-0.038409,-0.088959,0.092294,-0.095524,0.033707,0.106412,0.023185,0.019657,-0.119900,0.116745,-0.069403,0.032929,-0.035084,0.102280,-0.029370,-0.001911,0.050352,-0.008945,-0.135565,0.048072,0.120089,-0.080526,-0.015066,-0.125678,0.002103,-0.107168,-0.131305,-0.004694,-0.080421,-0.094604,-0.075785,0.042711,-0.080840,-0.132219,0.074233,0.093882,0.138138,-0.055235,-0.010753,-0.140087,-0.145477,0.065582,0.059106,-0.040198,0.035159,-0.147398,0.137307,-0.056885,-0.004979,-0.149479,0.133746,-0.046170,-0.044534,-0.075934,-0.024102,0.080148,-0.034982,-0.025630,-0.070536,0.028683,-0.001073,0.012758,-0.064568,0.064843,0.034479,-0.141730,0.036183,0.015339,-0.047248,-0.159197,0.003235,-0.063102,0.076877,-0.098523,0.082829,-0.029627,-0.082290,0.110531,0.080365,0.066416,0.067814,0.041510,-0.124533,-0.132714,0.119491,0.017633,0.148035,-0.080947,0.113581,-0.116165,0.139005,-0.046919,0.057649,-0.085136,-0.151034,-0.074883,-0.086835,0.052329,0.130954,0.032712,0.067457,-0.053933,0.146179,-0.006328,0.007248,0.069771,0.127728,0.069646,-0.020186,0.051729,-0.011439,-0.129425,-0.076919,0.011638,-0.117900,-0.090804,0.162390,0.157918,-0.026346,0.121553,-0.139783,-0.039384,-0.094189,0.063411,0.019682,-0.057458,-0.118829,0.158657,0.174008,0.101952,-0.019824,0.038974,-0.109867,-0.022822,-0.125564,0.036922,-0.101477,0.229469,-0.030507,0.018053,0.040068,0.115042,0.050473,0.120556,-0.047040,0.095207,-0.137188,-0.055569,0.080272,-0.016799,-0.097583,0.109998,0.117693,-0.021649,0.026439,-0.011968,0.082620,0.051030,-0.092629,0.071597,-0.005336,0.078635,-0.067706,0.070611,-0.090321,-0.031194,-0.070732,-0.061479,-0.035421,0.067223,0.159901,-0.155905,-0.047977,0.029825,0.139830,0.102574,-0.038163,0.165513,-0.127494,-0.113661,0.007830,-0.056763,0.152377,-0.029274,0.062352,0.022466,0.102676,-0.013416,-0.053775,-0.143521,-0.110422,0.090682,0.099707,-0.011300,-0.012657,0.149336,0.124374,0.049049,-0.065873,-0.068747,-0.058802,-0.074413,-0.032073,0.075315,0.144564,-0.050131,0.017371,-0.087583,-0.052310,0.046794,-0.044858,0.079476,0.127048,-0.046552,-0.131618,0.044017,0.138959,0.088693,-0.130962,-0.082084,0.133900,-0.075665,-0.153835,0.044447,0.069322,-0.019980,0.057152,0.025234,
-0.146195,0.165946,0.157474,-0.025033,-0.075302,-0.111294,-0.137799,-0.141091,0.026085,0.060511,-0.058036,0.120731,-0.070118,0.024079,0.025975,-0.077679,0.141462,0.062274,0.085795,0.126864,0.024210,0.135698,-0.102365,-0.039560,-0.094031,-0.091611,-0.124380,0.137609,0.016414,0.076390,-0.001970,0.050260,0.066165,-0.036748,-0.157113,0.142290,0.008594,-0.085203,-0.126723,-0.115422,0.090276,-0.050042,0.144243,-0.102315,-0.154542,0.023344,-0.037107,-0.154370,-0.071504,-0.091864,0.177063,0.120608,-0.118144,-0.129739,-0.075041,-0.084186,-0.081111,-0.027066,-0.093214,0.089098,-0.127908,0.040883,-0.024016,0.088771,0.120414,-0.021985,0.136172,0.046413,0.011206,0.122057,0.076814,-0.044149,-0.084815,0.047441,0.031138,-0.058994,-0.075576,0.098762,-0.034348,-0.009094,-0.155923,-0.070074,-0.047873,-0.098128,-0.049466,0.001713,-0.016085,0.057222,0.117649,0.039795,-0.028325,0.139129,-0.069379,0.103576,0.088099,-0.068348,-0.074560,0.014929,0.075986,0.124375,0.029143,0.016156,-0.075508,0.085083,-0.096171,0.089140,-0.154001,-0.018946,0.007197,-0.044065,0.136921,0.011016,0.043030,-0.079417,0.063028,0.125963,0.092764,-0.114142,0.022542,0.060167,0.124946,0.140729,0.030295,-0.138006,0.081472,-0.033174,-0.013654,-0.147080,0.166914,-0.116289,0.114191,-0.024588,0.070622,-0.131190,-0.098279,0.098684,0.080605,-0.089266,-0.061842,-0.060251,0.017054,-0.068215,0.102689,-0.086079,-0.002484,0.006597,-0.111165,-0.026622,0.037403,0.050816,-0.164294,-0.026548,0.051016,0.044877,-0.029043,-0.047302,-0.112212,0.085404,-0.015826,-0.150986,0.099447,-0.058810,-0.013808,-0.001892,-0.030320,0.103258,-0.021726,-0.088945,0.100326,0.084470,-0.027316,-0.033723,0.132964,-0.041285,0.018262,-0.017574,0.097950,0.074698,0.085269,-0.017912,-0.026338,0.089956,0.099865,-0.129994,-0.055362,-0.080105,-0.006239,0.017575,0.134187,0.112947,0.019525,0.104062,-0.078455,0.157153,-0.048582,0.030449,0.036232,0.062698,0.111886,-0.031008,-0.098138,-0.076159,0.102496,-0.098975,0.032602,-0.002813,0.038408,-0.000700,-0.106890,-0.024532,0.109328,0.004036,-0.100531,0.067886,-0.028371,0.035266,0.139144,0.109802,-0.109836,0.099161,0.072126,0.052198,0.070513,0.144872,0.053890,0.126501,0.032986,-0.088976,-0.042733,-0.041655,0.091111,0.071233,0.066991,0.036744,0.132229,-0.082643,0.126742,0.028722,0.068070,-0.155828,0.139688,-0.002345,-0.030974,-0.112763,-0.103095,0.137365,0.091294,-0.132590,0.100088,0.133808,0.121500,0.000040,0.024765,0.011953,0.009009,-0.073515,
-0.024120,-0.129883,0.012025,0.120968,-0.018236,-0.068143,0.043384,-0.129914,0.100944,0.020798,-0.062606,0.082925,-0.113341,0.119635,0.104252,-0.131747,-0.036187,-0.053993,-0.089418,0.012578,-0.077478,0.149140,0.032957,-0.143015,0.123308,0.009204,0.026198,-0.006306,-0.122392,-0.127823,0.080461,0.005612,-0.103048,-0.058110,-0.022449,0.034770,0.026645,-0.132108,0.058662,-0.017843,0.045743,0.148250,-0.077432,0.084077,0.119793,-0.123813,0.106664,-0.062835,-0.024593,-0.136061,0.102065,0.050468,-0.135311,-0.013801,0.064708,0.146570,-0.149976,-0.064054,-0.007867,-0.123368,-0.035040,-0.079471,0.040813,0.018275,-0.012868,-0.133926,-0.103267,-0.107610,-0.111168,0.111301,0.028408,0.087933,0.109768,0.106752,0.016429,0.082563,0.135975,-0.020449,-0.132789,-0.043741,0.002437,0.126563,-0.142041,0.024353,-0.040148,0.077005,0.021249,-0.045247,-0.135647,-0.135648,-0.001798,-0.015620,-0.058512,-0.113466,-0.151138,0.111761,-0.093494,-0.094417,-0.145355,-0.052069,-0.137531,0.034329,-0.116390,0.126720,-0.006444,0.052936,0.055785,-0.021367,-0.114023,0.079960,0.092187,0.040897,0.052885,0.101313,-0.089778,-0.140150,0.031140,0.089798,-0.018761,0.047762,0.100880,0.133630,-0.117613,-0.104238,-0.132896,-0.113510,-0.144542,-0.074364,-0.061786,-0.132420,0.029294,-0.036478,0.055189,0.066704,-0.060866,-0.100616,-0.029079,0.150812,0.035510,0.012451,0.078129,-0.026388,-0.097335,-0.022457,-0.076261,-0.028249,-0.009615,0.105407,-0.092450,0.129446,0.006668,-0.134780,0.107885,0.042891,-0.084854,0.125917,0.082751,-0.074781,-0.093745,-0.124450,-0.052860,0.088001,-0.009370,-0.145419,0.002699,0.076748,-0.087640,0.126789,0.084458,0.095184,-0.012753,0.010131,-0.079432,0.044103,0.142645,0.002680,-0.137042,-0.019274,-0.040446,-0.074230,-0.039943,0.121664,-0.059852,-0.089842,0.008987,0.012266,-0.106889,-0.061857,0.091741,-0.043701,-0.032547,-0.118258,-0.110752,0.115376,-0.109447,0.045069,0.048621,-0.043034,0.024620,-0.020459,-0.092364,-0.139480,0.141784,-0.018832,0.057120,0.131853,0.137392,0.072620,-0.036977,-0.054074,-0.153199,0.078744,-0.085181,-0.058053,-0.152911,0.078679,0.108924,-0.100553,-0.131663,0.046324,0.009229,-0.009696,0.082586,0.055836,-0.045538,0.132500,-0.049763,-0.149286,-0.059986,0.131114,-0.014337,0.000724,0.139108,-0.022232,0.136438,0.049690,-0.041242,0.116026,-0.033687,0.075709,-0.084496,-0.030669,0.005885,-0.016789,0.068737,0.005007,-0.091061,0.024908,0.057394,-0.069691,-0.079748,-0.082366,0.076427,-0.146815,0.127136,-0.121320,
0.139737,-0.074889,-0.118826,-0.054144,-0.089095,0.014980,0.080004,-0.091616,-0.153330,0.067646,0.107257,-0.052546,0.048141,-0.089509,-0.115136,0.093304,0.018293,0.039033,-0.067563,-0.055088,-0.109918,-0.000512,0.156526,0.116762,0.111196,-0.100501,-0.123444,-0.012268,-0.086785,-0.156748,0.042657,-0.101712,-0.068969,0.116510,-0.018746,-0.009860,-0.060329,-0.075885,0.038992,-0.053996,0.134681,0.026246,0.053946,0.013769,0.055764,0.095271,-0.033467,-0.060142,-0.019595,0.052559,0.034077,0.032139,-0.089762,0.048164,-0.004757,0.141146,0.118512,-0.005881,0.029176,-0.135268,0.042768,-0.103095,-0.075596,0.129477,0.131575,0.061765,-0.041467,-0.103242,0.131230,0.149091,-0.003742,0.103171,-0.007151,-0.082911,-0.028120,-0.107941,-0.144848,0.104540,-0.004426,0.013464,0.017829,-0.094390,-0.124739,0.096303,0.131895,0.042287,0.065119,0.059674,-0.103941,-0.090054,0.094203,0.084444,-0.051784,-0.145063,0.054574,-0.107256,0.080573,0.161423,-0.020075,0.069675,0.177897,0.129243,0.017698,-0.011472,-0.111046,0.143854,0.012126,-0.108228,0.104228,-0.134101,0.033981,-0.036119,-0.071549,0.046853,-0.141715,-0.115355,-0.060783,0.094172,0.118286,-0.021357,-0.170693,0.060470,-0.064309,-0.049913,0.072988,0.120561,0.038865,0.002490,0.122392,0.132275,-0.087688,0.105152,0.129002,0.081169,-0.066924,0.153203,0.059039,0.117257,-0.115870,0.020977,0.138394,0.075703,0.148161,-0.080063,-0.002978,-0.142813,-0.043148,0.073213,0.121206,-0.081598,-0.086538,0.120855,0.157490,-0.017008,-0.109063,0.039520,-0.056616,0.075809,-0.088337,-0.086081,0.065688,-0.032752,-0.128672,0.022535,-0.102050,-0.053485,0.005074,0.119313,-0.084625,0.048134,-0.010477,-0.107794,-0.027653,-0.027288,-0.045811,0.125458,-0.011749,0.055390,0.041557,-0.056081,0.134223,0.109605,-0.112156,0.074291,-0.068870,-0.033142,0.032963,0.030677,-0.104003,0.075378,0.100958,0.116657,-0.119255,0.127044,-0.022849,-0.056389,-0.069286,-0.156273,-0.099331,0.020160,0.095029,0.069737,0.035553,-0.109987,-0.105408,-0.176220,-0.127303,0.039824,0.042261,0.087939,0.124658,0.013138,0.028083,-0.135035,-0.001614,0.124278,-0.015075,-0.135325,0.008036,0.045493,0.093898,-0.043193,-0.015473,0.134251,-0.091590,0.155462,-0.050280,0.007457,-0.156848,-0.001399,-0.126858,0.069542,-0.102119,0.056548,0.122250,-0.049114,0.064010,0.158224,0.138763,0.003475,0.070877,0.116924,-0.122747,-0.062634,0.144136,0.006860,-0.088409,-0.010036,0.042908,0.059577,-0.118074,-0.034406,-0.125463,0.033381,-0.046413,-0.029588,
0.038925,0.012593,0.179948,0.027157,-0.123138,-0.122896,-0.042160,-0.055010,0.062879,-0.077352,0.028449,0.026515,-0.090808,0.013968,0.134250,0.164506,0.036616,-0.140523,-0.068128,-0.038974,0.029629,-0.024128,0.146521,-0.087442,-0.083048,-0.149565,0.029526,-0.040436,0.052403,0.124925,0.090034,-0.090659,0.009512,0.067052,0.119007,0.048238,0.097337,-0.071275,0.126221,0.030469,-0.017485,0.024902,-0.111644,0.056661,-0.145453,-0.124554,0.058453,0.031836,-0.115963,0.178007,-0.100830,0.052732,-0.013235,-0.120843,0.129175,0.057667,-0.124914,0.011103,-0.172529,0.066619,-0.029046,0.100594,-0.131239,0.120066,-0.010635,0.138948,0.051619,-0.028616,-0.100614,-0.006918,0.136518,0.074476,-0.166601,-0.133327,-0.042614,-0.093754,-0.091029,0.147470,0.117699,-0.065627,0.124533,-0.118928,-0.140387,-0.034190,-0.109536,0.126974,-0.126350,-0.053152,-0.000895,-0.104479,-0.132967,0.106017,0.145525,-0.134328,0.148653,0.020345,-0.127042,-0.054828,0.159750,-0.045080,0.091076,0.128038,0.132436,0.087334,0.168192,-0.111807,0.130312,-0.100933,-0.102930,0.110859,-0.007432,-0.143207,0.122655,-0.008740,-0.034979,-0.159849,-0.010473,0.027887,-0.059595,0.129192,0.105940,-0.051965,0.078665,0.068253,-0.015322,0.013387,-0.089290,0.031939,0.159113,-0.094186,0.086959,0.058086,-0.126225,0.052044,0.003716,-0.141577,0.092784,-0.015174,-0.095400,-0.141373,-0.078137,0.064377,-0.149600,-0.116885,-0.098624,0.040580,-0.099090,0.041643,-0.089403,-0.012493,0.033697,0.163339,0.108665,-0.048705,0.048031,-0.065414,0.123024,0.145345,0.086695,0.097991,-0.128542,0.016326,-0.008500,-0.114399,-0.076211,0.193577,-0.114221,-0.129465,-0.025841,-0.050728,-0.105004,0.063344,-0.147563,-0.050844,0.116135,-0.088272,0.129229,-0.142292,0.115054,-0.112203,0.016877,-0.025615,-0.122131,-0.056258,0.080062,0.077752,0.043736,0.063146,0.053424,-0.043447,0.025616,0.059852,0.133850,-0.134316,0.156252,-0.106942,-0.144565,-0.087765,-0.079490,0.005003,-0.044035,-0.028791,-0.111526,-0.027370,0.067281,-0.158454,0.028360,0.043767,-0.129902,-0.044936,0.090854,0.040966,0.118276,0.140348,0.123416,0.032502,0.061622,-0.005093,-0.059814,-0.070805,0.090664,0.100164,-0.163195,0.081578,0.142206,0.142656,0.189980,0.110057,0.138693,-0.063452,-0.091892,-0.041708,0.082448,-0.048679,0.082264,-0.014655,-0.021446,-0.030995,-0.141571,-0.022757,0.095092,0.127761,-0.146916,0.053138,0.090743,-0.135239,-0.052586,-0.016801,-0.007161,0.093789,0.074095,-0.025600,-0.009351,0.088709,-0.068169,-0.074088,
0.077392,-0.108645,-0.126852,0.065139,-0.016334,-0.046601,-0.129954,-0.096285,0.072112,0.094998,0.041217,-0.112749,-0.106826,0.074155,0.034195,0.137564,0.056475,0.064193,0.029762,-0.006095,0.065654,0.135557,0.129659,-0.081674,0.012605,0.048224,0.031129,0.143964,0.002939,0.084078,-0.080234,-0.075923,0.132655,-0.064018,0.153759,-0.036194,0.062510,-0.134701,0.016818,-0.015782,0.122037,-0.095356,0.024581,-0.137938,0.145824,-0.087604,-0.146705,0.049502,0.126299,0.056045,-0.102393,0.027731,0.029934,-0.128692,0.105336,-0.100676,0.085508,-0.016235,-0.116878,-0.062198,-0.085190,-0.034439,0.019128,-0.107058,0.019202,0.019837,0.015679,-0.028402,0.044849,-0.122148,0.102933,0.016507,-0.059875,-0.012483,0.017937,-0.059015,0.053210,0.036820,0.148255,0.025484,-0.066293,-0.107845,-0.090286,0.113839,-0.082976,-0.129137,-0.133633,-0.141636,0.011029,-0.087798,-0.053505,0.080955,0.029268,0.117037,0.129672,-0.059922,-0.014268,-0.013882,0.069024,-0.124748,0.019039,0.023140,0.040448,0.124522,-0.133402,-0.097636,-0.093529,0.070379,0.106957,-0.097607,-0.055340,-0.118523,-0.055578,0.007932,-0.151983,0.018542,0.036082,-0.125014,0.029444,-0.106448,-0.069041,0.126731,0.128479,0.124158,0.091818,0.098597,-0.099013,-0.072355,-0.064559,0.136493,-0.045026,0.118875,0.002875,0.148421,0.083711,0.023703,-0.087985,0.144707,-0.052670,-0.134452,-0.107539,0.039220,-0.099176,-0.005283,-0.096952,-0.084296,-0.137375,0.088157,-0.059688,0.042395,0.140013,0.040669,0.017218,0.115994,0.003198,-0.045851,0.065872,0.073720,0.036003,-0.141234,0.057753,0.145257,0.128650,-0.083396,0.141213,0.053560,0.095509,-0.101520,0.056389,-0.111987,-0.082018,0.103198,0.090828,-0.019404,-0.054751,0.145518,0.047383,-0.043040,0.086581,0.144653,-0.149524,0.071518,0.032922,0.018134,0.035651,-0.113814,0.132794,-0.047356,0.113779,0.016088,-0.041614,0.011780,0.004107,-0.058335,0.079582,-0.004547,-0.148479,0.029105,0.041100,0.057130,0.073835,0.121214,0.009695,0.014491,-0.053410,0.107566,0.007598,0.139738,-0.086831,-0.065572,0.139536,-0.080390,-0.140490,0.018651,0.090066,0.044624,0.055925,0.071529,0.148148,0.018696,-0.064943,-0.042716,-0.113998,0.096586,0.054826,0.117988,-0.061333,0.056939,0.003718,0.145019,-0.040280,-0.068198,0.110758,0.122618,0.100869,-0.089749,0.083885,-0.053144,-0.097816,-0.159591,0.046681,-0.109511,-0.082332,0.057561,0.061509,-0.135276,-0.054668,-0.033167,0.080264,-0.052974,0.136220,-0.127582,0.056440,-0.132398,0.126128,-0.045945,
0.148816,-0.092659,-0.158088,-0.002713,-0.089605,-0.015219,0.101551,-0.109959,-0.031444,0.029277,-0.074279,-0.109253,0.139921,-0.023315,-0.113937,0.024281,0.029191,-0.030156,-0.067551,-0.061629,-0.027199,0.040960,0.071068,-0.077802,0.138046,0.034573,-0.055218,0.019391,0.066268,-0.079888,0.140662,0.062167,-0.018466,0.160191,-0.093669,0.039276,-0.010512,0.141340,0.058133,0.076015,0.027910,0.147061,0.104509,-0.015351,-0.016382,0.149625,-0.132675,-0.156934,-0.040749,-0.039879,-0.074552,0.069886,0.150379,-0.162260,-0.154034,0.128421,0.049530,-0.064162,0.014834,-0.032582,0.021212,0.005438,-0.131897,0.151745,0.036319,-0.076765,0.037073,0.105862,-0.085389,-0.058393,0.034435,0.081221,-0.074399,0.009931,-0.097477,0.047295,-0.000019,-0.055769,0.048910,0.132665,0.057423,0.147229,0.045793,0.044971,0.160904,0.074273,0.017939,0.039147,-0.147816,-0.128249,-0.149304,0.024692,0.019582,-0.142169,0.034254,-0.148950,-0.056007,-0.094490,0.147498,-0.014049,0.019211,0.017931,-0.079219,0.080357,-0.111637,-0.018277,-0.029893,0.028402,0.103647,-0.136142,-0.014079,-0.015919,-0.149922,-0.127135,-0.107643,-0.151479,0.100591,0.058136,0.046555,0.099760,0.054316,0.043232,-0.014927,-0.052671,0.058493,-0.155802,-0.048864,-0.140842,-0.096478,-0.058159,0.017540,0.062252,0.120646,0.097174,-0.025678,0.137497,-0.059144,0.108644,0.022337,-0.116081,0.119444,-0.151030,0.022136,0.140129,-0.092986,0.074793,0.137564,0.144093,-0.021324,0.023640,0.104307,-0.090856,-0.081260,-0.072251,-0.009798,0.135636,-0.067739,0.115251,0.143059,0.001230,-0.088601,0.003851,-0.090507,-0.125550,-0.049715,0.027104,-0.154569,0.035778,-0.002516,0.025587,0.086630,-0.039416,0.051426,-0.039867,-0.062097,0.095001,-0.117262,-0.095972,0.085574,0.014264,0.097640,0.026108,0.072151,0.137105,0.126351,-0.071860,0.153839,-0.113175,-0.102729,0.122077,0.022572,-0.041305,-0.037802,0.092835,-0.022006,0.078454,-0.012131,0.012710,-0.051865,0.142191,-0.080107,-0.098724,-0.062302,0.123483,0.026715,0.013732,0.056989,0.033400,0.085470,-0.011489,-0.087759,0.028184,-0.140120,0.122773,0.045353,0.128271,-0.087208,0.015749,-0.152691,-0.024462,-0.017177,0.035561,0.071977,0.106953,-0.028527,-0.073947,0.053873,0.115998,0.096803,-0.146121,0.086181,0.154289,-0.090890,-0.123768,0.115835,0.078475,0.088870,0.007611,-0.021730,0.034727,-0.151493,0.045974,-0.081751,-0.138996,0.032931,0.096818,0.130211,0.106493,-0.054209,0.123678,-0.079986,0.106765,0.019432,0.146673,0.062942,0.143754,
-0.085889,-0.048107,0.115892,-0.126234,-0.048503,0.023903,-0.175140,-0.004456,0.118231,0.118320,-0.051981,0.022443,-0.010578,0.060008,-0.104980,-0.020204,-0.052994,-0.053622,-0.005517,0.147027,-0.084911,-0.021824,0.106693,-0.007045,-0.039450,-0.122330,-0.045534,0.131400,-0.143658,-0.147167,0.101208,-0.065646,-0.057563,0.096634,-0.075239,0.036382,-0.055130,-0.080128,-0.099584,-0.097849,-0.112248,-0.019489,0.076133,0.041272,-0.097099,0.119921,-0.117332,0.005747,-0.080230,-0.009030,0.006281,0.007421,0.117295,-0.052928,0.140427,-0.102311,-0.022566,-0.059112,-0.091982,-0.022325,-0.058499,0.135807,0.047382,0.065990,0.078417,0.132253,-0.056280,-0.150335,-0.096110,-0.002643,-0.070759,-0.055945,0.139902,0.151978,0.153380,-0.125531,0.108530,0.146291,0.049152,-0.136428,-0.009038,-0.115553,0.006275,-0.018084,-0.004175,-0.024497,0.044497,0.123725,0.088311,0.081041,-0.069236,-0.110460,0.072915,0.147939,0.077327,-0.035873,0.113960,-0.104045,-0.033204,-0.133544,0.058071,0.066106,-0.026288,0.018181,0.034576,-0.009654,0.023786,0.002205,-0.033233,-0.081865,0.035535,0.127955,-0.030020,-0.119984,-0.063014,0.099087,0.032845,0.124181,0.066023,-0.022979,0.086517,0.149870,0.029199,-0.028530,0.126011,-0.036366,0.134872,0.080932,-0.006560,-0.074982,0.115858,-0.143997,0.159309,-0.051219,0.025706,0.022840,0.073717,-0.095614,-0.124141,-0.116703,-0.005025,0.080176,0.182303,0.109008,0.095795,-0.081011,0.055185,0.016064,-0.100480,-0.037143,0.098541,0.084898,-0.035927,-0.032818,-0.093327,-0.091051,0.068074,-0.135112,-0.118483,-0.096520,-0.065336,0.147523,-0.078976,-0.079287,-0.056548,0.111840,0.112888,-0.125564,0.153094,0.146667,-0.111128,-0.019989,0.051601,-0.097732,-0.077911,-0.000683,-0.026151,0.143865,0.144108,0.019703,-0.059552,0.100852,-0.033970,0.056190,-0.111896,0.022792,0.156075,0.141394,0.029141,-0.136361,-0.119423,0.128970,-0.132042,-0.047735,-0.116466,-0.042285,-0.105301,0.136416,-0.009872,-0.119914,0.133163,0.031528,0.030027,-0.000846,0.085461,0.118721,0.155757,-0.068020,0.087526,0.158142,0.071947,-0.138046,0.091075,-0.130271,0.050391,-0.149920,0.050870,0.057980,0.144152,-0.072377,0.074471,-0.121156,-0.086227,0.088100,-0.020343,-0.061471,-0.100482,0.022665,-0.114055,0.013309,0.112145,-0.135007,-0.102301,-0.026306,0.013585,0.127952,-0.102036,0.010164,-0.106347,0.156622,0.005516,0.094277,-0.135313,-0.060454,0.128202,0.081048,-0.050244,0.026282,-0.022629,-0.085860,0.111385,-0.133297,-0.034660,-0.161229,0.109617,0.111492,
-0.067683,-0.139302,-0.002324,-0.006490,0.029264,-0.066889,0.012057,0.073159,0.048668,-0.121385,0.043946,0.115420,0.049790,0.066574,0.112064,-0.098312,0.010625,0.119155,-0.002764,-0.014729,0.036419,0.096642,-0.140849,-0.146512,-0.118126,0.122427,-0.104410,0.002301,0.127934,-0.132817,-0.037355,-0.092909,-0.117860,0.113861,0.054320,0.064879,-0.108237,-0.085881,-0.015027,0.097499,-0.054768,-0.124849,0.064000,0.146413,0.094882,0.023141,-0.103294,-0.044337,-0.010682,0.044983,0.091656,-0.125971,-0.007630,0.107200,-0.119184,0.027728,0.076965,-0.071421,-0.122807,0.049737,-0.048850,-0.006042,0.112636,-0.013808,-0.045785,0.014040,-0.104529,0.000918,0.081153,0.035232,-0.054204,-0.126993,0.065057,-0.144028,-0.132037,0.009022,0.032733,-0.080148,0.116947,-0.131217,0.121847,0.057995,-0.104245,-0.039546,0.010874,-0.070590,0.142233,-0.070257,0.012084,-0.132016,0.139987,0.115029,0.015803,0.100252,-0.052450,0.124090,-0.038865,0.000208,-0.027608,-0.111331,-0.118263,0.070397,-0.084453,0.100335,0.081259,-0.062369,-0.043417,-0.038814,0.010569,-0.078183,-0.016503,-0.020802,0.133103,0.032316,0.091115,-0.009441,0.114908,0.082344,0.080011,-0.026520,0.100068,0.067833,-0.063404,-0.034307,0.014610,0.038953,-0.063204,0.128748,-0.115249,0.063047,-0.134842,-0.077255,-0.020958,-0.065878,-0.128795,-0.090798,0.024129,-0.018461,0.023692,-0.117795,0.056593,-0.145756,0.014530,0.035927,0.038320,-0.044780,-0.128113,0.000621,-0.115256,0.108072,0.127806,0.142265,0.022446,-0.087936,-0.043294,-0.115964,0.104174,0.046611,-0.139270,0.143351,-0.043186,-0.120990,-0.087896,0.090797,-0.033761,-0.064132,-0.152233,0.142344,0.071721,0.024378,-0.126659,-0.024432,0.031536,0.040763,-0.141031,-0.081816,0.149139,-0.114002,0.071741,-0.118813,0.147470,0.048200,-0.131496,0.014214,0.112943,-0.020302,0.053086,0.062199,-0.126529,0.069497,0.052829,-0.017287,0.101664,0.120037,-0.079794,-0.086352,-0.095445,-0.077733,-0.094091,0.129764,0.099510,-0.067697,-0.048444,-0.022454,0.124709,-0.035986,0.048636,0.122328,0.001761,-0.030771,-0.149745,-0.001250,-0.135738,-0.126297,-0.135632,0.130615,0.006641,0.072844,0.042169,0.032377,-0.011128,-0.057019,-0.138205,-0.062390,-0.088624,-0.062267,0.004570,-0.030640,0.013320,0.064393,-0.053815,-0.040283,0.148216,0.051635,0.091186,0.121986,-0.137367,-0.014035,0.088970,0.020289,0.109813,0.095042,-0.133635,0.127085,0.122163,-0.117304,0.104082,-0.024486,0.109346,-0.006346,-0.144356,-0.054682,0.090752,-0.128026,0.036277,-0.150805,
-0.021201,-0.120795,-0.030362,0.136327,0.103841,0.135689,-0.042643,0.134016,-0.040765,-0.138615,0.075994,-0.020536,0.024360,0.024790,-0.143839,-0.026303,-0.032401,-0.123838,-0.013318,-0.074126,-0.106334,-0.106817,0.050867,-0.124215,0.035491,0.072392,-0.036784,-0.038355,0.084767,0.151987,-0.016959,-0.113989,-0.111445,0.125453,-0.123739,0.156100,0.039868,-0.043707,0.094105,0.150213,0.001320,0.065240,-0.021518,-0.151858,-0.104660,-0.012721,-0.018160,-0.009454,0.012058,0.092690,0.035310,0.064258,0.146650,-0.042447,0.077419,0.045687,-0.136639,-0.110166,-0.121339,0.096794,-0.087086,-0.005793,0.145925,-0.047116,0.008382,-0.138530,-0.074119,0.143371,-0.009781,-0.127005,0.127436,0.134570,0.058546,-0.049874,0.116119,0.068247,0.092161,-0.053164,-0.126815,-0.029396,-0.123881,0.099668,-0.142741,0.172218,-0.101381,0.127692,0.016271,-0.113642,-0.146893,0.017538,-0.150142,-0.094800,-0.148851,0.143824,0.001400,-0.041636,-0.144403,0.094269,-0.052586,-0.013680,0.092983,-0.096732,-0.045015,-0.018038,-0.011528,-0.092667,-0.064364,-0.075978,0.018935,-0.040671,0.026818,0.061894,-0.101517,0.059913,0.046999,-0.018247,0.006199,-0.099076,0.014191,0.007795,0.078121,0.024832,0.074706,0.073206,0.031168,-0.087553,-0.148406,0.034932,0.163756,-0.052858,-0.139795,0.095452,-0.031367,-0.036517,-0.058756,0.132979,0.038152,0.002860,-0.097025,-0.092735,0.115959,0.086174,0.109443,-0.149217,-0.012386,-0.010160,-0.029274,0.100687,0.066852,0.151056,0.006251,-0.017206,0.005268,-0.105335,-0.086131,-0.094186,-0.045591,-0.084802,0.073339,-0.051399,0.020803,0.088889,-0.104696,-0.146843,-0.109010,-0.055891,0.126550,0.077221,0.130593,-0.143604,0.145802,0.094270,0.116625,0.079064,0.112188,-0.064234,-0.072743,-0.056974,-0.093316,0.129029,-0.082441,0.046491,-0.054488,0.102006,0.118042,-0.008921,0.147548,-0.112078,0.065748,0.063534,-0.009572,-0.072642,0.009222,0.042585,-0.056061,0.042857,-0.145472,-0.085369,-0.037571,0.159878,-0.015041,-0.042146,0.081942,-0.064672,-0.115006,0.020313,0.014901,-0.041067,0.128188,0.080993,-0.057970,-0.099219,-0.021462,0.045321,-0.120744,-0.067658,-0.128943,-0.138496,-0.035143,0.099311,0.081641,0.111803,-0.139524,-0.089453,-0.005330,-0.042987,0.117099,0.018868,0.076710,-0.085870,-0.035675,-0.145101,-0.011761,-0.096548,-0.066687,0.050412,0.120492,0.118100,-0.131661,0.095362,0.026136,-0.032537,0.145523,-0.151261,-0.148530,0.152091,-0.071398,-0.117325,0.158570,0.045595,0.137936,0.096661,-0.007034,-0.138336,0.156247,0.134813,
-0.006088,0.072038,-0.012956,-0.135755,-0.149052,0.179639,-0.094561,0.043273,-0.173391,-0.063873,-0.088745,0.109587,-0.093972,-0.078556,0.021447,0.096680,0.082538,0.011673,0.115380,0.055107,-0.023566,-0.166040,0.104284,0.000441,0.026623,0.098814,-0.088733,-0.150924,0.079853,-0.104211,-0.139759,-0.124186,0.144419,-0.002335,-0.072249,0.151464,-0.043396,-0.052230,-0.000631,-0.034450,0.072042,0.142340,-0.089757,0.115132,-0.138212,0.105428,0.060202,0.078854,-0.043371,0.008653,-0.012573,0.082957,0.006274,-0.064024,-0.087750,-0.109712,-0.144068,-0.008030,-0.099108,0.076967,0.058641,-0.079799,0.142902,0.039155,0.059964,-0.089393,0.041766,0.186940,0.027636,-0.130553,-0.037307,-0.050615,0.099193,0.036390,-0.147859,0.110083,-0.001928,0.078645,0.023533,0.118845,-0.099303,-0.120950,0.032969,0.062453,-0.052355,0.144514,0.059203,-0.055842,-0.043813,0.109481,-0.106752,-0.155281,-0.137065,-0.130182,0.056977,0.077114,-0.053625,-0.098205,0.103643,0.136913,-0.084813,-0.102963,-0.107800,-0.157261,0.066114,-0.104413,0.129485,-0.096233,0.135616,0.001533,-0.146796,-0.088823,0.009902,0.054167,0.064198,0.136301,0.018118,-0.008995,-0.066242,0.138543,-0.011827,-0.020626,0.134479,-0.036847,0.026461,0.001026,-0.134774,0.134801,0.091867,0.096709,0.079335,0.124527,0.103307,0.102381,0.138887,0.025992,-0.148468,0.096969,0.099027,0.155302,-0.064792,0.105786,-0.129972,0.093967,0.001478,0.135256,0.066927,-0.182472,-0.013342,-0.144562,0.155423,0.110077,-0.026957,0.109485,-0.088123,-0.134024,-0.024492,-0.077091,0.134445,-0.134884,-0.143860,0.057644,0.146078,0.127981,0.002490,0.116419,-0.010687,0.004394,0.053024,-0.096408,0.005534,0.149232,-0.109397,0.063669,0.103610,0.037576,0.039622,0.029430,0.043717,-0.140378,0.026235,0.027169,0.088287,-0.118501,-0.000257,0.126300,-0.092307,0.090601,-0.109590,-0.124115,0.115082,-0.120235,0.119944,0.118563,-0.118217,-0.071185,0.062931,0.063984,0.095622,-0.006140,0.149060,-0.041703,-0.037343,-0.112966,-0.134655,-0.112916,0.063314,0.054252,0.117002,-0.055153,0.072589,-0.015403,0.146929,0.022585,0.040282,-0.013256,-0.014707,0.093626,-0.081487,0.027096,0.127694,-0.116904,0.067082,0.048288,0.154710,0.081105,0.172154,0.069198,-0.000063,0.088223,-0.156553,-0.036168,-0.148774,-0.022155,-0.002719,-0.089559,0.075190,-0.058795,0.114642,0.016081,0.017827,0.045732,0.140026,0.007007,-0.097056,0.039508,0.151358,0.037197,-0.040804,-0.067231,-0.090374,-0.040161,-0.063611,0.152858,0.175707,-0.078803,
0.084511,0.115561,0.101093,-0.101523,0.052431,0.145980,0.045023,0.110961,-0.020123,-0.129517,-0.144839,-0.116227,-0.078161,0.164288,0.021494,0.094119,0.048428,-0.002055,-0.050514,0.097092,-0.126507,-0.067158,-0.022086,-0.002506,-0.022759,0.024237,0.062574,0.066725,0.020946,0.051475,0.133660,-0.053575,0.017899,0.086772,0.020070,-0.079259,0.123721,-0.118329,-0.134119,-0.064096,-0.088828,-0.144019,-0.035819,-0.020834,-0.127330,0.128932,-0.078307,0.068362,-0.021937,0.031411,0.002369,-0.019801,0.121203,0.148212,0.134231,-0.044085,0.025652,0.035721,-0.160674,-0.102340,-0.082807,-0.155070,0.003617,0.088830,0.104389,-0.132857,-0.163331,0.041379,-0.089866,-0.120279,-0.143321,-0.017708,-0.090290,-0.030281,0.114319,-0.061934,-0.060565,-0.095482,-0.154300,0.075621,0.097137,0.016719,-0.078254,0.037296,0.014094,-0.101277,-0.144029,-0.103039,0.099054,-0.128892,-0.060247,-0.127514,-0.129597,0.094186,0.129777,0.142562,0.115822,0.137969,0.064417,-0.141476,-0.151977,0.056502,-0.000912,-0.066218,-0.110124,-0.029994,0.033098,-0.017459,0.033776,0.030078,-0.095587,-0.040478,-0.107803,-0.016453,-0.110039,0.061203,0.035010,-0.101758,0.095147,-0.022396,-0.119078,-0.119441,0.003950,-0.057150,0.136954,-0.020890,-0.109950,0.092167,-0.054126,0.142818,0.116573,-0.001842,0.045689,-0.022700,0.073301,0.092500,0.115747,-0.053507,-0.086451,-0.011803,0.126946,-0.033563,0.104877,-0.130217,0.104966,-0.152990,0.091754,-0.006373,-0.113046,0.030458,0.122675,-0.040175,0.067205,-0.024668,0.074848,0.060473,0.084960,0.135446,-0.026984,-0.071032,0.135958,-0.057608,0.060439,0.035063,0.072468,-0.027228,-0.036409,0.022345,0.100455,0.038602,-0.115888,0.076932,-0.145665,0.129698,0.105074,0.114540,0.139144,0.020015,-0.045413,-0.113095,-0.092217,-0.083741,0.016878,0.123446,0.073568,-0.070799,0.001969,-0.001326,-0.074495,0.135783,0.084226,-0.102065,-0.095934,-0.014361,0.088805,0.153712,0.154028,-0.089386,0.008184,0.090862,0.099450,0.034685,0.019493,0.113881,0.012951,-0.034107,0.071733,-0.018795,-0.160905,-0.147877,0.041512,-0.087746,-0.059337,-0.103932,-0.111678,0.135505,-0.017780,0.032899,-0.019905,0.064970,0.010302,-0.091795,0.106182,0.086852,0.062846,0.071984,0.074368,0.060513,0.146965,-0.049816,-0.023352,0.088431,0.149155,-0.159459,0.039861,0.002206,-0.022794,-0.051894,-0.171175,-0.022273,-0.017888,0.040295,0.046783,0.077781,0.097476,0.077873,0.045486,-0.067579,-0.049270,-0.123512,0.150030,0.131246,-0.054105,0.112883,0.050079,0.146542,
